<?xml version="1.0"?>
<!-- DTD for the XMLBIF 0.3 format -->
<!DOCTYPE BIF [
	<!ELEMENT BIF ( NETWORK )*>
	      <!ATTLIST BIF VERSION CDATA #REQUIRED>
	<!ELEMENT NETWORK ( NAME, ( PROPERTY | VARIABLE | DEFINITION )* )>
	<!ELEMENT NAME (#PCDATA)>
	<!ELEMENT VARIABLE ( NAME, ( OUTCOME |  PROPERTY )* ) >
	      <!ATTLIST VARIABLE TYPE (nature|decision|utility) "nature">
	<!ELEMENT OUTCOME (#PCDATA)>
	<!ELEMENT DEFINITION ( FOR | GIVEN | TABLE | PROPERTY )* >
	<!ELEMENT FOR (#PCDATA)>
	<!ELEMENT GIVEN (#PCDATA)>
	<!ELEMENT TABLE (#PCDATA)>
	<!ELEMENT PROPERTY (#PCDATA)>
]>


<BIF VERSION="0.3">
<NETWORK>
<NAME>&apos;x_train_smpl_bin-weka.filters.unsupervised.attribute.NumericToNominal-Rlast-weka.filters.unsupervised.instance.Randomize-S42-weka.filters.unsupervised.attribute.Remove-R1-744,747-792,797-841,844-935,937-982,985-1025,1028-1030,1033-1072,1076-1086,1088-1119,1123-1134,1136-1167,1170-1171,1173-1182,1184-1215,1221-1263,1265,1268,1271-1312,1319-1361,1363-1364,1367-1460,1463-1506,1510-1561,1564-1610,1612-1666,1669-1694,1697-1713,1717-1742,1746-1760,1764-2095,2098-2138,2142-2165,2167-2213,2217-2260,2266-2304-weka.filters.supervised.attribute.Discretize-Rfirst-last-precision6-weka.filters.unsupervised.attribute.ReplaceMissingValues&apos;</NAME>
<VARIABLE TYPE="nature">
	<NAME>X744</NAME>
	<OUTCOME>&apos;\&apos;(-inf-102.5]\&apos;&apos;</OUTCOME>
	<OUTCOME>&apos;\&apos;(102.5-226.5]\&apos;&apos;</OUTCOME>
	<OUTCOME>&apos;\&apos;(226.5-252.5]\&apos;&apos;</OUTCOME>
	<OUTCOME>&apos;\&apos;(252.5-inf)\&apos;&apos;</OUTCOME>
	<PROPERTY>position = (294,96)</PROPERTY>
</VARIABLE>
<VARIABLE TYPE="nature">
	<NAME>X745</NAME>
	<OUTCOME>&apos;\&apos;(-inf-102.5]\&apos;&apos;</OUTCOME>
	<OUTCOME>&apos;\&apos;(102.5-232.5]\&apos;&apos;</OUTCOME>
	<OUTCOME>&apos;\&apos;(232.5-251.5]\&apos;&apos;</OUTCOME>
	<OUTCOME>&apos;\&apos;(251.5-inf)\&apos;&apos;</OUTCOME>
	<PROPERTY>position = (441,192)</PROPERTY>
</VARIABLE>
<VARIABLE TYPE="nature">
	<NAME>X792</NAME>
	<OUTCOME>&apos;\&apos;(-inf-102.5]\&apos;&apos;</OUTCOME>
	<OUTCOME>&apos;\&apos;(102.5-230.5]\&apos;&apos;</OUTCOME>
	<OUTCOME>&apos;\&apos;(230.5-248.5]\&apos;&apos;</OUTCOME>
	<OUTCOME>&apos;\&apos;(248.5-253.5]\&apos;&apos;</OUTCOME>
	<OUTCOME>&apos;\&apos;(253.5-inf)\&apos;&apos;</OUTCOME>
	<PROPERTY>position = (392,288)</PROPERTY>
</VARIABLE>
<VARIABLE TYPE="nature">
	<NAME>X793</NAME>
	<OUTCOME>&apos;\&apos;(-inf-99.5]\&apos;&apos;</OUTCOME>
	<OUTCOME>&apos;\&apos;(99.5-230.5]\&apos;&apos;</OUTCOME>
	<OUTCOME>&apos;\&apos;(230.5-246.5]\&apos;&apos;</OUTCOME>
	<OUTCOME>&apos;\&apos;(246.5-252.5]\&apos;&apos;</OUTCOME>
	<OUTCOME>&apos;\&apos;(252.5-inf)\&apos;&apos;</OUTCOME>
	<PROPERTY>position = (343,384)</PROPERTY>
</VARIABLE>
<VARIABLE TYPE="nature">
	<NAME>X794</NAME>
	<OUTCOME>&apos;\&apos;(-inf-99.5]\&apos;&apos;</OUTCOME>
	<OUTCOME>&apos;\&apos;(99.5-225.5]\&apos;&apos;</OUTCOME>
	<OUTCOME>&apos;\&apos;(225.5-250.5]\&apos;&apos;</OUTCOME>
	<OUTCOME>&apos;\&apos;(250.5-inf)\&apos;&apos;</OUTCOME>
	<PROPERTY>position = (441,480)</PROPERTY>
</VARIABLE>
<VARIABLE TYPE="nature">
	<NAME>X795</NAME>
	<OUTCOME>&apos;\&apos;(-inf-113.5]\&apos;&apos;</OUTCOME>
	<OUTCOME>&apos;\&apos;(113.5-248.5]\&apos;&apos;</OUTCOME>
	<OUTCOME>&apos;\&apos;(248.5-inf)\&apos;&apos;</OUTCOME>
	<PROPERTY>position = (392,576)</PROPERTY>
</VARIABLE>
<VARIABLE TYPE="nature">
	<NAME>X841</NAME>
	<OUTCOME>&apos;\&apos;(-inf-97.5]\&apos;&apos;</OUTCOME>
	<OUTCOME>&apos;\&apos;(97.5-229.5]\&apos;&apos;</OUTCOME>
	<OUTCOME>&apos;\&apos;(229.5-251.5]\&apos;&apos;</OUTCOME>
	<OUTCOME>&apos;\&apos;(251.5-inf)\&apos;&apos;</OUTCOME>
	<PROPERTY>position = (441,576)</PROPERTY>
</VARIABLE>
<VARIABLE TYPE="nature">
	<NAME>X842</NAME>
	<OUTCOME>&apos;\&apos;(-inf-113.5]\&apos;&apos;</OUTCOME>
	<OUTCOME>&apos;\&apos;(113.5-248.5]\&apos;&apos;</OUTCOME>
	<OUTCOME>&apos;\&apos;(248.5-inf)\&apos;&apos;</OUTCOME>
	<PROPERTY>position = (392,672)</PROPERTY>
</VARIABLE>
<VARIABLE TYPE="nature">
	<NAME>X935</NAME>
	<OUTCOME>&apos;\&apos;(-inf-239.5]\&apos;&apos;</OUTCOME>
	<OUTCOME>&apos;\&apos;(239.5-inf)\&apos;&apos;</OUTCOME>
	<PROPERTY>position = (98,672)</PROPERTY>
</VARIABLE>
<VARIABLE TYPE="nature">
	<NAME>X982</NAME>
	<OUTCOME>&apos;\&apos;(-inf-163.5]\&apos;&apos;</OUTCOME>
	<OUTCOME>&apos;\&apos;(163.5-inf)\&apos;&apos;</OUTCOME>
	<PROPERTY>position = (147,768)</PROPERTY>
</VARIABLE>
<VARIABLE TYPE="nature">
	<NAME>X983</NAME>
	<OUTCOME>&apos;\&apos;(-inf-208.5]\&apos;&apos;</OUTCOME>
	<OUTCOME>&apos;\&apos;(208.5-inf)\&apos;&apos;</OUTCOME>
	<PROPERTY>position = (49,864)</PROPERTY>
</VARIABLE>
<VARIABLE TYPE="nature">
	<NAME>X1025</NAME>
	<OUTCOME>&apos;\&apos;(-inf-73.5]\&apos;&apos;</OUTCOME>
	<OUTCOME>&apos;\&apos;(73.5-246.5]\&apos;&apos;</OUTCOME>
	<OUTCOME>&apos;\&apos;(246.5-inf)\&apos;&apos;</OUTCOME>
	<PROPERTY>position = (294,768)</PROPERTY>
</VARIABLE>
<VARIABLE TYPE="nature">
	<NAME>X1026</NAME>
	<OUTCOME>&apos;\&apos;(-inf-99.5]\&apos;&apos;</OUTCOME>
	<OUTCOME>&apos;\&apos;(99.5-246.5]\&apos;&apos;</OUTCOME>
	<OUTCOME>&apos;\&apos;(246.5-inf)\&apos;&apos;</OUTCOME>
	<PROPERTY>position = (441,864)</PROPERTY>
</VARIABLE>
<VARIABLE TYPE="nature">
	<NAME>X1030</NAME>
	<OUTCOME>&apos;\&apos;(-inf-169.5]\&apos;&apos;</OUTCOME>
	<OUTCOME>&apos;\&apos;(169.5-inf)\&apos;&apos;</OUTCOME>
	<PROPERTY>position = (98,864)</PROPERTY>
</VARIABLE>
<VARIABLE TYPE="nature">
	<NAME>X1031</NAME>
	<OUTCOME>&apos;\&apos;(-inf-190.5]\&apos;&apos;</OUTCOME>
	<OUTCOME>&apos;\&apos;(190.5-inf)\&apos;&apos;</OUTCOME>
	<PROPERTY>position = (0,960)</PROPERTY>
</VARIABLE>
<VARIABLE TYPE="nature">
	<NAME>X1072</NAME>
	<OUTCOME>&apos;\&apos;(-inf-91.5]\&apos;&apos;</OUTCOME>
	<OUTCOME>&apos;\&apos;(91.5-247.5]\&apos;&apos;</OUTCOME>
	<OUTCOME>&apos;\&apos;(247.5-inf)\&apos;&apos;</OUTCOME>
	<PROPERTY>position = (343,864)</PROPERTY>
</VARIABLE>
<VARIABLE TYPE="nature">
	<NAME>X1073</NAME>
	<OUTCOME>&apos;\&apos;(-inf-86.5]\&apos;&apos;</OUTCOME>
	<OUTCOME>&apos;\&apos;(86.5-246.5]\&apos;&apos;</OUTCOME>
	<OUTCOME>&apos;\&apos;(246.5-inf)\&apos;&apos;</OUTCOME>
	<PROPERTY>position = (196,960)</PROPERTY>
</VARIABLE>
<VARIABLE TYPE="nature">
	<NAME>X1074</NAME>
	<OUTCOME>&apos;\&apos;(-inf-91.5]\&apos;&apos;</OUTCOME>
	<OUTCOME>&apos;\&apos;(91.5-246.5]\&apos;&apos;</OUTCOME>
	<OUTCOME>&apos;\&apos;(246.5-inf)\&apos;&apos;</OUTCOME>
	<PROPERTY>position = (147,1056)</PROPERTY>
</VARIABLE>
<VARIABLE TYPE="nature">
	<NAME>X1086</NAME>
	<OUTCOME>&apos;\&apos;(-inf-102.5]\&apos;&apos;</OUTCOME>
	<OUTCOME>&apos;\&apos;(102.5-226.5]\&apos;&apos;</OUTCOME>
	<OUTCOME>&apos;\&apos;(226.5-244.5]\&apos;&apos;</OUTCOME>
	<OUTCOME>&apos;\&apos;(244.5-inf)\&apos;&apos;</OUTCOME>
	<PROPERTY>position = (784,960)</PROPERTY>
</VARIABLE>
<VARIABLE TYPE="nature">
	<NAME>X1119</NAME>
	<OUTCOME>&apos;\&apos;(-inf-92.5]\&apos;&apos;</OUTCOME>
	<OUTCOME>&apos;\&apos;(92.5-200.5]\&apos;&apos;</OUTCOME>
	<OUTCOME>&apos;\&apos;(200.5-248.5]\&apos;&apos;</OUTCOME>
	<OUTCOME>&apos;\&apos;(248.5-inf)\&apos;&apos;</OUTCOME>
	<PROPERTY>position = (539,960)</PROPERTY>
</VARIABLE>
<VARIABLE TYPE="nature">
	<NAME>X1120</NAME>
	<OUTCOME>&apos;\&apos;(-inf-102.5]\&apos;&apos;</OUTCOME>
	<OUTCOME>&apos;\&apos;(102.5-199.5]\&apos;&apos;</OUTCOME>
	<OUTCOME>&apos;\&apos;(199.5-247.5]\&apos;&apos;</OUTCOME>
	<OUTCOME>&apos;\&apos;(247.5-inf)\&apos;&apos;</OUTCOME>
	<PROPERTY>position = (441,1056)</PROPERTY>
</VARIABLE>
<VARIABLE TYPE="nature">
	<NAME>X1121</NAME>
	<OUTCOME>&apos;\&apos;(-inf-96.5]\&apos;&apos;</OUTCOME>
	<OUTCOME>&apos;\&apos;(96.5-189.5]\&apos;&apos;</OUTCOME>
	<OUTCOME>&apos;\&apos;(189.5-246.5]\&apos;&apos;</OUTCOME>
	<OUTCOME>&apos;\&apos;(246.5-inf)\&apos;&apos;</OUTCOME>
	<PROPERTY>position = (490,1152)</PROPERTY>
</VARIABLE>
<VARIABLE TYPE="nature">
	<NAME>X1134</NAME>
	<OUTCOME>&apos;\&apos;(-inf-90.5]\&apos;&apos;</OUTCOME>
	<OUTCOME>&apos;\&apos;(90.5-222.5]\&apos;&apos;</OUTCOME>
	<OUTCOME>&apos;\&apos;(222.5-244.5]\&apos;&apos;</OUTCOME>
	<OUTCOME>&apos;\&apos;(244.5-inf)\&apos;&apos;</OUTCOME>
	<PROPERTY>position = (833,1056)</PROPERTY>
</VARIABLE>
<VARIABLE TYPE="nature">
	<NAME>X1167</NAME>
	<OUTCOME>&apos;\&apos;(-inf-92.5]\&apos;&apos;</OUTCOME>
	<OUTCOME>&apos;\&apos;(92.5-193.5]\&apos;&apos;</OUTCOME>
	<OUTCOME>&apos;\&apos;(193.5-248.5]\&apos;&apos;</OUTCOME>
	<OUTCOME>&apos;\&apos;(248.5-inf)\&apos;&apos;</OUTCOME>
	<PROPERTY>position = (490,1248)</PROPERTY>
</VARIABLE>
<VARIABLE TYPE="nature">
	<NAME>X1168</NAME>
	<OUTCOME>&apos;\&apos;(-inf-99.5]\&apos;&apos;</OUTCOME>
	<OUTCOME>&apos;\&apos;(99.5-196.5]\&apos;&apos;</OUTCOME>
	<OUTCOME>&apos;\&apos;(196.5-248.5]\&apos;&apos;</OUTCOME>
	<OUTCOME>&apos;\&apos;(248.5-inf)\&apos;&apos;</OUTCOME>
	<PROPERTY>position = (441,1344)</PROPERTY>
</VARIABLE>
<VARIABLE TYPE="nature">
	<NAME>X1171</NAME>
	<OUTCOME>&apos;\&apos;(-inf-102.5]\&apos;&apos;</OUTCOME>
	<OUTCOME>&apos;\&apos;(102.5-236.5]\&apos;&apos;</OUTCOME>
	<OUTCOME>&apos;\&apos;(236.5-inf)\&apos;&apos;</OUTCOME>
	<PROPERTY>position = (441,768)</PROPERTY>
</VARIABLE>
<VARIABLE TYPE="nature">
	<NAME>X1182</NAME>
	<OUTCOME>&apos;\&apos;(-inf-87.5]\&apos;&apos;</OUTCOME>
	<OUTCOME>&apos;\&apos;(87.5-226.5]\&apos;&apos;</OUTCOME>
	<OUTCOME>&apos;\&apos;(226.5-245.5]\&apos;&apos;</OUTCOME>
	<OUTCOME>&apos;\&apos;(245.5-inf)\&apos;&apos;</OUTCOME>
	<PROPERTY>position = (784,1152)</PROPERTY>
</VARIABLE>
<VARIABLE TYPE="nature">
	<NAME>X1215</NAME>
	<OUTCOME>&apos;\&apos;(-inf-91.5]\&apos;&apos;</OUTCOME>
	<OUTCOME>&apos;\&apos;(91.5-194.5]\&apos;&apos;</OUTCOME>
	<OUTCOME>&apos;\&apos;(194.5-246.5]\&apos;&apos;</OUTCOME>
	<OUTCOME>&apos;\&apos;(246.5-inf)\&apos;&apos;</OUTCOME>
	<PROPERTY>position = (441,1440)</PROPERTY>
</VARIABLE>
<VARIABLE TYPE="nature">
	<NAME>X1216</NAME>
	<OUTCOME>&apos;\&apos;(-inf-86.5]\&apos;&apos;</OUTCOME>
	<OUTCOME>&apos;\&apos;(86.5-193.5]\&apos;&apos;</OUTCOME>
	<OUTCOME>&apos;\&apos;(193.5-246.5]\&apos;&apos;</OUTCOME>
	<OUTCOME>&apos;\&apos;(246.5-inf)\&apos;&apos;</OUTCOME>
	<PROPERTY>position = (392,1536)</PROPERTY>
</VARIABLE>
<VARIABLE TYPE="nature">
	<NAME>X1217</NAME>
	<OUTCOME>&apos;\&apos;(-inf-104.5]\&apos;&apos;</OUTCOME>
	<OUTCOME>&apos;\&apos;(104.5-223.5]\&apos;&apos;</OUTCOME>
	<OUTCOME>&apos;\&apos;(223.5-244.5]\&apos;&apos;</OUTCOME>
	<OUTCOME>&apos;\&apos;(244.5-inf)\&apos;&apos;</OUTCOME>
	<PROPERTY>position = (343,1440)</PROPERTY>
</VARIABLE>
<VARIABLE TYPE="nature">
	<NAME>X1218</NAME>
	<OUTCOME>&apos;\&apos;(-inf-211.5]\&apos;&apos;</OUTCOME>
	<OUTCOME>&apos;\&apos;(211.5-238.5]\&apos;&apos;</OUTCOME>
	<OUTCOME>&apos;\&apos;(238.5-inf)\&apos;&apos;</OUTCOME>
	<PROPERTY>position = (196,1536)</PROPERTY>
</VARIABLE>
<VARIABLE TYPE="nature">
	<NAME>X1219</NAME>
	<OUTCOME>&apos;\&apos;(-inf-235.5]\&apos;&apos;</OUTCOME>
	<OUTCOME>&apos;\&apos;(235.5-inf)\&apos;&apos;</OUTCOME>
	<PROPERTY>position = (245,1632)</PROPERTY>
</VARIABLE>
<VARIABLE TYPE="nature">
	<NAME>X1263</NAME>
	<OUTCOME>&apos;\&apos;(-inf-85.5]\&apos;&apos;</OUTCOME>
	<OUTCOME>&apos;\&apos;(85.5-194.5]\&apos;&apos;</OUTCOME>
	<OUTCOME>&apos;\&apos;(194.5-246.5]\&apos;&apos;</OUTCOME>
	<OUTCOME>&apos;\&apos;(246.5-inf)\&apos;&apos;</OUTCOME>
	<PROPERTY>position = (392,1632)</PROPERTY>
</VARIABLE>
<VARIABLE TYPE="nature">
	<NAME>X1265</NAME>
	<OUTCOME>&apos;\&apos;(-inf-25.5]\&apos;&apos;</OUTCOME>
	<OUTCOME>&apos;\&apos;(25.5-220.5]\&apos;&apos;</OUTCOME>
	<OUTCOME>&apos;\&apos;(220.5-235.5]\&apos;&apos;</OUTCOME>
	<OUTCOME>&apos;\&apos;(235.5-245.5]\&apos;&apos;</OUTCOME>
	<OUTCOME>&apos;\&apos;(245.5-inf)\&apos;&apos;</OUTCOME>
	<PROPERTY>position = (343,1632)</PROPERTY>
</VARIABLE>
<VARIABLE TYPE="nature">
	<NAME>X1266</NAME>
	<OUTCOME>&apos;\&apos;(-inf-27.5]\&apos;&apos;</OUTCOME>
	<OUTCOME>&apos;\&apos;(27.5-236.5]\&apos;&apos;</OUTCOME>
	<OUTCOME>&apos;\&apos;(236.5-inf)\&apos;&apos;</OUTCOME>
	<PROPERTY>position = (294,1728)</PROPERTY>
</VARIABLE>
<VARIABLE TYPE="nature">
	<NAME>X1268</NAME>
	<OUTCOME>&apos;\&apos;(-inf-209.5]\&apos;&apos;</OUTCOME>
	<OUTCOME>&apos;\&apos;(209.5-inf)\&apos;&apos;</OUTCOME>
	<PROPERTY>position = (196,1632)</PROPERTY>
</VARIABLE>
<VARIABLE TYPE="nature">
	<NAME>X1269</NAME>
	<OUTCOME>&apos;\&apos;(-inf-66.5]\&apos;&apos;</OUTCOME>
	<OUTCOME>&apos;\&apos;(66.5-inf)\&apos;&apos;</OUTCOME>
	<PROPERTY>position = (539,1248)</PROPERTY>
</VARIABLE>
<VARIABLE TYPE="nature">
	<NAME>X1312</NAME>
	<OUTCOME>&apos;\&apos;(-inf-30]\&apos;&apos;</OUTCOME>
	<OUTCOME>&apos;\&apos;(30-205.5]\&apos;&apos;</OUTCOME>
	<OUTCOME>&apos;\&apos;(205.5-246.5]\&apos;&apos;</OUTCOME>
	<OUTCOME>&apos;\&apos;(246.5-inf)\&apos;&apos;</OUTCOME>
	<PROPERTY>position = (343,1728)</PROPERTY>
</VARIABLE>
<VARIABLE TYPE="nature">
	<NAME>X1313</NAME>
	<OUTCOME>&apos;\&apos;(-inf-23.5]\&apos;&apos;</OUTCOME>
	<OUTCOME>&apos;\&apos;(23.5-47.5]\&apos;&apos;</OUTCOME>
	<OUTCOME>&apos;\&apos;(47.5-233.5]\&apos;&apos;</OUTCOME>
	<OUTCOME>&apos;\&apos;(233.5-inf)\&apos;&apos;</OUTCOME>
	<PROPERTY>position = (294,1824)</PROPERTY>
</VARIABLE>
<VARIABLE TYPE="nature">
	<NAME>X1314</NAME>
	<OUTCOME>&apos;\&apos;(-inf-28.5]\&apos;&apos;</OUTCOME>
	<OUTCOME>&apos;\&apos;(28.5-106.5]\&apos;&apos;</OUTCOME>
	<OUTCOME>&apos;\&apos;(106.5-231.5]\&apos;&apos;</OUTCOME>
	<OUTCOME>&apos;\&apos;(231.5-inf)\&apos;&apos;</OUTCOME>
	<PROPERTY>position = (539,1920)</PROPERTY>
</VARIABLE>
<VARIABLE TYPE="nature">
	<NAME>X1315</NAME>
	<OUTCOME>&apos;\&apos;(-inf-104.5]\&apos;&apos;</OUTCOME>
	<OUTCOME>&apos;\&apos;(104.5-134.5]\&apos;&apos;</OUTCOME>
	<OUTCOME>&apos;\&apos;(134.5-234.5]\&apos;&apos;</OUTCOME>
	<OUTCOME>&apos;\&apos;(234.5-inf)\&apos;&apos;</OUTCOME>
	<PROPERTY>position = (539,2016)</PROPERTY>
</VARIABLE>
<VARIABLE TYPE="nature">
	<NAME>X1316</NAME>
	<OUTCOME>&apos;\&apos;(-inf-233.5]\&apos;&apos;</OUTCOME>
	<OUTCOME>&apos;\&apos;(233.5-inf)\&apos;&apos;</OUTCOME>
	<PROPERTY>position = (343,2112)</PROPERTY>
</VARIABLE>
<VARIABLE TYPE="nature">
	<NAME>X1317</NAME>
	<OUTCOME>&apos;\&apos;(-inf-88.5]\&apos;&apos;</OUTCOME>
	<OUTCOME>&apos;\&apos;(88.5-inf)\&apos;&apos;</OUTCOME>
	<PROPERTY>position = (490,1536)</PROPERTY>
</VARIABLE>
<VARIABLE TYPE="nature">
	<NAME>X1361</NAME>
	<OUTCOME>&apos;\&apos;(-inf-43.5]\&apos;&apos;</OUTCOME>
	<OUTCOME>&apos;\&apos;(43.5-232.5]\&apos;&apos;</OUTCOME>
	<OUTCOME>&apos;\&apos;(232.5-inf)\&apos;&apos;</OUTCOME>
	<PROPERTY>position = (392,2016)</PROPERTY>
</VARIABLE>
<VARIABLE TYPE="nature">
	<NAME>X1364</NAME>
	<OUTCOME>&apos;\&apos;(-inf-74.5]\&apos;&apos;</OUTCOME>
	<OUTCOME>&apos;\&apos;(74.5-114.5]\&apos;&apos;</OUTCOME>
	<OUTCOME>&apos;\&apos;(114.5-240.5]\&apos;&apos;</OUTCOME>
	<OUTCOME>&apos;\&apos;(240.5-inf)\&apos;&apos;</OUTCOME>
	<PROPERTY>position = (588,2112)</PROPERTY>
</VARIABLE>
<VARIABLE TYPE="nature">
	<NAME>X1365</NAME>
	<OUTCOME>&apos;\&apos;(-inf-64.5]\&apos;&apos;</OUTCOME>
	<OUTCOME>&apos;\&apos;(64.5-95.5]\&apos;&apos;</OUTCOME>
	<OUTCOME>&apos;\&apos;(95.5-241.5]\&apos;&apos;</OUTCOME>
	<OUTCOME>&apos;\&apos;(241.5-inf)\&apos;&apos;</OUTCOME>
	<PROPERTY>position = (490,2208)</PROPERTY>
</VARIABLE>
<VARIABLE TYPE="nature">
	<NAME>X1460</NAME>
	<OUTCOME>&apos;\&apos;All\&apos;&apos;</OUTCOME>
	<PROPERTY>position = (0,0)</PROPERTY>
</VARIABLE>
<VARIABLE TYPE="nature">
	<NAME>X1461</NAME>
	<OUTCOME>&apos;\&apos;(-inf-67.5]\&apos;&apos;</OUTCOME>
	<OUTCOME>&apos;\&apos;(67.5-inf)\&apos;&apos;</OUTCOME>
	<PROPERTY>position = (490,2304)</PROPERTY>
</VARIABLE>
<VARIABLE TYPE="nature">
	<NAME>X1506</NAME>
	<OUTCOME>&apos;\&apos;(-inf-198.5]\&apos;&apos;</OUTCOME>
	<OUTCOME>&apos;\&apos;(198.5-inf)\&apos;&apos;</OUTCOME>
	<PROPERTY>position = (98,1632)</PROPERTY>
</VARIABLE>
<VARIABLE TYPE="nature">
	<NAME>X1507</NAME>
	<OUTCOME>&apos;\&apos;(-inf-197.5]\&apos;&apos;</OUTCOME>
	<OUTCOME>&apos;\&apos;(197.5-inf)\&apos;&apos;</OUTCOME>
	<PROPERTY>position = (49,1728)</PROPERTY>
</VARIABLE>
<VARIABLE TYPE="nature">
	<NAME>X1508</NAME>
	<OUTCOME>&apos;\&apos;(-inf-200.5]\&apos;&apos;</OUTCOME>
	<OUTCOME>&apos;\&apos;(200.5-inf)\&apos;&apos;</OUTCOME>
	<PROPERTY>position = (98,1824)</PROPERTY>
</VARIABLE>
<VARIABLE TYPE="nature">
	<NAME>X1561</NAME>
	<OUTCOME>&apos;\&apos;(-inf-96.5]\&apos;&apos;</OUTCOME>
	<OUTCOME>&apos;\&apos;(96.5-248.5]\&apos;&apos;</OUTCOME>
	<OUTCOME>&apos;\&apos;(248.5-inf)\&apos;&apos;</OUTCOME>
	<PROPERTY>position = (833,1248)</PROPERTY>
</VARIABLE>
<VARIABLE TYPE="nature">
	<NAME>X1562</NAME>
	<OUTCOME>&apos;\&apos;(-inf-100.5]\&apos;&apos;</OUTCOME>
	<OUTCOME>&apos;\&apos;(100.5-249.5]\&apos;&apos;</OUTCOME>
	<OUTCOME>&apos;\&apos;(249.5-inf)\&apos;&apos;</OUTCOME>
	<PROPERTY>position = (539,2112)</PROPERTY>
</VARIABLE>
<VARIABLE TYPE="nature">
	<NAME>X1610</NAME>
	<OUTCOME>&apos;\&apos;(-inf-97.5]\&apos;&apos;</OUTCOME>
	<OUTCOME>&apos;\&apos;(97.5-223.5]\&apos;&apos;</OUTCOME>
	<OUTCOME>&apos;\&apos;(223.5-247.5]\&apos;&apos;</OUTCOME>
	<OUTCOME>&apos;\&apos;(247.5-inf)\&apos;&apos;</OUTCOME>
	<PROPERTY>position = (1029,1344)</PROPERTY>
</VARIABLE>
<VARIABLE TYPE="nature">
	<NAME>X1666</NAME>
	<OUTCOME>&apos;\&apos;(-inf-36.5]\&apos;&apos;</OUTCOME>
	<OUTCOME>&apos;\&apos;(36.5-inf)\&apos;&apos;</OUTCOME>
	<PROPERTY>position = (539,2400)</PROPERTY>
</VARIABLE>
<VARIABLE TYPE="nature">
	<NAME>X1667</NAME>
	<OUTCOME>&apos;\&apos;(-inf-33.5]\&apos;&apos;</OUTCOME>
	<OUTCOME>&apos;\&apos;(33.5-inf)\&apos;&apos;</OUTCOME>
	<PROPERTY>position = (490,2496)</PROPERTY>
</VARIABLE>
<VARIABLE TYPE="nature">
	<NAME>X1694</NAME>
	<OUTCOME>&apos;\&apos;(-inf-35.5]\&apos;&apos;</OUTCOME>
	<OUTCOME>&apos;\&apos;(35.5-144.5]\&apos;&apos;</OUTCOME>
	<OUTCOME>&apos;\&apos;(144.5-inf)\&apos;&apos;</OUTCOME>
	<PROPERTY>position = (490,2592)</PROPERTY>
</VARIABLE>
<VARIABLE TYPE="nature">
	<NAME>X1695</NAME>
	<OUTCOME>&apos;\&apos;(-inf-36.5]\&apos;&apos;</OUTCOME>
	<OUTCOME>&apos;\&apos;(36.5-inf)\&apos;&apos;</OUTCOME>
	<PROPERTY>position = (539,2688)</PROPERTY>
</VARIABLE>
<VARIABLE TYPE="nature">
	<NAME>X1713</NAME>
	<OUTCOME>&apos;\&apos;(-inf-35.5]\&apos;&apos;</OUTCOME>
	<OUTCOME>&apos;\&apos;(35.5-99.5]\&apos;&apos;</OUTCOME>
	<OUTCOME>&apos;\&apos;(99.5-inf)\&apos;&apos;</OUTCOME>
	<PROPERTY>position = (637,2496)</PROPERTY>
</VARIABLE>
<VARIABLE TYPE="nature">
	<NAME>X1714</NAME>
	<OUTCOME>&apos;\&apos;(-inf-32.5]\&apos;&apos;</OUTCOME>
	<OUTCOME>&apos;\&apos;(32.5-inf)\&apos;&apos;</OUTCOME>
	<PROPERTY>position = (686,2592)</PROPERTY>
</VARIABLE>
<VARIABLE TYPE="nature">
	<NAME>X1715</NAME>
	<OUTCOME>&apos;\&apos;(-inf-34.5]\&apos;&apos;</OUTCOME>
	<OUTCOME>&apos;\&apos;(34.5-inf)\&apos;&apos;</OUTCOME>
	<PROPERTY>position = (392,2688)</PROPERTY>
</VARIABLE>
<VARIABLE TYPE="nature">
	<NAME>X1742</NAME>
	<OUTCOME>&apos;\&apos;(-inf-34.5]\&apos;&apos;</OUTCOME>
	<OUTCOME>&apos;\&apos;(34.5-inf)\&apos;&apos;</OUTCOME>
	<PROPERTY>position = (343,2784)</PROPERTY>
</VARIABLE>
<VARIABLE TYPE="nature">
	<NAME>X1743</NAME>
	<OUTCOME>&apos;\&apos;(-inf-33.5]\&apos;&apos;</OUTCOME>
	<OUTCOME>&apos;\&apos;(33.5-inf)\&apos;&apos;</OUTCOME>
	<PROPERTY>position = (392,2880)</PROPERTY>
</VARIABLE>
<VARIABLE TYPE="nature">
	<NAME>X1744</NAME>
	<OUTCOME>&apos;\&apos;(-inf-36.5]\&apos;&apos;</OUTCOME>
	<OUTCOME>&apos;\&apos;(36.5-inf)\&apos;&apos;</OUTCOME>
	<PROPERTY>position = (441,2976)</PROPERTY>
</VARIABLE>
<VARIABLE TYPE="nature">
	<NAME>X1760</NAME>
	<OUTCOME>&apos;\&apos;(-inf-28.5]\&apos;&apos;</OUTCOME>
	<OUTCOME>&apos;\&apos;(28.5-106.5]\&apos;&apos;</OUTCOME>
	<OUTCOME>&apos;\&apos;(106.5-142.5]\&apos;&apos;</OUTCOME>
	<OUTCOME>&apos;\&apos;(142.5-inf)\&apos;&apos;</OUTCOME>
	<PROPERTY>position = (588,2688)</PROPERTY>
</VARIABLE>
<VARIABLE TYPE="nature">
	<NAME>X1761</NAME>
	<OUTCOME>&apos;\&apos;(-inf-30.5]\&apos;&apos;</OUTCOME>
	<OUTCOME>&apos;\&apos;(30.5-inf)\&apos;&apos;</OUTCOME>
	<PROPERTY>position = (637,2784)</PROPERTY>
</VARIABLE>
<VARIABLE TYPE="nature">
	<NAME>X1762</NAME>
	<OUTCOME>&apos;\&apos;(-inf-34.5]\&apos;&apos;</OUTCOME>
	<OUTCOME>&apos;\&apos;(34.5-168.5]\&apos;&apos;</OUTCOME>
	<OUTCOME>&apos;\&apos;(168.5-inf)\&apos;&apos;</OUTCOME>
	<PROPERTY>position = (392,2784)</PROPERTY>
</VARIABLE>
<VARIABLE TYPE="nature">
	<NAME>X2095</NAME>
	<OUTCOME>&apos;\&apos;(-inf-74.5]\&apos;&apos;</OUTCOME>
	<OUTCOME>&apos;\&apos;(74.5-inf)\&apos;&apos;</OUTCOME>
	<PROPERTY>position = (980,2592)</PROPERTY>
</VARIABLE>
<VARIABLE TYPE="nature">
	<NAME>X2096</NAME>
	<OUTCOME>&apos;\&apos;(-inf-103.5]\&apos;&apos;</OUTCOME>
	<OUTCOME>&apos;\&apos;(103.5-inf)\&apos;&apos;</OUTCOME>
	<PROPERTY>position = (882,2688)</PROPERTY>
</VARIABLE>
<VARIABLE TYPE="nature">
	<NAME>X2138</NAME>
	<OUTCOME>&apos;\&apos;(-inf-27.5]\&apos;&apos;</OUTCOME>
	<OUTCOME>&apos;\&apos;(27.5-63.5]\&apos;&apos;</OUTCOME>
	<OUTCOME>&apos;\&apos;(63.5-88.5]\&apos;&apos;</OUTCOME>
	<OUTCOME>&apos;\&apos;(88.5-164]\&apos;&apos;</OUTCOME>
	<OUTCOME>&apos;\&apos;(164-inf)\&apos;&apos;</OUTCOME>
	<PROPERTY>position = (1029,2688)</PROPERTY>
</VARIABLE>
<VARIABLE TYPE="nature">
	<NAME>X2139</NAME>
	<OUTCOME>&apos;\&apos;(-inf-22.5]\&apos;&apos;</OUTCOME>
	<OUTCOME>&apos;\&apos;(22.5-27.5]\&apos;&apos;</OUTCOME>
	<OUTCOME>&apos;\&apos;(27.5-81.5]\&apos;&apos;</OUTCOME>
	<OUTCOME>&apos;\&apos;(81.5-164.5]\&apos;&apos;</OUTCOME>
	<OUTCOME>&apos;\&apos;(164.5-inf)\&apos;&apos;</OUTCOME>
	<PROPERTY>position = (980,2784)</PROPERTY>
</VARIABLE>
<VARIABLE TYPE="nature">
	<NAME>X2140</NAME>
	<OUTCOME>&apos;\&apos;(-inf-20.5]\&apos;&apos;</OUTCOME>
	<OUTCOME>&apos;\&apos;(20.5-32.5]\&apos;&apos;</OUTCOME>
	<OUTCOME>&apos;\&apos;(32.5-68.5]\&apos;&apos;</OUTCOME>
	<OUTCOME>&apos;\&apos;(68.5-172.5]\&apos;&apos;</OUTCOME>
	<OUTCOME>&apos;\&apos;(172.5-inf)\&apos;&apos;</OUTCOME>
	<PROPERTY>position = (931,2880)</PROPERTY>
</VARIABLE>
<VARIABLE TYPE="nature">
	<NAME>X2165</NAME>
	<OUTCOME>&apos;\&apos;(-inf-66.5]\&apos;&apos;</OUTCOME>
	<OUTCOME>&apos;\&apos;(66.5-159]\&apos;&apos;</OUTCOME>
	<OUTCOME>&apos;\&apos;(159-254.5]\&apos;&apos;</OUTCOME>
	<OUTCOME>&apos;\&apos;(254.5-inf)\&apos;&apos;</OUTCOME>
	<PROPERTY>position = (882,2976)</PROPERTY>
</VARIABLE>
<VARIABLE TYPE="nature">
	<NAME>X2213</NAME>
	<OUTCOME>&apos;\&apos;(-inf-46.5]\&apos;&apos;</OUTCOME>
	<OUTCOME>&apos;\&apos;(46.5-81.5]\&apos;&apos;</OUTCOME>
	<OUTCOME>&apos;\&apos;(81.5-164.5]\&apos;&apos;</OUTCOME>
	<OUTCOME>&apos;\&apos;(164.5-254.5]\&apos;&apos;</OUTCOME>
	<OUTCOME>&apos;\&apos;(254.5-inf)\&apos;&apos;</OUTCOME>
	<PROPERTY>position = (931,3072)</PROPERTY>
</VARIABLE>
<VARIABLE TYPE="nature">
	<NAME>X2214</NAME>
	<OUTCOME>&apos;\&apos;(-inf-70.5]\&apos;&apos;</OUTCOME>
	<OUTCOME>&apos;\&apos;(70.5-157.5]\&apos;&apos;</OUTCOME>
	<OUTCOME>&apos;\&apos;(157.5-254.5]\&apos;&apos;</OUTCOME>
	<OUTCOME>&apos;\&apos;(254.5-inf)\&apos;&apos;</OUTCOME>
	<PROPERTY>position = (735,3168)</PROPERTY>
</VARIABLE>
<VARIABLE TYPE="nature">
	<NAME>X2215</NAME>
	<OUTCOME>&apos;\&apos;(-inf-79.5]\&apos;&apos;</OUTCOME>
	<OUTCOME>&apos;\&apos;(79.5-inf)\&apos;&apos;</OUTCOME>
	<PROPERTY>position = (833,3264)</PROPERTY>
</VARIABLE>
<VARIABLE TYPE="nature">
	<NAME>X2260</NAME>
	<OUTCOME>&apos;\&apos;(-inf-74.5]\&apos;&apos;</OUTCOME>
	<OUTCOME>&apos;\&apos;(74.5-inf)\&apos;&apos;</OUTCOME>
	<PROPERTY>position = (784,3168)</PROPERTY>
</VARIABLE>
<VARIABLE TYPE="nature">
	<NAME>X2261</NAME>
	<OUTCOME>&apos;\&apos;(-inf-68.5]\&apos;&apos;</OUTCOME>
	<OUTCOME>&apos;\&apos;(68.5-239.5]\&apos;&apos;</OUTCOME>
	<OUTCOME>&apos;\&apos;(239.5-254.5]\&apos;&apos;</OUTCOME>
	<OUTCOME>&apos;\&apos;(254.5-inf)\&apos;&apos;</OUTCOME>
	<PROPERTY>position = (784,3264)</PROPERTY>
</VARIABLE>
<VARIABLE TYPE="nature">
	<NAME>X2262</NAME>
	<OUTCOME>&apos;\&apos;(-inf-72.5]\&apos;&apos;</OUTCOME>
	<OUTCOME>&apos;\&apos;(72.5-158.5]\&apos;&apos;</OUTCOME>
	<OUTCOME>&apos;\&apos;(158.5-254.5]\&apos;&apos;</OUTCOME>
	<OUTCOME>&apos;\&apos;(254.5-inf)\&apos;&apos;</OUTCOME>
	<PROPERTY>position = (735,3360)</PROPERTY>
</VARIABLE>
<VARIABLE TYPE="nature">
	<NAME>X2263</NAME>
	<OUTCOME>&apos;\&apos;(-inf-55.5]\&apos;&apos;</OUTCOME>
	<OUTCOME>&apos;\&apos;(55.5-81.5]\&apos;&apos;</OUTCOME>
	<OUTCOME>&apos;\&apos;(81.5-inf)\&apos;&apos;</OUTCOME>
	<PROPERTY>position = (882,3360)</PROPERTY>
</VARIABLE>
<VARIABLE TYPE="nature">
	<NAME>X2264</NAME>
	<OUTCOME>&apos;\&apos;(-inf-54.5]\&apos;&apos;</OUTCOME>
	<OUTCOME>&apos;\&apos;(54.5-81.5]\&apos;&apos;</OUTCOME>
	<OUTCOME>&apos;\&apos;(81.5-161.5]\&apos;&apos;</OUTCOME>
	<OUTCOME>&apos;\&apos;(161.5-254.5]\&apos;&apos;</OUTCOME>
	<OUTCOME>&apos;\&apos;(254.5-inf)\&apos;&apos;</OUTCOME>
	<PROPERTY>position = (784,3456)</PROPERTY>
</VARIABLE>
<VARIABLE TYPE="nature">
	<NAME>LABEL</NAME>
	<OUTCOME>0</OUTCOME>
	<OUTCOME>1</OUTCOME>
	<PROPERTY>position = (294,0)</PROPERTY>
</VARIABLE>
<DEFINITION>
<FOR>X744</FOR>
	<GIVEN>LABEL</GIVEN>
<TABLE>
0.03537735849056604 0.6674528301886793 0.294811320754717 0.0023584905660377358 
0.2373987398739874 0.5150765076507651 0.05423042304230423 0.1932943294329433 
</TABLE>
</DEFINITION>
<DEFINITION>
<FOR>X745</FOR>
	<GIVEN>X744</GIVEN>
<TABLE>
0.9692164179104478 0.028917910447761194 9.328358208955224E-4 9.328358208955224E-4 
0.008935508935508936 0.9879564879564879 0.0027195027195027195 3.885003885003885E-4 
0.002717391304347826 0.23097826086956522 0.654891304347826 0.11141304347826086 
0.001160092807424594 0.001160092807424594 0.015081206496519721 0.9825986078886311 
</TABLE>
</DEFINITION>
<DEFINITION>
<FOR>X792</FOR>
	<GIVEN>X745</GIVEN>
	<GIVEN>X744</GIVEN>
<TABLE>
0.8811121764141898 0.11601150527325024 9.587727708533077E-4 9.587727708533077E-4 9.587727708533077E-4 
0.25925925925925924 0.6296296296296297 0.037037037037037035 0.037037037037037035 0.037037037037037035 
0.2 0.2 0.2 0.2 0.2 
0.2 0.2 0.2 0.2 0.2 
0.08571428571428572 0.8285714285714286 0.02857142857142857 0.02857142857142857 0.02857142857142857 
0.0035335689045936395 0.9764428739693758 0.012956419316843345 0.0019630938358853552 0.005104043973301924 
0.011235955056179775 0.5955056179775281 0.30337078651685395 0.056179775280898875 0.033707865168539325 
0.2 0.2 0.2 0.2 0.2 
0.2 0.2 0.2 0.2 0.2 
0.09090909090909091 0.09090909090909091 0.09090909090909091 0.09090909090909091 0.6363636363636364 
0.004081632653061225 0.044897959183673466 0.7306122448979592 0.09387755102040816 0.12653061224489795 
0.058823529411764705 0.058823529411764705 0.17647058823529413 0.4117647058823529 0.29411764705882354 
0.2 0.2 0.2 0.2 0.2 
0.2 0.2 0.2 0.2 0.2 
0.022222222222222223 0.06666666666666667 0.24444444444444444 0.37777777777777777 0.28888888888888886 
0.0011750881316098707 0.005875440658049354 0.01762632197414806 0.05052878965922444 0.9247943595769683 
</TABLE>
</DEFINITION>
<DEFINITION>
<FOR>X793</FOR>
	<GIVEN>X792</GIVEN>
	<GIVEN>X744</GIVEN>
<TABLE>
0.9567567567567568 0.04 0.001081081081081081 0.001081081081081081 0.001081081081081081 
0.47368421052631576 0.3684210526315789 0.05263157894736842 0.05263157894736842 0.05263157894736842 
0.2 0.2 0.2 0.2 0.2 
0.2 0.2 0.2 0.2 0.2 
0.006535947712418301 0.9738562091503268 0.006535947712418301 0.006535947712418301 0.006535947712418301 
0.01316314319904268 0.981651376146789 0.0043877143996808934 3.9888312724371757E-4 3.9888312724371757E-4 
0.014492753623188406 0.7391304347826086 0.21739130434782608 0.014492753623188406 0.014492753623188406 
0.1111111111111111 0.3333333333333333 0.3333333333333333 0.1111111111111111 0.1111111111111111 
0.2 0.2 0.2 0.2 0.2 
0.02702702702702703 0.08108108108108109 0.7837837837837838 0.08108108108108109 0.02702702702702703 
0.0045662100456621 0.1050228310502283 0.771689497716895 0.1141552511415525 0.0045662100456621 
0.047619047619047616 0.23809523809523808 0.23809523809523808 0.3333333333333333 0.14285714285714285 
0.2 0.2 0.2 0.2 0.2 
0.1111111111111111 0.1111111111111111 0.3333333333333333 0.3333333333333333 0.1111111111111111 
0.02127659574468085 0.02127659574468085 0.10638297872340426 0.7446808510638298 0.10638297872340426 
0.018867924528301886 0.09433962264150944 0.2830188679245283 0.20754716981132076 0.39622641509433965 
0.2 0.2 0.2 0.2 0.2 
0.043478260869565216 0.043478260869565216 0.043478260869565216 0.13043478260869565 0.7391304347826086 
0.02040816326530612 0.02040816326530612 0.02040816326530612 0.14285714285714285 0.7959183673469388 
0.0012578616352201257 0.0037735849056603774 0.016352201257861635 0.033962264150943396 0.9446540880503145 
</TABLE>
</DEFINITION>
<DEFINITION>
<FOR>X794</FOR>
	<GIVEN>X793</GIVEN>
<TABLE>
0.9795258620689655 0.018318965517241378 0.0010775862068965517 0.0010775862068965517 
0.03686131386861314 0.9434306569343066 0.019343065693430656 3.64963503649635E-4 
0.003816793893129771 0.2480916030534351 0.7366412213740458 0.011450381679389313 
0.008620689655172414 0.09482758620689655 0.6293103448275862 0.2672413793103448 
0.001199040767386091 0.025179856115107913 0.07793764988009592 0.89568345323741 
</TABLE>
</DEFINITION>
<DEFINITION>
<FOR>X795</FOR>
	<GIVEN>X794</GIVEN>
	<GIVEN>X792</GIVEN>
<TABLE>
0.9977349943374858 0.0011325028312570782 0.0011325028312570782 
0.968503937007874 0.023622047244094488 0.007874015748031496 
0.6 0.2 0.2 
0.3333333333333333 0.3333333333333333 0.3333333333333333 
0.6 0.2 0.2 
0.8947368421052632 0.08771929824561403 0.017543859649122806 
0.19113573407202217 0.8084685397704788 3.957261574990107E-4 
0.16923076923076924 0.8153846153846154 0.015384615384615385 
0.05263157894736842 0.8947368421052632 0.05263157894736842 
0.5609756097560976 0.4146341463414634 0.024390243902439025 
0.3333333333333333 0.3333333333333333 0.3333333333333333 
0.014084507042253521 0.971830985915493 0.014084507042253521 
0.005291005291005291 0.9682539682539683 0.026455026455026454 
0.024390243902439025 0.7560975609756098 0.21951219512195122 
0.03296703296703297 0.9340659340659341 0.03296703296703297 
0.3333333333333333 0.3333333333333333 0.3333333333333333 
0.2 0.2 0.6 
0.06666666666666667 0.3333333333333333 0.6 
0.023255813953488372 0.3023255813953488 0.6744186046511628 
0.001375515818431912 0.12242090784044017 0.8762035763411279 
</TABLE>
</DEFINITION>
<DEFINITION>
<FOR>X841</FOR>
	<GIVEN>X794</GIVEN>
	<GIVEN>X793</GIVEN>
<TABLE>
0.8892543859649122 0.10855263157894737 0.0010964912280701754 0.0010964912280701754 
0.6442307692307693 0.33653846153846156 0.009615384615384616 0.009615384615384616 
0.25 0.25 0.25 0.25 
0.25 0.25 0.25 0.25 
0.25 0.25 0.25 0.25 
0.35 0.55 0.05 0.05 
0.013523956723338485 0.9748840803709428 0.00811437403400309 0.0034775888717156105 
0.014705882352941176 0.7794117647058824 0.16176470588235295 0.04411764705882353 
0.07142857142857142 0.6428571428571429 0.21428571428571427 0.07142857142857142 
0.041666666666666664 0.7916666666666666 0.125 0.041666666666666664 
0.25 0.25 0.25 0.25 
0.017857142857142856 0.7321428571428571 0.19642857142857142 0.05357142857142857 
0.015306122448979591 0.20918367346938777 0.7091836734693877 0.0663265306122449 
0.013157894736842105 0.09210526315789473 0.7763157894736842 0.11842105263157894 
0.014705882352941176 0.22058823529411764 0.45588235294117646 0.3088235294117647 
0.25 0.25 0.25 0.25 
0.25 0.25 0.25 0.25 
0.16666666666666666 0.5 0.16666666666666666 0.16666666666666666 
0.029411764705882353 0.20588235294117646 0.5 0.2647058823529412 
0.0013333333333333333 0.02266666666666667 0.06 0.916 
</TABLE>
</DEFINITION>
<DEFINITION>
<FOR>X842</FOR>
	<GIVEN>X795</GIVEN>
	<GIVEN>X841</GIVEN>
<TABLE>
0.9955898566703418 0.0033076074972436605 0.0011025358324145535 
0.8146487294469357 0.18385650224215247 0.0014947683109118087 
0.6 0.2 0.2 
0.3333333333333333 0.3333333333333333 0.3333333333333333 
0.7647058823529411 0.17647058823529413 0.058823529411764705 
0.09757214841960604 0.901969766376546 4.580852038479157E-4 
0.010830324909747292 0.9855595667870036 0.0036101083032490976 
0.007407407407407408 0.674074074074074 0.31851851851851853 
0.3333333333333333 0.3333333333333333 0.3333333333333333 
0.043478260869565216 0.9130434782608695 0.043478260869565216 
0.017543859649122806 0.7543859649122807 0.22807017543859648 
0.0016207455429497568 0.1507293354943274 0.8476499189627229 
</TABLE>
</DEFINITION>
<DEFINITION>
<FOR>X935</FOR>
	<GIVEN>X792</GIVEN>
	<GIVEN>X841</GIVEN>
<TABLE>
0.998730964467005 0.0012690355329949238 
0.9933333333333333 0.006666666666666667 
0.5 0.5 
0.5 0.5 
0.9921875 0.0078125 
0.9980361351139042 0.0019638648860958365 
0.8055555555555556 0.19444444444444445 
0.1875 0.8125 
0.75 0.25 
0.9878048780487805 0.012195121951219513 
0.9705882352941176 0.029411764705882353 
0.35714285714285715 0.6428571428571429 
0.75 0.25 
0.5909090909090909 0.4090909090909091 
0.98 0.02 
0.7307692307692307 0.2692307692307692 
0.75 0.25 
0.40789473684210525 0.5921052631578947 
0.524390243902439 0.47560975609756095 
0.3022922636103152 0.6977077363896849 
</TABLE>
</DEFINITION>
<DEFINITION>
<FOR>X982</FOR>
	<GIVEN>X792</GIVEN>
	<GIVEN>X935</GIVEN>
<TABLE>
0.9861111111111112 0.013888888888888888 
0.5 0.5 
0.9603409933283914 0.0396590066716086 
0.041666666666666664 0.9583333333333334 
0.9246031746031746 0.07539682539682539 
0.07142857142857142 0.9285714285714286 
0.7926829268292683 0.2073170731707317 
0.0625 0.9375 
0.5909090909090909 0.4090909090909091 
0.24035087719298245 0.7596491228070176 
</TABLE>
</DEFINITION>
<DEFINITION>
<FOR>X983</FOR>
	<GIVEN>X935</GIVEN>
	<GIVEN>X982</GIVEN>
<TABLE>
0.9876822523881348 0.012317747611865259 
0.7444444444444445 0.25555555555555554 
0.09420289855072464 0.9057971014492754 
0.002074688796680498 0.9979253112033195 
</TABLE>
</DEFINITION>
<DEFINITION>
<FOR>X1025</FOR>
	<GIVEN>X792</GIVEN>
	<GIVEN>X842</GIVEN>
<TABLE>
0.7684449489216799 0.2304199772985244 0.0011350737797956867 
0.11864406779661017 0.864406779661017 0.01694915254237288 
0.3333333333333333 0.3333333333333333 0.3333333333333333 
0.09825033647375504 0.8977119784656796 0.004037685060565276 
0.03304524656837824 0.9644128113879004 0.002541942043721403 
0.058823529411764705 0.7647058823529411 0.17647058823529413 
0.05263157894736842 0.6842105263157895 0.2631578947368421 
0.004329004329004329 0.9567099567099567 0.03896103896103896 
0.047619047619047616 0.6190476190476191 0.3333333333333333 
0.1111111111111111 0.1111111111111111 0.7777777777777778 
0.015384615384615385 0.6 0.38461538461538464 
0.034482758620689655 0.8620689655172413 0.10344827586206896 
0.02702702702702703 0.02702702702702703 0.9459459459459459 
0.0033003300330033004 0.24752475247524752 0.7491749174917491 
0.0019193857965451055 0.46257197696737046 0.5355086372360844 
</TABLE>
</DEFINITION>
<DEFINITION>
<FOR>X1026</FOR>
	<GIVEN>X1025</GIVEN>
	<GIVEN>X745</GIVEN>
<TABLE>
0.9971387696709585 0.001430615164520744 0.001430615164520744 
0.84 0.152 0.008 
0.3333333333333333 0.3333333333333333 0.3333333333333333 
0.3333333333333333 0.3333333333333333 0.3333333333333333 
0.667574931880109 0.329700272479564 0.0027247956403269754 
0.09996048992493085 0.8988542078229949 0.001185302252074279 
0.012552301255230125 0.9665271966527197 0.02092050209205021 
0.003115264797507788 0.7881619937694704 0.2087227414330218 
0.3333333333333333 0.3333333333333333 0.3333333333333333 
0.1111111111111111 0.7777777777777778 0.1111111111111111 
0.04 0.44 0.52 
0.0017513134851138354 0.08581436077057793 0.9124343257443083 
</TABLE>
</DEFINITION>
<DEFINITION>
<FOR>X1030</FOR>
	<GIVEN>X982</GIVEN>
	<GIVEN>X744</GIVEN>
<TABLE>
0.9990366088631984 9.633911368015414E-4 
0.9971264367816092 0.0028735632183908046 
0.9711538461538461 0.028846153846153848 
0.9610778443113772 0.038922155688622756 
0.8529411764705882 0.14705882352941177 
0.45652173913043476 0.5434782608695652 
0.23214285714285715 0.7678571428571429 
0.17992424242424243 0.8200757575757576 
</TABLE>
</DEFINITION>
<DEFINITION>
<FOR>X1031</FOR>
	<GIVEN>X983</GIVEN>
	<GIVEN>X744</GIVEN>
<TABLE>
0.9971910112359551 0.0028089887640449437 
0.9875801282051282 0.012419871794871794 
0.9123376623376623 0.08766233766233766 
0.7717391304347826 0.22826086956521738 
0.75 0.25 
0.08974358974358974 0.9102564102564102 
0.05 0.95 
0.01877133105802048 0.9812286689419796 
</TABLE>
</DEFINITION>
<DEFINITION>
<FOR>X1072</FOR>
	<GIVEN>X744</GIVEN>
	<GIVEN>X1025</GIVEN>
<TABLE>
0.9885222381635581 0.010043041606886656 0.0014347202295552368 
0.5543766578249337 0.44297082228116713 0.002652519893899204 
0.3333333333333333 0.3333333333333333 0.3333333333333333 
0.41732283464566927 0.5748031496062992 0.007874015748031496 
0.017615731257681278 0.9803359278984023 0.0020483408439164277 
0.09090909090909091 0.6363636363636364 0.2727272727272727 
0.3333333333333333 0.3333333333333333 0.3333333333333333 
0.0029154518950437317 0.9008746355685131 0.09620991253644315 
0.037037037037037035 0.48148148148148145 0.48148148148148145 
0.3333333333333333 0.3333333333333333 0.3333333333333333 
0.003367003367003367 0.5757575757575758 0.4208754208754209 
0.001763668430335097 0.03350970017636684 0.9647266313932981 
</TABLE>
</DEFINITION>
<DEFINITION>
<FOR>X1073</FOR>
	<GIVEN>X1072</GIVEN>
	<GIVEN>X1026</GIVEN>
<TABLE>
0.8868335146898803 0.11207834602829161 0.001088139281828074 
0.03896103896103896 0.948051948051948 0.012987012987012988 
0.3333333333333333 0.3333333333333333 0.3333333333333333 
0.10649350649350649 0.8909090909090909 0.0025974025974025974 
0.0018294914013904135 0.9824368825466521 0.015733626051957557 
0.024390243902439025 0.2682926829268293 0.7073170731707317 
0.3333333333333333 0.3333333333333333 0.3333333333333333 
0.006369426751592357 0.4012738853503185 0.5923566878980892 
0.0017574692442882249 0.033391915641476276 0.9648506151142355 
</TABLE>
</DEFINITION>
<DEFINITION>
<FOR>X1074</FOR>
	<GIVEN>X1073</GIVEN>
	<GIVEN>X793</GIVEN>
<TABLE>
0.9844357976653697 0.014267185473411154 0.0012970168612191958 
0.6842105263157895 0.30526315789473685 0.010526315789473684 
0.3333333333333333 0.3333333333333333 0.3333333333333333 
0.3333333333333333 0.3333333333333333 0.3333333333333333 
0.3333333333333333 0.3333333333333333 0.3333333333333333 
0.48427672955974843 0.5094339622641509 0.006289308176100629 
0.027703984819734344 0.971157495256167 0.0011385199240986717 
0.004219409282700422 0.9831223628691983 0.012658227848101266 
0.012345679012345678 0.9753086419753086 0.012345679012345678 
0.0051813471502590676 0.7927461139896373 0.20207253886010362 
0.3333333333333333 0.3333333333333333 0.3333333333333333 
0.06666666666666667 0.7333333333333333 0.2 
0.037037037037037035 0.48148148148148145 0.48148148148148145 
0.02702702702702703 0.5135135135135135 0.4594594594594595 
0.0015552099533437014 0.11975116640746501 0.8786936236391913 
</TABLE>
</DEFINITION>
<DEFINITION>
<FOR>X1086</FOR>
	<GIVEN>X745</GIVEN>
	<GIVEN>X1026</GIVEN>
<TABLE>
0.9819915254237288 0.015889830508474576 0.001059322033898305 0.001059322033898305 
0.4435483870967742 0.5403225806451613 0.008064516129032258 0.008064516129032258 
0.25 0.25 0.25 0.25 
0.49722222222222223 0.49722222222222223 0.002777777777777778 0.002777777777777778 
0.08036490008688098 0.9083405734144222 0.00999131190269331 0.0013032145960034753 
0.16666666666666666 0.5 0.16666666666666666 0.16666666666666666 
0.16666666666666666 0.16666666666666666 0.5 0.16666666666666666 
0.004098360655737705 0.42213114754098363 0.4959016393442623 0.0778688524590164 
0.05 0.25 0.25 0.45 
0.25 0.25 0.25 0.25 
0.003289473684210526 0.3782894736842105 0.24013157894736842 0.3782894736842105 
0.001694915254237288 0.05593220338983051 0.03559322033898305 0.9067796610169492 
</TABLE>
</DEFINITION>
<DEFINITION>
<FOR>X1119</FOR>
	<GIVEN>X744</GIVEN>
	<GIVEN>X1072</GIVEN>
<TABLE>
0.9366666666666666 0.06111111111111111 0.0011111111111111111 0.0011111111111111111 
0.2784090909090909 0.7102272727272727 0.005681818181818182 0.005681818181818182 
0.25 0.25 0.25 0.25 
0.37755102040816324 0.5816326530612245 0.030612244897959183 0.01020408163265306 
0.02465642683912692 0.8249797898140663 0.1475343573160873 0.0028294260307194824 
0.1 0.1 0.7 0.1 
0.25 0.25 0.25 0.25 
0.015432098765432098 0.12654320987654322 0.7623456790123457 0.09567901234567901 
0.020833333333333332 0.020833333333333332 0.4375 0.5208333333333334 
0.25 0.25 0.25 0.25 
0.005208333333333333 0.057291666666666664 0.4427083333333333 0.4947916666666667 
0.001483679525222552 0.001483679525222552 0.04599406528189911 0.9510385756676558 
</TABLE>
</DEFINITION>
<DEFINITION>
<FOR>X1120</FOR>
	<GIVEN>X1119</GIVEN>
	<GIVEN>X1072</GIVEN>
<TABLE>
0.9897959183673469 0.007936507936507936 0.0011337868480725624 0.0011337868480725624 
0.31896551724137934 0.646551724137931 0.02586206896551724 0.008620689655172414 
0.25 0.25 0.25 0.25 
0.5526315789473685 0.4298245614035088 0.008771929824561403 0.008771929824561403 
0.02750225428313796 0.9229035166816952 0.04914337240757439 4.508566275924256E-4 
0.25 0.25 0.25 0.25 
0.16666666666666666 0.5 0.16666666666666666 0.16666666666666666 
0.0014326647564469914 0.08739255014326648 0.8696275071633238 0.04154727793696275 
0.016666666666666666 0.016666666666666666 0.21666666666666667 0.75 
0.25 0.25 0.25 0.25 
0.007462686567164179 0.03731343283582089 0.1865671641791045 0.7686567164179104 
0.0014970059880239522 0.0014970059880239522 0.04341317365269461 0.9535928143712575 
</TABLE>
</DEFINITION>
<DEFINITION>
<FOR>X1121</FOR>
	<GIVEN>X1120</GIVEN>
	<GIVEN>X842</GIVEN>
<TABLE>
0.9449244060475162 0.052915766738660906 0.0010799136069114472 0.0010799136069114472 
0.1875 0.7946428571428571 0.008928571428571428 0.008928571428571428 
0.25 0.25 0.25 0.25 
0.17182662538699692 0.8095975232198143 0.017027863777089782 0.0015479876160990713 
0.009505703422053232 0.8954372623574145 0.0944233206590621 6.337135614702154E-4 
0.03571428571428571 0.25 0.6785714285714286 0.03571428571428571 
0.014285714285714285 0.12857142857142856 0.8428571428571429 0.014285714285714285 
0.0015723270440251573 0.11477987421383648 0.8820754716981132 0.0015723270440251573 
0.011627906976744186 0.10465116279069768 0.5 0.38372093023255816 
0.020833333333333332 0.0625 0.4375 0.4791666666666667 
0.0033333333333333335 0.043333333333333335 0.27666666666666667 0.6766666666666666 
0.002109704641350211 0.006329113924050633 0.0949367088607595 0.8966244725738397 
</TABLE>
</DEFINITION>
<DEFINITION>
<FOR>X1134</FOR>
	<GIVEN>X1086</GIVEN>
	<GIVEN>X841</GIVEN>
<TABLE>
0.9459134615384616 0.051682692307692304 0.001201923076923077 0.001201923076923077 
0.47093023255813954 0.5251937984496124 0.001937984496124031 0.001937984496124031 
0.16666666666666666 0.5 0.16666666666666666 0.16666666666666666 
0.25 0.25 0.25 0.25 
0.011627906976744186 0.9651162790697675 0.011627906976744186 0.011627906976744186 
0.0022182786157941437 0.9889086069210293 0.008429458740017746 4.4365572315882877E-4 
0.006493506493506494 0.7207792207792207 0.2662337662337662 0.006493506493506494 
0.024193548387096774 0.5725806451612904 0.3467741935483871 0.056451612903225805 
0.25 0.25 0.25 0.25 
0.019230769230769232 0.019230769230769232 0.9038461538461539 0.057692307692307696 
0.00909090909090909 0.00909090909090909 0.9181818181818182 0.06363636363636363 
0.011111111111111112 0.03333333333333333 0.5444444444444444 0.4111111111111111 
0.08333333333333333 0.08333333333333333 0.08333333333333333 0.75 
0.016666666666666666 0.016666666666666666 0.016666666666666666 0.95 
0.013157894736842105 0.013157894736842105 0.039473684210526314 0.9342105263157895 
0.001838235294117647 0.001838235294117647 0.016544117647058824 0.9797794117647058 
</TABLE>
</DEFINITION>
<DEFINITION>
<FOR>X1167</FOR>
	<GIVEN>X1119</GIVEN>
	<GIVEN>X1121</GIVEN>
<TABLE>
0.9635678391959799 0.03391959798994975 0.001256281407035176 0.001256281407035176 
0.8402061855670103 0.14948453608247422 0.005154639175257732 0.005154639175257732 
0.4166666666666667 0.4166666666666667 0.08333333333333333 0.08333333333333333 
0.25 0.25 0.25 0.25 
0.031818181818181815 0.9590909090909091 0.004545454545454545 0.004545454545454545 
0.0016216216216216215 0.967027027027027 0.030810810810810812 5.405405405405405E-4 
0.004032258064516129 0.5846774193548387 0.40725806451612906 0.004032258064516129 
0.045454545454545456 0.4090909090909091 0.4090909090909091 0.13636363636363635 
0.1 0.1 0.7 0.1 
0.00847457627118644 0.025423728813559324 0.8728813559322034 0.09322033898305085 
0.0017985611510791368 0.012589928057553957 0.9334532374100719 0.052158273381294966 
0.011904761904761904 0.011904761904761904 0.6071428571428571 0.36904761904761907 
0.125 0.125 0.125 0.625 
0.029411764705882353 0.029411764705882353 0.029411764705882353 0.9117647058823529 
0.005494505494505495 0.005494505494505495 0.1043956043956044 0.8846153846153846 
0.0017064846416382253 0.0017064846416382253 0.005119453924914676 0.9914675767918089 
</TABLE>
</DEFINITION>
<DEFINITION>
<FOR>X1168</FOR>
	<GIVEN>X1120</GIVEN>
	<GIVEN>X1167</GIVEN>
<TABLE>
0.953514739229025 0.04421768707482993 0.0011337868480725624 0.0011337868480725624 
0.5833333333333334 0.40384615384615385 0.00641025641025641 0.00641025641025641 
0.25 0.25 0.25 0.25 
0.25 0.25 0.25 0.25 
0.015151515151515152 0.9545454545454546 0.015151515151515152 0.015151515151515152 
0.014485514485514486 0.9575424575424576 0.027472527472527472 4.995004995004995E-4 
0.005747126436781609 0.4540229885057471 0.5344827586206896 0.005747126436781609 
0.07142857142857142 0.21428571428571427 0.5 0.21428571428571427 
0.25 0.25 0.25 0.25 
0.014285714285714285 0.014285714285714285 0.9285714285714286 0.04285714285714286 
0.0015625 0.0515625 0.9234375 0.0234375 
0.012195121951219513 0.036585365853658534 0.524390243902439 0.4268292682926829 
0.25 0.25 0.25 0.25 
0.25 0.25 0.25 0.25 
0.017241379310344827 0.017241379310344827 0.08620689655172414 0.8793103448275862 
0.0013157894736842105 0.003947368421052632 0.06447368421052632 0.9302631578947368 
</TABLE>
</DEFINITION>
<DEFINITION>
<FOR>X1171</FOR>
	<GIVEN>X842</GIVEN>
	<GIVEN>X744</GIVEN>
<TABLE>
0.9377085650723026 0.06117908787541713 0.0011123470522803114 
0.8967921896792189 0.10181311018131102 0.001394700139470014 
0.42857142857142855 0.5238095238095238 0.047619047619047616 
0.8367346938775511 0.14285714285714285 0.02040816326530612 
0.07428571428571429 0.92 0.005714285714285714 
0.3866519580805295 0.6083838940981798 0.004964147821290678 
0.24745762711864408 0.7423728813559322 0.010169491525423728 
0.4631268436578171 0.504424778761062 0.032448377581120944 
0.3333333333333333 0.3333333333333333 0.3333333333333333 
0.02040816326530612 0.22448979591836735 0.7551020408163265 
0.12280701754385964 0.2631578947368421 0.6140350877192983 
0.09812108559498957 0.6868475991649269 0.2150313152400835 
</TABLE>
</DEFINITION>
<DEFINITION>
<FOR>X1182</FOR>
	<GIVEN>X1134</GIVEN>
	<GIVEN>X1086</GIVEN>
<TABLE>
0.8982558139534884 0.0998062015503876 9.689922480620155E-4 9.689922480620155E-4 
0.3 0.5 0.1 0.1 
0.25 0.25 0.25 0.25 
0.25 0.25 0.25 0.25 
0.0220125786163522 0.9716981132075472 0.0031446540880503146 0.0031446540880503146 
0.002004811547714515 0.9923817161186849 0.0052125100240577385 4.0096230954290296E-4 
0.16666666666666666 0.5 0.16666666666666666 0.16666666666666666 
0.25 0.25 0.25 0.25 
0.25 0.25 0.25 0.25 
0.009615384615384616 0.33653846153846156 0.5288461538461539 0.125 
0.005050505050505051 0.03535353535353535 0.8838383838383839 0.07575757575757576 
0.07142857142857142 0.07142857142857142 0.5 0.35714285714285715 
0.25 0.25 0.25 0.25 
0.1 0.5 0.1 0.3 
0.020833333333333332 0.020833333333333332 0.1875 0.7708333333333334 
0.0014925373134328358 0.0014925373134328358 0.007462686567164179 0.9895522388059701 
</TABLE>
</DEFINITION>
<DEFINITION>
<FOR>X1215</FOR>
	<GIVEN>X1167</GIVEN>
	<GIVEN>X1168</GIVEN>
<TABLE>
0.9774881516587678 0.02014218009478673 0.001184834123222749 0.001184834123222749 
0.7019230769230769 0.27884615384615385 0.009615384615384616 0.009615384615384616 
0.25 0.25 0.25 0.25 
0.25 0.25 0.25 0.25 
0.00819672131147541 0.9754098360655737 0.00819672131147541 0.00819672131147541 
0.0015136226034308778 0.9904137235116044 0.0075681130171543895 5.045408678102926E-4 
0.00819672131147541 0.7622950819672131 0.22131147540983606 0.00819672131147541 
0.16666666666666666 0.5 0.16666666666666666 0.16666666666666666 
0.25 0.25 0.25 0.25 
0.008771929824561403 0.20175438596491227 0.7807017543859649 0.008771929824561403 
0.0014492753623188406 0.015942028985507246 0.9231884057971015 0.059420289855072465 
0.014705882352941176 0.014705882352941176 0.7205882352941176 0.25 
0.25 0.25 0.25 0.25 
0.1 0.1 0.3 0.5 
0.01 0.01 0.05 0.93 
0.0013404825737265416 0.0013404825737265416 0.004021447721179625 0.9932975871313673 
</TABLE>
</DEFINITION>
<DEFINITION>
<FOR>X1216</FOR>
	<GIVEN>X1168</GIVEN>
	<GIVEN>X1215</GIVEN>
<TABLE>
0.8369565217391305 0.1606280193236715 0.0012077294685990338 0.0012077294685990338 
0.13768115942028986 0.8478260869565217 0.007246376811594203 0.007246376811594203 
0.25 0.25 0.25 0.25 
0.25 0.25 0.25 0.25 
0.01282051282051282 0.9615384615384616 0.01282051282051282 0.01282051282051282 
0.00248015873015873 0.9776785714285714 0.019345238095238096 4.96031746031746E-4 
0.009259259259259259 0.5833333333333334 0.39814814814814814 0.009259259259259259 
0.125 0.125 0.375 0.375 
0.25 0.25 0.25 0.25 
0.009433962264150943 0.0660377358490566 0.9150943396226415 0.009433962264150943 
0.0014925373134328358 0.05223880597014925 0.9328358208955224 0.013432835820895522 
0.007352941176470588 0.022058823529411766 0.5514705882352942 0.41911764705882354 
0.25 0.25 0.25 0.25 
0.16666666666666666 0.16666666666666666 0.16666666666666666 0.5 
0.018518518518518517 0.018518518518518517 0.05555555555555555 0.9074074074074074 
0.0013157894736842105 0.0013157894736842105 0.025 0.9723684210526315 
</TABLE>
</DEFINITION>
<DEFINITION>
<FOR>X1217</FOR>
	<GIVEN>X1168</GIVEN>
	<GIVEN>X1171</GIVEN>
<TABLE>
0.9870588235294118 0.010588235294117647 0.001176470588235294 0.001176470588235294 
0.28448275862068967 0.6982758620689655 0.008620689655172414 0.008620689655172414 
0.25 0.25 0.25 0.25 
0.2564724919093851 0.7402912621359223 8.090614886731392E-4 0.0024271844660194173 
0.005241090146750524 0.9863731656184487 0.007337526205450734 0.0010482180293501049 
0.0625 0.5625 0.3125 0.0625 
0.05474452554744526 0.8357664233576643 0.09854014598540146 0.010948905109489052 
0.0049504950495049506 0.5297029702970297 0.4174917491749175 0.04785478547854786 
0.03125 0.03125 0.15625 0.78125 
0.005555555555555556 0.17222222222222222 0.20555555555555555 0.6166666666666667 
0.002066115702479339 0.06818181818181818 0.11776859504132231 0.8119834710743802 
0.00641025641025641 0.00641025641025641 0.00641025641025641 0.9807692307692307 
</TABLE>
</DEFINITION>
<DEFINITION>
<FOR>X1218</FOR>
	<GIVEN>X1217</GIVEN>
	<GIVEN>X1171</GIVEN>
<TABLE>
0.9982920580700256 8.539709649871904E-4 8.539709649871904E-4 
0.9512195121951219 0.024390243902439025 0.024390243902439025 
0.3333333333333333 0.3333333333333333 0.3333333333333333 
0.9983093829247676 8.453085376162299E-4 8.453085376162299E-4 
0.9403636363636364 0.05745454545454545 0.002181818181818182 
0.09090909090909091 0.2727272727272727 0.6363636363636364 
0.9076923076923077 0.07692307692307693 0.015384615384615385 
0.31230283911671924 0.6340694006309149 0.05362776025236593 
0.09090909090909091 0.09090909090909091 0.8181818181818182 
0.24786324786324787 0.26495726495726496 0.48717948717948717 
0.1016548463356974 0.20567375886524822 0.6926713947990544 
0.01675977653631285 0.027932960893854747 0.9553072625698324 
</TABLE>
</DEFINITION>
<DEFINITION>
<FOR>X1219</FOR>
	<GIVEN>X1218</GIVEN>
	<GIVEN>X1171</GIVEN>
<TABLE>
0.9995894909688013 4.1050903119868636E-4 
0.9979619565217391 0.0020380434782608695 
0.75 0.25 
0.9166666666666666 0.08333333333333333 
0.9754098360655737 0.02459016393442623 
0.625 0.375 
0.6724137931034483 0.3275862068965517 
0.592948717948718 0.40705128205128205 
0.16666666666666666 0.8333333333333334 
</TABLE>
</DEFINITION>
<DEFINITION>
<FOR>X1263</FOR>
	<GIVEN>X1215</GIVEN>
	<GIVEN>X1216</GIVEN>
<TABLE>
0.9698275862068966 0.027298850574712645 0.0014367816091954023 0.0014367816091954023 
0.5952380952380952 0.3952380952380952 0.004761904761904762 0.004761904761904762 
0.25 0.25 0.25 0.25 
0.25 0.25 0.25 0.25 
0.038461538461538464 0.8846153846153846 0.038461538461538464 0.038461538461538464 
0.0014312977099236641 0.987118320610687 0.01097328244274809 4.7709923664122136E-4 
0.007246376811594203 0.8333333333333334 0.15217391304347827 0.007246376811594203 
0.16666666666666666 0.16666666666666666 0.5 0.16666666666666666 
0.25 0.25 0.25 0.25 
0.01 0.25 0.69 0.05 
0.001488095238095238 0.03422619047619048 0.9449404761904762 0.019345238095238096 
0.016666666666666666 0.08333333333333333 0.7833333333333333 0.11666666666666667 
0.25 0.25 0.25 0.25 
0.16666666666666666 0.16666666666666666 0.16666666666666666 0.5 
0.01020408163265306 0.01020408163265306 0.1326530612244898 0.8469387755102041 
0.00125 0.00125 0.03125 0.96625 
</TABLE>
</DEFINITION>
<DEFINITION>
<FOR>X1265</FOR>
	<GIVEN>X1216</GIVEN>
	<GIVEN>X1217</GIVEN>
<TABLE>
0.004366812227074236 0.9912663755458515 0.001455604075691412 0.001455604075691412 0.001455604075691412 
0.02702702702702703 0.8918918918918919 0.02702702702702703 0.02702702702702703 0.02702702702702703 
0.2 0.2 0.2 0.2 0.2 
0.2 0.2 0.2 0.2 0.2 
0.028680688336520075 0.9655831739961759 0.0019120458891013384 0.0019120458891013384 0.0019120458891013384 
5.321979776476849E-4 0.9925492283129325 0.004789781798829164 0.0015965939329430547 5.321979776476849E-4 
0.1111111111111111 0.3333333333333333 0.1111111111111111 0.3333333333333333 0.1111111111111111 
0.2 0.2 0.2 0.2 0.2 
0.2727272727272727 0.2727272727272727 0.09090909090909091 0.09090909090909091 0.2727272727272727 
0.0016638935108153079 0.7603993344425957 0.1314475873544093 0.06821963394342762 0.03826955074875208 
0.0036363636363636364 0.14181818181818182 0.5781818181818181 0.22181818181818183 0.05454545454545454 
0.034482758620689655 0.10344827586206896 0.10344827586206896 0.3793103448275862 0.3793103448275862 
0.2 0.2 0.2 0.2 0.2 
0.015873015873015872 0.1746031746031746 0.14285714285714285 0.2698412698412698 0.3968253968253968 
0.008695652173913044 0.02608695652173913 0.06086956521739131 0.1826086956521739 0.7217391304347827 
0.001447178002894356 0.004341534008683068 0.001447178002894356 0.013024602026049204 0.9797395079594791 
</TABLE>
</DEFINITION>
<DEFINITION>
<FOR>X1266</FOR>
	<GIVEN>X1265</GIVEN>
	<GIVEN>X1219</GIVEN>
<TABLE>
0.6190476190476191 0.3333333333333333 0.047619047619047616 
0.3333333333333333 0.3333333333333333 0.3333333333333333 
0.008089260808926082 0.9916317991631799 2.789400278940028E-4 
0.06666666666666667 0.4666666666666667 0.4666666666666667 
0.0038910505836575876 0.9688715953307393 0.027237354085603113 
0.1111111111111111 0.3333333333333333 0.5555555555555556 
0.006711409395973154 0.825503355704698 0.16778523489932887 
0.06666666666666667 0.3333333333333333 0.6 
0.0018148820326678765 0.14337568058076225 0.8548094373865699 
0.0035087719298245615 0.0035087719298245615 0.9929824561403509 
</TABLE>
</DEFINITION>
<DEFINITION>
<FOR>X1268</FOR>
	<GIVEN>X1218</GIVEN>
	<GIVEN>X1072</GIVEN>
<TABLE>
0.998991935483871 0.0010080645161290322 
0.9951851851851852 0.004814814814814815 
0.8136363636363636 0.18636363636363637 
0.5 0.5 
0.8377483443708609 0.16225165562913907 
0.5 0.5 
0.5 0.5 
0.512987012987013 0.487012987012987 
0.1775 0.8225 
</TABLE>
</DEFINITION>
<DEFINITION>
<FOR>X1269</FOR>
	<GIVEN>X1121</GIVEN>
	<GIVEN>X1171</GIVEN>
<TABLE>
0.8630573248407644 0.13694267515923567 
0.2375 0.7625 
0.5 0.5 
0.45721476510067116 0.5427852348993288 
0.09008097165991903 0.909919028340081 
0.16666666666666666 0.8333333333333334 
0.17028985507246377 0.8297101449275363 
0.03412462908011869 0.9658753709198813 
0.02631578947368421 0.9736842105263158 
0.12295081967213115 0.8770491803278688 
0.01707317073170732 0.9829268292682927 
0.01948051948051948 0.9805194805194806 
</TABLE>
</DEFINITION>
<DEFINITION>
<FOR>X1312</FOR>
	<GIVEN>X1263</GIVEN>
	<GIVEN>X1265</GIVEN>
<TABLE>
0.5 0.16666666666666666 0.16666666666666666 0.16666666666666666 
0.006234413965087282 0.9912718204488778 0.0012468827930174563 0.0012468827930174563 
0.25 0.25 0.25 0.25 
0.25 0.25 0.25 0.25 
0.25 0.25 0.25 0.25 
0.85 0.05 0.05 0.05 
0.0013204225352112676 0.9933978873239436 0.0048415492957746475 4.4014084507042255E-4 
0.022727272727272728 0.5227272727272727 0.4318181818181818 0.022727272727272728 
0.041666666666666664 0.2916666666666667 0.625 0.041666666666666664 
0.07142857142857142 0.35714285714285715 0.5 0.07142857142857142 
0.25 0.25 0.25 0.25 
0.0020491803278688526 0.5061475409836066 0.48975409836065575 0.0020491803278688526 
0.0049504950495049506 0.04455445544554455 0.9158415841584159 0.034653465346534656 
0.013157894736842105 0.039473684210526314 0.8552631578947368 0.09210526315789473 
0.01282051282051282 0.0641025641025641 0.32051282051282054 0.6025641025641025 
0.25 0.25 0.25 0.25 
0.020833333333333332 0.0625 0.4375 0.4791666666666667 
0.038461538461538464 0.11538461538461539 0.11538461538461539 0.7307692307692307 
0.014285714285714285 0.014285714285714285 0.12857142857142856 0.8428571428571429 
0.0013333333333333333 0.017333333333333333 0.076 0.9053333333333333 
</TABLE>
</DEFINITION>
<DEFINITION>
<FOR>X1313</FOR>
	<GIVEN>X1312</GIVEN>
	<GIVEN>X1266</GIVEN>
<TABLE>
0.6875 0.1875 0.0625 0.0625 
0.0625 0.8125 0.0625 0.0625 
0.25 0.25 0.25 0.25 
0.15625 0.59375 0.21875 0.03125 
3.0358227079538557E-4 0.03551912568306011 0.9638737097753491 3.0358227079538557E-4 
0.022727272727272728 0.022727272727272728 0.6136363636363636 0.3409090909090909 
0.25 0.25 0.25 0.25 
0.001851851851851852 0.001851851851851852 0.85 0.14629629629629629 
0.008928571428571428 0.008928571428571428 0.16964285714285715 0.8125 
0.25 0.25 0.25 0.25 
0.005376344086021506 0.005376344086021506 0.04838709677419355 0.9408602150537635 
0.001524390243902439 0.001524390243902439 0.004573170731707317 0.9923780487804879 
</TABLE>
</DEFINITION>
<DEFINITION>
<FOR>X1314</FOR>
	<GIVEN>X792</GIVEN>
	<GIVEN>X1313</GIVEN>
<TABLE>
0.25 0.25 0.25 0.25 
0.08653846153846154 0.8942307692307693 0.009615384615384616 0.009615384615384616 
0.0011961722488038277 0.8672248803827751 0.1303827751196172 0.0011961722488038277 
0.16666666666666666 0.16666666666666666 0.16666666666666666 0.5 
0.16666666666666666 0.7222222222222222 0.05555555555555555 0.05555555555555555 
0.3269230769230769 0.6346153846153846 0.019230769230769232 0.019230769230769232 
0.005747126436781609 0.13218390804597702 0.8524904214559387 0.009578544061302681 
0.018518518518518517 0.018518518518518517 0.24074074074074073 0.7222222222222222 
0.25 0.25 0.25 0.25 
0.25 0.25 0.25 0.25 
0.026595744680851064 0.21808510638297873 0.6542553191489362 0.10106382978723404 
0.012195121951219513 0.012195121951219513 0.25609756097560976 0.7195121951219512 
0.25 0.25 0.25 0.25 
0.25 0.25 0.25 0.25 
0.05 0.05 0.85 0.05 
0.012195121951219513 0.012195121951219513 0.036585365853658534 0.9390243902439024 
0.25 0.25 0.25 0.25 
0.25 0.25 0.25 0.25 
0.017241379310344827 0.15517241379310345 0.603448275862069 0.22413793103448276 
0.0012468827930174563 0.0012468827930174563 0.03615960099750624 0.9613466334164589 
</TABLE>
</DEFINITION>
<DEFINITION>
<FOR>X1315</FOR>
	<GIVEN>X1314</GIVEN>
	<GIVEN>X1168</GIVEN>
<TABLE>
0.75 0.08333333333333333 0.08333333333333333 0.08333333333333333 
0.8846153846153846 0.038461538461538464 0.038461538461538464 0.038461538461538464 
0.8333333333333334 0.05555555555555555 0.05555555555555555 0.05555555555555555 
0.25 0.25 0.25 0.25 
0.986810551558753 0.01079136690647482 0.001199040767386091 0.001199040767386091 
0.8283132530120482 0.1536144578313253 0.015060240963855422 0.0030120481927710845 
0.7222222222222222 0.18888888888888888 0.07777777777777778 0.011111111111111112 
0.5833333333333334 0.08333333333333333 0.25 0.08333333333333333 
0.1532258064516129 0.47580645161290325 0.3629032258064516 0.008064516129032258 
0.06428571428571428 0.3587912087912088 0.5752747252747252 0.0016483516483516484 
0.05612244897959184 0.0663265306122449 0.8758503401360545 0.0017006802721088435 
0.06 0.06 0.82 0.06 
0.25 0.25 0.25 0.25 
0.09375 0.03125 0.40625 0.46875 
0.004545454545454545 0.004545454545454545 0.5954545454545455 0.39545454545454545 
0.0013192612137203166 0.006596306068601583 0.08311345646437995 0.9089709762532981 
</TABLE>
</DEFINITION>
<DEFINITION>
<FOR>X1316</FOR>
	<GIVEN>X1315</GIVEN>
	<GIVEN>X1268</GIVEN>
<TABLE>
0.9992764109985528 7.23589001447178E-4 
0.5 0.5 
0.9987951807228915 0.0012048192771084338 
0.5 0.5 
0.9994419642857143 5.580357142857143E-4 
0.8472222222222222 0.1527777777777778 
0.6741935483870968 0.3258064516129032 
0.09670781893004116 0.9032921810699589 
</TABLE>
</DEFINITION>
<DEFINITION>
<FOR>X1317</FOR>
	<GIVEN>X1269</GIVEN>
	<GIVEN>X1217</GIVEN>
<TABLE>
0.9989035087719298 0.0010964912280701754 
0.8858520900321544 0.11414790996784566 
0.5833333333333334 0.4166666666666667 
0.9285714285714286 0.07142857142857142 
0.587248322147651 0.412751677852349 
0.15396498455200824 0.8460350154479918 
0.034574468085106384 0.9654255319148937 
0.027142857142857142 0.9728571428571429 
</TABLE>
</DEFINITION>
<DEFINITION>
<FOR>X1361</FOR>
	<GIVEN>X1313</GIVEN>
	<GIVEN>X1314</GIVEN>
<TABLE>
0.6 0.2 0.2 
0.4666666666666667 0.4666666666666667 0.06666666666666667 
0.3333333333333333 0.3333333333333333 0.3333333333333333 
0.3333333333333333 0.3333333333333333 0.3333333333333333 
0.9259259259259259 0.037037037037037035 0.037037037037037035 
0.6850393700787402 0.30708661417322836 0.007874015748031496 
0.3333333333333333 0.3333333333333333 0.3333333333333333 
0.3333333333333333 0.3333333333333333 0.3333333333333333 
0.8095238095238095 0.14285714285714285 0.047619047619047616 
0.049151027703306524 0.9499553172475425 8.936550491510277E-4 
3.9888312724371757E-4 0.9952134024730754 0.0043877143996808934 
0.017543859649122806 0.9649122807017544 0.017543859649122806 
0.3333333333333333 0.3333333333333333 0.3333333333333333 
0.3333333333333333 0.3333333333333333 0.3333333333333333 
0.015384615384615385 0.23076923076923078 0.7538461538461538 
0.0010559662090813093 0.16578669482576558 0.8331573389651531 
</TABLE>
</DEFINITION>
<DEFINITION>
<FOR>X1364</FOR>
	<GIVEN>X1315</GIVEN>
	<GIVEN>X1121</GIVEN>
<TABLE>
0.7896551724137931 0.20804597701149424 0.0011494252873563218 0.0011494252873563218 
0.2512690355329949 0.6218274111675127 0.12436548223350254 0.0025380710659898475 
0.040983606557377046 0.1885245901639344 0.7622950819672131 0.00819672131147541 
0.1 0.7 0.1 0.1 
0.30701754385964913 0.4649122807017544 0.21929824561403508 0.008771929824561403 
0.04393939393939394 0.6621212121212121 0.2924242424242424 0.0015151515151515152 
0.04838709677419355 0.5 0.43548387096774194 0.016129032258064516 
0.125 0.125 0.625 0.125 
0.1590909090909091 0.29545454545454547 0.5227272727272727 0.022727272727272728 
0.006340579710144928 0.11503623188405797 0.8777173913043478 9.057971014492754E-4 
0.007763975155279503 0.04503105590062112 0.9456521739130435 0.0015527950310559005 
0.011904761904761904 0.17857142857142858 0.7738095238095238 0.03571428571428571 
0.16666666666666666 0.5 0.16666666666666666 0.16666666666666666 
0.02631578947368421 0.13157894736842105 0.8157894736842105 0.02631578947368421 
0.0058823529411764705 0.01764705882352941 0.7 0.27647058823529413 
0.0016835016835016834 0.0016835016835016834 0.28114478114478114 0.7154882154882155 
</TABLE>
</DEFINITION>
<DEFINITION>
<FOR>X1365</FOR>
	<GIVEN>X1317</GIVEN>
	<GIVEN>X1364</GIVEN>
<TABLE>
0.9246411483253588 0.06578947368421052 0.008373205741626795 0.0011961722488038277 
0.425561797752809 0.5547752808988764 0.018258426966292134 0.0014044943820224719 
0.2746478873239437 0.5 0.22300469483568075 0.002347417840375587 
0.3181818181818182 0.4090909090909091 0.22727272727272727 0.045454545454545456 
0.175 0.625 0.175 0.025 
0.006607929515418502 0.3502202643171806 0.6365638766519823 0.006607929515418502 
0.00257201646090535 0.07150205761316872 0.9151234567901234 0.010802469135802469 
0.002183406113537118 0.010917030567685589 0.7445414847161572 0.2423580786026201 
</TABLE>
</DEFINITION>
<DEFINITION>
<FOR>X1460</FOR>
<TABLE>
1.0 
</TABLE>
</DEFINITION>
<DEFINITION>
<FOR>X1461</FOR>
	<GIVEN>X1171</GIVEN>
	<GIVEN>X1365</GIVEN>
<TABLE>
0.8897435897435897 0.11025641025641025 
0.6432360742705571 0.356763925729443 
0.37796610169491524 0.6220338983050847 
0.05555555555555555 0.9444444444444444 
0.2619047619047619 0.7380952380952381 
0.11983471074380166 0.8801652892561983 
0.0560488346281909 0.9439511653718091 
0.07575757575757576 0.9242424242424242 
0.5 0.5 
0.5 0.5 
0.007042253521126761 0.9929577464788732 
0.018518518518518517 0.9814814814814815 
</TABLE>
</DEFINITION>
<DEFINITION>
<FOR>X1506</FOR>
	<GIVEN>X1218</GIVEN>
	<GIVEN>X982</GIVEN>
<TABLE>
0.9986263736263736 0.0013736263736263737 
0.9518518518518518 0.04814814814814815 
0.9965753424657534 0.003424657534246575 
0.8017241379310345 0.19827586206896552 
0.7580645161290323 0.24193548387096775 
0.4483695652173913 0.5516304347826086 
</TABLE>
</DEFINITION>
<DEFINITION>
<FOR>X1507</FOR>
	<GIVEN>X1506</GIVEN>
	<GIVEN>X1030</GIVEN>
<TABLE>
0.997861216730038 0.0021387832699619773 
0.9166666666666666 0.08333333333333333 
0.16666666666666666 0.8333333333333334 
0.1761904761904762 0.8238095238095238 
</TABLE>
</DEFINITION>
<DEFINITION>
<FOR>X1508</FOR>
	<GIVEN>X1507</GIVEN>
	<GIVEN>X1217</GIVEN>
<TABLE>
0.9991721854304636 8.278145695364238E-4 
0.9988253719655442 0.0011746280344557558 
0.9861111111111112 0.013888888888888888 
0.8834745762711864 0.11652542372881355 
0.5 0.5 
0.9 0.1 
0.32142857142857145 0.6785714285714286 
0.16115702479338842 0.8388429752066116 
</TABLE>
</DEFINITION>
<DEFINITION>
<FOR>X1561</FOR>
	<GIVEN>X792</GIVEN>
	<GIVEN>X1182</GIVEN>
<TABLE>
0.9472990777338604 0.05138339920948617 0.0013175230566534915 
0.3149171270718232 0.6795580110497238 0.0055248618784530384 
0.3333333333333333 0.3333333333333333 0.3333333333333333 
0.3333333333333333 0.3333333333333333 0.3333333333333333 
0.12568306010928962 0.8688524590163934 0.00546448087431694 
0.012316249503377036 0.9856972586412396 0.001986491855383393 
0.05263157894736842 0.7894736842105263 0.15789473684210525 
0.09090909090909091 0.09090909090909091 0.8181818181818182 
0.3333333333333333 0.3333333333333333 0.3333333333333333 
0.027522935779816515 0.926605504587156 0.045871559633027525 
0.007407407407407408 0.9407407407407408 0.05185185185185185 
0.037037037037037035 0.6296296296296297 0.3333333333333333 
0.3333333333333333 0.3333333333333333 0.3333333333333333 
0.034482758620689655 0.6551724137931034 0.3103448275862069 
0.02702702702702703 0.6216216216216216 0.35135135135135137 
0.02702702702702703 0.35135135135135137 0.6216216216216216 
0.2 0.6 0.2 
0.008849557522123894 0.5929203539823009 0.39823008849557523 
0.012658227848101266 0.24050632911392406 0.7468354430379747 
0.0014992503748125937 0.0704647676161919 0.9280359820089955 
</TABLE>
</DEFINITION>
<DEFINITION>
<FOR>X1562</FOR>
	<GIVEN>X1561</GIVEN>
	<GIVEN>X1315</GIVEN>
<TABLE>
0.9948387096774194 0.003870967741935484 0.0012903225806451613 
0.6744186046511628 0.3023255813953488 0.023255813953488372 
0.3684210526315789 0.5789473684210527 0.05263157894736842 
0.3333333333333333 0.3333333333333333 0.3333333333333333 
0.29489291598023065 0.7034596375617792 0.0016474464579901153 
0.07224334600760456 0.926489226869455 0.0012674271229404308 
0.008547008547008548 0.9908831908831909 5.698005698005698E-4 
0.010101010101010102 0.9191919191919192 0.0707070707070707 
0.14285714285714285 0.7142857142857143 0.14285714285714285 
0.2 0.2 0.6 
0.010526315789473684 0.4105263157894737 0.5789473684210527 
0.001430615164520744 0.11301859799713877 0.8855507868383404 
</TABLE>
</DEFINITION>
<DEFINITION>
<FOR>X1610</FOR>
	<GIVEN>X792</GIVEN>
	<GIVEN>X1561</GIVEN>
<TABLE>
0.9473007712082262 0.05012853470437018 0.0012853470437017994 0.0012853470437017994 
0.18902439024390244 0.7987804878048781 0.006097560975609756 0.006097560975609756 
0.25 0.25 0.25 0.25 
0.625 0.3392857142857143 0.017857142857142856 0.017857142857142856 
0.014683734939759037 0.9446536144578314 0.038780120481927714 0.0018825301204819277 
0.05555555555555555 0.05555555555555555 0.16666666666666666 0.7222222222222222 
0.16666666666666666 0.5 0.16666666666666666 0.16666666666666666 
0.0040650406504065045 0.25609756097560976 0.6951219512195121 0.044715447154471545 
0.045454545454545456 0.045454545454545456 0.045454545454545456 0.8636363636363636 
0.25 0.25 0.25 0.25 
0.017857142857142856 0.19642857142857142 0.5892857142857143 0.19642857142857142 
0.021739130434782608 0.021739130434782608 0.06521739130434782 0.8913043478260869 
0.25 0.25 0.25 0.25 
0.022058823529411766 0.3161764705882353 0.34558823529411764 0.3161764705882353 
0.0013812154696132596 0.004143646408839779 0.017955801104972375 0.9765193370165746 
</TABLE>
</DEFINITION>
<DEFINITION>
<FOR>X1666</FOR>
	<GIVEN>X1364</GIVEN>
	<GIVEN>X1461</GIVEN>
<TABLE>
0.48777173913043476 0.5122282608695652 
0.25735294117647056 0.7426470588235294 
0.2403225806451613 0.7596774193548387 
0.04981549815498155 0.9501845018450185 
0.038 0.962 
0.001607717041800643 0.9983922829581994 
0.025 0.975 
0.0022935779816513763 0.9977064220183486 
</TABLE>
</DEFINITION>
<DEFINITION>
<FOR>X1667</FOR>
	<GIVEN>X1666</GIVEN>
	<GIVEN>X1461</GIVEN>
<TABLE>
0.7927756653992395 0.20722433460076045 
0.578125 0.421875 
0.10761346998535871 0.8923865300146413 
0.005837912087912088 0.9941620879120879 
</TABLE>
</DEFINITION>
<DEFINITION>
<FOR>X1694</FOR>
	<GIVEN>X1667</GIVEN>
	<GIVEN>X1121</GIVEN>
<TABLE>
0.774798927613941 0.2225201072386059 0.002680965147453083 
0.7676348547717843 0.21161825726141079 0.02074688796680498 
0.3333333333333333 0.3333333333333333 0.3333333333333333 
0.3333333333333333 0.3333333333333333 0.3333333333333333 
0.17050691244239632 0.8125960061443932 0.016897081413210446 
0.0570694087403599 0.8652956298200514 0.07763496143958869 
0.005107252298263534 0.8610827374872319 0.1338100102145046 
0.0014641288433382138 0.6222547584187409 0.3762811127379209 
</TABLE>
</DEFINITION>
<DEFINITION>
<FOR>X1695</FOR>
	<GIVEN>X1694</GIVEN>
	<GIVEN>X1666</GIVEN>
<TABLE>
0.8767441860465116 0.12325581395348838 
0.5772058823529411 0.4227941176470588 
0.3269230769230769 0.6730769230769231 
0.012434933487565067 0.9875650665124349 
0.16666666666666666 0.8333333333333334 
0.0018181818181818182 0.9981818181818182 
</TABLE>
</DEFINITION>
<DEFINITION>
<FOR>X1713</FOR>
	<GIVEN>X1666</GIVEN>
	<GIVEN>X841</GIVEN>
<TABLE>
0.9392405063291139 0.05822784810126582 0.002531645569620253 
0.8883248730964467 0.1065989847715736 0.005076142131979695 
0.3333333333333333 0.3333333333333333 0.3333333333333333 
0.3333333333333333 0.3333333333333333 0.3333333333333333 
0.024574669187145556 0.9243856332703214 0.05103969754253308 
0.006355140186915888 0.6770093457943925 0.3166355140186916 
0.003003003003003003 0.2732732732732733 0.7237237237237237 
0.0013351134846461949 0.19359145527369825 0.8050734312416555 
</TABLE>
</DEFINITION>
<DEFINITION>
<FOR>X1714</FOR>
	<GIVEN>X1667</GIVEN>
	<GIVEN>X1713</GIVEN>
<TABLE>
0.9366812227074236 0.06331877729257641 
0.65625 0.34375 
0.5 0.5 
0.09322033898305085 0.9067796610169492 
0.0037220843672456576 0.9962779156327544 
5.827505827505828E-4 0.9994172494172494 
</TABLE>
</DEFINITION>
<DEFINITION>
<FOR>X1715</FOR>
	<GIVEN>X1667</GIVEN>
	<GIVEN>X1694</GIVEN>
<TABLE>
0.930672268907563 0.06932773109243698 
0.8455882352941176 0.15441176470588236 
0.875 0.125 
0.3407079646017699 0.6592920353982301 
0.03824036802760207 0.9617596319723979 
0.0018248175182481751 0.9981751824817519 
</TABLE>
</DEFINITION>
<DEFINITION>
<FOR>X1742</FOR>
	<GIVEN>X1694</GIVEN>
	<GIVEN>X1715</GIVEN>
<TABLE>
0.8788461538461538 0.12115384615384615 
0.521978021978022 0.47802197802197804 
0.29435483870967744 0.7056451612903226 
0.013368983957219251 0.9866310160427807 
0.125 0.875 
0.0018248175182481751 0.9981751824817519 
</TABLE>
</DEFINITION>
<DEFINITION>
<FOR>X1743</FOR>
	<GIVEN>X1694</GIVEN>
	<GIVEN>X1742</GIVEN>
<TABLE>
0.9510869565217391 0.04891304347826087 
0.54 0.46 
0.09322033898305085 0.9067796610169492 
8.581235697940503E-4 0.9991418764302059 
0.5 0.5 
0.0018050541516245488 0.9981949458483754 
</TABLE>
</DEFINITION>
<DEFINITION>
<FOR>X1744</FOR>
	<GIVEN>X1695</GIVEN>
	<GIVEN>X1743</GIVEN>
<TABLE>
0.9979253112033195 0.002074688796680498 
0.7876712328767124 0.21232876712328766 
0.41304347826086957 0.5869565217391305 
0.008532423208191127 0.9914675767918089 
</TABLE>
</DEFINITION>
<DEFINITION>
<FOR>X1760</FOR>
	<GIVEN>X1713</GIVEN>
	<GIVEN>X1694</GIVEN>
<TABLE>
0.6032863849765259 0.392018779342723 0.002347417840375587 0.002347417840375587 
0.3 0.6866666666666666 0.006666666666666667 0.006666666666666667 
0.375 0.375 0.125 0.125 
0.028 0.964 0.004 0.004 
4.528985507246377E-4 0.9895833333333334 0.009510869565217392 4.528985507246377E-4 
0.0078125 0.9296875 0.0546875 0.0078125 
0.029411764705882353 0.38235294117647056 0.4411764705882353 0.14705882352941177 
7.911392405063291E-4 0.2697784810126582 0.4786392405063291 0.25079113924050633 
0.002336448598130841 0.10514018691588785 0.21261682242990654 0.6799065420560748 
</TABLE>
</DEFINITION>
<DEFINITION>
<FOR>X1761</FOR>
	<GIVEN>X1714</GIVEN>
	<GIVEN>X1760</GIVEN>
<TABLE>
0.9566666666666667 0.043333333333333335 
0.6023622047244095 0.39763779527559057 
0.5 0.5 
0.5 0.5 
0.08333333333333333 0.9166666666666666 
0.0030425963488843813 0.9969574036511156 
0.001358695652173913 0.998641304347826 
0.0016339869281045752 0.9983660130718954 
</TABLE>
</DEFINITION>
<DEFINITION>
<FOR>X1762</FOR>
	<GIVEN>X1715</GIVEN>
	<GIVEN>X1694</GIVEN>
<TABLE>
0.9769673704414588 0.02111324376199616 0.0019193857965451055 
0.8714859437751004 0.12449799196787148 0.004016064257028112 
0.7777777777777778 0.1111111111111111 0.1111111111111111 
0.11475409836065574 0.8797814207650273 0.00546448087431694 
0.007425007425007425 0.9803979803979804 0.012177012177012177 
0.0018214936247723133 0.7413479052823315 0.2568306010928962 
</TABLE>
</DEFINITION>
<DEFINITION>
<FOR>X2095</FOR>
	<GIVEN>X1713</GIVEN>
	<GIVEN>X792</GIVEN>
<TABLE>
0.9285714285714286 0.07142857142857142 
0.7123893805309734 0.28761061946902655 
0.5 0.5 
0.5 0.5 
0.5 0.5 
0.697463768115942 0.302536231884058 
0.4304906542056075 0.5695093457943925 
0.08139534883720931 0.9186046511627907 
0.25 0.75 
0.529126213592233 0.470873786407767 
0.07894736842105263 0.9210526315789473 
0.14885496183206107 0.851145038167939 
0.05 0.95 
0.12857142857142856 0.8714285714285714 
0.26615384615384613 0.7338461538461538 
</TABLE>
</DEFINITION>
<DEFINITION>
<FOR>X2096</FOR>
	<GIVEN>X2095</GIVEN>
	<GIVEN>X1171</GIVEN>
<TABLE>
0.9917787742899851 0.008221225710014948 
0.9952681388012619 0.00473186119873817 
0.921875 0.078125 
0.40756302521008403 0.592436974789916 
0.2357992073976222 0.7642007926023778 
0.23484848484848486 0.7651515151515151 
</TABLE>
</DEFINITION>
<DEFINITION>
<FOR>X2138</FOR>
	<GIVEN>X1610</GIVEN>
	<GIVEN>X2095</GIVEN>
<TABLE>
0.2555391432791728 0.6779911373707533 0.051698670605613 0.013293943870014771 0.0014771048744460858 
0.028901734104046242 0.5838150289017341 0.2023121387283237 0.1676300578034682 0.017341040462427744 
0.085824493731919 0.5891996142719382 0.2536162005785921 0.0665380906460945 0.0048216007714561235 
0.00392156862745098 0.08123249299719888 0.23809523809523808 0.5641456582633053 0.11260504201680673 
0.015384615384615385 0.35384615384615387 0.2923076923076923 0.3230769230769231 0.015384615384615385 
0.003215434083601286 0.04180064308681672 0.06752411575562701 0.6270096463022508 0.2604501607717042 
0.0036900369003690036 0.09225092250922509 0.1881918819188192 0.3505535055350554 0.36531365313653136 
0.0017211703958691911 0.05679862306368331 0.043029259896729774 0.3459552495697074 0.5524956970740104 
</TABLE>
</DEFINITION>
<DEFINITION>
<FOR>X2139</FOR>
	<GIVEN>X2138</GIVEN>
	<GIVEN>X2095</GIVEN>
<TABLE>
0.5320754716981132 0.3283018867924528 0.12452830188679245 0.011320754716981131 0.0037735849056603774 
0.3333333333333333 0.2 0.3333333333333333 0.06666666666666667 0.06666666666666667 
0.004468275245755138 0.05987488829311886 0.9320822162645219 0.002680965147453083 8.936550491510277E-4 
0.0034129692832764505 0.010238907849829351 0.9180887372013652 0.06484641638225255 0.0034129692832764505 
0.0027100271002710027 0.0027100271002710027 0.8428184281842819 0.14905149051490515 0.0027100271002710027 
0.0019723865877712033 0.0019723865877712033 0.5581854043392505 0.4319526627218935 0.005917159763313609 
0.005128205128205128 0.005128205128205128 0.30256410256410254 0.6615384615384615 0.02564102564102564 
6.978367062107466E-4 6.978367062107466E-4 0.03558967201674808 0.8841591067690161 0.07885554780181438 
0.009345794392523364 0.009345794392523364 0.1588785046728972 0.5700934579439252 0.2523364485981308 
0.0016474464579901153 0.0016474464579901153 0.0016474464579901153 0.1301482701812191 0.8649093904448105 
</TABLE>
</DEFINITION>
<DEFINITION>
<FOR>X2140</FOR>
	<GIVEN>X2139</GIVEN>
	<GIVEN>X2095</GIVEN>
<TABLE>
0.7583892617449665 0.2214765100671141 0.006711409395973154 0.006711409395973154 0.006711409395973154 
0.3333333333333333 0.1111111111111111 0.3333333333333333 0.1111111111111111 0.1111111111111111 
0.044585987261146494 0.8853503184713376 0.05732484076433121 0.006369426751592357 0.006369426751592357 
0.1111111111111111 0.5555555555555556 0.1111111111111111 0.1111111111111111 0.1111111111111111 
0.002050580997949419 0.15105946684894053 0.7689678742310321 0.07723855092276145 6.83526999316473E-4 
0.0016420361247947454 0.024630541871921183 0.4745484400656814 0.4942528735632184 0.0049261083743842365 
0.00398406374501992 0.027888446215139442 0.24302788844621515 0.7211155378486056 0.00398406374501992 
6.309148264984228E-4 6.309148264984228E-4 0.013249211356466877 0.9331230283911672 0.05236593059936909 
0.02857142857142857 0.02857142857142857 0.14285714285714285 0.6571428571428571 0.14285714285714285 
0.0015552099533437014 0.0015552099533437014 0.0015552099533437014 0.20684292379471228 0.7884914463452566 
</TABLE>
</DEFINITION>
<DEFINITION>
<FOR>X2165</FOR>
	<GIVEN>X2096</GIVEN>
	<GIVEN>X2140</GIVEN>
<TABLE>
0.9596774193548387 0.024193548387096774 0.008064516129032258 0.008064516129032258 
0.7846534653465347 0.1707920792079208 0.03712871287128713 0.007425742574257425 
0.7381635581061693 0.21736011477761835 0.025107604017216643 0.019368723098995694 
0.4536637931034483 0.3954741379310345 0.10452586206896551 0.04633620689655173 
0.35185185185185186 0.42592592592592593 0.16666666666666666 0.05555555555555555 
0.5 0.16666666666666666 0.16666666666666666 0.16666666666666666 
0.05555555555555555 0.05555555555555555 0.7222222222222222 0.16666666666666666 
0.30833333333333335 0.19166666666666668 0.20833333333333334 0.2916666666666667 
0.24003067484662577 0.3995398773006135 0.3121165644171779 0.04831288343558282 
0.2281021897810219 0.29014598540145986 0.3302919708029197 0.15145985401459855 
</TABLE>
</DEFINITION>
<DEFINITION>
<FOR>X2213</FOR>
	<GIVEN>X2165</GIVEN>
	<GIVEN>X2140</GIVEN>
<TABLE>
0.968 0.008 0.008 0.008 0.008 
0.8130841121495327 0.16510903426791276 0.01557632398753894 0.003115264797507788 0.003115264797507788 
0.5322731524789522 0.46117867165575305 0.004677268475210477 9.354536950420954E-4 9.354536950420954E-4 
0.3622795115332429 0.6227951153324288 0.012211668928086838 0.0013568521031207597 0.0013568521031207597 
0.2653061224489796 0.6870748299319728 0.034013605442176874 0.006802721088435374 0.006802721088435374 
0.14285714285714285 0.42857142857142855 0.14285714285714285 0.14285714285714285 0.14285714285714285 
0.0136986301369863 0.4794520547945205 0.4520547945205479 0.0410958904109589 0.0136986301369863 
0.02127659574468085 0.513677811550152 0.44072948328267475 0.02127659574468085 0.00303951367781155 
0.001122334455667789 0.26374859708193044 0.7104377104377104 0.02356902356902357 0.001122334455667789 
0.016216216216216217 0.24324324324324326 0.7189189189189189 0.016216216216216217 0.005405405405405406 
0.2 0.2 0.2 0.2 0.2 
0.03225806451612903 0.03225806451612903 0.22580645161290322 0.6129032258064516 0.0967741935483871 
0.015873015873015872 0.015873015873015872 0.015873015873015872 0.873015873015873 0.07936507936507936 
0.0019723865877712033 0.0019723865877712033 0.14398422090729784 0.834319526627219 0.01775147928994083 
0.0051813471502590676 0.015544041450777202 0.08808290155440414 0.8652849740932642 0.025906735751295335 
0.2 0.2 0.2 0.2 0.2 
0.1111111111111111 0.1111111111111111 0.1111111111111111 0.1111111111111111 0.5555555555555556 
0.015384615384615385 0.015384615384615385 0.015384615384615385 0.015384615384615385 0.9384615384615385 
0.009174311926605505 0.009174311926605505 0.009174311926605505 0.08256880733944955 0.8899082568807339 
0.011235955056179775 0.011235955056179775 0.011235955056179775 0.056179775280898875 0.9101123595505618 
</TABLE>
</DEFINITION>
<DEFINITION>
<FOR>X2214</FOR>
	<GIVEN>X2213</GIVEN>
	<GIVEN>X2165</GIVEN>
<TABLE>
0.9912420382165605 0.007165605095541401 7.961783439490446E-4 7.961783439490446E-4 
0.75 0.08333333333333333 0.08333333333333333 0.08333333333333333 
0.25 0.25 0.25 0.25 
0.25 0.25 0.25 0.25 
0.8851717902350814 0.11301989150090416 9.041591320072332E-4 9.041591320072332E-4 
0.44650205761316875 0.5452674897119342 0.006172839506172839 0.00205761316872428 
0.16666666666666666 0.5 0.16666666666666666 0.16666666666666666 
0.25 0.25 0.25 0.25 
0.125 0.625 0.20833333333333334 0.041666666666666664 
0.045550847457627115 0.9014830508474576 0.05190677966101695 0.001059322033898305 
0.05102040816326531 0.5816326530612245 0.35714285714285715 0.01020408163265306 
0.25 0.25 0.25 0.25 
0.25 0.25 0.25 0.25 
0.029411764705882353 0.5588235294117647 0.38235294117647056 0.029411764705882353 
0.004518072289156626 0.06475903614457831 0.9171686746987951 0.01355421686746988 
0.0625 0.0625 0.6875 0.1875 
0.25 0.25 0.25 0.25 
0.25 0.25 0.25 0.25 
0.045454545454545456 0.045454545454545456 0.3181818181818182 0.5909090909090909 
0.004098360655737705 0.004098360655737705 0.06967213114754098 0.9221311475409836 
</TABLE>
</DEFINITION>
<DEFINITION>
<FOR>X2215</FOR>
	<GIVEN>X2214</GIVEN>
	<GIVEN>X2213</GIVEN>
<TABLE>
0.9864433811802232 0.013556618819776715 
0.9623745819397993 0.03762541806020067 
0.78 0.22 
0.25 0.75 
0.5 0.5 
0.3 0.7 
0.5127551020408163 0.4872448979591837 
0.10737527114967461 0.8926247288503254 
0.20967741935483872 0.7903225806451613 
0.5 0.5 
0.5 0.5 
0.25 0.75 
0.03409090909090909 0.9659090909090909 
0.007911392405063292 0.9920886075949367 
0.041666666666666664 0.9583333333333334 
0.5 0.5 
0.5 0.5 
0.5 0.5 
0.08333333333333333 0.9166666666666666 
0.004201680672268907 0.9957983193277311 
</TABLE>
</DEFINITION>
<DEFINITION>
<FOR>X2260</FOR>
	<GIVEN>X2213</GIVEN>
	<GIVEN>X2165</GIVEN>
<TABLE>
0.992822966507177 0.007177033492822967 
0.7 0.3 
0.5 0.5 
0.5 0.5 
0.9266304347826086 0.07336956521739131 
0.6425619834710744 0.3574380165289256 
0.75 0.25 
0.5 0.5 
0.3181818181818182 0.6818181818181818 
0.09023354564755838 0.9097664543524416 
0.03125 0.96875 
0.5 0.5 
0.5 0.5 
0.03125 0.96875 
0.0015105740181268882 0.9984894259818731 
0.07142857142857142 0.9285714285714286 
0.5 0.5 
0.5 0.5 
0.05 0.95 
0.004132231404958678 0.9958677685950413 
</TABLE>
</DEFINITION>
<DEFINITION>
<FOR>X2261</FOR>
	<GIVEN>X2213</GIVEN>
	<GIVEN>X2214</GIVEN>
<TABLE>
0.9976114649681529 7.961783439490446E-4 7.961783439490446E-4 7.961783439490446E-4 
0.5833333333333334 0.25 0.08333333333333333 0.08333333333333333 
0.25 0.25 0.25 0.25 
0.25 0.25 0.25 0.25 
0.8873121869782972 0.11101836393989983 8.347245409015025E-4 8.347245409015025E-4 
0.2715736040609137 0.7233502538071066 0.0025380710659898475 0.0025380710659898475 
0.16666666666666666 0.5 0.16666666666666666 0.16666666666666666 
0.25 0.25 0.25 0.25 
0.21153846153846154 0.75 0.019230769230769232 0.019230769230769232 
0.01406926406926407 0.9837662337662337 0.0010822510822510823 0.0010822510822510823 
0.011111111111111112 0.9444444444444444 0.011111111111111112 0.03333333333333333 
0.25 0.25 0.25 0.25 
0.16666666666666666 0.5 0.16666666666666666 0.16666666666666666 
0.015625 0.734375 0.203125 0.046875 
0.0015772870662460567 0.7618296529968455 0.222397476340694 0.014195583596214511 
0.07142857142857142 0.07142857142857142 0.6428571428571429 0.21428571428571427 
0.25 0.25 0.25 0.25 
0.25 0.25 0.25 0.25 
0.038461538461538464 0.11538461538461539 0.038461538461538464 0.8076923076923077 
0.004166666666666667 0.004166666666666667 0.029166666666666667 0.9625 
</TABLE>
</DEFINITION>
<DEFINITION>
<FOR>X2262</FOR>
	<GIVEN>X2214</GIVEN>
	<GIVEN>X2261</GIVEN>
<TABLE>
0.9935567010309279 0.005584192439862543 4.29553264604811E-4 4.29553264604811E-4 
0.7670454545454546 0.2215909090909091 0.005681818181818182 0.005681818181818182 
0.25 0.25 0.25 0.25 
0.25 0.25 0.25 0.25 
0.4296875 0.5546875 0.0078125 0.0078125 
0.04903536977491962 0.9043408360128617 0.04581993569131833 8.038585209003215E-4 
0.0625 0.0625 0.8125 0.0625 
0.16666666666666666 0.16666666666666666 0.16666666666666666 0.5 
0.25 0.25 0.25 0.25 
0.0017421602787456446 0.09233449477351917 0.9006968641114983 0.005226480836236934 
0.006944444444444444 0.020833333333333332 0.9236111111111112 0.04861111111111111 
0.029411764705882353 0.029411764705882353 0.4411764705882353 0.5 
0.25 0.25 0.25 0.25 
0.25 0.25 0.25 0.25 
0.05555555555555555 0.05555555555555555 0.5 0.3888888888888889 
0.00423728813559322 0.00423728813559322 0.029661016949152543 0.961864406779661 
</TABLE>
</DEFINITION>
<DEFINITION>
<FOR>X2263</FOR>
	<GIVEN>X2213</GIVEN>
	<GIVEN>X2215</GIVEN>
<TABLE>
0.9484286865431104 0.04915390813859791 0.0024174053182917004 
0.12 0.12 0.76 
0.35550628233555065 0.6053215077605322 0.03917220990391722 
0.02092050209205021 0.18828451882845187 0.7907949790794979 
0.2765957446808511 0.5319148936170213 0.19148936170212766 
0.001088139281828074 0.06637649619151251 0.9325353645266594 
0.2631578947368421 0.47368421052631576 0.2631578947368421 
0.001451378809869376 0.001451378809869376 0.9970972423802612 
0.3333333333333333 0.3333333333333333 0.3333333333333333 
0.0038314176245210726 0.0038314176245210726 0.9923371647509579 
</TABLE>
</DEFINITION>
<DEFINITION>
<FOR>X2264</FOR>
	<GIVEN>X2263</GIVEN>
	<GIVEN>X2262</GIVEN>
<TABLE>
0.9063426200355661 0.08476585655008892 0.007705986959098993 5.927682276229994E-4 5.927682276229994E-4 
0.7037037037037037 0.1111111111111111 0.1111111111111111 0.037037037037037035 0.037037037037037035 
0.2 0.2 0.2 0.2 0.2 
0.2 0.2 0.2 0.2 0.2 
0.054637865311308764 0.8119440914866582 0.12579415501905972 0.0063532401524777635 0.0012706480304955528 
0.08013937282229965 0.7700348432055749 0.14285714285714285 0.003484320557491289 0.003484320557491289 
0.14285714285714285 0.42857142857142855 0.14285714285714285 0.14285714285714285 0.14285714285714285 
0.2 0.2 0.2 0.2 0.2 
0.009900990099009901 0.10891089108910891 0.7425742574257426 0.10891089108910891 0.0297029702970297 
0.001001001001001001 0.07707707707707707 0.8058058058058059 0.11311311311311312 0.003003003003003003 
0.006693440428380187 0.014725568942436412 0.1539491298527443 0.7938420348058902 0.030789825970548863 
0.0038022813688212928 0.0038022813688212928 0.011406844106463879 0.13307984790874525 0.8479087452471483 
</TABLE>
</DEFINITION>
<DEFINITION>
<FOR>LABEL</FOR>
<TABLE>
0.08658988070752777 0.9134101192924723 
</TABLE>
</DEFINITION>
</NETWORK>
</BIF>
