<?xml version="1.0"?>
<!-- DTD for the XMLBIF 0.3 format -->
<!DOCTYPE BIF [
	<!ELEMENT BIF ( NETWORK )*>
	      <!ATTLIST BIF VERSION CDATA #REQUIRED>
	<!ELEMENT NETWORK ( NAME, ( PROPERTY | VARIABLE | DEFINITION )* )>
	<!ELEMENT NAME (#PCDATA)>
	<!ELEMENT VARIABLE ( NAME, ( OUTCOME |  PROPERTY )* ) >
	      <!ATTLIST VARIABLE TYPE (nature|decision|utility) "nature">
	<!ELEMENT OUTCOME (#PCDATA)>
	<!ELEMENT DEFINITION ( FOR | GIVEN | TABLE | PROPERTY )* >
	<!ELEMENT FOR (#PCDATA)>
	<!ELEMENT GIVEN (#PCDATA)>
	<!ELEMENT TABLE (#PCDATA)>
	<!ELEMENT PROPERTY (#PCDATA)>
]>


<BIF VERSION="0.3">
<NETWORK>
<NAME>&apos;x_train_smpl_bin-weka.filters.unsupervised.attribute.NumericToNominal-Rlast-weka.filters.unsupervised.instance.Randomize-S42-weka.filters.unsupervised.attribute.Remove-R1-743,748-791,797-840,845-935,937-981,985-1024,1028-1029,1033-1071,1076-1085,1088-1119,1123-1125,1127-1133,1136-1167,1175-1181,1186-1214,1222-1230,1232-1262,1271-1310,1319-1360,1367-1408,1411-1459,1463-1468,1471,1474-1506,1510-1517,1520-1561,1565-1610,1612-1646,1648-1666,1669-1694,1698-1713,1717-1742,1746-1760,1765-1791,1795-1808,1810-1979,1981-2025,2030-2049,2052-2078,2080-2094,2099-2138,2144-2164,2168-2186,2188-2211,2218-2259,2266-2269,2272-2304-weka.filters.supervised.attribute.Discretize-Rfirst-last-precision6-weka.filters.unsupervised.attribute.ReplaceMissingValues&apos;</NAME>
<VARIABLE TYPE="nature">
	<NAME>X743</NAME>
	<OUTCOME>&apos;\&apos;(-inf-101.5]\&apos;&apos;</OUTCOME>
	<OUTCOME>&apos;\&apos;(101.5-228.5]\&apos;&apos;</OUTCOME>
	<OUTCOME>&apos;\&apos;(228.5-252.5]\&apos;&apos;</OUTCOME>
	<OUTCOME>&apos;\&apos;(252.5-inf)\&apos;&apos;</OUTCOME>
	<PROPERTY>position = (441,96)</PROPERTY>
</VARIABLE>
<VARIABLE TYPE="nature">
	<NAME>X744</NAME>
	<OUTCOME>&apos;\&apos;(-inf-102.5]\&apos;&apos;</OUTCOME>
	<OUTCOME>&apos;\&apos;(102.5-226.5]\&apos;&apos;</OUTCOME>
	<OUTCOME>&apos;\&apos;(226.5-252.5]\&apos;&apos;</OUTCOME>
	<OUTCOME>&apos;\&apos;(252.5-inf)\&apos;&apos;</OUTCOME>
	<PROPERTY>position = (392,192)</PROPERTY>
</VARIABLE>
<VARIABLE TYPE="nature">
	<NAME>X745</NAME>
	<OUTCOME>&apos;\&apos;(-inf-102.5]\&apos;&apos;</OUTCOME>
	<OUTCOME>&apos;\&apos;(102.5-232.5]\&apos;&apos;</OUTCOME>
	<OUTCOME>&apos;\&apos;(232.5-251.5]\&apos;&apos;</OUTCOME>
	<OUTCOME>&apos;\&apos;(251.5-inf)\&apos;&apos;</OUTCOME>
	<PROPERTY>position = (539,288)</PROPERTY>
</VARIABLE>
<VARIABLE TYPE="nature">
	<NAME>X746</NAME>
	<OUTCOME>&apos;\&apos;(-inf-102.5]\&apos;&apos;</OUTCOME>
	<OUTCOME>&apos;\&apos;(102.5-225.5]\&apos;&apos;</OUTCOME>
	<OUTCOME>&apos;\&apos;(225.5-248.5]\&apos;&apos;</OUTCOME>
	<OUTCOME>&apos;\&apos;(248.5-252.5]\&apos;&apos;</OUTCOME>
	<OUTCOME>&apos;\&apos;(252.5-inf)\&apos;&apos;</OUTCOME>
	<PROPERTY>position = (588,384)</PROPERTY>
</VARIABLE>
<VARIABLE TYPE="nature">
	<NAME>X791</NAME>
	<OUTCOME>&apos;\&apos;(-inf-100.5]\&apos;&apos;</OUTCOME>
	<OUTCOME>&apos;\&apos;(100.5-231]\&apos;&apos;</OUTCOME>
	<OUTCOME>&apos;\&apos;(231-251.5]\&apos;&apos;</OUTCOME>
	<OUTCOME>&apos;\&apos;(251.5-inf)\&apos;&apos;</OUTCOME>
	<PROPERTY>position = (637,384)</PROPERTY>
</VARIABLE>
<VARIABLE TYPE="nature">
	<NAME>X792</NAME>
	<OUTCOME>&apos;\&apos;(-inf-102.5]\&apos;&apos;</OUTCOME>
	<OUTCOME>&apos;\&apos;(102.5-230.5]\&apos;&apos;</OUTCOME>
	<OUTCOME>&apos;\&apos;(230.5-248.5]\&apos;&apos;</OUTCOME>
	<OUTCOME>&apos;\&apos;(248.5-253.5]\&apos;&apos;</OUTCOME>
	<OUTCOME>&apos;\&apos;(253.5-inf)\&apos;&apos;</OUTCOME>
	<PROPERTY>position = (735,480)</PROPERTY>
</VARIABLE>
<VARIABLE TYPE="nature">
	<NAME>X793</NAME>
	<OUTCOME>&apos;\&apos;(-inf-99.5]\&apos;&apos;</OUTCOME>
	<OUTCOME>&apos;\&apos;(99.5-230.5]\&apos;&apos;</OUTCOME>
	<OUTCOME>&apos;\&apos;(230.5-246.5]\&apos;&apos;</OUTCOME>
	<OUTCOME>&apos;\&apos;(246.5-252.5]\&apos;&apos;</OUTCOME>
	<OUTCOME>&apos;\&apos;(252.5-inf)\&apos;&apos;</OUTCOME>
	<PROPERTY>position = (588,576)</PROPERTY>
</VARIABLE>
<VARIABLE TYPE="nature">
	<NAME>X794</NAME>
	<OUTCOME>&apos;\&apos;(-inf-99.5]\&apos;&apos;</OUTCOME>
	<OUTCOME>&apos;\&apos;(99.5-225.5]\&apos;&apos;</OUTCOME>
	<OUTCOME>&apos;\&apos;(225.5-250.5]\&apos;&apos;</OUTCOME>
	<OUTCOME>&apos;\&apos;(250.5-inf)\&apos;&apos;</OUTCOME>
	<PROPERTY>position = (441,672)</PROPERTY>
</VARIABLE>
<VARIABLE TYPE="nature">
	<NAME>X795</NAME>
	<OUTCOME>&apos;\&apos;(-inf-113.5]\&apos;&apos;</OUTCOME>
	<OUTCOME>&apos;\&apos;(113.5-248.5]\&apos;&apos;</OUTCOME>
	<OUTCOME>&apos;\&apos;(248.5-inf)\&apos;&apos;</OUTCOME>
	<PROPERTY>position = (343,768)</PROPERTY>
</VARIABLE>
<VARIABLE TYPE="nature">
	<NAME>X840</NAME>
	<OUTCOME>&apos;\&apos;(-inf-100.5]\&apos;&apos;</OUTCOME>
	<OUTCOME>&apos;\&apos;(100.5-228.5]\&apos;&apos;</OUTCOME>
	<OUTCOME>&apos;\&apos;(228.5-250.5]\&apos;&apos;</OUTCOME>
	<OUTCOME>&apos;\&apos;(250.5-inf)\&apos;&apos;</OUTCOME>
	<PROPERTY>position = (539,672)</PROPERTY>
</VARIABLE>
<VARIABLE TYPE="nature">
	<NAME>X841</NAME>
	<OUTCOME>&apos;\&apos;(-inf-97.5]\&apos;&apos;</OUTCOME>
	<OUTCOME>&apos;\&apos;(97.5-229.5]\&apos;&apos;</OUTCOME>
	<OUTCOME>&apos;\&apos;(229.5-251.5]\&apos;&apos;</OUTCOME>
	<OUTCOME>&apos;\&apos;(251.5-inf)\&apos;&apos;</OUTCOME>
	<PROPERTY>position = (490,768)</PROPERTY>
</VARIABLE>
<VARIABLE TYPE="nature">
	<NAME>X842</NAME>
	<OUTCOME>&apos;\&apos;(-inf-113.5]\&apos;&apos;</OUTCOME>
	<OUTCOME>&apos;\&apos;(113.5-248.5]\&apos;&apos;</OUTCOME>
	<OUTCOME>&apos;\&apos;(248.5-inf)\&apos;&apos;</OUTCOME>
	<PROPERTY>position = (343,864)</PROPERTY>
</VARIABLE>
<VARIABLE TYPE="nature">
	<NAME>X843</NAME>
	<OUTCOME>&apos;\&apos;(-inf-246.5]\&apos;&apos;</OUTCOME>
	<OUTCOME>&apos;\&apos;(246.5-inf)\&apos;&apos;</OUTCOME>
	<PROPERTY>position = (490,960)</PROPERTY>
</VARIABLE>
<VARIABLE TYPE="nature">
	<NAME>X935</NAME>
	<OUTCOME>&apos;\&apos;(-inf-239.5]\&apos;&apos;</OUTCOME>
	<OUTCOME>&apos;\&apos;(239.5-inf)\&apos;&apos;</OUTCOME>
	<PROPERTY>position = (98,960)</PROPERTY>
</VARIABLE>
<VARIABLE TYPE="nature">
	<NAME>X981</NAME>
	<OUTCOME>&apos;\&apos;(-inf-68.5]\&apos;&apos;</OUTCOME>
	<OUTCOME>&apos;\&apos;(68.5-199.5]\&apos;&apos;</OUTCOME>
	<OUTCOME>&apos;\&apos;(199.5-inf)\&apos;&apos;</OUTCOME>
	<PROPERTY>position = (196,960)</PROPERTY>
</VARIABLE>
<VARIABLE TYPE="nature">
	<NAME>X982</NAME>
	<OUTCOME>&apos;\&apos;(-inf-163.5]\&apos;&apos;</OUTCOME>
	<OUTCOME>&apos;\&apos;(163.5-inf)\&apos;&apos;</OUTCOME>
	<PROPERTY>position = (49,1056)</PROPERTY>
</VARIABLE>
<VARIABLE TYPE="nature">
	<NAME>X983</NAME>
	<OUTCOME>&apos;\&apos;(-inf-208.5]\&apos;&apos;</OUTCOME>
	<OUTCOME>&apos;\&apos;(208.5-inf)\&apos;&apos;</OUTCOME>
	<PROPERTY>position = (0,1152)</PROPERTY>
</VARIABLE>
<VARIABLE TYPE="nature">
	<NAME>X1024</NAME>
	<OUTCOME>&apos;\&apos;(-inf-99.5]\&apos;&apos;</OUTCOME>
	<OUTCOME>&apos;\&apos;(99.5-236.5]\&apos;&apos;</OUTCOME>
	<OUTCOME>&apos;\&apos;(236.5-inf)\&apos;&apos;</OUTCOME>
	<PROPERTY>position = (294,1056)</PROPERTY>
</VARIABLE>
<VARIABLE TYPE="nature">
	<NAME>X1025</NAME>
	<OUTCOME>&apos;\&apos;(-inf-73.5]\&apos;&apos;</OUTCOME>
	<OUTCOME>&apos;\&apos;(73.5-246.5]\&apos;&apos;</OUTCOME>
	<OUTCOME>&apos;\&apos;(246.5-inf)\&apos;&apos;</OUTCOME>
	<PROPERTY>position = (539,1152)</PROPERTY>
</VARIABLE>
<VARIABLE TYPE="nature">
	<NAME>X1026</NAME>
	<OUTCOME>&apos;\&apos;(-inf-99.5]\&apos;&apos;</OUTCOME>
	<OUTCOME>&apos;\&apos;(99.5-246.5]\&apos;&apos;</OUTCOME>
	<OUTCOME>&apos;\&apos;(246.5-inf)\&apos;&apos;</OUTCOME>
	<PROPERTY>position = (686,1248)</PROPERTY>
</VARIABLE>
<VARIABLE TYPE="nature">
	<NAME>X1029</NAME>
	<OUTCOME>&apos;\&apos;(-inf-98.5]\&apos;&apos;</OUTCOME>
	<OUTCOME>&apos;\&apos;(98.5-228.5]\&apos;&apos;</OUTCOME>
	<OUTCOME>&apos;\&apos;(228.5-inf)\&apos;&apos;</OUTCOME>
	<PROPERTY>position = (245,1056)</PROPERTY>
</VARIABLE>
<VARIABLE TYPE="nature">
	<NAME>X1030</NAME>
	<OUTCOME>&apos;\&apos;(-inf-169.5]\&apos;&apos;</OUTCOME>
	<OUTCOME>&apos;\&apos;(169.5-inf)\&apos;&apos;</OUTCOME>
	<PROPERTY>position = (196,1152)</PROPERTY>
</VARIABLE>
<VARIABLE TYPE="nature">
	<NAME>X1031</NAME>
	<OUTCOME>&apos;\&apos;(-inf-190.5]\&apos;&apos;</OUTCOME>
	<OUTCOME>&apos;\&apos;(190.5-inf)\&apos;&apos;</OUTCOME>
	<PROPERTY>position = (49,1248)</PROPERTY>
</VARIABLE>
<VARIABLE TYPE="nature">
	<NAME>X1071</NAME>
	<OUTCOME>&apos;\&apos;(-inf-92.5]\&apos;&apos;</OUTCOME>
	<OUTCOME>&apos;\&apos;(92.5-246.5]\&apos;&apos;</OUTCOME>
	<OUTCOME>&apos;\&apos;(246.5-inf)\&apos;&apos;</OUTCOME>
	<PROPERTY>position = (490,1152)</PROPERTY>
</VARIABLE>
<VARIABLE TYPE="nature">
	<NAME>X1072</NAME>
	<OUTCOME>&apos;\&apos;(-inf-91.5]\&apos;&apos;</OUTCOME>
	<OUTCOME>&apos;\&apos;(91.5-247.5]\&apos;&apos;</OUTCOME>
	<OUTCOME>&apos;\&apos;(247.5-inf)\&apos;&apos;</OUTCOME>
	<PROPERTY>position = (539,1248)</PROPERTY>
</VARIABLE>
<VARIABLE TYPE="nature">
	<NAME>X1073</NAME>
	<OUTCOME>&apos;\&apos;(-inf-86.5]\&apos;&apos;</OUTCOME>
	<OUTCOME>&apos;\&apos;(86.5-246.5]\&apos;&apos;</OUTCOME>
	<OUTCOME>&apos;\&apos;(246.5-inf)\&apos;&apos;</OUTCOME>
	<PROPERTY>position = (539,1344)</PROPERTY>
</VARIABLE>
<VARIABLE TYPE="nature">
	<NAME>X1074</NAME>
	<OUTCOME>&apos;\&apos;(-inf-91.5]\&apos;&apos;</OUTCOME>
	<OUTCOME>&apos;\&apos;(91.5-246.5]\&apos;&apos;</OUTCOME>
	<OUTCOME>&apos;\&apos;(246.5-inf)\&apos;&apos;</OUTCOME>
	<PROPERTY>position = (539,1440)</PROPERTY>
</VARIABLE>
<VARIABLE TYPE="nature">
	<NAME>X1085</NAME>
	<OUTCOME>&apos;\&apos;(-inf-100.5]\&apos;&apos;</OUTCOME>
	<OUTCOME>&apos;\&apos;(100.5-194.5]\&apos;&apos;</OUTCOME>
	<OUTCOME>&apos;\&apos;(194.5-245.5]\&apos;&apos;</OUTCOME>
	<OUTCOME>&apos;\&apos;(245.5-inf)\&apos;&apos;</OUTCOME>
	<PROPERTY>position = (784,1344)</PROPERTY>
</VARIABLE>
<VARIABLE TYPE="nature">
	<NAME>X1086</NAME>
	<OUTCOME>&apos;\&apos;(-inf-102.5]\&apos;&apos;</OUTCOME>
	<OUTCOME>&apos;\&apos;(102.5-226.5]\&apos;&apos;</OUTCOME>
	<OUTCOME>&apos;\&apos;(226.5-244.5]\&apos;&apos;</OUTCOME>
	<OUTCOME>&apos;\&apos;(244.5-inf)\&apos;&apos;</OUTCOME>
	<PROPERTY>position = (833,1440)</PROPERTY>
</VARIABLE>
<VARIABLE TYPE="nature">
	<NAME>X1119</NAME>
	<OUTCOME>&apos;\&apos;(-inf-92.5]\&apos;&apos;</OUTCOME>
	<OUTCOME>&apos;\&apos;(92.5-200.5]\&apos;&apos;</OUTCOME>
	<OUTCOME>&apos;\&apos;(200.5-248.5]\&apos;&apos;</OUTCOME>
	<OUTCOME>&apos;\&apos;(248.5-inf)\&apos;&apos;</OUTCOME>
	<PROPERTY>position = (588,1440)</PROPERTY>
</VARIABLE>
<VARIABLE TYPE="nature">
	<NAME>X1120</NAME>
	<OUTCOME>&apos;\&apos;(-inf-102.5]\&apos;&apos;</OUTCOME>
	<OUTCOME>&apos;\&apos;(102.5-199.5]\&apos;&apos;</OUTCOME>
	<OUTCOME>&apos;\&apos;(199.5-247.5]\&apos;&apos;</OUTCOME>
	<OUTCOME>&apos;\&apos;(247.5-inf)\&apos;&apos;</OUTCOME>
	<PROPERTY>position = (637,1536)</PROPERTY>
</VARIABLE>
<VARIABLE TYPE="nature">
	<NAME>X1121</NAME>
	<OUTCOME>&apos;\&apos;(-inf-96.5]\&apos;&apos;</OUTCOME>
	<OUTCOME>&apos;\&apos;(96.5-189.5]\&apos;&apos;</OUTCOME>
	<OUTCOME>&apos;\&apos;(189.5-246.5]\&apos;&apos;</OUTCOME>
	<OUTCOME>&apos;\&apos;(246.5-inf)\&apos;&apos;</OUTCOME>
	<PROPERTY>position = (686,1632)</PROPERTY>
</VARIABLE>
<VARIABLE TYPE="nature">
	<NAME>X1125</NAME>
	<OUTCOME>&apos;\&apos;All\&apos;&apos;</OUTCOME>
	<PROPERTY>position = (294,0)</PROPERTY>
</VARIABLE>
<VARIABLE TYPE="nature">
	<NAME>X1133</NAME>
	<OUTCOME>&apos;\&apos;(-inf-88.5]\&apos;&apos;</OUTCOME>
	<OUTCOME>&apos;\&apos;(88.5-191.5]\&apos;&apos;</OUTCOME>
	<OUTCOME>&apos;\&apos;(191.5-243.5]\&apos;&apos;</OUTCOME>
	<OUTCOME>&apos;\&apos;(243.5-inf)\&apos;&apos;</OUTCOME>
	<PROPERTY>position = (882,1440)</PROPERTY>
</VARIABLE>
<VARIABLE TYPE="nature">
	<NAME>X1134</NAME>
	<OUTCOME>&apos;\&apos;(-inf-90.5]\&apos;&apos;</OUTCOME>
	<OUTCOME>&apos;\&apos;(90.5-222.5]\&apos;&apos;</OUTCOME>
	<OUTCOME>&apos;\&apos;(222.5-244.5]\&apos;&apos;</OUTCOME>
	<OUTCOME>&apos;\&apos;(244.5-inf)\&apos;&apos;</OUTCOME>
	<PROPERTY>position = (882,1536)</PROPERTY>
</VARIABLE>
<VARIABLE TYPE="nature">
	<NAME>X1167</NAME>
	<OUTCOME>&apos;\&apos;(-inf-92.5]\&apos;&apos;</OUTCOME>
	<OUTCOME>&apos;\&apos;(92.5-193.5]\&apos;&apos;</OUTCOME>
	<OUTCOME>&apos;\&apos;(193.5-248.5]\&apos;&apos;</OUTCOME>
	<OUTCOME>&apos;\&apos;(248.5-inf)\&apos;&apos;</OUTCOME>
	<PROPERTY>position = (588,1728)</PROPERTY>
</VARIABLE>
<VARIABLE TYPE="nature">
	<NAME>X1168</NAME>
	<OUTCOME>&apos;\&apos;(-inf-99.5]\&apos;&apos;</OUTCOME>
	<OUTCOME>&apos;\&apos;(99.5-196.5]\&apos;&apos;</OUTCOME>
	<OUTCOME>&apos;\&apos;(196.5-248.5]\&apos;&apos;</OUTCOME>
	<OUTCOME>&apos;\&apos;(248.5-inf)\&apos;&apos;</OUTCOME>
	<PROPERTY>position = (637,1824)</PROPERTY>
</VARIABLE>
<VARIABLE TYPE="nature">
	<NAME>X1169</NAME>
	<OUTCOME>&apos;\&apos;(-inf-99.5]\&apos;&apos;</OUTCOME>
	<OUTCOME>&apos;\&apos;(99.5-218.5]\&apos;&apos;</OUTCOME>
	<OUTCOME>&apos;\&apos;(218.5-246.5]\&apos;&apos;</OUTCOME>
	<OUTCOME>&apos;\&apos;(246.5-inf)\&apos;&apos;</OUTCOME>
	<PROPERTY>position = (490,1728)</PROPERTY>
</VARIABLE>
<VARIABLE TYPE="nature">
	<NAME>X1170</NAME>
	<OUTCOME>&apos;\&apos;(-inf-103.5]\&apos;&apos;</OUTCOME>
	<OUTCOME>&apos;\&apos;(103.5-213.5]\&apos;&apos;</OUTCOME>
	<OUTCOME>&apos;\&apos;(213.5-244.5]\&apos;&apos;</OUTCOME>
	<OUTCOME>&apos;\&apos;(244.5-inf)\&apos;&apos;</OUTCOME>
	<PROPERTY>position = (294,1824)</PROPERTY>
</VARIABLE>
<VARIABLE TYPE="nature">
	<NAME>X1171</NAME>
	<OUTCOME>&apos;\&apos;(-inf-102.5]\&apos;&apos;</OUTCOME>
	<OUTCOME>&apos;\&apos;(102.5-236.5]\&apos;&apos;</OUTCOME>
	<OUTCOME>&apos;\&apos;(236.5-inf)\&apos;&apos;</OUTCOME>
	<PROPERTY>position = (147,1920)</PROPERTY>
</VARIABLE>
<VARIABLE TYPE="nature">
	<NAME>X1172</NAME>
	<OUTCOME>&apos;\&apos;All\&apos;&apos;</OUTCOME>
	<PROPERTY>position = (343,0)</PROPERTY>
</VARIABLE>
<VARIABLE TYPE="nature">
	<NAME>X1173</NAME>
	<OUTCOME>&apos;\&apos;All\&apos;&apos;</OUTCOME>
	<PROPERTY>position = (392,0)</PROPERTY>
</VARIABLE>
<VARIABLE TYPE="nature">
	<NAME>X1181</NAME>
	<OUTCOME>&apos;\&apos;(-inf-97.5]\&apos;&apos;</OUTCOME>
	<OUTCOME>&apos;\&apos;(97.5-190.5]\&apos;&apos;</OUTCOME>
	<OUTCOME>&apos;\&apos;(190.5-246.5]\&apos;&apos;</OUTCOME>
	<OUTCOME>&apos;\&apos;(246.5-inf)\&apos;&apos;</OUTCOME>
	<PROPERTY>position = (833,1536)</PROPERTY>
</VARIABLE>
<VARIABLE TYPE="nature">
	<NAME>X1182</NAME>
	<OUTCOME>&apos;\&apos;(-inf-87.5]\&apos;&apos;</OUTCOME>
	<OUTCOME>&apos;\&apos;(87.5-226.5]\&apos;&apos;</OUTCOME>
	<OUTCOME>&apos;\&apos;(226.5-245.5]\&apos;&apos;</OUTCOME>
	<OUTCOME>&apos;\&apos;(245.5-inf)\&apos;&apos;</OUTCOME>
	<PROPERTY>position = (784,1632)</PROPERTY>
</VARIABLE>
<VARIABLE TYPE="nature">
	<NAME>X1183</NAME>
	<OUTCOME>&apos;\&apos;(-inf-59.5]\&apos;&apos;</OUTCOME>
	<OUTCOME>&apos;\&apos;(59.5-214.5]\&apos;&apos;</OUTCOME>
	<OUTCOME>&apos;\&apos;(214.5-244.5]\&apos;&apos;</OUTCOME>
	<OUTCOME>&apos;\&apos;(244.5-inf)\&apos;&apos;</OUTCOME>
	<PROPERTY>position = (686,1824)</PROPERTY>
</VARIABLE>
<VARIABLE TYPE="nature">
	<NAME>X1184</NAME>
	<OUTCOME>&apos;\&apos;All\&apos;&apos;</OUTCOME>
	<PROPERTY>position = (0,0)</PROPERTY>
</VARIABLE>
<VARIABLE TYPE="nature">
	<NAME>X1214</NAME>
	<OUTCOME>&apos;\&apos;(-inf-79.5]\&apos;&apos;</OUTCOME>
	<OUTCOME>&apos;\&apos;(79.5-249.5]\&apos;&apos;</OUTCOME>
	<OUTCOME>&apos;\&apos;(249.5-inf)\&apos;&apos;</OUTCOME>
	<PROPERTY>position = (441,1824)</PROPERTY>
</VARIABLE>
<VARIABLE TYPE="nature">
	<NAME>X1215</NAME>
	<OUTCOME>&apos;\&apos;(-inf-91.5]\&apos;&apos;</OUTCOME>
	<OUTCOME>&apos;\&apos;(91.5-194.5]\&apos;&apos;</OUTCOME>
	<OUTCOME>&apos;\&apos;(194.5-246.5]\&apos;&apos;</OUTCOME>
	<OUTCOME>&apos;\&apos;(246.5-inf)\&apos;&apos;</OUTCOME>
	<PROPERTY>position = (539,1920)</PROPERTY>
</VARIABLE>
<VARIABLE TYPE="nature">
	<NAME>X1216</NAME>
	<OUTCOME>&apos;\&apos;(-inf-86.5]\&apos;&apos;</OUTCOME>
	<OUTCOME>&apos;\&apos;(86.5-193.5]\&apos;&apos;</OUTCOME>
	<OUTCOME>&apos;\&apos;(193.5-246.5]\&apos;&apos;</OUTCOME>
	<OUTCOME>&apos;\&apos;(246.5-inf)\&apos;&apos;</OUTCOME>
	<PROPERTY>position = (588,2016)</PROPERTY>
</VARIABLE>
<VARIABLE TYPE="nature">
	<NAME>X1217</NAME>
	<OUTCOME>&apos;\&apos;(-inf-104.5]\&apos;&apos;</OUTCOME>
	<OUTCOME>&apos;\&apos;(104.5-223.5]\&apos;&apos;</OUTCOME>
	<OUTCOME>&apos;\&apos;(223.5-244.5]\&apos;&apos;</OUTCOME>
	<OUTCOME>&apos;\&apos;(244.5-inf)\&apos;&apos;</OUTCOME>
	<PROPERTY>position = (441,2112)</PROPERTY>
</VARIABLE>
<VARIABLE TYPE="nature">
	<NAME>X1218</NAME>
	<OUTCOME>&apos;\&apos;(-inf-211.5]\&apos;&apos;</OUTCOME>
	<OUTCOME>&apos;\&apos;(211.5-238.5]\&apos;&apos;</OUTCOME>
	<OUTCOME>&apos;\&apos;(238.5-inf)\&apos;&apos;</OUTCOME>
	<PROPERTY>position = (343,2208)</PROPERTY>
</VARIABLE>
<VARIABLE TYPE="nature">
	<NAME>X1219</NAME>
	<OUTCOME>&apos;\&apos;(-inf-235.5]\&apos;&apos;</OUTCOME>
	<OUTCOME>&apos;\&apos;(235.5-inf)\&apos;&apos;</OUTCOME>
	<PROPERTY>position = (294,2304)</PROPERTY>
</VARIABLE>
<VARIABLE TYPE="nature">
	<NAME>X1220</NAME>
	<OUTCOME>&apos;\&apos;All\&apos;&apos;</OUTCOME>
	<PROPERTY>position = (49,0)</PROPERTY>
</VARIABLE>
<VARIABLE TYPE="nature">
	<NAME>X1230</NAME>
	<OUTCOME>&apos;\&apos;(-inf-96.5]\&apos;&apos;</OUTCOME>
	<OUTCOME>&apos;\&apos;(96.5-223.5]\&apos;&apos;</OUTCOME>
	<OUTCOME>&apos;\&apos;(223.5-249.5]\&apos;&apos;</OUTCOME>
	<OUTCOME>&apos;\&apos;(249.5-inf)\&apos;&apos;</OUTCOME>
	<PROPERTY>position = (833,1632)</PROPERTY>
</VARIABLE>
<VARIABLE TYPE="nature">
	<NAME>X1262</NAME>
	<OUTCOME>&apos;\&apos;(-inf-77.5]\&apos;&apos;</OUTCOME>
	<OUTCOME>&apos;\&apos;(77.5-196.5]\&apos;&apos;</OUTCOME>
	<OUTCOME>&apos;\&apos;(196.5-246.5]\&apos;&apos;</OUTCOME>
	<OUTCOME>&apos;\&apos;(246.5-inf)\&apos;&apos;</OUTCOME>
	<PROPERTY>position = (490,1920)</PROPERTY>
</VARIABLE>
<VARIABLE TYPE="nature">
	<NAME>X1263</NAME>
	<OUTCOME>&apos;\&apos;(-inf-85.5]\&apos;&apos;</OUTCOME>
	<OUTCOME>&apos;\&apos;(85.5-194.5]\&apos;&apos;</OUTCOME>
	<OUTCOME>&apos;\&apos;(194.5-246.5]\&apos;&apos;</OUTCOME>
	<OUTCOME>&apos;\&apos;(246.5-inf)\&apos;&apos;</OUTCOME>
	<PROPERTY>position = (539,2016)</PROPERTY>
</VARIABLE>
<VARIABLE TYPE="nature">
	<NAME>X1264</NAME>
	<OUTCOME>&apos;\&apos;(-inf-88.5]\&apos;&apos;</OUTCOME>
	<OUTCOME>&apos;\&apos;(88.5-214.5]\&apos;&apos;</OUTCOME>
	<OUTCOME>&apos;\&apos;(214.5-246.5]\&apos;&apos;</OUTCOME>
	<OUTCOME>&apos;\&apos;(246.5-inf)\&apos;&apos;</OUTCOME>
	<PROPERTY>position = (539,2112)</PROPERTY>
</VARIABLE>
<VARIABLE TYPE="nature">
	<NAME>X1265</NAME>
	<OUTCOME>&apos;\&apos;(-inf-25.5]\&apos;&apos;</OUTCOME>
	<OUTCOME>&apos;\&apos;(25.5-220.5]\&apos;&apos;</OUTCOME>
	<OUTCOME>&apos;\&apos;(220.5-235.5]\&apos;&apos;</OUTCOME>
	<OUTCOME>&apos;\&apos;(235.5-245.5]\&apos;&apos;</OUTCOME>
	<OUTCOME>&apos;\&apos;(245.5-inf)\&apos;&apos;</OUTCOME>
	<PROPERTY>position = (441,2208)</PROPERTY>
</VARIABLE>
<VARIABLE TYPE="nature">
	<NAME>X1266</NAME>
	<OUTCOME>&apos;\&apos;(-inf-27.5]\&apos;&apos;</OUTCOME>
	<OUTCOME>&apos;\&apos;(27.5-236.5]\&apos;&apos;</OUTCOME>
	<OUTCOME>&apos;\&apos;(236.5-inf)\&apos;&apos;</OUTCOME>
	<PROPERTY>position = (392,2400)</PROPERTY>
</VARIABLE>
<VARIABLE TYPE="nature">
	<NAME>X1267</NAME>
	<OUTCOME>&apos;\&apos;(-inf-52.5]\&apos;&apos;</OUTCOME>
	<OUTCOME>&apos;\&apos;(52.5-231.5]\&apos;&apos;</OUTCOME>
	<OUTCOME>&apos;\&apos;(231.5-inf)\&apos;&apos;</OUTCOME>
	<PROPERTY>position = (539,2496)</PROPERTY>
</VARIABLE>
<VARIABLE TYPE="nature">
	<NAME>X1268</NAME>
	<OUTCOME>&apos;\&apos;(-inf-209.5]\&apos;&apos;</OUTCOME>
	<OUTCOME>&apos;\&apos;(209.5-inf)\&apos;&apos;</OUTCOME>
	<PROPERTY>position = (441,2592)</PROPERTY>
</VARIABLE>
<VARIABLE TYPE="nature">
	<NAME>X1269</NAME>
	<OUTCOME>&apos;\&apos;(-inf-66.5]\&apos;&apos;</OUTCOME>
	<OUTCOME>&apos;\&apos;(66.5-inf)\&apos;&apos;</OUTCOME>
	<PROPERTY>position = (196,1824)</PROPERTY>
</VARIABLE>
<VARIABLE TYPE="nature">
	<NAME>X1310</NAME>
	<OUTCOME>&apos;\&apos;(-inf-80.5]\&apos;&apos;</OUTCOME>
	<OUTCOME>&apos;\&apos;(80.5-246.5]\&apos;&apos;</OUTCOME>
	<OUTCOME>&apos;\&apos;(246.5-inf)\&apos;&apos;</OUTCOME>
	<PROPERTY>position = (490,2016)</PROPERTY>
</VARIABLE>
<VARIABLE TYPE="nature">
	<NAME>X1311</NAME>
	<OUTCOME>&apos;\&apos;(-inf-78.5]\&apos;&apos;</OUTCOME>
	<OUTCOME>&apos;\&apos;(78.5-193.5]\&apos;&apos;</OUTCOME>
	<OUTCOME>&apos;\&apos;(193.5-246.5]\&apos;&apos;</OUTCOME>
	<OUTCOME>&apos;\&apos;(246.5-inf)\&apos;&apos;</OUTCOME>
	<PROPERTY>position = (490,2112)</PROPERTY>
</VARIABLE>
<VARIABLE TYPE="nature">
	<NAME>X1312</NAME>
	<OUTCOME>&apos;\&apos;(-inf-30]\&apos;&apos;</OUTCOME>
	<OUTCOME>&apos;\&apos;(30-205.5]\&apos;&apos;</OUTCOME>
	<OUTCOME>&apos;\&apos;(205.5-246.5]\&apos;&apos;</OUTCOME>
	<OUTCOME>&apos;\&apos;(246.5-inf)\&apos;&apos;</OUTCOME>
	<PROPERTY>position = (490,2208)</PROPERTY>
</VARIABLE>
<VARIABLE TYPE="nature">
	<NAME>X1313</NAME>
	<OUTCOME>&apos;\&apos;(-inf-23.5]\&apos;&apos;</OUTCOME>
	<OUTCOME>&apos;\&apos;(23.5-47.5]\&apos;&apos;</OUTCOME>
	<OUTCOME>&apos;\&apos;(47.5-233.5]\&apos;&apos;</OUTCOME>
	<OUTCOME>&apos;\&apos;(233.5-inf)\&apos;&apos;</OUTCOME>
	<PROPERTY>position = (490,2592)</PROPERTY>
</VARIABLE>
<VARIABLE TYPE="nature">
	<NAME>X1314</NAME>
	<OUTCOME>&apos;\&apos;(-inf-28.5]\&apos;&apos;</OUTCOME>
	<OUTCOME>&apos;\&apos;(28.5-106.5]\&apos;&apos;</OUTCOME>
	<OUTCOME>&apos;\&apos;(106.5-231.5]\&apos;&apos;</OUTCOME>
	<OUTCOME>&apos;\&apos;(231.5-inf)\&apos;&apos;</OUTCOME>
	<PROPERTY>position = (539,2592)</PROPERTY>
</VARIABLE>
<VARIABLE TYPE="nature">
	<NAME>X1315</NAME>
	<OUTCOME>&apos;\&apos;(-inf-104.5]\&apos;&apos;</OUTCOME>
	<OUTCOME>&apos;\&apos;(104.5-134.5]\&apos;&apos;</OUTCOME>
	<OUTCOME>&apos;\&apos;(134.5-234.5]\&apos;&apos;</OUTCOME>
	<OUTCOME>&apos;\&apos;(234.5-inf)\&apos;&apos;</OUTCOME>
	<PROPERTY>position = (588,2688)</PROPERTY>
</VARIABLE>
<VARIABLE TYPE="nature">
	<NAME>X1316</NAME>
	<OUTCOME>&apos;\&apos;(-inf-233.5]\&apos;&apos;</OUTCOME>
	<OUTCOME>&apos;\&apos;(233.5-inf)\&apos;&apos;</OUTCOME>
	<PROPERTY>position = (588,2592)</PROPERTY>
</VARIABLE>
<VARIABLE TYPE="nature">
	<NAME>X1317</NAME>
	<OUTCOME>&apos;\&apos;(-inf-88.5]\&apos;&apos;</OUTCOME>
	<OUTCOME>&apos;\&apos;(88.5-inf)\&apos;&apos;</OUTCOME>
	<PROPERTY>position = (98,1920)</PROPERTY>
</VARIABLE>
<VARIABLE TYPE="nature">
	<NAME>X1360</NAME>
	<OUTCOME>&apos;\&apos;(-inf-27.5]\&apos;&apos;</OUTCOME>
	<OUTCOME>&apos;\&apos;(27.5-212.5]\&apos;&apos;</OUTCOME>
	<OUTCOME>&apos;\&apos;(212.5-234.5]\&apos;&apos;</OUTCOME>
	<OUTCOME>&apos;\&apos;(234.5-inf)\&apos;&apos;</OUTCOME>
	<PROPERTY>position = (392,2688)</PROPERTY>
</VARIABLE>
<VARIABLE TYPE="nature">
	<NAME>X1361</NAME>
	<OUTCOME>&apos;\&apos;(-inf-43.5]\&apos;&apos;</OUTCOME>
	<OUTCOME>&apos;\&apos;(43.5-232.5]\&apos;&apos;</OUTCOME>
	<OUTCOME>&apos;\&apos;(232.5-inf)\&apos;&apos;</OUTCOME>
	<PROPERTY>position = (392,2784)</PROPERTY>
</VARIABLE>
<VARIABLE TYPE="nature">
	<NAME>X1362</NAME>
	<OUTCOME>&apos;\&apos;(-inf-47.5]\&apos;&apos;</OUTCOME>
	<OUTCOME>&apos;\&apos;(47.5-127.5]\&apos;&apos;</OUTCOME>
	<OUTCOME>&apos;\&apos;(127.5-224.5]\&apos;&apos;</OUTCOME>
	<OUTCOME>&apos;\&apos;(224.5-inf)\&apos;&apos;</OUTCOME>
	<PROPERTY>position = (490,2784)</PROPERTY>
</VARIABLE>
<VARIABLE TYPE="nature">
	<NAME>X1363</NAME>
	<OUTCOME>&apos;\&apos;(-inf-119.5]\&apos;&apos;</OUTCOME>
	<OUTCOME>&apos;\&apos;(119.5-204.5]\&apos;&apos;</OUTCOME>
	<OUTCOME>&apos;\&apos;(204.5-inf)\&apos;&apos;</OUTCOME>
	<PROPERTY>position = (490,2880)</PROPERTY>
</VARIABLE>
<VARIABLE TYPE="nature">
	<NAME>X1364</NAME>
	<OUTCOME>&apos;\&apos;(-inf-74.5]\&apos;&apos;</OUTCOME>
	<OUTCOME>&apos;\&apos;(74.5-114.5]\&apos;&apos;</OUTCOME>
	<OUTCOME>&apos;\&apos;(114.5-240.5]\&apos;&apos;</OUTCOME>
	<OUTCOME>&apos;\&apos;(240.5-inf)\&apos;&apos;</OUTCOME>
	<PROPERTY>position = (588,2784)</PROPERTY>
</VARIABLE>
<VARIABLE TYPE="nature">
	<NAME>X1365</NAME>
	<OUTCOME>&apos;\&apos;(-inf-64.5]\&apos;&apos;</OUTCOME>
	<OUTCOME>&apos;\&apos;(64.5-95.5]\&apos;&apos;</OUTCOME>
	<OUTCOME>&apos;\&apos;(95.5-241.5]\&apos;&apos;</OUTCOME>
	<OUTCOME>&apos;\&apos;(241.5-inf)\&apos;&apos;</OUTCOME>
	<PROPERTY>position = (343,2880)</PROPERTY>
</VARIABLE>
<VARIABLE TYPE="nature">
	<NAME>X1408</NAME>
	<OUTCOME>&apos;\&apos;(-inf-221.5]\&apos;&apos;</OUTCOME>
	<OUTCOME>&apos;\&apos;(221.5-inf)\&apos;&apos;</OUTCOME>
	<PROPERTY>position = (196,2784)</PROPERTY>
</VARIABLE>
<VARIABLE TYPE="nature">
	<NAME>X1409</NAME>
	<OUTCOME>&apos;\&apos;(-inf-35.5]\&apos;&apos;</OUTCOME>
	<OUTCOME>&apos;\&apos;(35.5-117.5]\&apos;&apos;</OUTCOME>
	<OUTCOME>&apos;\&apos;(117.5-230.5]\&apos;&apos;</OUTCOME>
	<OUTCOME>&apos;\&apos;(230.5-inf)\&apos;&apos;</OUTCOME>
	<PROPERTY>position = (392,2880)</PROPERTY>
</VARIABLE>
<VARIABLE TYPE="nature">
	<NAME>X1459</NAME>
	<OUTCOME>&apos;\&apos;(-inf-207.5]\&apos;&apos;</OUTCOME>
	<OUTCOME>&apos;\&apos;(207.5-inf)\&apos;&apos;</OUTCOME>
	<PROPERTY>position = (245,2976)</PROPERTY>
</VARIABLE>
<VARIABLE TYPE="nature">
	<NAME>X1460</NAME>
	<OUTCOME>&apos;\&apos;All\&apos;&apos;</OUTCOME>
	<PROPERTY>position = (98,0)</PROPERTY>
</VARIABLE>
<VARIABLE TYPE="nature">
	<NAME>X1461</NAME>
	<OUTCOME>&apos;\&apos;(-inf-67.5]\&apos;&apos;</OUTCOME>
	<OUTCOME>&apos;\&apos;(67.5-inf)\&apos;&apos;</OUTCOME>
	<PROPERTY>position = (49,2016)</PROPERTY>
</VARIABLE>
<VARIABLE TYPE="nature">
	<NAME>X1468</NAME>
	<OUTCOME>&apos;\&apos;(-inf-185.5]\&apos;&apos;</OUTCOME>
	<OUTCOME>&apos;\&apos;(185.5-inf)\&apos;&apos;</OUTCOME>
	<PROPERTY>position = (343,1248)</PROPERTY>
</VARIABLE>
<VARIABLE TYPE="nature">
	<NAME>X1469</NAME>
	<OUTCOME>&apos;\&apos;(-inf-193.5]\&apos;&apos;</OUTCOME>
	<OUTCOME>&apos;\&apos;(193.5-inf)\&apos;&apos;</OUTCOME>
	<PROPERTY>position = (539,1728)</PROPERTY>
</VARIABLE>
<VARIABLE TYPE="nature">
	<NAME>X1471</NAME>
	<OUTCOME>&apos;\&apos;All\&apos;&apos;</OUTCOME>
	<PROPERTY>position = (147,0)</PROPERTY>
</VARIABLE>
<VARIABLE TYPE="nature">
	<NAME>X1472</NAME>
	<OUTCOME>&apos;\&apos;(-inf-219.5]\&apos;&apos;</OUTCOME>
	<OUTCOME>&apos;\&apos;(219.5-inf)\&apos;&apos;</OUTCOME>
	<PROPERTY>position = (196,2208)</PROPERTY>
</VARIABLE>
<VARIABLE TYPE="nature">
	<NAME>X1506</NAME>
	<OUTCOME>&apos;\&apos;(-inf-198.5]\&apos;&apos;</OUTCOME>
	<OUTCOME>&apos;\&apos;(198.5-inf)\&apos;&apos;</OUTCOME>
	<PROPERTY>position = (196,1920)</PROPERTY>
</VARIABLE>
<VARIABLE TYPE="nature">
	<NAME>X1507</NAME>
	<OUTCOME>&apos;\&apos;(-inf-197.5]\&apos;&apos;</OUTCOME>
	<OUTCOME>&apos;\&apos;(197.5-inf)\&apos;&apos;</OUTCOME>
	<PROPERTY>position = (392,2016)</PROPERTY>
</VARIABLE>
<VARIABLE TYPE="nature">
	<NAME>X1508</NAME>
	<OUTCOME>&apos;\&apos;(-inf-200.5]\&apos;&apos;</OUTCOME>
	<OUTCOME>&apos;\&apos;(200.5-inf)\&apos;&apos;</OUTCOME>
	<PROPERTY>position = (392,2208)</PROPERTY>
</VARIABLE>
<VARIABLE TYPE="nature">
	<NAME>X1517</NAME>
	<OUTCOME>&apos;\&apos;All\&apos;&apos;</OUTCOME>
	<PROPERTY>position = (196,0)</PROPERTY>
</VARIABLE>
<VARIABLE TYPE="nature">
	<NAME>X1518</NAME>
	<OUTCOME>&apos;\&apos;All\&apos;&apos;</OUTCOME>
	<PROPERTY>position = (245,0)</PROPERTY>
</VARIABLE>
<VARIABLE TYPE="nature">
	<NAME>X1561</NAME>
	<OUTCOME>&apos;\&apos;(-inf-96.5]\&apos;&apos;</OUTCOME>
	<OUTCOME>&apos;\&apos;(96.5-248.5]\&apos;&apos;</OUTCOME>
	<OUTCOME>&apos;\&apos;(248.5-inf)\&apos;&apos;</OUTCOME>
	<PROPERTY>position = (931,1728)</PROPERTY>
</VARIABLE>
<VARIABLE TYPE="nature">
	<NAME>X1562</NAME>
	<OUTCOME>&apos;\&apos;(-inf-100.5]\&apos;&apos;</OUTCOME>
	<OUTCOME>&apos;\&apos;(100.5-249.5]\&apos;&apos;</OUTCOME>
	<OUTCOME>&apos;\&apos;(249.5-inf)\&apos;&apos;</OUTCOME>
	<PROPERTY>position = (735,2784)</PROPERTY>
</VARIABLE>
<VARIABLE TYPE="nature">
	<NAME>X1563</NAME>
	<OUTCOME>&apos;\&apos;(-inf-82.5]\&apos;&apos;</OUTCOME>
	<OUTCOME>&apos;\&apos;(82.5-187.5]\&apos;&apos;</OUTCOME>
	<OUTCOME>&apos;\&apos;(187.5-246.5]\&apos;&apos;</OUTCOME>
	<OUTCOME>&apos;\&apos;(246.5-inf)\&apos;&apos;</OUTCOME>
	<PROPERTY>position = (686,2880)</PROPERTY>
</VARIABLE>
<VARIABLE TYPE="nature">
	<NAME>X1610</NAME>
	<OUTCOME>&apos;\&apos;(-inf-97.5]\&apos;&apos;</OUTCOME>
	<OUTCOME>&apos;\&apos;(97.5-223.5]\&apos;&apos;</OUTCOME>
	<OUTCOME>&apos;\&apos;(223.5-247.5]\&apos;&apos;</OUTCOME>
	<OUTCOME>&apos;\&apos;(247.5-inf)\&apos;&apos;</OUTCOME>
	<PROPERTY>position = (735,2208)</PROPERTY>
</VARIABLE>
<VARIABLE TYPE="nature">
	<NAME>X1646</NAME>
	<OUTCOME>&apos;\&apos;(-inf-35.5]\&apos;&apos;</OUTCOME>
	<OUTCOME>&apos;\&apos;(35.5-inf)\&apos;&apos;</OUTCOME>
	<PROPERTY>position = (196,2976)</PROPERTY>
</VARIABLE>
<VARIABLE TYPE="nature">
	<NAME>X1666</NAME>
	<OUTCOME>&apos;\&apos;(-inf-36.5]\&apos;&apos;</OUTCOME>
	<OUTCOME>&apos;\&apos;(36.5-inf)\&apos;&apos;</OUTCOME>
	<PROPERTY>position = (343,3072)</PROPERTY>
</VARIABLE>
<VARIABLE TYPE="nature">
	<NAME>X1667</NAME>
	<OUTCOME>&apos;\&apos;(-inf-33.5]\&apos;&apos;</OUTCOME>
	<OUTCOME>&apos;\&apos;(33.5-inf)\&apos;&apos;</OUTCOME>
	<PROPERTY>position = (294,3168)</PROPERTY>
</VARIABLE>
<VARIABLE TYPE="nature">
	<NAME>X1694</NAME>
	<OUTCOME>&apos;\&apos;(-inf-35.5]\&apos;&apos;</OUTCOME>
	<OUTCOME>&apos;\&apos;(35.5-144.5]\&apos;&apos;</OUTCOME>
	<OUTCOME>&apos;\&apos;(144.5-inf)\&apos;&apos;</OUTCOME>
	<PROPERTY>position = (245,3072)</PROPERTY>
</VARIABLE>
<VARIABLE TYPE="nature">
	<NAME>X1695</NAME>
	<OUTCOME>&apos;\&apos;(-inf-36.5]\&apos;&apos;</OUTCOME>
	<OUTCOME>&apos;\&apos;(36.5-inf)\&apos;&apos;</OUTCOME>
	<PROPERTY>position = (49,3168)</PROPERTY>
</VARIABLE>
<VARIABLE TYPE="nature">
	<NAME>X1696</NAME>
	<OUTCOME>&apos;\&apos;(-inf-35.5]\&apos;&apos;</OUTCOME>
	<OUTCOME>&apos;\&apos;(35.5-234.5]\&apos;&apos;</OUTCOME>
	<OUTCOME>&apos;\&apos;(234.5-inf)\&apos;&apos;</OUTCOME>
	<PROPERTY>position = (294,3072)</PROPERTY>
</VARIABLE>
<VARIABLE TYPE="nature">
	<NAME>X1713</NAME>
	<OUTCOME>&apos;\&apos;(-inf-35.5]\&apos;&apos;</OUTCOME>
	<OUTCOME>&apos;\&apos;(35.5-99.5]\&apos;&apos;</OUTCOME>
	<OUTCOME>&apos;\&apos;(99.5-inf)\&apos;&apos;</OUTCOME>
	<PROPERTY>position = (637,3168)</PROPERTY>
</VARIABLE>
<VARIABLE TYPE="nature">
	<NAME>X1714</NAME>
	<OUTCOME>&apos;\&apos;(-inf-32.5]\&apos;&apos;</OUTCOME>
	<OUTCOME>&apos;\&apos;(32.5-inf)\&apos;&apos;</OUTCOME>
	<PROPERTY>position = (343,3264)</PROPERTY>
</VARIABLE>
<VARIABLE TYPE="nature">
	<NAME>X1715</NAME>
	<OUTCOME>&apos;\&apos;(-inf-34.5]\&apos;&apos;</OUTCOME>
	<OUTCOME>&apos;\&apos;(34.5-inf)\&apos;&apos;</OUTCOME>
	<PROPERTY>position = (245,3264)</PROPERTY>
</VARIABLE>
<VARIABLE TYPE="nature">
	<NAME>X1742</NAME>
	<OUTCOME>&apos;\&apos;(-inf-34.5]\&apos;&apos;</OUTCOME>
	<OUTCOME>&apos;\&apos;(34.5-inf)\&apos;&apos;</OUTCOME>
	<PROPERTY>position = (147,3360)</PROPERTY>
</VARIABLE>
<VARIABLE TYPE="nature">
	<NAME>X1743</NAME>
	<OUTCOME>&apos;\&apos;(-inf-33.5]\&apos;&apos;</OUTCOME>
	<OUTCOME>&apos;\&apos;(33.5-inf)\&apos;&apos;</OUTCOME>
	<PROPERTY>position = (98,3456)</PROPERTY>
</VARIABLE>
<VARIABLE TYPE="nature">
	<NAME>X1744</NAME>
	<OUTCOME>&apos;\&apos;(-inf-36.5]\&apos;&apos;</OUTCOME>
	<OUTCOME>&apos;\&apos;(36.5-inf)\&apos;&apos;</OUTCOME>
	<PROPERTY>position = (0,3552)</PROPERTY>
</VARIABLE>
<VARIABLE TYPE="nature">
	<NAME>X1760</NAME>
	<OUTCOME>&apos;\&apos;(-inf-28.5]\&apos;&apos;</OUTCOME>
	<OUTCOME>&apos;\&apos;(28.5-106.5]\&apos;&apos;</OUTCOME>
	<OUTCOME>&apos;\&apos;(106.5-142.5]\&apos;&apos;</OUTCOME>
	<OUTCOME>&apos;\&apos;(142.5-inf)\&apos;&apos;</OUTCOME>
	<PROPERTY>position = (392,3264)</PROPERTY>
</VARIABLE>
<VARIABLE TYPE="nature">
	<NAME>X1761</NAME>
	<OUTCOME>&apos;\&apos;(-inf-30.5]\&apos;&apos;</OUTCOME>
	<OUTCOME>&apos;\&apos;(30.5-inf)\&apos;&apos;</OUTCOME>
	<PROPERTY>position = (343,3360)</PROPERTY>
</VARIABLE>
<VARIABLE TYPE="nature">
	<NAME>X1762</NAME>
	<OUTCOME>&apos;\&apos;(-inf-34.5]\&apos;&apos;</OUTCOME>
	<OUTCOME>&apos;\&apos;(34.5-168.5]\&apos;&apos;</OUTCOME>
	<OUTCOME>&apos;\&apos;(168.5-inf)\&apos;&apos;</OUTCOME>
	<PROPERTY>position = (196,3360)</PROPERTY>
</VARIABLE>
<VARIABLE TYPE="nature">
	<NAME>X1763</NAME>
	<OUTCOME>&apos;\&apos;(-inf-27.5]\&apos;&apos;</OUTCOME>
	<OUTCOME>&apos;\&apos;(27.5-inf)\&apos;&apos;</OUTCOME>
	<PROPERTY>position = (245,3456)</PROPERTY>
</VARIABLE>
<VARIABLE TYPE="nature">
	<NAME>X1791</NAME>
	<OUTCOME>&apos;\&apos;(-inf-33.5]\&apos;&apos;</OUTCOME>
	<OUTCOME>&apos;\&apos;(33.5-inf)\&apos;&apos;</OUTCOME>
	<PROPERTY>position = (196,3552)</PROPERTY>
</VARIABLE>
<VARIABLE TYPE="nature">
	<NAME>X1792</NAME>
	<OUTCOME>&apos;\&apos;(-inf-32.5]\&apos;&apos;</OUTCOME>
	<OUTCOME>&apos;\&apos;(32.5-inf)\&apos;&apos;</OUTCOME>
	<PROPERTY>position = (147,3648)</PROPERTY>
</VARIABLE>
<VARIABLE TYPE="nature">
	<NAME>X1793</NAME>
	<OUTCOME>&apos;\&apos;(-inf-34.5]\&apos;&apos;</OUTCOME>
	<OUTCOME>&apos;\&apos;(34.5-inf)\&apos;&apos;</OUTCOME>
	<PROPERTY>position = (0,3648)</PROPERTY>
</VARIABLE>
<VARIABLE TYPE="nature">
	<NAME>X1808</NAME>
	<OUTCOME>&apos;\&apos;(-inf-32.5]\&apos;&apos;</OUTCOME>
	<OUTCOME>&apos;\&apos;(32.5-102.5]\&apos;&apos;</OUTCOME>
	<OUTCOME>&apos;\&apos;(102.5-118.5]\&apos;&apos;</OUTCOME>
	<OUTCOME>&apos;\&apos;(118.5-inf)\&apos;&apos;</OUTCOME>
	<PROPERTY>position = (343,3456)</PROPERTY>
</VARIABLE>
<VARIABLE TYPE="nature">
	<NAME>X1979</NAME>
	<OUTCOME>&apos;\&apos;(-inf-82.5]\&apos;&apos;</OUTCOME>
	<OUTCOME>&apos;\&apos;(82.5-inf)\&apos;&apos;</OUTCOME>
	<PROPERTY>position = (686,3264)</PROPERTY>
</VARIABLE>
<VARIABLE TYPE="nature">
	<NAME>X2025</NAME>
	<OUTCOME>&apos;\&apos;(-inf-73.5]\&apos;&apos;</OUTCOME>
	<OUTCOME>&apos;\&apos;(73.5-254.5]\&apos;&apos;</OUTCOME>
	<OUTCOME>&apos;\&apos;(254.5-inf)\&apos;&apos;</OUTCOME>
	<PROPERTY>position = (833,3360)</PROPERTY>
</VARIABLE>
<VARIABLE TYPE="nature">
	<NAME>X2026</NAME>
	<OUTCOME>&apos;\&apos;(-inf-70.5]\&apos;&apos;</OUTCOME>
	<OUTCOME>&apos;\&apos;(70.5-inf)\&apos;&apos;</OUTCOME>
	<PROPERTY>position = (686,3456)</PROPERTY>
</VARIABLE>
<VARIABLE TYPE="nature">
	<NAME>X2027</NAME>
	<OUTCOME>&apos;\&apos;(-inf-78.5]\&apos;&apos;</OUTCOME>
	<OUTCOME>&apos;\&apos;(78.5-inf)\&apos;&apos;</OUTCOME>
	<PROPERTY>position = (637,3552)</PROPERTY>
</VARIABLE>
<VARIABLE TYPE="nature">
	<NAME>X2028</NAME>
	<OUTCOME>&apos;\&apos;(-inf-80.5]\&apos;&apos;</OUTCOME>
	<OUTCOME>&apos;\&apos;(80.5-inf)\&apos;&apos;</OUTCOME>
	<PROPERTY>position = (588,3648)</PROPERTY>
</VARIABLE>
<VARIABLE TYPE="nature">
	<NAME>X2049</NAME>
	<OUTCOME>&apos;\&apos;(-inf-32.5]\&apos;&apos;</OUTCOME>
	<OUTCOME>&apos;\&apos;(32.5-66.5]\&apos;&apos;</OUTCOME>
	<OUTCOME>&apos;\&apos;(66.5-inf)\&apos;&apos;</OUTCOME>
	<PROPERTY>position = (490,3744)</PROPERTY>
</VARIABLE>
<VARIABLE TYPE="nature">
	<NAME>X2050</NAME>
	<OUTCOME>&apos;\&apos;(-inf-78.5]\&apos;&apos;</OUTCOME>
	<OUTCOME>&apos;\&apos;(78.5-inf)\&apos;&apos;</OUTCOME>
	<PROPERTY>position = (490,3840)</PROPERTY>
</VARIABLE>
<VARIABLE TYPE="nature">
	<NAME>X2078</NAME>
	<OUTCOME>&apos;\&apos;(-inf-79.5]\&apos;&apos;</OUTCOME>
	<OUTCOME>&apos;\&apos;(79.5-inf)\&apos;&apos;</OUTCOME>
	<PROPERTY>position = (539,3936)</PROPERTY>
</VARIABLE>
<VARIABLE TYPE="nature">
	<NAME>X2094</NAME>
	<OUTCOME>&apos;\&apos;(-inf-81.5]\&apos;&apos;</OUTCOME>
	<OUTCOME>&apos;\&apos;(81.5-inf)\&apos;&apos;</OUTCOME>
	<PROPERTY>position = (441,3936)</PROPERTY>
</VARIABLE>
<VARIABLE TYPE="nature">
	<NAME>X2095</NAME>
	<OUTCOME>&apos;\&apos;(-inf-74.5]\&apos;&apos;</OUTCOME>
	<OUTCOME>&apos;\&apos;(74.5-inf)\&apos;&apos;</OUTCOME>
	<PROPERTY>position = (343,4032)</PROPERTY>
</VARIABLE>
<VARIABLE TYPE="nature">
	<NAME>X2096</NAME>
	<OUTCOME>&apos;\&apos;(-inf-103.5]\&apos;&apos;</OUTCOME>
	<OUTCOME>&apos;\&apos;(103.5-inf)\&apos;&apos;</OUTCOME>
	<PROPERTY>position = (392,4128)</PROPERTY>
</VARIABLE>
<VARIABLE TYPE="nature">
	<NAME>X2097</NAME>
	<OUTCOME>&apos;\&apos;(-inf-56.5]\&apos;&apos;</OUTCOME>
	<OUTCOME>&apos;\&apos;(56.5-inf)\&apos;&apos;</OUTCOME>
	<PROPERTY>position = (294,4224)</PROPERTY>
</VARIABLE>
<VARIABLE TYPE="nature">
	<NAME>X2138</NAME>
	<OUTCOME>&apos;\&apos;(-inf-27.5]\&apos;&apos;</OUTCOME>
	<OUTCOME>&apos;\&apos;(27.5-63.5]\&apos;&apos;</OUTCOME>
	<OUTCOME>&apos;\&apos;(63.5-88.5]\&apos;&apos;</OUTCOME>
	<OUTCOME>&apos;\&apos;(88.5-164]\&apos;&apos;</OUTCOME>
	<OUTCOME>&apos;\&apos;(164-inf)\&apos;&apos;</OUTCOME>
	<PROPERTY>position = (294,4032)</PROPERTY>
</VARIABLE>
<VARIABLE TYPE="nature">
	<NAME>X2139</NAME>
	<OUTCOME>&apos;\&apos;(-inf-22.5]\&apos;&apos;</OUTCOME>
	<OUTCOME>&apos;\&apos;(22.5-27.5]\&apos;&apos;</OUTCOME>
	<OUTCOME>&apos;\&apos;(27.5-81.5]\&apos;&apos;</OUTCOME>
	<OUTCOME>&apos;\&apos;(81.5-164.5]\&apos;&apos;</OUTCOME>
	<OUTCOME>&apos;\&apos;(164.5-inf)\&apos;&apos;</OUTCOME>
	<PROPERTY>position = (343,4128)</PROPERTY>
</VARIABLE>
<VARIABLE TYPE="nature">
	<NAME>X2140</NAME>
	<OUTCOME>&apos;\&apos;(-inf-20.5]\&apos;&apos;</OUTCOME>
	<OUTCOME>&apos;\&apos;(20.5-32.5]\&apos;&apos;</OUTCOME>
	<OUTCOME>&apos;\&apos;(32.5-68.5]\&apos;&apos;</OUTCOME>
	<OUTCOME>&apos;\&apos;(68.5-172.5]\&apos;&apos;</OUTCOME>
	<OUTCOME>&apos;\&apos;(172.5-inf)\&apos;&apos;</OUTCOME>
	<PROPERTY>position = (245,4224)</PROPERTY>
</VARIABLE>
<VARIABLE TYPE="nature">
	<NAME>X2141</NAME>
	<OUTCOME>&apos;\&apos;(-inf-82.5]\&apos;&apos;</OUTCOME>
	<OUTCOME>&apos;\&apos;(82.5-inf)\&apos;&apos;</OUTCOME>
	<PROPERTY>position = (294,4320)</PROPERTY>
</VARIABLE>
<VARIABLE TYPE="nature">
	<NAME>X2142</NAME>
	<OUTCOME>&apos;\&apos;(-inf-81.5]\&apos;&apos;</OUTCOME>
	<OUTCOME>&apos;\&apos;(81.5-inf)\&apos;&apos;</OUTCOME>
	<PROPERTY>position = (343,4416)</PROPERTY>
</VARIABLE>
<VARIABLE TYPE="nature">
	<NAME>X2164</NAME>
	<OUTCOME>&apos;\&apos;(-inf-69.5]\&apos;&apos;</OUTCOME>
	<OUTCOME>&apos;\&apos;(69.5-153.5]\&apos;&apos;</OUTCOME>
	<OUTCOME>&apos;\&apos;(153.5-254.5]\&apos;&apos;</OUTCOME>
	<OUTCOME>&apos;\&apos;(254.5-inf)\&apos;&apos;</OUTCOME>
	<PROPERTY>position = (735,3456)</PROPERTY>
</VARIABLE>
<VARIABLE TYPE="nature">
	<NAME>X2165</NAME>
	<OUTCOME>&apos;\&apos;(-inf-66.5]\&apos;&apos;</OUTCOME>
	<OUTCOME>&apos;\&apos;(66.5-159]\&apos;&apos;</OUTCOME>
	<OUTCOME>&apos;\&apos;(159-254.5]\&apos;&apos;</OUTCOME>
	<OUTCOME>&apos;\&apos;(254.5-inf)\&apos;&apos;</OUTCOME>
	<PROPERTY>position = (784,3552)</PROPERTY>
</VARIABLE>
<VARIABLE TYPE="nature">
	<NAME>X2166</NAME>
	<OUTCOME>&apos;\&apos;(-inf-79.5]\&apos;&apos;</OUTCOME>
	<OUTCOME>&apos;\&apos;(79.5-158.5]\&apos;&apos;</OUTCOME>
	<OUTCOME>&apos;\&apos;(158.5-254.5]\&apos;&apos;</OUTCOME>
	<OUTCOME>&apos;\&apos;(254.5-inf)\&apos;&apos;</OUTCOME>
	<PROPERTY>position = (833,3648)</PROPERTY>
</VARIABLE>
<VARIABLE TYPE="nature">
	<NAME>X2186</NAME>
	<OUTCOME>&apos;\&apos;(-inf-35.5]\&apos;&apos;</OUTCOME>
	<OUTCOME>&apos;\&apos;(35.5-82.5]\&apos;&apos;</OUTCOME>
	<OUTCOME>&apos;\&apos;(82.5-164.5]\&apos;&apos;</OUTCOME>
	<OUTCOME>&apos;\&apos;(164.5-inf)\&apos;&apos;</OUTCOME>
	<PROPERTY>position = (196,4128)</PROPERTY>
</VARIABLE>
<VARIABLE TYPE="nature">
	<NAME>X2211</NAME>
	<OUTCOME>&apos;\&apos;(-inf-67.5]\&apos;&apos;</OUTCOME>
	<OUTCOME>&apos;\&apos;(67.5-254.5]\&apos;&apos;</OUTCOME>
	<OUTCOME>&apos;\&apos;(254.5-inf)\&apos;&apos;</OUTCOME>
	<PROPERTY>position = (686,3552)</PROPERTY>
</VARIABLE>
<VARIABLE TYPE="nature">
	<NAME>X2212</NAME>
	<OUTCOME>&apos;\&apos;(-inf-55.5]\&apos;&apos;</OUTCOME>
	<OUTCOME>&apos;\&apos;(55.5-79.5]\&apos;&apos;</OUTCOME>
	<OUTCOME>&apos;\&apos;(79.5-241.5]\&apos;&apos;</OUTCOME>
	<OUTCOME>&apos;\&apos;(241.5-253.5]\&apos;&apos;</OUTCOME>
	<OUTCOME>&apos;\&apos;(253.5-inf)\&apos;&apos;</OUTCOME>
	<PROPERTY>position = (735,3648)</PROPERTY>
</VARIABLE>
<VARIABLE TYPE="nature">
	<NAME>X2213</NAME>
	<OUTCOME>&apos;\&apos;(-inf-46.5]\&apos;&apos;</OUTCOME>
	<OUTCOME>&apos;\&apos;(46.5-81.5]\&apos;&apos;</OUTCOME>
	<OUTCOME>&apos;\&apos;(81.5-164.5]\&apos;&apos;</OUTCOME>
	<OUTCOME>&apos;\&apos;(164.5-254.5]\&apos;&apos;</OUTCOME>
	<OUTCOME>&apos;\&apos;(254.5-inf)\&apos;&apos;</OUTCOME>
	<PROPERTY>position = (735,3744)</PROPERTY>
</VARIABLE>
<VARIABLE TYPE="nature">
	<NAME>X2214</NAME>
	<OUTCOME>&apos;\&apos;(-inf-70.5]\&apos;&apos;</OUTCOME>
	<OUTCOME>&apos;\&apos;(70.5-157.5]\&apos;&apos;</OUTCOME>
	<OUTCOME>&apos;\&apos;(157.5-254.5]\&apos;&apos;</OUTCOME>
	<OUTCOME>&apos;\&apos;(254.5-inf)\&apos;&apos;</OUTCOME>
	<PROPERTY>position = (784,3840)</PROPERTY>
</VARIABLE>
<VARIABLE TYPE="nature">
	<NAME>X2215</NAME>
	<OUTCOME>&apos;\&apos;(-inf-79.5]\&apos;&apos;</OUTCOME>
	<OUTCOME>&apos;\&apos;(79.5-inf)\&apos;&apos;</OUTCOME>
	<PROPERTY>position = (833,3936)</PROPERTY>
</VARIABLE>
<VARIABLE TYPE="nature">
	<NAME>X2216</NAME>
	<OUTCOME>&apos;\&apos;(-inf-69.5]\&apos;&apos;</OUTCOME>
	<OUTCOME>&apos;\&apos;(69.5-156.5]\&apos;&apos;</OUTCOME>
	<OUTCOME>&apos;\&apos;(156.5-254.5]\&apos;&apos;</OUTCOME>
	<OUTCOME>&apos;\&apos;(254.5-inf)\&apos;&apos;</OUTCOME>
	<PROPERTY>position = (784,4032)</PROPERTY>
</VARIABLE>
<VARIABLE TYPE="nature">
	<NAME>X2259</NAME>
	<OUTCOME>&apos;\&apos;(-inf-65.5]\&apos;&apos;</OUTCOME>
	<OUTCOME>&apos;\&apos;(65.5-inf)\&apos;&apos;</OUTCOME>
	<PROPERTY>position = (588,3840)</PROPERTY>
</VARIABLE>
<VARIABLE TYPE="nature">
	<NAME>X2260</NAME>
	<OUTCOME>&apos;\&apos;(-inf-74.5]\&apos;&apos;</OUTCOME>
	<OUTCOME>&apos;\&apos;(74.5-inf)\&apos;&apos;</OUTCOME>
	<PROPERTY>position = (588,3936)</PROPERTY>
</VARIABLE>
<VARIABLE TYPE="nature">
	<NAME>X2261</NAME>
	<OUTCOME>&apos;\&apos;(-inf-68.5]\&apos;&apos;</OUTCOME>
	<OUTCOME>&apos;\&apos;(68.5-239.5]\&apos;&apos;</OUTCOME>
	<OUTCOME>&apos;\&apos;(239.5-254.5]\&apos;&apos;</OUTCOME>
	<OUTCOME>&apos;\&apos;(254.5-inf)\&apos;&apos;</OUTCOME>
	<PROPERTY>position = (686,3936)</PROPERTY>
</VARIABLE>
<VARIABLE TYPE="nature">
	<NAME>X2262</NAME>
	<OUTCOME>&apos;\&apos;(-inf-72.5]\&apos;&apos;</OUTCOME>
	<OUTCOME>&apos;\&apos;(72.5-158.5]\&apos;&apos;</OUTCOME>
	<OUTCOME>&apos;\&apos;(158.5-254.5]\&apos;&apos;</OUTCOME>
	<OUTCOME>&apos;\&apos;(254.5-inf)\&apos;&apos;</OUTCOME>
	<PROPERTY>position = (686,4032)</PROPERTY>
</VARIABLE>
<VARIABLE TYPE="nature">
	<NAME>X2263</NAME>
	<OUTCOME>&apos;\&apos;(-inf-55.5]\&apos;&apos;</OUTCOME>
	<OUTCOME>&apos;\&apos;(55.5-81.5]\&apos;&apos;</OUTCOME>
	<OUTCOME>&apos;\&apos;(81.5-inf)\&apos;&apos;</OUTCOME>
	<PROPERTY>position = (735,4032)</PROPERTY>
</VARIABLE>
<VARIABLE TYPE="nature">
	<NAME>X2264</NAME>
	<OUTCOME>&apos;\&apos;(-inf-54.5]\&apos;&apos;</OUTCOME>
	<OUTCOME>&apos;\&apos;(54.5-81.5]\&apos;&apos;</OUTCOME>
	<OUTCOME>&apos;\&apos;(81.5-161.5]\&apos;&apos;</OUTCOME>
	<OUTCOME>&apos;\&apos;(161.5-254.5]\&apos;&apos;</OUTCOME>
	<OUTCOME>&apos;\&apos;(254.5-inf)\&apos;&apos;</OUTCOME>
	<PROPERTY>position = (735,4128)</PROPERTY>
</VARIABLE>
<VARIABLE TYPE="nature">
	<NAME>X2269</NAME>
	<OUTCOME>&apos;\&apos;(-inf-62.5]\&apos;&apos;</OUTCOME>
	<OUTCOME>&apos;\&apos;(62.5-inf)\&apos;&apos;</OUTCOME>
	<PROPERTY>position = (637,4224)</PROPERTY>
</VARIABLE>
<VARIABLE TYPE="nature">
	<NAME>X2270</NAME>
	<OUTCOME>&apos;\&apos;(-inf-63.5]\&apos;&apos;</OUTCOME>
	<OUTCOME>&apos;\&apos;(63.5-inf)\&apos;&apos;</OUTCOME>
	<PROPERTY>position = (539,4320)</PROPERTY>
</VARIABLE>
<VARIABLE TYPE="nature">
	<NAME>LABEL</NAME>
	<OUTCOME>0</OUTCOME>
	<OUTCOME>1</OUTCOME>
	<PROPERTY>position = (735,0)</PROPERTY>
</VARIABLE>
<DEFINITION>
<FOR>X743</FOR>
	<GIVEN>LABEL</GIVEN>
<TABLE>
0.030660377358490566 0.7004716981132075 0.25707547169811323 0.01179245283018868 
0.2400990099009901 0.5213771377137714 0.04657965796579658 0.19194419441944194 
</TABLE>
</DEFINITION>
<DEFINITION>
<FOR>X744</FOR>
	<GIVEN>X743</GIVEN>
<TABLE>
0.9713493530499075 0.026802218114602587 9.242144177449168E-4 9.242144177449168E-4 
0.007262996941896025 0.970565749235474 0.021788990825688075 3.8226299694189603E-4 
0.0031446540880503146 0.015723270440251572 0.9276729559748428 0.05345911949685535 
0.0011627906976744186 0.0011627906976744186 0.01744186046511628 0.9802325581395349 
</TABLE>
</DEFINITION>
<DEFINITION>
<FOR>X745</FOR>
	<GIVEN>X744</GIVEN>
	<GIVEN>X743</GIVEN>
<TABLE>
0.9743833017077799 0.023719165085388995 9.487666034155598E-4 9.487666034155598E-4 
0.5909090909090909 0.3181818181818182 0.045454545454545456 0.045454545454545456 
0.25 0.25 0.25 0.25 
0.25 0.25 0.25 0.25 
0.09375 0.84375 0.03125 0.03125 
0.008261211644374508 0.9893784421715185 0.001966955153422502 3.933910306845004E-4 
0.125 0.375 0.375 0.125 
0.25 0.25 0.25 0.25 
0.25 0.25 0.25 0.25 
0.016666666666666666 0.6833333333333333 0.2833333333333333 0.016666666666666666 
0.003355704697986577 0.15100671140939598 0.7281879194630873 0.1174496644295302 
0.05555555555555555 0.05555555555555555 0.5 0.3888888888888889 
0.25 0.25 0.25 0.25 
0.25 0.25 0.25 0.25 
0.05 0.05 0.05 0.85 
0.001182033096926714 0.001182033096926714 0.015366430260047281 0.9822695035460993 
</TABLE>
</DEFINITION>
<DEFINITION>
<FOR>X746</FOR>
	<GIVEN>X745</GIVEN>
	<GIVEN>X744</GIVEN>
<TABLE>
0.9808245445829339 0.016299137104506232 9.587727708533077E-4 9.587727708533077E-4 9.587727708533077E-4 
0.7777777777777778 0.1111111111111111 0.037037037037037035 0.037037037037037035 0.037037037037037035 
0.2 0.2 0.2 0.2 0.2 
0.2 0.2 0.2 0.2 0.2 
0.14285714285714285 0.7714285714285715 0.02857142857142857 0.02857142857142857 0.02857142857142857 
0.020023557126030624 0.9693757361601885 0.009815469179426776 3.9261876717707107E-4 3.9261876717707107E-4 
0.011235955056179775 0.3258426966292135 0.6404494382022472 0.011235955056179775 0.011235955056179775 
0.2 0.2 0.2 0.2 0.2 
0.2 0.2 0.2 0.2 0.2 
0.09090909090909091 0.2727272727272727 0.2727272727272727 0.09090909090909091 0.2727272727272727 
0.004081632653061225 0.053061224489795916 0.7959183673469388 0.1346938775510204 0.012244897959183673 
0.058823529411764705 0.29411764705882354 0.5294117647058824 0.058823529411764705 0.058823529411764705 
0.2 0.2 0.2 0.2 0.2 
0.2 0.2 0.2 0.2 0.2 
0.022222222222222223 0.022222222222222223 0.15555555555555556 0.3333333333333333 0.4666666666666667 
0.0011750881316098707 0.0011750881316098707 0.01762632197414806 0.03172737955346651 0.9482961222091657 
</TABLE>
</DEFINITION>
<DEFINITION>
<FOR>X791</FOR>
	<GIVEN>X745</GIVEN>
	<GIVEN>X743</GIVEN>
<TABLE>
0.8866279069767442 0.11143410852713179 9.689922480620155E-4 9.689922480620155E-4 
0.25 0.6944444444444444 0.027777777777777776 0.027777777777777776 
0.25 0.25 0.25 0.25 
0.25 0.25 0.25 0.25 
0.12962962962962962 0.8333333333333334 0.018518518518518517 0.018518518518518517 
0.005850234009360375 0.9730889235569423 0.015990639625585022 0.005070202808112325 
0.02 0.62 0.26 0.1 
0.25 0.25 0.25 0.25 
0.25 0.25 0.25 0.25 
0.041666666666666664 0.125 0.7083333333333334 0.125 
0.0045045045045045045 0.08558558558558559 0.7612612612612613 0.14864864864864866 
0.041666666666666664 0.041666666666666664 0.375 0.5416666666666666 
0.25 0.25 0.25 0.25 
0.25 0.25 0.25 0.25 
0.018518518518518517 0.24074074074074073 0.3888888888888889 0.35185185185185186 
0.0011904761904761906 0.005952380952380952 0.04404761904761905 0.9488095238095238 
</TABLE>
</DEFINITION>
<DEFINITION>
<FOR>X792</FOR>
	<GIVEN>X791</GIVEN>
	<GIVEN>X745</GIVEN>
<TABLE>
0.9784250269687162 0.018338727076591153 0.0010787486515641855 0.0010787486515641855 0.0010787486515641855 
0.36 0.52 0.04 0.04 0.04 
0.2 0.2 0.2 0.2 0.2 
0.2 0.2 0.2 0.2 0.2 
0.13286713286713286 0.8461538461538461 0.006993006993006993 0.006993006993006993 0.006993006993006993 
0.001165954139137194 0.9914496696463272 0.006607073455110766 3.88651379712398E-4 3.88651379712398E-4 
0.04 0.36 0.52 0.04 0.04 
0.047619047619047616 0.23809523809523808 0.6190476190476191 0.047619047619047616 0.047619047619047616 
0.2 0.2 0.2 0.2 0.2 
0.017543859649122806 0.08771929824561403 0.7543859649122807 0.08771929824561403 0.05263157894736842 
0.005076142131979695 0.015228426395939087 0.8578680203045685 0.1065989847715736 0.015228426395939087 
0.01639344262295082 0.04918032786885246 0.11475409836065574 0.4426229508196721 0.3770491803278688 
0.2 0.2 0.2 0.2 0.2 
0.047619047619047616 0.047619047619047616 0.047619047619047616 0.23809523809523808 0.6190476190476191 
0.0196078431372549 0.0196078431372549 0.0196078431372549 0.17647058823529413 0.7647058823529411 
0.001221001221001221 0.001221001221001221 0.008547008547008548 0.040293040293040296 0.9487179487179487 
</TABLE>
</DEFINITION>
<DEFINITION>
<FOR>X793</FOR>
	<GIVEN>X792</GIVEN>
	<GIVEN>X746</GIVEN>
<TABLE>
0.9546925566343042 0.042071197411003236 0.0010787486515641855 0.0010787486515641855 0.0010787486515641855 
0.5294117647058824 0.29411764705882354 0.058823529411764705 0.058823529411764705 0.058823529411764705 
0.2 0.2 0.2 0.2 0.2 
0.2 0.2 0.2 0.2 0.2 
0.2 0.2 0.2 0.2 0.2 
0.13966480446927373 0.8435754189944135 0.00558659217877095 0.00558659217877095 0.00558659217877095 
0.0036363636363636364 0.9919191919191919 0.0036363636363636364 4.0404040404040404E-4 4.0404040404040404E-4 
0.0136986301369863 0.726027397260274 0.2328767123287671 0.0136986301369863 0.0136986301369863 
0.1111111111111111 0.5555555555555556 0.1111111111111111 0.1111111111111111 0.1111111111111111 
0.14285714285714285 0.14285714285714285 0.42857142857142855 0.14285714285714285 0.14285714285714285 
0.2 0.2 0.2 0.2 0.2 
0.018867924528301886 0.32075471698113206 0.5849056603773585 0.05660377358490566 0.018867924528301886 
0.00546448087431694 0.060109289617486336 0.8579234972677595 0.07103825136612021 0.00546448087431694 
0.047619047619047616 0.14285714285714285 0.23809523809523808 0.5238095238095238 0.047619047619047616 
0.04 0.04 0.44 0.36 0.12 
0.2 0.2 0.2 0.2 0.2 
0.07692307692307693 0.23076923076923078 0.38461538461538464 0.23076923076923078 0.07692307692307693 
0.034482758620689655 0.10344827586206896 0.2413793103448276 0.5862068965517241 0.034482758620689655 
0.04 0.04 0.04 0.76 0.12 
0.02127659574468085 0.02127659574468085 0.23404255319148937 0.23404255319148937 0.48936170212765956 
0.2 0.2 0.2 0.2 0.2 
0.04 0.12 0.04 0.2 0.6 
0.02564102564102564 0.02564102564102564 0.02564102564102564 0.1794871794871795 0.7435897435897436 
0.02702702702702703 0.02702702702702703 0.1891891891891892 0.1891891891891892 0.5675675675675675 
0.0012970168612191958 0.0012970168612191958 0.009079118028534372 0.02464332036316472 0.9636835278858625 
</TABLE>
</DEFINITION>
<DEFINITION>
<FOR>X794</FOR>
	<GIVEN>X793</GIVEN>
<TABLE>
0.9795258620689655 0.018318965517241378 0.0010775862068965517 0.0010775862068965517 
0.03686131386861314 0.9434306569343066 0.019343065693430656 3.64963503649635E-4 
0.003816793893129771 0.2480916030534351 0.7366412213740458 0.011450381679389313 
0.008620689655172414 0.09482758620689655 0.6293103448275862 0.2672413793103448 
0.001199040767386091 0.025179856115107913 0.07793764988009592 0.89568345323741 
</TABLE>
</DEFINITION>
<DEFINITION>
<FOR>X795</FOR>
	<GIVEN>X794</GIVEN>
	<GIVEN>X746</GIVEN>
<TABLE>
0.9956188389923329 0.0032858707557502738 0.001095290251916758 
0.9801980198019802 0.009900990099009901 0.009900990099009901 
0.3333333333333333 0.3333333333333333 0.3333333333333333 
0.3333333333333333 0.3333333333333333 0.3333333333333333 
0.3333333333333333 0.3333333333333333 0.3333333333333333 
0.6296296296296297 0.36507936507936506 0.005291005291005291 
0.1744430432955023 0.825136612021858 4.203446826397646E-4 
0.14942528735632185 0.8390804597701149 0.011494252873563218 
0.17647058823529413 0.7647058823529411 0.058823529411764705 
0.5135135135135135 0.4594594594594595 0.02702702702702703 
0.3333333333333333 0.3333333333333333 0.3333333333333333 
0.0136986301369863 0.9452054794520548 0.0410958904109589 
0.005235602094240838 0.9685863874345549 0.02617801047120419 
0.030303030303030304 0.696969696969697 0.2727272727272727 
0.031578947368421054 0.9578947368421052 0.010526315789473684 
0.3333333333333333 0.3333333333333333 0.3333333333333333 
0.058823529411764705 0.29411764705882354 0.6470588235294118 
0.02857142857142857 0.2 0.7714285714285715 
0.03225806451612903 0.0967741935483871 0.8709677419354839 
0.0014144271570014145 0.13154172560113153 0.867043847241867 
</TABLE>
</DEFINITION>
<DEFINITION>
<FOR>X840</FOR>
	<GIVEN>X793</GIVEN>
	<GIVEN>X791</GIVEN>
<TABLE>
0.9243792325056434 0.07336343115124154 0.001128668171557562 0.001128668171557562 
0.5869565217391305 0.3695652173913043 0.021739130434782608 0.021739130434782608 
0.25 0.25 0.25 0.25 
0.25 0.25 0.25 0.25 
0.234375 0.734375 0.015625 0.015625 
0.010959939531368102 0.972411186696901 0.013227513227513227 0.003401360544217687 
0.03333333333333333 0.7 0.23333333333333334 0.03333333333333333 
0.08333333333333333 0.4166666666666667 0.4166666666666667 0.08333333333333333 
0.25 0.25 0.25 0.25 
0.017857142857142856 0.625 0.26785714285714285 0.08928571428571429 
0.005434782608695652 0.03804347826086957 0.907608695652174 0.04891304347826087 
0.03333333333333333 0.36666666666666664 0.36666666666666664 0.23333333333333334 
0.25 0.25 0.25 0.25 
0.125 0.625 0.125 0.125 
0.015625 0.078125 0.671875 0.234375 
0.019230769230769232 0.17307692307692307 0.25 0.5576923076923077 
0.25 0.25 0.25 0.25 
0.16666666666666666 0.16666666666666666 0.5 0.16666666666666666 
0.02631578947368421 0.02631578947368421 0.7105263157894737 0.23684210526315788 
0.0012531328320802004 0.008771929824561403 0.03634085213032581 0.9536340852130326 
</TABLE>
</DEFINITION>
<DEFINITION>
<FOR>X841</FOR>
	<GIVEN>X794</GIVEN>
	<GIVEN>X840</GIVEN>
<TABLE>
0.9515366430260047 0.04609929078014184 0.001182033096926714 0.001182033096926714 
0.43452380952380953 0.5535714285714286 0.005952380952380952 0.005952380952380952 
0.16666666666666666 0.5 0.16666666666666666 0.16666666666666666 
0.25 0.25 0.25 0.25 
0.22916666666666666 0.7291666666666666 0.020833333333333332 0.020833333333333332 
0.012282091917591125 0.9869255150554676 3.961965134706815E-4 3.961965134706815E-4 
0.010416666666666666 0.6145833333333334 0.3229166666666667 0.052083333333333336 
0.023809523809523808 0.6904761904761905 0.11904761904761904 0.16666666666666666 
0.25 0.25 0.25 0.25 
0.03125 0.7604166666666666 0.19791666666666666 0.010416666666666666 
0.0049504950495049506 0.09405940594059406 0.8960396039603961 0.0049504950495049506 
0.010638297872340425 0.11702127659574468 0.4148936170212766 0.4574468085106383 
0.25 0.25 0.25 0.25 
0.045454545454545456 0.6818181818181818 0.22727272727272727 0.045454545454545456 
0.017857142857142856 0.16071428571428573 0.375 0.44642857142857145 
0.0014044943820224719 0.004213483146067416 0.05196629213483146 0.9424157303370787 
</TABLE>
</DEFINITION>
<DEFINITION>
<FOR>X842</FOR>
	<GIVEN>X795</GIVEN>
	<GIVEN>X841</GIVEN>
<TABLE>
0.9955898566703418 0.0033076074972436605 0.0011025358324145535 
0.8146487294469357 0.18385650224215247 0.0014947683109118087 
0.6 0.2 0.2 
0.3333333333333333 0.3333333333333333 0.3333333333333333 
0.7647058823529411 0.17647058823529413 0.058823529411764705 
0.09757214841960604 0.901969766376546 4.580852038479157E-4 
0.010830324909747292 0.9855595667870036 0.0036101083032490976 
0.007407407407407408 0.674074074074074 0.31851851851851853 
0.3333333333333333 0.3333333333333333 0.3333333333333333 
0.043478260869565216 0.9130434782608695 0.043478260869565216 
0.017543859649122806 0.7543859649122807 0.22807017543859648 
0.0016207455429497568 0.1507293354943274 0.8476499189627229 
</TABLE>
</DEFINITION>
<DEFINITION>
<FOR>X843</FOR>
	<GIVEN>X842</GIVEN>
	<GIVEN>X745</GIVEN>
<TABLE>
0.9988913525498891 0.0011086474501108647 
0.9986033519553073 0.0013966480446927375 
0.9375 0.0625 
0.9791666666666666 0.020833333333333332 
0.9938271604938271 0.006172839506172839 
0.9994742376445847 5.257623554153522E-4 
0.985 0.015 
0.9858757062146892 0.014124293785310734 
0.5 0.5 
0.022727272727272728 0.9772727272727273 
0.020833333333333332 0.9791666666666666 
0.336734693877551 0.6632653061224489 
</TABLE>
</DEFINITION>
<DEFINITION>
<FOR>X935</FOR>
	<GIVEN>X840</GIVEN>
	<GIVEN>X842</GIVEN>
<TABLE>
0.9988636363636364 0.0011363636363636363 
0.9 0.1 
0.5 0.5 
0.9986702127659575 0.0013297872340425532 
0.9975514201762977 0.002448579823702253 
0.8333333333333334 0.16666666666666666 
0.6875 0.3125 
0.9243421052631579 0.0756578947368421 
0.9 0.1 
0.029411764705882353 0.9705882352941176 
0.4312977099236641 0.5687022900763359 
0.25824175824175827 0.7417582417582418 
</TABLE>
</DEFINITION>
<DEFINITION>
<FOR>X981</FOR>
	<GIVEN>X842</GIVEN>
	<GIVEN>X744</GIVEN>
<TABLE>
0.8709677419354839 0.12791991101223582 0.0011123470522803114 
0.606694560669456 0.39191073919107394 0.001394700139470014 
0.42857142857142855 0.5238095238095238 0.047619047619047616 
0.22448979591836735 0.5102040816326531 0.2653061224489796 
0.18857142857142858 0.8057142857142857 0.005714285714285714 
0.2277992277992278 0.7628240485383343 0.009376723662437948 
0.09830508474576272 0.8847457627118644 0.01694915254237288 
0.06784660766961652 0.7699115044247787 0.16224188790560473 
0.3333333333333333 0.3333333333333333 0.3333333333333333 
0.02040816326530612 0.5918367346938775 0.3877551020408163 
0.017543859649122806 0.543859649122807 0.43859649122807015 
0.0020876826722338203 0.615866388308977 0.38204592901878914 
</TABLE>
</DEFINITION>
<DEFINITION>
<FOR>X982</FOR>
	<GIVEN>X840</GIVEN>
	<GIVEN>X981</GIVEN>
<TABLE>
0.9986807387862797 0.0013192612137203166 
0.9621212121212122 0.03787878787878788 
0.5 0.5 
0.9945175438596491 0.005482456140350877 
0.9454643628509719 0.05453563714902808 
0.1388888888888889 0.8611111111111112 
0.9666666666666667 0.03333333333333333 
0.8253424657534246 0.17465753424657535 
0.25 0.75 
0.5277777777777778 0.4722222222222222 
0.44584837545126355 0.5541516245487365 
0.13095238095238096 0.8690476190476191 
</TABLE>
</DEFINITION>
<DEFINITION>
<FOR>X983</FOR>
	<GIVEN>X935</GIVEN>
	<GIVEN>X982</GIVEN>
<TABLE>
0.9876822523881348 0.012317747611865259 
0.7444444444444445 0.25555555555555554 
0.09420289855072464 0.9057971014492754 
0.002074688796680498 0.9979253112033195 
</TABLE>
</DEFINITION>
<DEFINITION>
<FOR>X1024</FOR>
	<GIVEN>X744</GIVEN>
	<GIVEN>X981</GIVEN>
<TABLE>
0.9902080783353733 0.008567931456548347 0.0012239902080783353 
0.7354085603112841 0.2607003891050584 0.0038910505836575876 
0.3333333333333333 0.3333333333333333 0.3333333333333333 
0.38515901060070673 0.6136631330977621 0.001177856301531213 
0.112817483756645 0.880685174246899 0.006497341996455995 
0.1891891891891892 0.7837837837837838 0.02702702702702703 
0.07692307692307693 0.4358974358974359 0.48717948717948717 
0.0297029702970297 0.8745874587458746 0.09570957095709572 
0.03225806451612903 0.6129032258064516 0.3548387096774194 
0.02857142857142857 0.3142857142857143 0.6571428571428571 
0.0051635111876075735 0.33562822719449226 0.6592082616179001 
0.00398406374501992 0.2350597609561753 0.7609561752988048 
</TABLE>
</DEFINITION>
<DEFINITION>
<FOR>X1025</FOR>
	<GIVEN>X1024</GIVEN>
	<GIVEN>X840</GIVEN>
<TABLE>
0.7625145518044237 0.23632130384167638 0.0011641443538998836 
0.23076923076923078 0.7677224736048266 0.0015082956259426848 
0.07692307692307693 0.8461538461538461 0.07692307692307693 
0.14285714285714285 0.7142857142857143 0.14285714285714285 
0.030303030303030304 0.9393939393939394 0.030303030303030304 
0.00619933237958989 0.9923700524558894 0.001430615164520744 
0.003952569169960474 0.9841897233201581 0.011857707509881422 
0.0033444816053511705 0.7859531772575251 0.21070234113712374 
0.3333333333333333 0.3333333333333333 0.3333333333333333 
0.023255813953488372 0.2558139534883721 0.7209302325581395 
0.011494252873563218 0.40229885057471265 0.5862068965517241 
0.0018552875695732839 0.1614100185528757 0.8367346938775511 
</TABLE>
</DEFINITION>
<DEFINITION>
<FOR>X1026</FOR>
	<GIVEN>X1025</GIVEN>
	<GIVEN>X746</GIVEN>
<TABLE>
0.9971550497866287 0.001422475106685633 0.001422475106685633 
0.8347107438016529 0.15702479338842976 0.008264462809917356 
0.3333333333333333 0.3333333333333333 0.3333333333333333 
0.3333333333333333 0.3333333333333333 0.3333333333333333 
0.3333333333333333 0.3333333333333333 0.3333333333333333 
0.6591478696741855 0.3383458646616541 0.002506265664160401 
0.09494451294697903 0.903822441430333 0.0012330456226880395 
0.024390243902439025 0.9651567944250871 0.010452961672473868 
0.02127659574468085 0.8723404255319149 0.10638297872340426 
0.003389830508474576 0.7762711864406779 0.22033898305084745 
0.3333333333333333 0.3333333333333333 0.3333333333333333 
0.07692307692307693 0.6923076923076923 0.23076923076923078 
0.043478260869565216 0.391304347826087 0.5652173913043478 
0.03225806451612903 0.3548387096774194 0.6129032258064516 
0.0018484288354898336 0.07208872458410351 0.9260628465804066 
</TABLE>
</DEFINITION>
<DEFINITION>
<FOR>X1029</FOR>
	<GIVEN>X981</GIVEN>
	<GIVEN>X842</GIVEN>
<TABLE>
0.9967663702506063 0.002425222312045271 8.084074373484236E-4 
0.9637826961770624 0.03420523138832998 0.002012072434607646 
0.3333333333333333 0.3333333333333333 0.3333333333333333 
0.8190255220417634 0.17865429234338748 0.002320185614849188 
0.29877750611246945 0.6997555012224939 0.001466992665036675 
0.08732394366197183 0.8704225352112676 0.04225352112676056 
0.06666666666666667 0.3333333333333333 0.6 
0.012987012987012988 0.6363636363636364 0.35064935064935066 
0.004405286343612335 0.5770925110132159 0.4185022026431718 
</TABLE>
</DEFINITION>
<DEFINITION>
<FOR>X1030</FOR>
	<GIVEN>X982</GIVEN>
	<GIVEN>X981</GIVEN>
<TABLE>
0.9994152046783625 5.847953216374269E-4 
0.9919627749576988 0.008037225042301184 
0.7954545454545454 0.20454545454545456 
0.4090909090909091 0.5909090909090909 
0.36147186147186144 0.6385281385281385 
0.08518518518518518 0.9148148148148149 
</TABLE>
</DEFINITION>
<DEFINITION>
<FOR>X1031</FOR>
	<GIVEN>X983</GIVEN>
	<GIVEN>X1024</GIVEN>
<TABLE>
0.9980289093298291 0.0019710906701708277 
0.9771404821280133 0.0228595178719867 
0.7018348623853211 0.2981651376146789 
0.25 0.75 
0.041044776119402986 0.9589552238805971 
0.020179372197309416 0.9798206278026906 
</TABLE>
</DEFINITION>
<DEFINITION>
<FOR>X1071</FOR>
	<GIVEN>X743</GIVEN>
	<GIVEN>X1024</GIVEN>
<TABLE>
0.9478435305917753 0.05115346038114343 0.0010030090270812437 
0.10344827586206896 0.8850574712643678 0.011494252873563218 
0.3333333333333333 0.3333333333333333 0.3333333333333333 
0.2589792060491493 0.7391304347826086 0.001890359168241966 
0.018795180722891568 0.9797590361445783 0.0014457831325301205 
0.058823529411764705 0.8823529411764706 0.058823529411764705 
0.09090909090909091 0.8181818181818182 0.09090909090909091 
0.004016064257028112 0.9518072289156626 0.04417670682730924 
0.015873015873015872 0.4603174603174603 0.5238095238095238 
0.2 0.6 0.2 
0.0036900369003690036 0.4833948339483395 0.5129151291512916 
0.001697792869269949 0.059422750424448216 0.9388794567062818 
</TABLE>
</DEFINITION>
<DEFINITION>
<FOR>X1072</FOR>
	<GIVEN>X1071</GIVEN>
	<GIVEN>X1025</GIVEN>
<TABLE>
0.9916317991631799 0.00697350069735007 0.001394700139470014 
0.5662650602409639 0.43132530120481927 0.0024096385542168677 
0.3333333333333333 0.3333333333333333 0.3333333333333333 
0.2897196261682243 0.7009345794392523 0.009345794392523364 
0.005937827453719874 0.980440097799511 0.013622074746769124 
0.02564102564102564 0.38461538461538464 0.5897435897435898 
0.3333333333333333 0.3333333333333333 0.3333333333333333 
0.005649717514124294 0.2994350282485876 0.6949152542372882 
0.0017761989342806395 0.04085257548845471 0.9573712255772646 
</TABLE>
</DEFINITION>
<DEFINITION>
<FOR>X1073</FOR>
	<GIVEN>X1072</GIVEN>
	<GIVEN>X1026</GIVEN>
<TABLE>
0.8868335146898803 0.11207834602829161 0.001088139281828074 
0.03896103896103896 0.948051948051948 0.012987012987012988 
0.3333333333333333 0.3333333333333333 0.3333333333333333 
0.10649350649350649 0.8909090909090909 0.0025974025974025974 
0.0018294914013904135 0.9824368825466521 0.015733626051957557 
0.024390243902439025 0.2682926829268293 0.7073170731707317 
0.3333333333333333 0.3333333333333333 0.3333333333333333 
0.006369426751592357 0.4012738853503185 0.5923566878980892 
0.0017574692442882249 0.033391915641476276 0.9648506151142355 
</TABLE>
</DEFINITION>
<DEFINITION>
<FOR>X1074</FOR>
	<GIVEN>X1073</GIVEN>
	<GIVEN>X793</GIVEN>
<TABLE>
0.9844357976653697 0.014267185473411154 0.0012970168612191958 
0.6842105263157895 0.30526315789473685 0.010526315789473684 
0.3333333333333333 0.3333333333333333 0.3333333333333333 
0.3333333333333333 0.3333333333333333 0.3333333333333333 
0.3333333333333333 0.3333333333333333 0.3333333333333333 
0.48427672955974843 0.5094339622641509 0.006289308176100629 
0.027703984819734344 0.971157495256167 0.0011385199240986717 
0.004219409282700422 0.9831223628691983 0.012658227848101266 
0.012345679012345678 0.9753086419753086 0.012345679012345678 
0.0051813471502590676 0.7927461139896373 0.20207253886010362 
0.3333333333333333 0.3333333333333333 0.3333333333333333 
0.06666666666666667 0.7333333333333333 0.2 
0.037037037037037035 0.48148148148148145 0.48148148148148145 
0.02702702702702703 0.5135135135135135 0.4594594594594595 
0.0015552099533437014 0.11975116640746501 0.8786936236391913 
</TABLE>
</DEFINITION>
<DEFINITION>
<FOR>X1085</FOR>
	<GIVEN>X792</GIVEN>
	<GIVEN>X1026</GIVEN>
<TABLE>
0.9739229024943311 0.023809523809523808 0.0011337868480725624 0.0011337868480725624 
0.5833333333333334 0.38333333333333336 0.016666666666666666 0.016666666666666666 
0.25 0.25 0.25 0.25 
0.5456730769230769 0.43509615384615385 0.016826923076923076 0.002403846153846154 
0.06981786643538596 0.7983521248915871 0.13139635732870772 4.336513443191674E-4 
0.125 0.375 0.375 0.125 
0.25 0.4166666666666667 0.25 0.08333333333333333 
0.0040650406504065045 0.24796747967479674 0.7195121951219512 0.028455284552845527 
0.0625 0.4375 0.4375 0.0625 
0.25 0.25 0.25 0.25 
0.013157894736842105 0.19736842105263158 0.5657894736842105 0.2236842105263158 
0.038461538461538464 0.19230769230769232 0.5769230769230769 0.19230769230769232 
0.25 0.25 0.25 0.25 
0.0034482758620689655 0.1413793103448276 0.41724137931034483 0.4379310344827586 
0.008771929824561403 0.03333333333333333 0.08596491228070176 0.8719298245614036 
</TABLE>
</DEFINITION>
<DEFINITION>
<FOR>X1086</FOR>
	<GIVEN>X1085</GIVEN>
	<GIVEN>X746</GIVEN>
<TABLE>
0.9865145228215768 0.011410788381742738 0.001037344398340249 0.001037344398340249 
0.6428571428571429 0.35093167701863354 0.003105590062111801 0.003105590062111801 
0.16666666666666666 0.5 0.16666666666666666 0.16666666666666666 
0.25 0.25 0.25 0.25 
0.125 0.375 0.375 0.125 
0.39552238805970147 0.5895522388059702 0.007462686567164179 0.007462686567164179 
0.06980351602895553 0.9291623578076526 5.17063081695967E-4 5.17063081695967E-4 
0.0125 0.8125 0.1375 0.0375 
0.07142857142857142 0.7857142857142857 0.07142857142857142 0.07142857142857142 
0.014705882352941176 0.6029411764705882 0.04411764705882353 0.3382352941176471 
0.1 0.7 0.1 0.1 
0.0032258064516129032 0.932258064516129 0.054838709677419356 0.00967741935483871 
0.004807692307692308 0.42788461538461536 0.5336538461538461 0.03365384615384615 
0.025 0.325 0.225 0.425 
0.0058823529411764705 0.37058823529411766 0.19411764705882353 0.4294117647058823 
0.25 0.25 0.25 0.25 
0.125 0.125 0.125 0.625 
0.038461538461538464 0.19230769230769232 0.5 0.2692307692307692 
0.03333333333333333 0.36666666666666664 0.03333333333333333 0.5666666666666667 
0.0016666666666666668 0.03166666666666667 0.08166666666666667 0.885 
</TABLE>
</DEFINITION>
<DEFINITION>
<FOR>X1119</FOR>
	<GIVEN>X1071</GIVEN>
	<GIVEN>X1085</GIVEN>
<TABLE>
0.9194560669456067 0.07845188284518828 0.0010460251046025104 0.0010460251046025104 
0.6193181818181818 0.3693181818181818 0.005681818181818182 0.005681818181818182 
0.5 0.16666666666666666 0.16666666666666666 0.16666666666666666 
0.25 0.25 0.25 0.25 
0.009036144578313253 0.9728915662650602 0.015060240963855422 0.0030120481927710845 
5.005005005005005E-4 0.8823823823823824 0.1066066066066066 0.010510510510510511 
0.0017421602787456446 0.16898954703832753 0.7996515679442509 0.029616724738675958 
0.008928571428571428 0.0625 0.41964285714285715 0.5089285714285714 
0.125 0.125 0.125 0.625 
0.020833333333333332 0.020833333333333332 0.020833333333333332 0.9375 
0.006666666666666667 0.006666666666666667 0.15333333333333332 0.8333333333333334 
0.001838235294117647 0.001838235294117647 0.02022058823529412 0.9761029411764706 
</TABLE>
</DEFINITION>
<DEFINITION>
<FOR>X1120</FOR>
	<GIVEN>X1119</GIVEN>
	<GIVEN>X840</GIVEN>
<TABLE>
0.993573264781491 0.0038560411311053984 0.0012853470437017994 0.0012853470437017994 
0.6342592592592593 0.3472222222222222 0.013888888888888888 0.004629629629629629 
0.125 0.625 0.125 0.125 
0.25 0.25 0.25 0.25 
0.6052631578947368 0.37719298245614036 0.008771929824561403 0.008771929824561403 
0.025967894239848913 0.9466477809254014 0.026912181303116147 4.7214353163361664E-4 
0.013888888888888888 0.4583333333333333 0.5138888888888888 0.013888888888888888 
0.027777777777777776 0.4722222222222222 0.4722222222222222 0.027777777777777776 
0.16666666666666666 0.16666666666666666 0.5 0.16666666666666666 
0.002347417840375587 0.11032863849765258 0.8802816901408451 0.007042253521126761 
0.0048543689320388345 0.03398058252427184 0.8883495145631068 0.07281553398058252 
0.007692307692307693 0.08461538461538462 0.46923076923076923 0.43846153846153846 
0.25 0.25 0.25 0.25 
0.02 0.06 0.18 0.74 
0.013513513513513514 0.013513513513513514 0.3108108108108108 0.6621621621621622 
0.001466275659824047 0.004398826979472141 0.03372434017595308 0.9604105571847508 
</TABLE>
</DEFINITION>
<DEFINITION>
<FOR>X1121</FOR>
	<GIVEN>X1120</GIVEN>
	<GIVEN>X842</GIVEN>
<TABLE>
0.9449244060475162 0.052915766738660906 0.0010799136069114472 0.0010799136069114472 
0.1875 0.7946428571428571 0.008928571428571428 0.008928571428571428 
0.25 0.25 0.25 0.25 
0.17182662538699692 0.8095975232198143 0.017027863777089782 0.0015479876160990713 
0.009505703422053232 0.8954372623574145 0.0944233206590621 6.337135614702154E-4 
0.03571428571428571 0.25 0.6785714285714286 0.03571428571428571 
0.014285714285714285 0.12857142857142856 0.8428571428571429 0.014285714285714285 
0.0015723270440251573 0.11477987421383648 0.8820754716981132 0.0015723270440251573 
0.011627906976744186 0.10465116279069768 0.5 0.38372093023255816 
0.020833333333333332 0.0625 0.4375 0.4791666666666667 
0.0033333333333333335 0.043333333333333335 0.27666666666666667 0.6766666666666666 
0.002109704641350211 0.006329113924050633 0.0949367088607595 0.8966244725738397 
</TABLE>
</DEFINITION>
<DEFINITION>
<FOR>X1125</FOR>
<TABLE>
1.0 
</TABLE>
</DEFINITION>
<DEFINITION>
<FOR>X1133</FOR>
	<GIVEN>X1085</GIVEN>
	<GIVEN>X840</GIVEN>
<TABLE>
0.9098360655737705 0.08782201405152225 0.00117096018735363 0.00117096018735363 
0.5 0.49539170506912444 0.002304147465437788 0.002304147465437788 
0.125 0.625 0.125 0.125 
0.25 0.25 0.25 0.25 
0.07894736842105263 0.868421052631579 0.02631578947368421 0.02631578947368421 
0.0014720314033366045 0.9524043179587831 0.04563297350343474 4.906771344455348E-4 
0.010416666666666666 0.6979166666666666 0.2604166666666667 0.03125 
0.018518518518518517 0.7592592592592593 0.2037037037037037 0.018518518518518517 
0.16666666666666666 0.16666666666666666 0.5 0.16666666666666666 
0.003048780487804878 0.03353658536585366 0.9603658536585366 0.003048780487804878 
0.004347826086956522 0.021739130434782608 0.8913043478260869 0.08260869565217391 
0.0058823529411764705 0.0058823529411764705 0.6411764705882353 0.34705882352941175 
0.25 0.25 0.25 0.25 
0.1 0.1 0.1 0.7 
0.038461538461538464 0.038461538461538464 0.038461538461538464 0.8846153846153846 
0.0016025641025641025 0.0016025641025641025 0.008012820512820512 0.9887820512820513 
</TABLE>
</DEFINITION>
<DEFINITION>
<FOR>X1134</FOR>
	<GIVEN>X1086</GIVEN>
	<GIVEN>X1133</GIVEN>
<TABLE>
0.9317226890756303 0.0661764705882353 0.0010504201680672268 0.0010504201680672268 
0.3592964824120603 0.635678391959799 0.002512562814070352 0.002512562814070352 
0.25 0.25 0.25 0.25 
0.25 0.25 0.25 0.25 
0.02 0.94 0.02 0.02 
0.003575076608784474 0.9892747701736466 0.006639427987742594 5.107252298263534E-4 
0.0018587360594795538 0.9014869888475836 0.09107806691449814 0.0055762081784386614 
0.013888888888888888 0.3472222222222222 0.5694444444444444 0.06944444444444445 
0.16666666666666666 0.16666666666666666 0.5 0.16666666666666666 
0.0625 0.0625 0.8125 0.0625 
0.006578947368421052 0.006578947368421052 0.9013157894736842 0.08552631578947369 
0.012195121951219513 0.036585365853658534 0.5487804878048781 0.4024390243902439 
0.25 0.25 0.25 0.25 
0.03571428571428571 0.03571428571428571 0.10714285714285714 0.8214285714285714 
0.0125 0.0125 0.0625 0.9125 
0.0017241379310344827 0.0017241379310344827 0.008620689655172414 0.9879310344827587 
</TABLE>
</DEFINITION>
<DEFINITION>
<FOR>X1167</FOR>
	<GIVEN>X1119</GIVEN>
	<GIVEN>X1121</GIVEN>
<TABLE>
0.9635678391959799 0.03391959798994975 0.001256281407035176 0.001256281407035176 
0.8402061855670103 0.14948453608247422 0.005154639175257732 0.005154639175257732 
0.4166666666666667 0.4166666666666667 0.08333333333333333 0.08333333333333333 
0.25 0.25 0.25 0.25 
0.031818181818181815 0.9590909090909091 0.004545454545454545 0.004545454545454545 
0.0016216216216216215 0.967027027027027 0.030810810810810812 5.405405405405405E-4 
0.004032258064516129 0.5846774193548387 0.40725806451612906 0.004032258064516129 
0.045454545454545456 0.4090909090909091 0.4090909090909091 0.13636363636363635 
0.1 0.1 0.7 0.1 
0.00847457627118644 0.025423728813559324 0.8728813559322034 0.09322033898305085 
0.0017985611510791368 0.012589928057553957 0.9334532374100719 0.052158273381294966 
0.011904761904761904 0.011904761904761904 0.6071428571428571 0.36904761904761907 
0.125 0.125 0.125 0.625 
0.029411764705882353 0.029411764705882353 0.029411764705882353 0.9117647058823529 
0.005494505494505495 0.005494505494505495 0.1043956043956044 0.8846153846153846 
0.0017064846416382253 0.0017064846416382253 0.005119453924914676 0.9914675767918089 
</TABLE>
</DEFINITION>
<DEFINITION>
<FOR>X1168</FOR>
	<GIVEN>X1120</GIVEN>
	<GIVEN>X1167</GIVEN>
<TABLE>
0.953514739229025 0.04421768707482993 0.0011337868480725624 0.0011337868480725624 
0.5833333333333334 0.40384615384615385 0.00641025641025641 0.00641025641025641 
0.25 0.25 0.25 0.25 
0.25 0.25 0.25 0.25 
0.015151515151515152 0.9545454545454546 0.015151515151515152 0.015151515151515152 
0.014485514485514486 0.9575424575424576 0.027472527472527472 4.995004995004995E-4 
0.005747126436781609 0.4540229885057471 0.5344827586206896 0.005747126436781609 
0.07142857142857142 0.21428571428571427 0.5 0.21428571428571427 
0.25 0.25 0.25 0.25 
0.014285714285714285 0.014285714285714285 0.9285714285714286 0.04285714285714286 
0.0015625 0.0515625 0.9234375 0.0234375 
0.012195121951219513 0.036585365853658534 0.524390243902439 0.4268292682926829 
0.25 0.25 0.25 0.25 
0.25 0.25 0.25 0.25 
0.017241379310344827 0.017241379310344827 0.08620689655172414 0.8793103448275862 
0.0013157894736842105 0.003947368421052632 0.06447368421052632 0.9302631578947368 
</TABLE>
</DEFINITION>
<DEFINITION>
<FOR>X1169</FOR>
	<GIVEN>X1121</GIVEN>
	<GIVEN>X842</GIVEN>
<TABLE>
0.9382591093117408 0.0597165991902834 0.0010121457489878543 0.0010121457489878543 
0.2894736842105263 0.6578947368421053 0.02631578947368421 0.02631578947368421 
0.25 0.25 0.25 0.25 
0.3441780821917808 0.6523972602739726 0.0017123287671232876 0.0017123287671232876 
0.04848866498740554 0.9452141057934509 0.005667506297229219 6.297229219143577E-4 
0.05 0.25 0.55 0.15 
0.03260869565217391 0.75 0.18478260869565216 0.03260869565217391 
0.006297229219143577 0.5856423173803527 0.3790931989924433 0.028967254408060455 
0.009259259259259259 0.32407407407407407 0.37962962962962965 0.28703703703703703 
0.11538461538461539 0.5 0.11538461538461539 0.2692307692307692 
0.0048543689320388345 0.0825242718446602 0.22815533980582525 0.6844660194174758 
0.002173913043478261 0.010869565217391304 0.07608695652173914 0.9108695652173913 
</TABLE>
</DEFINITION>
<DEFINITION>
<FOR>X1170</FOR>
	<GIVEN>X1169</GIVEN>
	<GIVEN>X1029</GIVEN>
<TABLE>
0.9907718120805369 0.007550335570469799 8.389261744966443E-4 8.389261744966443E-4 
0.6764705882352942 0.2647058823529412 0.029411764705882353 0.029411764705882353 
0.5 0.16666666666666666 0.16666666666666666 0.16666666666666666 
0.42264416315049225 0.5717299578059072 0.004922644163150493 7.032348804500703E-4 
0.06954225352112677 0.8934859154929577 0.03609154929577465 8.802816901408451E-4 
0.05555555555555555 0.3888888888888889 0.16666666666666666 0.3888888888888889 
0.12857142857142856 0.5857142857142857 0.2714285714285714 0.014285714285714285 
0.002617801047120419 0.4005235602094241 0.5785340314136126 0.01832460732984293 
0.1875 0.3125 0.4375 0.0625 
0.029411764705882353 0.38235294117647056 0.2647058823529412 0.3235294117647059 
0.0020920502092050207 0.2112970711297071 0.2280334728033473 0.5585774058577406 
0.025 0.10833333333333334 0.10833333333333334 0.7583333333333333 
</TABLE>
</DEFINITION>
<DEFINITION>
<FOR>X1171</FOR>
	<GIVEN>X1170</GIVEN>
	<GIVEN>X1029</GIVEN>
<TABLE>
0.9865996649916248 0.012841987716359575 5.583472920156337E-4 
0.9029126213592233 0.08737864077669903 0.009708737864077669 
0.5555555555555556 0.3333333333333333 0.1111111111111111 
0.4857142857142857 0.5131428571428571 0.001142857142857143 
0.17462803445575567 0.8245888801879405 7.830853563038371E-4 
0.28 0.68 0.04 
0.14285714285714285 0.8285714285714286 0.02857142857142857 
0.018867924528301886 0.9568733153638814 0.02425876010781671 
0.043478260869565216 0.8260869565217391 0.13043478260869565 
0.07692307692307693 0.5384615384615384 0.38461538461538464 
0.0036363636363636364 0.5563636363636364 0.44 
0.010101010101010102 0.3939393939393939 0.5959595959595959 
</TABLE>
</DEFINITION>
<DEFINITION>
<FOR>X1172</FOR>
<TABLE>
1.0 
</TABLE>
</DEFINITION>
<DEFINITION>
<FOR>X1173</FOR>
<TABLE>
1.0 
</TABLE>
</DEFINITION>
<DEFINITION>
<FOR>X1181</FOR>
	<GIVEN>X1133</GIVEN>
	<GIVEN>X1085</GIVEN>
<TABLE>
0.9849397590361446 0.013052208835341365 0.001004016064257028 0.001004016064257028 
0.375 0.375 0.125 0.125 
0.25 0.25 0.25 0.25 
0.25 0.25 0.25 0.25 
0.46959459459459457 0.5236486486486487 0.0033783783783783786 0.0033783783783783786 
0.004322766570605188 0.9707012487992315 0.024495677233429394 4.803073967339097E-4 
0.05555555555555555 0.5 0.3888888888888889 0.05555555555555555 
0.25 0.25 0.25 0.25 
0.25 0.25 0.25 0.25 
0.007692307692307693 0.11538461538461539 0.8538461538461538 0.023076923076923078 
0.0015822784810126582 0.011075949367088608 0.9667721518987342 0.020569620253164556 
0.125 0.125 0.125 0.625 
0.25 0.25 0.25 0.25 
0.16666666666666666 0.16666666666666666 0.16666666666666666 0.5 
0.0125 0.0125 0.2625 0.7125 
0.0015432098765432098 0.0015432098765432098 0.016975308641975308 0.9799382716049383 
</TABLE>
</DEFINITION>
<DEFINITION>
<FOR>X1182</FOR>
	<GIVEN>X1134</GIVEN>
	<GIVEN>X1086</GIVEN>
<TABLE>
0.8982558139534884 0.0998062015503876 9.689922480620155E-4 9.689922480620155E-4 
0.3 0.5 0.1 0.1 
0.25 0.25 0.25 0.25 
0.25 0.25 0.25 0.25 
0.0220125786163522 0.9716981132075472 0.0031446540880503146 0.0031446540880503146 
0.002004811547714515 0.9923817161186849 0.0052125100240577385 4.0096230954290296E-4 
0.16666666666666666 0.5 0.16666666666666666 0.16666666666666666 
0.25 0.25 0.25 0.25 
0.25 0.25 0.25 0.25 
0.009615384615384616 0.33653846153846156 0.5288461538461539 0.125 
0.005050505050505051 0.03535353535353535 0.8838383838383839 0.07575757575757576 
0.07142857142857142 0.07142857142857142 0.5 0.35714285714285715 
0.25 0.25 0.25 0.25 
0.1 0.5 0.1 0.3 
0.020833333333333332 0.020833333333333332 0.1875 0.7708333333333334 
0.0014925373134328358 0.0014925373134328358 0.007462686567164179 0.9895522388059701 
</TABLE>
</DEFINITION>
<DEFINITION>
<FOR>X1183</FOR>
	<GIVEN>X1134</GIVEN>
	<GIVEN>X1169</GIVEN>
<TABLE>
0.5825123152709359 0.41502463054187194 0.0012315270935960591 0.0012315270935960591 
0.17982456140350878 0.8114035087719298 0.0043859649122807015 0.0043859649122807015 
0.16666666666666666 0.5 0.16666666666666666 0.16666666666666666 
0.25 0.25 0.25 0.25 
0.056372549019607844 0.9387254901960784 0.0024509803921568627 0.0024509803921568627 
0.009840674789128397 0.9835988753514526 0.006091846298031865 4.6860356138706655E-4 
0.004761904761904762 0.8714285714285714 0.11904761904761904 0.004761904761904762 
0.014285714285714285 0.5571428571428572 0.1 0.32857142857142857 
0.16666666666666666 0.16666666666666666 0.5 0.16666666666666666 
0.015151515151515152 0.5606060606060606 0.4090909090909091 0.015151515151515152 
0.006578947368421052 0.3223684210526316 0.6513157894736842 0.019736842105263157 
0.010416666666666666 0.59375 0.23958333333333334 0.15625 
0.1 0.3 0.3 0.3 
0.006578947368421052 0.1118421052631579 0.28289473684210525 0.5986842105263158 
0.009615384615384616 0.0673076923076923 0.2403846153846154 0.6826923076923077 
0.002145922746781116 0.09227467811158799 0.19957081545064378 0.7060085836909872 
</TABLE>
</DEFINITION>
<DEFINITION>
<FOR>X1184</FOR>
<TABLE>
1.0 
</TABLE>
</DEFINITION>
<DEFINITION>
<FOR>X1214</FOR>
	<GIVEN>X1167</GIVEN>
	<GIVEN>X1025</GIVEN>
<TABLE>
0.919629057187017 0.07882534775888717 0.0015455950540958269 
0.6187290969899666 0.3779264214046823 0.0033444816053511705 
0.3333333333333333 0.3333333333333333 0.3333333333333333 
0.05202312138728324 0.9421965317919075 0.005780346820809248 
0.04152418172936004 0.9579872984855886 4.885197850512946E-4 
0.2 0.6 0.2 
0.14285714285714285 0.7142857142857143 0.14285714285714285 
0.0012239902080783353 0.9828641370869033 0.01591187270501836 
0.022222222222222223 0.7777777777777778 0.2 
0.3333333333333333 0.3333333333333333 0.3333333333333333 
0.003389830508474576 0.2271186440677966 0.7694915254237288 
0.0018018018018018018 0.04144144144144144 0.9567567567567568 
</TABLE>
</DEFINITION>
<DEFINITION>
<FOR>X1215</FOR>
	<GIVEN>X1167</GIVEN>
	<GIVEN>X1168</GIVEN>
<TABLE>
0.9774881516587678 0.02014218009478673 0.001184834123222749 0.001184834123222749 
0.7019230769230769 0.27884615384615385 0.009615384615384616 0.009615384615384616 
0.25 0.25 0.25 0.25 
0.25 0.25 0.25 0.25 
0.00819672131147541 0.9754098360655737 0.00819672131147541 0.00819672131147541 
0.0015136226034308778 0.9904137235116044 0.0075681130171543895 5.045408678102926E-4 
0.00819672131147541 0.7622950819672131 0.22131147540983606 0.00819672131147541 
0.16666666666666666 0.5 0.16666666666666666 0.16666666666666666 
0.25 0.25 0.25 0.25 
0.008771929824561403 0.20175438596491227 0.7807017543859649 0.008771929824561403 
0.0014492753623188406 0.015942028985507246 0.9231884057971015 0.059420289855072465 
0.014705882352941176 0.014705882352941176 0.7205882352941176 0.25 
0.25 0.25 0.25 0.25 
0.1 0.1 0.3 0.5 
0.01 0.01 0.05 0.93 
0.0013404825737265416 0.0013404825737265416 0.004021447721179625 0.9932975871313673 
</TABLE>
</DEFINITION>
<DEFINITION>
<FOR>X1216</FOR>
	<GIVEN>X1168</GIVEN>
	<GIVEN>X1215</GIVEN>
<TABLE>
0.8369565217391305 0.1606280193236715 0.0012077294685990338 0.0012077294685990338 
0.13768115942028986 0.8478260869565217 0.007246376811594203 0.007246376811594203 
0.25 0.25 0.25 0.25 
0.25 0.25 0.25 0.25 
0.01282051282051282 0.9615384615384616 0.01282051282051282 0.01282051282051282 
0.00248015873015873 0.9776785714285714 0.019345238095238096 4.96031746031746E-4 
0.009259259259259259 0.5833333333333334 0.39814814814814814 0.009259259259259259 
0.125 0.125 0.375 0.375 
0.25 0.25 0.25 0.25 
0.009433962264150943 0.0660377358490566 0.9150943396226415 0.009433962264150943 
0.0014925373134328358 0.05223880597014925 0.9328358208955224 0.013432835820895522 
0.007352941176470588 0.022058823529411766 0.5514705882352942 0.41911764705882354 
0.25 0.25 0.25 0.25 
0.16666666666666666 0.16666666666666666 0.16666666666666666 0.5 
0.018518518518518517 0.018518518518518517 0.05555555555555555 0.9074074074074074 
0.0013157894736842105 0.0013157894736842105 0.025 0.9723684210526315 
</TABLE>
</DEFINITION>
<DEFINITION>
<FOR>X1217</FOR>
	<GIVEN>X1169</GIVEN>
	<GIVEN>X1216</GIVEN>
<TABLE>
0.9956011730205279 0.001466275659824047 0.001466275659824047 0.001466275659824047 
0.7145522388059702 0.28171641791044777 0.0018656716417910447 0.0018656716417910447 
0.25 0.5833333333333334 0.08333333333333333 0.08333333333333333 
0.16666666666666666 0.5 0.16666666666666666 0.16666666666666666 
0.125 0.825 0.025 0.025 
0.07349785407725322 0.9254291845493562 5.36480686695279E-4 5.36480686695279E-4 
0.008896797153024912 0.905693950177936 0.0800711743772242 0.005338078291814947 
0.008771929824561403 0.30701754385964913 0.21929824561403508 0.4649122807017544 
0.25 0.25 0.25 0.25 
0.125 0.125 0.625 0.125 
0.003205128205128205 0.2467948717948718 0.7275641025641025 0.022435897435897436 
0.006756756756756757 0.1554054054054054 0.39864864864864863 0.4391891891891892 
0.25 0.25 0.25 0.25 
0.25 0.25 0.25 0.25 
0.038461538461538464 0.2692307692307692 0.038461538461538464 0.6538461538461539 
0.0016611295681063123 0.0016611295681063123 0.04817275747508306 0.9485049833887044 
</TABLE>
</DEFINITION>
<DEFINITION>
<FOR>X1218</FOR>
	<GIVEN>X1217</GIVEN>
	<GIVEN>X1170</GIVEN>
<TABLE>
0.9983065198983911 8.46740050804403E-4 8.46740050804403E-4 
0.9354838709677419 0.03225806451612903 0.03225806451612903 
0.3333333333333333 0.3333333333333333 0.3333333333333333 
0.3333333333333333 0.3333333333333333 0.3333333333333333 
0.997037037037037 0.0014814814814814814 0.0014814814814814814 
0.9758639605046626 0.023587493143170598 5.485463521667581E-4 
0.36507936507936506 0.6190476190476191 0.015873015873015872 
0.09090909090909091 0.09090909090909091 0.8181818181818182 
0.8095238095238095 0.14285714285714285 0.047619047619047616 
0.6879432624113475 0.2765957446808511 0.03546099290780142 
0.1889400921658986 0.7419354838709677 0.06912442396313365 
0.29411764705882354 0.29411764705882354 0.4117647058823529 
0.1724137931034483 0.2413793103448276 0.5862068965517241 
0.2864864864864865 0.2648648648648649 0.4486486486486487 
0.087248322147651 0.31543624161073824 0.5973154362416108 
0.013927576601671309 0.0584958217270195 0.9275766016713092 
</TABLE>
</DEFINITION>
<DEFINITION>
<FOR>X1219</FOR>
	<GIVEN>X1218</GIVEN>
	<GIVEN>X1171</GIVEN>
<TABLE>
0.9995894909688013 4.1050903119868636E-4 
0.9979619565217391 0.0020380434782608695 
0.75 0.25 
0.9166666666666666 0.08333333333333333 
0.9754098360655737 0.02459016393442623 
0.625 0.375 
0.6724137931034483 0.3275862068965517 
0.592948717948718 0.40705128205128205 
0.16666666666666666 0.8333333333333334 
</TABLE>
</DEFINITION>
<DEFINITION>
<FOR>X1220</FOR>
<TABLE>
1.0 
</TABLE>
</DEFINITION>
<DEFINITION>
<FOR>X1230</FOR>
	<GIVEN>X1134</GIVEN>
	<GIVEN>X1086</GIVEN>
<TABLE>
0.9544573643410853 0.0436046511627907 9.689922480620155E-4 9.689922480620155E-4 
0.3 0.5 0.1 0.1 
0.25 0.25 0.25 0.25 
0.25 0.25 0.25 0.25 
0.27358490566037735 0.720125786163522 0.0031446540880503146 0.0031446540880503146 
0.0052125100240577385 0.9819566960705693 0.012429831595829992 4.0096230954290296E-4 
0.16666666666666666 0.5 0.16666666666666666 0.16666666666666666 
0.25 0.25 0.25 0.25 
0.25 0.25 0.25 0.25 
0.009615384615384616 0.22115384615384615 0.7019230769230769 0.0673076923076923 
0.005050505050505051 0.025252525252525252 0.9343434343434344 0.03535353535353535 
0.07142857142857142 0.07142857142857142 0.6428571428571429 0.21428571428571427 
0.25 0.25 0.25 0.25 
0.1 0.1 0.5 0.3 
0.020833333333333332 0.020833333333333332 0.4375 0.5208333333333334 
0.0014925373134328358 0.0014925373134328358 0.0791044776119403 0.917910447761194 
</TABLE>
</DEFINITION>
<DEFINITION>
<FOR>X1262</FOR>
	<GIVEN>X1167</GIVEN>
	<GIVEN>X1214</GIVEN>
<TABLE>
0.9782608695652174 0.01918158567774936 0.0012787723785166241 0.0012787723785166241 
0.05421686746987952 0.9337349397590361 0.006024096385542169 0.006024096385542169 
0.25 0.25 0.25 0.25 
0.84375 0.13541666666666666 0.010416666666666666 0.010416666666666666 
0.010808270676691729 0.9788533834586466 0.009868421052631578 4.6992481203007516E-4 
0.25 0.25 0.25 0.25 
0.25 0.25 0.25 0.25 
0.001184834123222749 0.21919431279620852 0.754739336492891 0.024881516587677725 
0.041666666666666664 0.041666666666666664 0.125 0.7916666666666666 
0.25 0.25 0.25 0.25 
0.010869565217391304 0.03260869565217391 0.6847826086956522 0.2717391304347826 
0.0013157894736842105 0.0013157894736842105 0.009210526315789473 0.9881578947368421 
</TABLE>
</DEFINITION>
<DEFINITION>
<FOR>X1263</FOR>
	<GIVEN>X1215</GIVEN>
	<GIVEN>X1262</GIVEN>
<TABLE>
0.9641909814323607 0.033156498673740056 0.001326259946949602 0.001326259946949602 
0.48026315789473684 0.506578947368421 0.006578947368421052 0.006578947368421052 
0.25 0.25 0.25 0.25 
0.25 0.25 0.25 0.25 
0.0234375 0.9609375 0.0078125 0.0078125 
4.748338081671415E-4 0.9852801519468186 0.013770180436847104 4.748338081671415E-4 
0.03571428571428571 0.32142857142857145 0.6071428571428571 0.03571428571428571 
0.25 0.25 0.25 0.25 
0.25 0.25 0.25 0.25 
0.00510204081632653 0.17857142857142858 0.8010204081632653 0.015306122448979591 
0.0016286644951140066 0.02768729641693811 0.9527687296416938 0.017915309446254073 
0.045454545454545456 0.045454545454545456 0.4090909090909091 0.5 
0.25 0.25 0.25 0.25 
0.1 0.1 0.5 0.3 
0.010416666666666666 0.010416666666666666 0.21875 0.7604166666666666 
0.0012531328320802004 0.0012531328320802004 0.016290726817042606 0.981203007518797 
</TABLE>
</DEFINITION>
<DEFINITION>
<FOR>X1264</FOR>
	<GIVEN>X1216</GIVEN>
	<GIVEN>X1263</GIVEN>
<TABLE>
0.9867256637168141 0.01032448377581121 0.0014749262536873156 0.0014749262536873156 
0.6136363636363636 0.3409090909090909 0.022727272727272728 0.022727272727272728 
0.25 0.25 0.25 0.25 
0.25 0.25 0.25 0.25 
0.17692307692307693 0.8076923076923077 0.007692307692307693 0.007692307692307693 
0.024334251606978878 0.9747474747474747 4.591368227731864E-4 4.591368227731864E-4 
0.010638297872340425 0.9042553191489362 0.07446808510638298 0.010638297872340425 
0.1 0.3 0.3 0.3 
0.25 0.25 0.25 0.25 
0.007142857142857143 0.65 0.3357142857142857 0.007142857142857143 
0.0014925373134328358 0.3119402985074627 0.6791044776119403 0.007462686567164179 
0.01020408163265306 0.07142857142857142 0.336734693877551 0.5816326530612245 
0.25 0.25 0.25 0.25 
0.125 0.125 0.375 0.375 
0.013157894736842105 0.039473684210526314 0.2236842105263158 0.7236842105263158 
0.0012787723785166241 0.0012787723785166241 0.011508951406649617 0.9859335038363172 
</TABLE>
</DEFINITION>
<DEFINITION>
<FOR>X1265</FOR>
	<GIVEN>X1264</GIVEN>
	<GIVEN>X1217</GIVEN>
<TABLE>
0.023004059539918808 0.972936400541272 0.0013531799729364006 0.0013531799729364006 0.0013531799729364006 
0.02564102564102564 0.8974358974358975 0.02564102564102564 0.02564102564102564 0.02564102564102564 
0.2 0.2 0.2 0.2 0.2 
0.2 0.2 0.2 0.2 0.2 
0.006369426751592357 0.9872611464968153 0.0021231422505307855 0.0021231422505307855 0.0021231422505307855 
4.666355576294914E-4 0.9953336444237051 0.0032664489034064394 4.666355576294914E-4 4.666355576294914E-4 
0.030303030303030304 0.2727272727272727 0.5757575757575758 0.09090909090909091 0.030303030303030304 
0.09090909090909091 0.2727272727272727 0.09090909090909091 0.09090909090909091 0.45454545454545453 
0.1111111111111111 0.5555555555555556 0.1111111111111111 0.1111111111111111 0.1111111111111111 
0.003389830508474576 0.6271186440677966 0.26101694915254237 0.09152542372881356 0.01694915254237288 
0.004149377593360996 0.14522821576763487 0.5850622406639004 0.24481327800829875 0.02074688796680498 
0.024390243902439025 0.07317073170731707 0.07317073170731707 0.4146341463414634 0.4146341463414634 
0.14285714285714285 0.14285714285714285 0.14285714285714285 0.14285714285714285 0.42857142857142855 
0.009708737864077669 0.1262135922330097 0.1262135922330097 0.32038834951456313 0.4174757281553398 
0.008 0.008 0.056 0.184 0.744 
0.0014858841010401188 0.0014858841010401188 0.0014858841010401188 0.004457652303120356 0.9910846953937593 
</TABLE>
</DEFINITION>
<DEFINITION>
<FOR>X1266</FOR>
	<GIVEN>X1265</GIVEN>
	<GIVEN>X1219</GIVEN>
<TABLE>
0.6190476190476191 0.3333333333333333 0.047619047619047616 
0.3333333333333333 0.3333333333333333 0.3333333333333333 
0.008089260808926082 0.9916317991631799 2.789400278940028E-4 
0.06666666666666667 0.4666666666666667 0.4666666666666667 
0.0038910505836575876 0.9688715953307393 0.027237354085603113 
0.1111111111111111 0.3333333333333333 0.5555555555555556 
0.006711409395973154 0.825503355704698 0.16778523489932887 
0.06666666666666667 0.3333333333333333 0.6 
0.0018148820326678765 0.14337568058076225 0.8548094373865699 
0.0035087719298245615 0.0035087719298245615 0.9929824561403509 
</TABLE>
</DEFINITION>
<DEFINITION>
<FOR>X1267</FOR>
	<GIVEN>X1266</GIVEN>
	<GIVEN>X1183</GIVEN>
<TABLE>
0.8461538461538461 0.07692307692307693 0.07692307692307693 
0.7575757575757576 0.21212121212121213 0.030303030303030304 
0.3333333333333333 0.3333333333333333 0.3333333333333333 
0.3333333333333333 0.3333333333333333 0.3333333333333333 
0.3016453382084095 0.696526508226691 0.0018281535648994515 
0.041189222669557136 0.9535459894704242 0.0052647878600185815 
0.1891891891891892 0.772972972972973 0.03783783783783784 
0.014084507042253521 0.9436619718309859 0.04225352112676056 
0.3333333333333333 0.3333333333333333 0.3333333333333333 
0.005714285714285714 0.28 0.7142857142857143 
0.005847953216374269 0.21637426900584794 0.7777777777777778 
0.0021598272138228943 0.12742980561555076 0.8704103671706264 
</TABLE>
</DEFINITION>
<DEFINITION>
<FOR>X1268</FOR>
	<GIVEN>X1267</GIVEN>
	<GIVEN>X1218</GIVEN>
<TABLE>
0.9971590909090909 0.002840909090909091 
0.9375 0.0625 
0.5 0.5 
0.9956647398843931 0.004335260115606936 
0.9107142857142857 0.08928571428571429 
0.9125 0.0875 
0.61 0.39 
0.32456140350877194 0.6754385964912281 
0.16244725738396623 0.8375527426160337 
</TABLE>
</DEFINITION>
<DEFINITION>
<FOR>X1269</FOR>
	<GIVEN>X981</GIVEN>
	<GIVEN>X1169</GIVEN>
<TABLE>
0.9045275590551181 0.09547244094488189 
0.6154970760233918 0.3845029239766082 
0.32142857142857145 0.6785714285714286 
0.625 0.375 
0.2669902912621359 0.7330097087378641 
0.07065803667745416 0.9293419633225458 
0.04381443298969072 0.9561855670103093 
0.007853403141361256 0.9921465968586387 
0.25 0.75 
0.03125 0.96875 
0.021739130434782608 0.9782608695652174 
0.00423728813559322 0.9957627118644068 
</TABLE>
</DEFINITION>
<DEFINITION>
<FOR>X1310</FOR>
	<GIVEN>X1262</GIVEN>
	<GIVEN>X1214</GIVEN>
<TABLE>
0.9929161747343566 0.0059031877213695395 0.0011806375442739079 
0.9393939393939394 0.030303030303030304 0.030303030303030304 
0.3333333333333333 0.3333333333333333 0.3333333333333333 
0.7931034482758621 0.1724137931034483 0.034482758620689655 
0.0334020618556701 0.9661855670103093 4.123711340206186E-4 
0.3333333333333333 0.3333333333333333 0.3333333333333333 
0.3333333333333333 0.3333333333333333 0.3333333333333333 
0.0013869625520110957 0.9889042995839112 0.009708737864077669 
0.09090909090909091 0.8181818181818182 0.09090909090909091 
0.3333333333333333 0.3333333333333333 0.3333333333333333 
0.02127659574468085 0.7021276595744681 0.2765957446808511 
0.0012970168612191958 0.07911802853437094 0.9195849546044098 
</TABLE>
</DEFINITION>
<DEFINITION>
<FOR>X1311</FOR>
	<GIVEN>X1263</GIVEN>
	<GIVEN>X1310</GIVEN>
<TABLE>
0.9454787234042553 0.05186170212765957 0.0013297872340425532 0.0013297872340425532 
0.30357142857142855 0.6607142857142857 0.017857142857142856 0.017857142857142856 
0.25 0.25 0.25 0.25 
0.05701754385964912 0.9342105263157895 0.0043859649122807015 0.0043859649122807015 
0.012652296157450796 0.9770384254920338 0.009840674789128397 4.6860356138706655E-4 
0.25 0.25 0.25 0.25 
0.25 0.25 0.25 0.25 
0.0012135922330097086 0.12742718446601942 0.8677184466019418 0.0036407766990291263 
0.08333333333333333 0.25 0.4166666666666667 0.25 
0.25 0.25 0.25 0.25 
0.006097560975609756 0.042682926829268296 0.3719512195121951 0.5792682926829268 
0.0013850415512465374 0.0013850415512465374 0.03462603878116344 0.9626038781163435 
</TABLE>
</DEFINITION>
<DEFINITION>
<FOR>X1312</FOR>
	<GIVEN>X1264</GIVEN>
	<GIVEN>X1311</GIVEN>
<TABLE>
0.03162650602409638 0.9653614457831325 0.0015060240963855422 0.0015060240963855422 
0.026785714285714284 0.9553571428571429 0.008928571428571428 0.008928571428571428 
0.25 0.25 0.25 0.25 
0.25 0.25 0.25 0.25 
0.027777777777777776 0.9537037037037037 0.009259259259259259 0.009259259259259259 
4.344048653344917E-4 0.9969591659426585 0.002172024326672459 4.344048653344917E-4 
0.004347826086956522 0.6478260869565218 0.34347826086956523 0.004347826086956522 
0.07142857142857142 0.07142857142857142 0.5 0.35714285714285715 
0.25 0.25 0.25 0.25 
0.013888888888888888 0.2361111111111111 0.7361111111111112 0.013888888888888888 
0.002127659574468085 0.08297872340425531 0.8787234042553191 0.036170212765957444 
0.027777777777777776 0.08333333333333333 0.4166666666666667 0.4722222222222222 
0.25 0.25 0.25 0.25 
0.08333333333333333 0.5833333333333334 0.25 0.08333333333333333 
0.007462686567164179 0.05223880597014925 0.39552238805970147 0.5447761194029851 
0.001326259946949602 0.001326259946949602 0.033156498673740056 0.9641909814323607 
</TABLE>
</DEFINITION>
<DEFINITION>
<FOR>X1313</FOR>
	<GIVEN>X1264</GIVEN>
	<GIVEN>X1267</GIVEN>
<TABLE>
0.024752475247524754 0.4504950495049505 0.5198019801980198 0.0049504950495049506 
0.012195121951219513 0.04355400696864112 0.9425087108013938 0.0017421602787456446 
0.25 0.25 0.25 0.25 
0.03731343283582089 0.21641791044776118 0.7388059701492538 0.007462686567164179 
4.0290088638195E-4 0.0028203062046736503 0.9955680902497985 0.0012087026591458502 
0.029411764705882353 0.029411764705882353 0.7941176470588235 0.14705882352941177 
0.025 0.025 0.925 0.025 
0.00205761316872428 0.00205761316872428 0.7757201646090535 0.22016460905349794 
0.019230769230769232 0.019230769230769232 0.36538461538461536 0.5961538461538461 
0.25 0.25 0.25 0.25 
0.003472222222222222 0.003472222222222222 0.03125 0.9618055555555556 
0.001644736842105263 0.001644736842105263 0.027960526315789474 0.96875 
</TABLE>
</DEFINITION>
<DEFINITION>
<FOR>X1314</FOR>
	<GIVEN>X1264</GIVEN>
	<GIVEN>X1267</GIVEN>
<TABLE>
0.04455445544554455 0.9356435643564357 0.01485148514851485 0.0049504950495049506 
0.0017421602787456446 0.921602787456446 0.07491289198606271 0.0017421602787456446 
0.25 0.25 0.25 0.25 
0.23134328358208955 0.5597014925373134 0.20149253731343283 0.007462686567164179 
4.0290088638195E-4 0.16720386784850927 0.8279613215149073 0.004431909750201451 
0.029411764705882353 0.029411764705882353 0.38235294117647056 0.5588235294117647 
0.175 0.775 0.025 0.025 
0.00205761316872428 0.03909465020576132 0.7757201646090535 0.1831275720164609 
0.019230769230769232 0.019230769230769232 0.25 0.7115384615384616 
0.25 0.25 0.25 0.25 
0.003472222222222222 0.003472222222222222 0.12152777777777778 0.8715277777777778 
0.001644736842105263 0.001644736842105263 0.014802631578947368 0.9819078947368421 
</TABLE>
</DEFINITION>
<DEFINITION>
<FOR>X1315</FOR>
	<GIVEN>X1314</GIVEN>
	<GIVEN>X1168</GIVEN>
<TABLE>
0.75 0.08333333333333333 0.08333333333333333 0.08333333333333333 
0.8846153846153846 0.038461538461538464 0.038461538461538464 0.038461538461538464 
0.8333333333333334 0.05555555555555555 0.05555555555555555 0.05555555555555555 
0.25 0.25 0.25 0.25 
0.986810551558753 0.01079136690647482 0.001199040767386091 0.001199040767386091 
0.8283132530120482 0.1536144578313253 0.015060240963855422 0.0030120481927710845 
0.7222222222222222 0.18888888888888888 0.07777777777777778 0.011111111111111112 
0.5833333333333334 0.08333333333333333 0.25 0.08333333333333333 
0.1532258064516129 0.47580645161290325 0.3629032258064516 0.008064516129032258 
0.06428571428571428 0.3587912087912088 0.5752747252747252 0.0016483516483516484 
0.05612244897959184 0.0663265306122449 0.8758503401360545 0.0017006802721088435 
0.06 0.06 0.82 0.06 
0.25 0.25 0.25 0.25 
0.09375 0.03125 0.40625 0.46875 
0.004545454545454545 0.004545454545454545 0.5954545454545455 0.39545454545454545 
0.0013192612137203166 0.006596306068601583 0.08311345646437995 0.9089709762532981 
</TABLE>
</DEFINITION>
<DEFINITION>
<FOR>X1316</FOR>
	<GIVEN>X1267</GIVEN>
	<GIVEN>X1121</GIVEN>
<TABLE>
0.9949494949494949 0.005050505050505051 
0.9910714285714286 0.008928571428571428 
0.9827586206896551 0.017241379310344827 
0.75 0.25 
0.9987834549878345 0.0012165450121654502 
0.9995107632093934 4.892367906066536E-4 
0.9961928934010152 0.0038071065989847717 
0.8154761904761905 0.18452380952380953 
0.75 0.25 
0.9 0.1 
0.5845070422535211 0.4154929577464789 
0.11089494163424124 0.8891050583657587 
</TABLE>
</DEFINITION>
<DEFINITION>
<FOR>X1317</FOR>
	<GIVEN>X1269</GIVEN>
	<GIVEN>X1029</GIVEN>
<TABLE>
0.9621513944223108 0.037848605577689244 
0.62 0.38 
0.5 0.5 
0.36916666666666664 0.6308333333333334 
0.029979674796747968 0.970020325203252 
0.02054794520547945 0.9794520547945206 
</TABLE>
</DEFINITION>
<DEFINITION>
<FOR>X1360</FOR>
	<GIVEN>X1312</GIVEN>
	<GIVEN>X1313</GIVEN>
<TABLE>
0.7857142857142857 0.07142857142857142 0.07142857142857142 0.07142857142857142 
0.3888888888888889 0.5 0.05555555555555555 0.05555555555555555 
0.25 0.25 0.25 0.25 
0.25 0.25 0.25 0.25 
0.625 0.125 0.125 0.125 
0.09420289855072464 0.8913043478260869 0.007246376811594203 0.007246376811594203 
0.002803738317757009 0.9953271028037384 9.345794392523365E-4 9.345794392523365E-4 
