<?xml version="1.0"?>
<!-- DTD for the XMLBIF 0.3 format -->
<!DOCTYPE BIF [
	<!ELEMENT BIF ( NETWORK )*>
	      <!ATTLIST BIF VERSION CDATA #REQUIRED>
	<!ELEMENT NETWORK ( NAME, ( PROPERTY | VARIABLE | DEFINITION )* )>
	<!ELEMENT NAME (#PCDATA)>
	<!ELEMENT VARIABLE ( NAME, ( OUTCOME |  PROPERTY )* ) >
	      <!ATTLIST VARIABLE TYPE (nature|decision|utility) "nature">
	<!ELEMENT OUTCOME (#PCDATA)>
	<!ELEMENT DEFINITION ( FOR | GIVEN | TABLE | PROPERTY )* >
	<!ELEMENT FOR (#PCDATA)>
	<!ELEMENT GIVEN (#PCDATA)>
	<!ELEMENT TABLE (#PCDATA)>
	<!ELEMENT PROPERTY (#PCDATA)>
]>


<BIF VERSION="0.3">
<NETWORK>
<NAME>&apos;x_train_smpl_bin-weka.filters.unsupervised.instance.Randomize-S42-weka.filters.unsupervised.attribute.NumericToNominal-Rlast-weka.filters.unsupervised.attribute.Remove-R1-792,796-841,844-935,937-982,985-1030,1033-1073,1076-1086,1088-1120,1123-1134,1136-1168,1170-1215,1218,1221-1263,1265,1268,1271-1313,1315-1316,1319-1507,1510-1666,1668-1694,1697-1714,1717-1742,1746-1761,1763-2213,2215-2260,2265-2304-weka.filters.supervised.attribute.Discretize-Rfirst-last-precision6-weka.filters.unsupervised.attribute.ReplaceMissingValues&apos;</NAME>
<VARIABLE TYPE="nature">
	<NAME>X792</NAME>
	<OUTCOME>&apos;\&apos;(-inf-102.5]\&apos;&apos;</OUTCOME>
	<OUTCOME>&apos;\&apos;(102.5-230.5]\&apos;&apos;</OUTCOME>
	<OUTCOME>&apos;\&apos;(230.5-248.5]\&apos;&apos;</OUTCOME>
	<OUTCOME>&apos;\&apos;(248.5-253.5]\&apos;&apos;</OUTCOME>
	<OUTCOME>&apos;\&apos;(253.5-inf)\&apos;&apos;</OUTCOME>
	<PROPERTY>position = (0,96)</PROPERTY>
</VARIABLE>
<VARIABLE TYPE="nature">
	<NAME>X793</NAME>
	<OUTCOME>&apos;\&apos;(-inf-99.5]\&apos;&apos;</OUTCOME>
	<OUTCOME>&apos;\&apos;(99.5-230.5]\&apos;&apos;</OUTCOME>
	<OUTCOME>&apos;\&apos;(230.5-246.5]\&apos;&apos;</OUTCOME>
	<OUTCOME>&apos;\&apos;(246.5-252.5]\&apos;&apos;</OUTCOME>
	<OUTCOME>&apos;\&apos;(252.5-inf)\&apos;&apos;</OUTCOME>
	<PROPERTY>position = (49,96)</PROPERTY>
</VARIABLE>
<VARIABLE TYPE="nature">
	<NAME>X794</NAME>
	<OUTCOME>&apos;\&apos;(-inf-99.5]\&apos;&apos;</OUTCOME>
	<OUTCOME>&apos;\&apos;(99.5-225.5]\&apos;&apos;</OUTCOME>
	<OUTCOME>&apos;\&apos;(225.5-250.5]\&apos;&apos;</OUTCOME>
	<OUTCOME>&apos;\&apos;(250.5-inf)\&apos;&apos;</OUTCOME>
	<PROPERTY>position = (98,96)</PROPERTY>
</VARIABLE>
<VARIABLE TYPE="nature">
	<NAME>X841</NAME>
	<OUTCOME>&apos;\&apos;(-inf-97.5]\&apos;&apos;</OUTCOME>
	<OUTCOME>&apos;\&apos;(97.5-229.5]\&apos;&apos;</OUTCOME>
	<OUTCOME>&apos;\&apos;(229.5-251.5]\&apos;&apos;</OUTCOME>
	<OUTCOME>&apos;\&apos;(251.5-inf)\&apos;&apos;</OUTCOME>
	<PROPERTY>position = (147,96)</PROPERTY>
</VARIABLE>
<VARIABLE TYPE="nature">
	<NAME>X842</NAME>
	<OUTCOME>&apos;\&apos;(-inf-113.5]\&apos;&apos;</OUTCOME>
	<OUTCOME>&apos;\&apos;(113.5-248.5]\&apos;&apos;</OUTCOME>
	<OUTCOME>&apos;\&apos;(248.5-inf)\&apos;&apos;</OUTCOME>
	<PROPERTY>position = (196,96)</PROPERTY>
</VARIABLE>
<VARIABLE TYPE="nature">
	<NAME>X935</NAME>
	<OUTCOME>&apos;\&apos;(-inf-239.5]\&apos;&apos;</OUTCOME>
	<OUTCOME>&apos;\&apos;(239.5-inf)\&apos;&apos;</OUTCOME>
	<PROPERTY>position = (245,96)</PROPERTY>
</VARIABLE>
<VARIABLE TYPE="nature">
	<NAME>X982</NAME>
	<OUTCOME>&apos;\&apos;(-inf-163.5]\&apos;&apos;</OUTCOME>
	<OUTCOME>&apos;\&apos;(163.5-inf)\&apos;&apos;</OUTCOME>
	<PROPERTY>position = (294,96)</PROPERTY>
</VARIABLE>
<VARIABLE TYPE="nature">
	<NAME>X983</NAME>
	<OUTCOME>&apos;\&apos;(-inf-208.5]\&apos;&apos;</OUTCOME>
	<OUTCOME>&apos;\&apos;(208.5-inf)\&apos;&apos;</OUTCOME>
	<PROPERTY>position = (343,96)</PROPERTY>
</VARIABLE>
<VARIABLE TYPE="nature">
	<NAME>X1030</NAME>
	<OUTCOME>&apos;\&apos;(-inf-169.5]\&apos;&apos;</OUTCOME>
	<OUTCOME>&apos;\&apos;(169.5-inf)\&apos;&apos;</OUTCOME>
	<PROPERTY>position = (392,96)</PROPERTY>
</VARIABLE>
<VARIABLE TYPE="nature">
	<NAME>X1031</NAME>
	<OUTCOME>&apos;\&apos;(-inf-190.5]\&apos;&apos;</OUTCOME>
	<OUTCOME>&apos;\&apos;(190.5-inf)\&apos;&apos;</OUTCOME>
	<PROPERTY>position = (441,96)</PROPERTY>
</VARIABLE>
<VARIABLE TYPE="nature">
	<NAME>X1073</NAME>
	<OUTCOME>&apos;\&apos;(-inf-86.5]\&apos;&apos;</OUTCOME>
	<OUTCOME>&apos;\&apos;(86.5-246.5]\&apos;&apos;</OUTCOME>
	<OUTCOME>&apos;\&apos;(246.5-inf)\&apos;&apos;</OUTCOME>
	<PROPERTY>position = (490,96)</PROPERTY>
</VARIABLE>
<VARIABLE TYPE="nature">
	<NAME>X1074</NAME>
	<OUTCOME>&apos;\&apos;(-inf-91.5]\&apos;&apos;</OUTCOME>
	<OUTCOME>&apos;\&apos;(91.5-246.5]\&apos;&apos;</OUTCOME>
	<OUTCOME>&apos;\&apos;(246.5-inf)\&apos;&apos;</OUTCOME>
	<PROPERTY>position = (539,96)</PROPERTY>
</VARIABLE>
<VARIABLE TYPE="nature">
	<NAME>X1086</NAME>
	<OUTCOME>&apos;\&apos;(-inf-102.5]\&apos;&apos;</OUTCOME>
	<OUTCOME>&apos;\&apos;(102.5-226.5]\&apos;&apos;</OUTCOME>
	<OUTCOME>&apos;\&apos;(226.5-244.5]\&apos;&apos;</OUTCOME>
	<OUTCOME>&apos;\&apos;(244.5-inf)\&apos;&apos;</OUTCOME>
	<PROPERTY>position = (588,96)</PROPERTY>
</VARIABLE>
<VARIABLE TYPE="nature">
	<NAME>X1120</NAME>
	<OUTCOME>&apos;\&apos;(-inf-102.5]\&apos;&apos;</OUTCOME>
	<OUTCOME>&apos;\&apos;(102.5-199.5]\&apos;&apos;</OUTCOME>
	<OUTCOME>&apos;\&apos;(199.5-247.5]\&apos;&apos;</OUTCOME>
	<OUTCOME>&apos;\&apos;(247.5-inf)\&apos;&apos;</OUTCOME>
	<PROPERTY>position = (637,96)</PROPERTY>
</VARIABLE>
<VARIABLE TYPE="nature">
	<NAME>X1121</NAME>
	<OUTCOME>&apos;\&apos;(-inf-96.5]\&apos;&apos;</OUTCOME>
	<OUTCOME>&apos;\&apos;(96.5-189.5]\&apos;&apos;</OUTCOME>
	<OUTCOME>&apos;\&apos;(189.5-246.5]\&apos;&apos;</OUTCOME>
	<OUTCOME>&apos;\&apos;(246.5-inf)\&apos;&apos;</OUTCOME>
	<PROPERTY>position = (686,96)</PROPERTY>
</VARIABLE>
<VARIABLE TYPE="nature">
	<NAME>X1134</NAME>
	<OUTCOME>&apos;\&apos;(-inf-90.5]\&apos;&apos;</OUTCOME>
	<OUTCOME>&apos;\&apos;(90.5-222.5]\&apos;&apos;</OUTCOME>
	<OUTCOME>&apos;\&apos;(222.5-244.5]\&apos;&apos;</OUTCOME>
	<OUTCOME>&apos;\&apos;(244.5-inf)\&apos;&apos;</OUTCOME>
	<PROPERTY>position = (735,96)</PROPERTY>
</VARIABLE>
<VARIABLE TYPE="nature">
	<NAME>X1168</NAME>
	<OUTCOME>&apos;\&apos;(-inf-99.5]\&apos;&apos;</OUTCOME>
	<OUTCOME>&apos;\&apos;(99.5-196.5]\&apos;&apos;</OUTCOME>
	<OUTCOME>&apos;\&apos;(196.5-248.5]\&apos;&apos;</OUTCOME>
	<OUTCOME>&apos;\&apos;(248.5-inf)\&apos;&apos;</OUTCOME>
	<PROPERTY>position = (784,96)</PROPERTY>
</VARIABLE>
<VARIABLE TYPE="nature">
	<NAME>X1215</NAME>
	<OUTCOME>&apos;\&apos;(-inf-91.5]\&apos;&apos;</OUTCOME>
	<OUTCOME>&apos;\&apos;(91.5-194.5]\&apos;&apos;</OUTCOME>
	<OUTCOME>&apos;\&apos;(194.5-246.5]\&apos;&apos;</OUTCOME>
	<OUTCOME>&apos;\&apos;(246.5-inf)\&apos;&apos;</OUTCOME>
	<PROPERTY>position = (833,96)</PROPERTY>
</VARIABLE>
<VARIABLE TYPE="nature">
	<NAME>X1216</NAME>
	<OUTCOME>&apos;\&apos;(-inf-86.5]\&apos;&apos;</OUTCOME>
	<OUTCOME>&apos;\&apos;(86.5-193.5]\&apos;&apos;</OUTCOME>
	<OUTCOME>&apos;\&apos;(193.5-246.5]\&apos;&apos;</OUTCOME>
	<OUTCOME>&apos;\&apos;(246.5-inf)\&apos;&apos;</OUTCOME>
	<PROPERTY>position = (882,96)</PROPERTY>
</VARIABLE>
<VARIABLE TYPE="nature">
	<NAME>X1218</NAME>
	<OUTCOME>&apos;\&apos;(-inf-211.5]\&apos;&apos;</OUTCOME>
	<OUTCOME>&apos;\&apos;(211.5-238.5]\&apos;&apos;</OUTCOME>
	<OUTCOME>&apos;\&apos;(238.5-inf)\&apos;&apos;</OUTCOME>
	<PROPERTY>position = (931,96)</PROPERTY>
</VARIABLE>
<VARIABLE TYPE="nature">
	<NAME>X1219</NAME>
	<OUTCOME>&apos;\&apos;(-inf-235.5]\&apos;&apos;</OUTCOME>
	<OUTCOME>&apos;\&apos;(235.5-inf)\&apos;&apos;</OUTCOME>
	<PROPERTY>position = (980,96)</PROPERTY>
</VARIABLE>
<VARIABLE TYPE="nature">
	<NAME>X1263</NAME>
	<OUTCOME>&apos;\&apos;(-inf-85.5]\&apos;&apos;</OUTCOME>
	<OUTCOME>&apos;\&apos;(85.5-194.5]\&apos;&apos;</OUTCOME>
	<OUTCOME>&apos;\&apos;(194.5-246.5]\&apos;&apos;</OUTCOME>
	<OUTCOME>&apos;\&apos;(246.5-inf)\&apos;&apos;</OUTCOME>
	<PROPERTY>position = (1029,96)</PROPERTY>
</VARIABLE>
<VARIABLE TYPE="nature">
	<NAME>X1265</NAME>
	<OUTCOME>&apos;\&apos;(-inf-25.5]\&apos;&apos;</OUTCOME>
	<OUTCOME>&apos;\&apos;(25.5-220.5]\&apos;&apos;</OUTCOME>
	<OUTCOME>&apos;\&apos;(220.5-235.5]\&apos;&apos;</OUTCOME>
	<OUTCOME>&apos;\&apos;(235.5-245.5]\&apos;&apos;</OUTCOME>
	<OUTCOME>&apos;\&apos;(245.5-inf)\&apos;&apos;</OUTCOME>
	<PROPERTY>position = (1078,96)</PROPERTY>
</VARIABLE>
<VARIABLE TYPE="nature">
	<NAME>X1266</NAME>
	<OUTCOME>&apos;\&apos;(-inf-27.5]\&apos;&apos;</OUTCOME>
	<OUTCOME>&apos;\&apos;(27.5-236.5]\&apos;&apos;</OUTCOME>
	<OUTCOME>&apos;\&apos;(236.5-inf)\&apos;&apos;</OUTCOME>
	<PROPERTY>position = (1127,96)</PROPERTY>
</VARIABLE>
<VARIABLE TYPE="nature">
	<NAME>X1268</NAME>
	<OUTCOME>&apos;\&apos;(-inf-209.5]\&apos;&apos;</OUTCOME>
	<OUTCOME>&apos;\&apos;(209.5-inf)\&apos;&apos;</OUTCOME>
	<PROPERTY>position = (1176,96)</PROPERTY>
</VARIABLE>
<VARIABLE TYPE="nature">
	<NAME>X1269</NAME>
	<OUTCOME>&apos;\&apos;(-inf-66.5]\&apos;&apos;</OUTCOME>
	<OUTCOME>&apos;\&apos;(66.5-inf)\&apos;&apos;</OUTCOME>
	<PROPERTY>position = (1225,96)</PROPERTY>
</VARIABLE>
<VARIABLE TYPE="nature">
	<NAME>X1313</NAME>
	<OUTCOME>&apos;\&apos;(-inf-23.5]\&apos;&apos;</OUTCOME>
	<OUTCOME>&apos;\&apos;(23.5-47.5]\&apos;&apos;</OUTCOME>
	<OUTCOME>&apos;\&apos;(47.5-233.5]\&apos;&apos;</OUTCOME>
	<OUTCOME>&apos;\&apos;(233.5-inf)\&apos;&apos;</OUTCOME>
	<PROPERTY>position = (1274,96)</PROPERTY>
</VARIABLE>
<VARIABLE TYPE="nature">
	<NAME>X1316</NAME>
	<OUTCOME>&apos;\&apos;(-inf-233.5]\&apos;&apos;</OUTCOME>
	<OUTCOME>&apos;\&apos;(233.5-inf)\&apos;&apos;</OUTCOME>
	<PROPERTY>position = (1323,96)</PROPERTY>
</VARIABLE>
<VARIABLE TYPE="nature">
	<NAME>X1317</NAME>
	<OUTCOME>&apos;\&apos;(-inf-88.5]\&apos;&apos;</OUTCOME>
	<OUTCOME>&apos;\&apos;(88.5-inf)\&apos;&apos;</OUTCOME>
	<PROPERTY>position = (1372,96)</PROPERTY>
</VARIABLE>
<VARIABLE TYPE="nature">
	<NAME>X1507</NAME>
	<OUTCOME>&apos;\&apos;(-inf-197.5]\&apos;&apos;</OUTCOME>
	<OUTCOME>&apos;\&apos;(197.5-inf)\&apos;&apos;</OUTCOME>
	<PROPERTY>position = (1421,96)</PROPERTY>
</VARIABLE>
<VARIABLE TYPE="nature">
	<NAME>X1508</NAME>
	<OUTCOME>&apos;\&apos;(-inf-200.5]\&apos;&apos;</OUTCOME>
	<OUTCOME>&apos;\&apos;(200.5-inf)\&apos;&apos;</OUTCOME>
	<PROPERTY>position = (1470,96)</PROPERTY>
</VARIABLE>
<VARIABLE TYPE="nature">
	<NAME>X1666</NAME>
	<OUTCOME>&apos;\&apos;(-inf-36.5]\&apos;&apos;</OUTCOME>
	<OUTCOME>&apos;\&apos;(36.5-inf)\&apos;&apos;</OUTCOME>
	<PROPERTY>position = (1519,96)</PROPERTY>
</VARIABLE>
<VARIABLE TYPE="nature">
	<NAME>X1694</NAME>
	<OUTCOME>&apos;\&apos;(-inf-35.5]\&apos;&apos;</OUTCOME>
	<OUTCOME>&apos;\&apos;(35.5-144.5]\&apos;&apos;</OUTCOME>
	<OUTCOME>&apos;\&apos;(144.5-inf)\&apos;&apos;</OUTCOME>
	<PROPERTY>position = (1568,96)</PROPERTY>
</VARIABLE>
<VARIABLE TYPE="nature">
	<NAME>X1695</NAME>
	<OUTCOME>&apos;\&apos;(-inf-36.5]\&apos;&apos;</OUTCOME>
	<OUTCOME>&apos;\&apos;(36.5-inf)\&apos;&apos;</OUTCOME>
	<PROPERTY>position = (1617,96)</PROPERTY>
</VARIABLE>
<VARIABLE TYPE="nature">
	<NAME>X1714</NAME>
	<OUTCOME>&apos;\&apos;(-inf-32.5]\&apos;&apos;</OUTCOME>
	<OUTCOME>&apos;\&apos;(32.5-inf)\&apos;&apos;</OUTCOME>
	<PROPERTY>position = (1666,96)</PROPERTY>
</VARIABLE>
<VARIABLE TYPE="nature">
	<NAME>X1715</NAME>
	<OUTCOME>&apos;\&apos;(-inf-34.5]\&apos;&apos;</OUTCOME>
	<OUTCOME>&apos;\&apos;(34.5-inf)\&apos;&apos;</OUTCOME>
	<PROPERTY>position = (1715,96)</PROPERTY>
</VARIABLE>
<VARIABLE TYPE="nature">
	<NAME>X1742</NAME>
	<OUTCOME>&apos;\&apos;(-inf-34.5]\&apos;&apos;</OUTCOME>
	<OUTCOME>&apos;\&apos;(34.5-inf)\&apos;&apos;</OUTCOME>
	<PROPERTY>position = (1764,96)</PROPERTY>
</VARIABLE>
<VARIABLE TYPE="nature">
	<NAME>X1743</NAME>
	<OUTCOME>&apos;\&apos;(-inf-33.5]\&apos;&apos;</OUTCOME>
	<OUTCOME>&apos;\&apos;(33.5-inf)\&apos;&apos;</OUTCOME>
	<PROPERTY>position = (1813,96)</PROPERTY>
</VARIABLE>
<VARIABLE TYPE="nature">
	<NAME>X1744</NAME>
	<OUTCOME>&apos;\&apos;(-inf-36.5]\&apos;&apos;</OUTCOME>
	<OUTCOME>&apos;\&apos;(36.5-inf)\&apos;&apos;</OUTCOME>
	<PROPERTY>position = (1862,96)</PROPERTY>
</VARIABLE>
<VARIABLE TYPE="nature">
	<NAME>X1761</NAME>
	<OUTCOME>&apos;\&apos;(-inf-30.5]\&apos;&apos;</OUTCOME>
	<OUTCOME>&apos;\&apos;(30.5-inf)\&apos;&apos;</OUTCOME>
	<PROPERTY>position = (1911,96)</PROPERTY>
</VARIABLE>
<VARIABLE TYPE="nature">
	<NAME>X2213</NAME>
	<OUTCOME>&apos;\&apos;(-inf-46.5]\&apos;&apos;</OUTCOME>
	<OUTCOME>&apos;\&apos;(46.5-81.5]\&apos;&apos;</OUTCOME>
	<OUTCOME>&apos;\&apos;(81.5-164.5]\&apos;&apos;</OUTCOME>
	<OUTCOME>&apos;\&apos;(164.5-254.5]\&apos;&apos;</OUTCOME>
	<OUTCOME>&apos;\&apos;(254.5-inf)\&apos;&apos;</OUTCOME>
	<PROPERTY>position = (1960,96)</PROPERTY>
</VARIABLE>
<VARIABLE TYPE="nature">
	<NAME>X2260</NAME>
	<OUTCOME>&apos;\&apos;(-inf-74.5]\&apos;&apos;</OUTCOME>
	<OUTCOME>&apos;\&apos;(74.5-inf)\&apos;&apos;</OUTCOME>
	<PROPERTY>position = (2009,96)</PROPERTY>
</VARIABLE>
<VARIABLE TYPE="nature">
	<NAME>X2261</NAME>
	<OUTCOME>&apos;\&apos;(-inf-68.5]\&apos;&apos;</OUTCOME>
	<OUTCOME>&apos;\&apos;(68.5-239.5]\&apos;&apos;</OUTCOME>
	<OUTCOME>&apos;\&apos;(239.5-254.5]\&apos;&apos;</OUTCOME>
	<OUTCOME>&apos;\&apos;(254.5-inf)\&apos;&apos;</OUTCOME>
	<PROPERTY>position = (2058,96)</PROPERTY>
</VARIABLE>
<VARIABLE TYPE="nature">
	<NAME>X2262</NAME>
	<OUTCOME>&apos;\&apos;(-inf-72.5]\&apos;&apos;</OUTCOME>
	<OUTCOME>&apos;\&apos;(72.5-158.5]\&apos;&apos;</OUTCOME>
	<OUTCOME>&apos;\&apos;(158.5-254.5]\&apos;&apos;</OUTCOME>
	<OUTCOME>&apos;\&apos;(254.5-inf)\&apos;&apos;</OUTCOME>
	<PROPERTY>position = (2107,96)</PROPERTY>
</VARIABLE>
<VARIABLE TYPE="nature">
	<NAME>X2263</NAME>
	<OUTCOME>&apos;\&apos;(-inf-55.5]\&apos;&apos;</OUTCOME>
	<OUTCOME>&apos;\&apos;(55.5-81.5]\&apos;&apos;</OUTCOME>
	<OUTCOME>&apos;\&apos;(81.5-inf)\&apos;&apos;</OUTCOME>
	<PROPERTY>position = (2156,96)</PROPERTY>
</VARIABLE>
<VARIABLE TYPE="nature">
	<NAME>LABEL</NAME>
	<OUTCOME>0</OUTCOME>
	<OUTCOME>1</OUTCOME>
	<PROPERTY>position = (1078,0)</PROPERTY>
</VARIABLE>
<DEFINITION>
<FOR>X792</FOR>
	<GIVEN>LABEL</GIVEN>
<TABLE>
0.01647058823529412 0.6988235294117647 0.26588235294117646 0.01647058823529412 0.002352941176470588 
0.20899887514060742 0.5451068616422947 0.03397075365579302 0.02002249718785152 0.1919010123734533 
</TABLE>
</DEFINITION>
<DEFINITION>
<FOR>X793</FOR>
	<GIVEN>LABEL</GIVEN>
<TABLE>
0.011764705882352941 0.7082352941176471 0.25176470588235295 0.02588235294117647 0.002352941176470588 
0.20719910011248593 0.5482564679415073 0.034420697412823394 0.023172103487064118 0.18695163104611923 
</TABLE>
</DEFINITION>
<DEFINITION>
<FOR>X794</FOR>
	<GIVEN>LABEL</GIVEN>
<TABLE>
0.01179245283018868 0.7523584905660378 0.23349056603773585 0.0023584905660377358 
0.22614761476147616 0.5348784878487849 0.06368136813681369 0.1752925292529253 
</TABLE>
</DEFINITION>
<DEFINITION>
<FOR>X841</FOR>
	<GIVEN>LABEL</GIVEN>
<TABLE>
0.01650943396226415 0.7429245283018868 0.23820754716981132 0.0023584905660377358 
0.20544554455445543 0.5744824482448245 0.05198019801980198 0.1680918091809181 
</TABLE>
</DEFINITION>
<DEFINITION>
<FOR>X842</FOR>
	<GIVEN>LABEL</GIVEN>
<TABLE>
0.1773049645390071 0.8203309692671394 0.002364066193853428 
0.3603421111861355 0.5097906819716408 0.12986720684222372 
</TABLE>
</DEFINITION>
<DEFINITION>
<FOR>X935</FOR>
	<GIVEN>LABEL</GIVEN>
<TABLE>
0.9976303317535545 0.002369668246445498 
0.8610986042323278 0.13890139576767221 
</TABLE>
</DEFINITION>
<DEFINITION>
<FOR>X982</FOR>
	<GIVEN>LABEL</GIVEN>
<TABLE>
0.9691943127962085 0.030805687203791468 
0.8340837460603332 0.16591625393966683 
</TABLE>
</DEFINITION>
<DEFINITION>
<FOR>X983</FOR>
	<GIVEN>LABEL</GIVEN>
<TABLE>
0.9928909952606635 0.0071090047393364926 
0.8381359747861323 0.16186402521386764 
</TABLE>
</DEFINITION>
<DEFINITION>
<FOR>X1030</FOR>
	<GIVEN>LABEL</GIVEN>
<TABLE>
0.9834123222748815 0.016587677725118485 
0.8710040522287258 0.1289959477712742 
</TABLE>
</DEFINITION>
<DEFINITION>
<FOR>X1031</FOR>
	<GIVEN>LABEL</GIVEN>
<TABLE>
0.9928909952606635 0.0071090047393364926 
0.8156235929761368 0.18437640702386313 
</TABLE>
</DEFINITION>
<DEFINITION>
<FOR>X1073</FOR>
	<GIVEN>LABEL</GIVEN>
<TABLE>
0.0070921985815602835 0.9905437352245863 0.002364066193853428 
0.1933378347963088 0.6466351564258384 0.1600270087778528 
</TABLE>
</DEFINITION>
<DEFINITION>
<FOR>X1074</FOR>
	<GIVEN>LABEL</GIVEN>
<TABLE>
0.016548463356973995 0.9810874704491725 0.002364066193853428 
0.21719558856628404 0.6394328156650911 0.1433715957686248 
</TABLE>
</DEFINITION>
<DEFINITION>
<FOR>X1086</FOR>
	<GIVEN>LABEL</GIVEN>
<TABLE>
0.049528301886792456 0.7617924528301887 0.18632075471698112 0.0023584905660377358 
0.2977047704770477 0.5132763276327633 0.036678667866786675 0.15234023402340233 
</TABLE>
</DEFINITION>
<DEFINITION>
<FOR>X1120</FOR>
	<GIVEN>LABEL</GIVEN>
<TABLE>
0.01650943396226415 0.5636792452830188 0.41745283018867924 0.0023584905660377358 
0.23064806480648065 0.4507200720072007 0.13613861386138615 0.1824932493249325 
</TABLE>
</DEFINITION>
<DEFINITION>
<FOR>X1121</FOR>
	<GIVEN>LABEL</GIVEN>
<TABLE>
0.0023584905660377358 0.5259433962264151 0.4693396226415094 0.0023584905660377358 
0.2292979297929793 0.4408190819081908 0.17664266426642664 0.15324032403240323 
</TABLE>
</DEFINITION>
<DEFINITION>
<FOR>X1134</FOR>
	<GIVEN>LABEL</GIVEN>
<TABLE>
0.02122641509433962 0.7429245283018868 0.23349056603773585 0.0023584905660377358 
0.2310981098109811 0.560981098109811 0.04657965796579658 0.16134113411341133 
</TABLE>
</DEFINITION>
<DEFINITION>
<FOR>X1168</FOR>
	<GIVEN>LABEL</GIVEN>
<TABLE>
0.01179245283018868 0.5212264150943396 0.46462264150943394 0.0023584905660377358 
0.2148964896489649 0.4444194419441944 0.15864086408640865 0.18204320432043206 
</TABLE>
</DEFINITION>
<DEFINITION>
<FOR>X1215</FOR>
	<GIVEN>LABEL</GIVEN>
<TABLE>
0.02122641509433962 0.5400943396226415 0.4363207547169811 0.0023584905660377358 
0.2004950495049505 0.4552205220522052 0.14333933393339335 0.20094509450945094 
</TABLE>
</DEFINITION>
<DEFINITION>
<FOR>X1216</FOR>
	<GIVEN>LABEL</GIVEN>
<TABLE>
0.007075471698113208 0.535377358490566 0.455188679245283 0.0023584905660377358 
0.16044104410441043 0.48852385238523854 0.15864086408640865 0.1923942394239424 
</TABLE>
</DEFINITION>
<DEFINITION>
<FOR>X1218</FOR>
	<GIVEN>LABEL</GIVEN>
<TABLE>
0.7635933806146572 0.23404255319148937 0.002364066193853428 
0.8068872383524646 0.06909745667341886 0.12401530497411659 
</TABLE>
</DEFINITION>
<DEFINITION>
<FOR>X1219</FOR>
	<GIVEN>LABEL</GIVEN>
<TABLE>
0.9976303317535545 0.002369668246445498 
0.9295362449347141 0.0704637550652859 
</TABLE>
</DEFINITION>
<DEFINITION>
<FOR>X1263</FOR>
	<GIVEN>LABEL</GIVEN>
<TABLE>
0.01650943396226415 0.5636792452830188 0.41745283018867924 0.0023584905660377358 
0.17889288928892888 0.47637263726372636 0.14693969396939693 0.1977947794779478 
</TABLE>
</DEFINITION>
<DEFINITION>
<FOR>X1265</FOR>
	<GIVEN>LABEL</GIVEN>
<TABLE>
0.03529411764705882 0.731764705882353 0.21411764705882352 0.01647058823529412 0.002352941176470588 
0.0011248593925759281 0.7390326209223848 0.03847019122609674 0.034420697412823394 0.18695163104611923 
</TABLE>
</DEFINITION>
<DEFINITION>
<FOR>X1266</FOR>
	<GIVEN>LABEL</GIVEN>
<TABLE>
0.06855791962174941 0.9290780141843972 0.002364066193853428 
0.002925950934053567 0.8167904568984921 0.18028359216745443 
</TABLE>
</DEFINITION>
<DEFINITION>
<FOR>X1268</FOR>
	<GIVEN>LABEL</GIVEN>
<TABLE>
0.9881516587677726 0.011848341232227487 
0.8759567762269248 0.1240432237730752 
</TABLE>
</DEFINITION>
<DEFINITION>
<FOR>X1269</FOR>
	<GIVEN>LABEL</GIVEN>
<TABLE>
0.04976303317535545 0.9502369668246445 
0.34511481314723097 0.654885186852769 
</TABLE>
</DEFINITION>
<DEFINITION>
<FOR>X1313</FOR>
	<GIVEN>LABEL</GIVEN>
<TABLE>
0.03537735849056604 0.10613207547169812 0.8561320754716981 0.0023584905660377358 
2.25022502250225E-4 0.023627362736273628 0.7495499549954996 0.2265976597659766 
</TABLE>
</DEFINITION>
<DEFINITION>
<FOR>X1316</FOR>
	<GIVEN>LABEL</GIVEN>
<TABLE>
0.9976303317535545 0.002369668246445498 
0.8764070238631247 0.12359297613687528 
</TABLE>
</DEFINITION>
<DEFINITION>
<FOR>X1317</FOR>
	<GIVEN>LABEL</GIVEN>
<TABLE>
0.06398104265402843 0.9360189573459715 
0.440117064385412 0.559882935614588 
</TABLE>
</DEFINITION>
<DEFINITION>
<FOR>X1507</FOR>
	<GIVEN>LABEL</GIVEN>
<TABLE>
0.9976303317535545 0.002369668246445498 
0.9380909500225124 0.06190904997748762 
</TABLE>
</DEFINITION>
<DEFINITION>
<FOR>X1508</FOR>
	<GIVEN>LABEL</GIVEN>
<TABLE>
0.9976303317535545 0.002369668246445498 
0.9367402071139127 0.06325979288608735 
</TABLE>
</DEFINITION>
<DEFINITION>
<FOR>X1666</FOR>
	<GIVEN>LABEL</GIVEN>
<TABLE>
0.011848341232227487 0.9881516587677726 
0.13124718595227375 0.8687528140477262 
</TABLE>
</DEFINITION>
<DEFINITION>
<FOR>X1694</FOR>
	<GIVEN>LABEL</GIVEN>
<TABLE>
0.030732860520094562 0.9290780141843972 0.04018912529550828 
0.15462525320729237 0.724510465901418 0.12086428089128967 
</TABLE>
</DEFINITION>
<DEFINITION>
<FOR>X1695</FOR>
	<GIVEN>LABEL</GIVEN>
<TABLE>
0.02132701421800948 0.9786729857819905 
0.13890139576767221 0.8610986042323278 
</TABLE>
</DEFINITION>
<DEFINITION>
<FOR>X1714</FOR>
	<GIVEN>LABEL</GIVEN>
<TABLE>
0.016587677725118485 0.9834123222748815 
0.12269248086447546 0.8773075191355245 
</TABLE>
</DEFINITION>
<DEFINITION>
<FOR>X1715</FOR>
	<GIVEN>LABEL</GIVEN>
<TABLE>
0.04028436018957346 0.9597156398104265 
0.16996848266546602 0.830031517334534 
</TABLE>
</DEFINITION>
<DEFINITION>
<FOR>X1742</FOR>
	<GIVEN>LABEL</GIVEN>
<TABLE>
0.026066350710900472 0.9739336492890995 
0.14790634849167042 0.8520936515083296 
</TABLE>
</DEFINITION>
<DEFINITION>
<FOR>X1743</FOR>
	<GIVEN>LABEL</GIVEN>
<TABLE>
0.02132701421800948 0.9786729857819905 
0.1371004052228726 0.8628995947771274 
</TABLE>
</DEFINITION>
<DEFINITION>
<FOR>X1744</FOR>
	<GIVEN>LABEL</GIVEN>
<TABLE>
0.030805687203791468 0.9691943127962085 
0.1515083295812697 0.8484916704187303 
</TABLE>
</DEFINITION>
<DEFINITION>
<FOR>X1761</FOR>
	<GIVEN>LABEL</GIVEN>
<TABLE>
0.011848341232227487 0.9881516587677726 
0.09972985141828006 0.9002701485817199 
</TABLE>
</DEFINITION>
<DEFINITION>
<FOR>X2213</FOR>
	<GIVEN>LABEL</GIVEN>
<TABLE>
0.02588235294117647 0.17176470588235293 0.3411764705882353 0.4447058823529412 0.01647058823529412 
0.2814398200224972 0.3408323959505062 0.2049493813273341 0.11586051743532058 0.05691788526434196 
</TABLE>
</DEFINITION>
<DEFINITION>
<FOR>X2260</FOR>
	<GIVEN>LABEL</GIVEN>
<TABLE>
0.13981042654028436 0.8601895734597157 
0.5895992796037821 0.41040072039621794 
</TABLE>
</DEFINITION>
<DEFINITION>
<FOR>X2261</FOR>
	<GIVEN>LABEL</GIVEN>
<TABLE>
0.11556603773584906 0.6863207547169812 0.1721698113207547 0.025943396226415096 
0.5402790279027903 0.380963096309631 0.021377137713771376 0.05738073807380738 
</TABLE>
</DEFINITION>
<DEFINITION>
<FOR>X2262</FOR>
	<GIVEN>LABEL</GIVEN>
<TABLE>
0.15330188679245282 0.33254716981132076 0.4882075471698113 0.025943396226415096 
0.5618811881188119 0.2608010801080108 0.12128712871287128 0.05603060306030603 
</TABLE>
</DEFINITION>
<DEFINITION>
<FOR>X2263</FOR>
	<GIVEN>LABEL</GIVEN>
<TABLE>
0.0591016548463357 0.14893617021276595 0.7919621749408984 
0.3783479630880036 0.2261985145172181 0.3954535223947783 
</TABLE>
</DEFINITION>
<DEFINITION>
<FOR>LABEL</FOR>
<TABLE>
0.08658988070752777 0.9134101192924723 
</TABLE>
</DEFINITION>
</NETWORK>
</BIF>
