<?xml version="1.0"?>
<!-- DTD for the XMLBIF 0.3 format -->
<!DOCTYPE BIF [
	<!ELEMENT BIF ( NETWORK )*>
	      <!ATTLIST BIF VERSION CDATA #REQUIRED>
	<!ELEMENT NETWORK ( NAME, ( PROPERTY | VARIABLE | DEFINITION )* )>
	<!ELEMENT NAME (#PCDATA)>
	<!ELEMENT VARIABLE ( NAME, ( OUTCOME |  PROPERTY )* ) >
	      <!ATTLIST VARIABLE TYPE (nature|decision|utility) "nature">
	<!ELEMENT OUTCOME (#PCDATA)>
	<!ELEMENT DEFINITION ( FOR | GIVEN | TABLE | PROPERTY )* >
	<!ELEMENT FOR (#PCDATA)>
	<!ELEMENT GIVEN (#PCDATA)>
	<!ELEMENT TABLE (#PCDATA)>
	<!ELEMENT PROPERTY (#PCDATA)>
]>


<BIF VERSION="0.3">
<NETWORK>
<NAME>&apos;x_train_smpl_bin-weka.filters.unsupervised.attribute.NumericToNominal-Rlast-weka.filters.unsupervised.instance.Randomize-S42-weka.filters.unsupervised.attribute.Remove-R1-743,748-791,797-840,845-935,937-981,985-1024,1028-1029,1033-1071,1076-1085,1088-1119,1123-1125,1127-1133,1136-1167,1175-1181,1186-1214,1222-1230,1232-1262,1271-1310,1319-1360,1367-1408,1411-1459,1463-1468,1471,1474-1506,1510-1517,1520-1561,1565-1610,1612-1646,1648-1666,1669-1694,1698-1713,1717-1742,1746-1760,1765-1791,1795-1808,1810-1979,1981-2025,2030-2049,2052-2078,2080-2094,2099-2138,2144-2164,2168-2186,2188-2211,2218-2259,2266-2269,2272-2304-weka.filters.supervised.attribute.Discretize-Rfirst-last-precision6-weka.filters.unsupervised.attribute.ReplaceMissingValues&apos;</NAME>
<VARIABLE TYPE="nature">
	<NAME>X743</NAME>
	<OUTCOME>&apos;\&apos;(-inf-101.5]\&apos;&apos;</OUTCOME>
	<OUTCOME>&apos;\&apos;(101.5-228.5]\&apos;&apos;</OUTCOME>
	<OUTCOME>&apos;\&apos;(228.5-252.5]\&apos;&apos;</OUTCOME>
	<OUTCOME>&apos;\&apos;(252.5-inf)\&apos;&apos;</OUTCOME>
	<PROPERTY>position = (1323,480)</PROPERTY>
</VARIABLE>
<VARIABLE TYPE="nature">
	<NAME>X744</NAME>
	<OUTCOME>&apos;\&apos;(-inf-102.5]\&apos;&apos;</OUTCOME>
	<OUTCOME>&apos;\&apos;(102.5-226.5]\&apos;&apos;</OUTCOME>
	<OUTCOME>&apos;\&apos;(226.5-252.5]\&apos;&apos;</OUTCOME>
	<OUTCOME>&apos;\&apos;(252.5-inf)\&apos;&apos;</OUTCOME>
	<PROPERTY>position = (1029,384)</PROPERTY>
</VARIABLE>
<VARIABLE TYPE="nature">
	<NAME>X745</NAME>
	<OUTCOME>&apos;\&apos;(-inf-102.5]\&apos;&apos;</OUTCOME>
	<OUTCOME>&apos;\&apos;(102.5-232.5]\&apos;&apos;</OUTCOME>
	<OUTCOME>&apos;\&apos;(232.5-251.5]\&apos;&apos;</OUTCOME>
	<OUTCOME>&apos;\&apos;(251.5-inf)\&apos;&apos;</OUTCOME>
	<PROPERTY>position = (637,480)</PROPERTY>
</VARIABLE>
<VARIABLE TYPE="nature">
	<NAME>X746</NAME>
	<OUTCOME>&apos;\&apos;(-inf-102.5]\&apos;&apos;</OUTCOME>
	<OUTCOME>&apos;\&apos;(102.5-225.5]\&apos;&apos;</OUTCOME>
	<OUTCOME>&apos;\&apos;(225.5-248.5]\&apos;&apos;</OUTCOME>
	<OUTCOME>&apos;\&apos;(248.5-252.5]\&apos;&apos;</OUTCOME>
	<OUTCOME>&apos;\&apos;(252.5-inf)\&apos;&apos;</OUTCOME>
	<PROPERTY>position = (49,576)</PROPERTY>
</VARIABLE>
<VARIABLE TYPE="nature">
	<NAME>X791</NAME>
	<OUTCOME>&apos;\&apos;(-inf-100.5]\&apos;&apos;</OUTCOME>
	<OUTCOME>&apos;\&apos;(100.5-231]\&apos;&apos;</OUTCOME>
	<OUTCOME>&apos;\&apos;(231-251.5]\&apos;&apos;</OUTCOME>
	<OUTCOME>&apos;\&apos;(251.5-inf)\&apos;&apos;</OUTCOME>
	<PROPERTY>position = (686,672)</PROPERTY>
</VARIABLE>
<VARIABLE TYPE="nature">
	<NAME>X792</NAME>
	<OUTCOME>&apos;\&apos;(-inf-102.5]\&apos;&apos;</OUTCOME>
	<OUTCOME>&apos;\&apos;(102.5-230.5]\&apos;&apos;</OUTCOME>
	<OUTCOME>&apos;\&apos;(230.5-248.5]\&apos;&apos;</OUTCOME>
	<OUTCOME>&apos;\&apos;(248.5-253.5]\&apos;&apos;</OUTCOME>
	<OUTCOME>&apos;\&apos;(253.5-inf)\&apos;&apos;</OUTCOME>
	<PROPERTY>position = (833,576)</PROPERTY>
</VARIABLE>
<VARIABLE TYPE="nature">
	<NAME>X793</NAME>
	<OUTCOME>&apos;\&apos;(-inf-99.5]\&apos;&apos;</OUTCOME>
	<OUTCOME>&apos;\&apos;(99.5-230.5]\&apos;&apos;</OUTCOME>
	<OUTCOME>&apos;\&apos;(230.5-246.5]\&apos;&apos;</OUTCOME>
	<OUTCOME>&apos;\&apos;(246.5-252.5]\&apos;&apos;</OUTCOME>
	<OUTCOME>&apos;\&apos;(252.5-inf)\&apos;&apos;</OUTCOME>
	<PROPERTY>position = (1519,672)</PROPERTY>
</VARIABLE>
<VARIABLE TYPE="nature">
	<NAME>X794</NAME>
	<OUTCOME>&apos;\&apos;(-inf-99.5]\&apos;&apos;</OUTCOME>
	<OUTCOME>&apos;\&apos;(99.5-225.5]\&apos;&apos;</OUTCOME>
	<OUTCOME>&apos;\&apos;(225.5-250.5]\&apos;&apos;</OUTCOME>
	<OUTCOME>&apos;\&apos;(250.5-inf)\&apos;&apos;</OUTCOME>
	<PROPERTY>position = (1666,768)</PROPERTY>
</VARIABLE>
<VARIABLE TYPE="nature">
	<NAME>X795</NAME>
	<OUTCOME>&apos;\&apos;(-inf-113.5]\&apos;&apos;</OUTCOME>
	<OUTCOME>&apos;\&apos;(113.5-248.5]\&apos;&apos;</OUTCOME>
	<OUTCOME>&apos;\&apos;(248.5-inf)\&apos;&apos;</OUTCOME>
	<PROPERTY>position = (882,864)</PROPERTY>
</VARIABLE>
<VARIABLE TYPE="nature">
	<NAME>X840</NAME>
	<OUTCOME>&apos;\&apos;(-inf-100.5]\&apos;&apos;</OUTCOME>
	<OUTCOME>&apos;\&apos;(100.5-228.5]\&apos;&apos;</OUTCOME>
	<OUTCOME>&apos;\&apos;(228.5-250.5]\&apos;&apos;</OUTCOME>
	<OUTCOME>&apos;\&apos;(250.5-inf)\&apos;&apos;</OUTCOME>
	<PROPERTY>position = (1470,768)</PROPERTY>
</VARIABLE>
<VARIABLE TYPE="nature">
	<NAME>X841</NAME>
	<OUTCOME>&apos;\&apos;(-inf-97.5]\&apos;&apos;</OUTCOME>
	<OUTCOME>&apos;\&apos;(97.5-229.5]\&apos;&apos;</OUTCOME>
	<OUTCOME>&apos;\&apos;(229.5-251.5]\&apos;&apos;</OUTCOME>
	<OUTCOME>&apos;\&apos;(251.5-inf)\&apos;&apos;</OUTCOME>
	<PROPERTY>position = (1911,864)</PROPERTY>
</VARIABLE>
<VARIABLE TYPE="nature">
	<NAME>X842</NAME>
	<OUTCOME>&apos;\&apos;(-inf-113.5]\&apos;&apos;</OUTCOME>
	<OUTCOME>&apos;\&apos;(113.5-248.5]\&apos;&apos;</OUTCOME>
	<OUTCOME>&apos;\&apos;(248.5-inf)\&apos;&apos;</OUTCOME>
	<PROPERTY>position = (1715,960)</PROPERTY>
</VARIABLE>
<VARIABLE TYPE="nature">
	<NAME>X843</NAME>
	<OUTCOME>&apos;\&apos;(-inf-246.5]\&apos;&apos;</OUTCOME>
	<OUTCOME>&apos;\&apos;(246.5-inf)\&apos;&apos;</OUTCOME>
	<PROPERTY>position = (2450,1056)</PROPERTY>
</VARIABLE>
<VARIABLE TYPE="nature">
	<NAME>X935</NAME>
	<OUTCOME>&apos;\&apos;(-inf-239.5]\&apos;&apos;</OUTCOME>
	<OUTCOME>&apos;\&apos;(239.5-inf)\&apos;&apos;</OUTCOME>
	<PROPERTY>position = (1176,672)</PROPERTY>
</VARIABLE>
<VARIABLE TYPE="nature">
	<NAME>X981</NAME>
	<OUTCOME>&apos;\&apos;(-inf-68.5]\&apos;&apos;</OUTCOME>
	<OUTCOME>&apos;\&apos;(68.5-199.5]\&apos;&apos;</OUTCOME>
	<OUTCOME>&apos;\&apos;(199.5-inf)\&apos;&apos;</OUTCOME>
	<PROPERTY>position = (4116,1344)</PROPERTY>
</VARIABLE>
<VARIABLE TYPE="nature">
	<NAME>X982</NAME>
	<OUTCOME>&apos;\&apos;(-inf-163.5]\&apos;&apos;</OUTCOME>
	<OUTCOME>&apos;\&apos;(163.5-inf)\&apos;&apos;</OUTCOME>
	<PROPERTY>position = (1862,672)</PROPERTY>
</VARIABLE>
<VARIABLE TYPE="nature">
	<NAME>X983</NAME>
	<OUTCOME>&apos;\&apos;(-inf-208.5]\&apos;&apos;</OUTCOME>
	<OUTCOME>&apos;\&apos;(208.5-inf)\&apos;&apos;</OUTCOME>
	<PROPERTY>position = (1715,576)</PROPERTY>
</VARIABLE>
<VARIABLE TYPE="nature">
	<NAME>X1024</NAME>
	<OUTCOME>&apos;\&apos;(-inf-99.5]\&apos;&apos;</OUTCOME>
	<OUTCOME>&apos;\&apos;(99.5-236.5]\&apos;&apos;</OUTCOME>
	<OUTCOME>&apos;\&apos;(236.5-inf)\&apos;&apos;</OUTCOME>
	<PROPERTY>position = (196,480)</PROPERTY>
</VARIABLE>
<VARIABLE TYPE="nature">
	<NAME>X1025</NAME>
	<OUTCOME>&apos;\&apos;(-inf-73.5]\&apos;&apos;</OUTCOME>
	<OUTCOME>&apos;\&apos;(73.5-246.5]\&apos;&apos;</OUTCOME>
	<OUTCOME>&apos;\&apos;(246.5-inf)\&apos;&apos;</OUTCOME>
	<PROPERTY>position = (343,480)</PROPERTY>
</VARIABLE>
<VARIABLE TYPE="nature">
	<NAME>X1026</NAME>
	<OUTCOME>&apos;\&apos;(-inf-99.5]\&apos;&apos;</OUTCOME>
	<OUTCOME>&apos;\&apos;(99.5-246.5]\&apos;&apos;</OUTCOME>
	<OUTCOME>&apos;\&apos;(246.5-inf)\&apos;&apos;</OUTCOME>
	<PROPERTY>position = (294,480)</PROPERTY>
</VARIABLE>
<VARIABLE TYPE="nature">
	<NAME>X1029</NAME>
	<OUTCOME>&apos;\&apos;(-inf-98.5]\&apos;&apos;</OUTCOME>
	<OUTCOME>&apos;\&apos;(98.5-228.5]\&apos;&apos;</OUTCOME>
	<OUTCOME>&apos;\&apos;(228.5-inf)\&apos;&apos;</OUTCOME>
	<PROPERTY>position = (4410,1440)</PROPERTY>
</VARIABLE>
<VARIABLE TYPE="nature">
	<NAME>X1030</NAME>
	<OUTCOME>&apos;\&apos;(-inf-169.5]\&apos;&apos;</OUTCOME>
	<OUTCOME>&apos;\&apos;(169.5-inf)\&apos;&apos;</OUTCOME>
	<PROPERTY>position = (1862,768)</PROPERTY>
</VARIABLE>
<VARIABLE TYPE="nature">
	<NAME>X1031</NAME>
	<OUTCOME>&apos;\&apos;(-inf-190.5]\&apos;&apos;</OUTCOME>
	<OUTCOME>&apos;\&apos;(190.5-inf)\&apos;&apos;</OUTCOME>
	<PROPERTY>position = (1764,480)</PROPERTY>
</VARIABLE>
<VARIABLE TYPE="nature">
	<NAME>X1071</NAME>
	<OUTCOME>&apos;\&apos;(-inf-92.5]\&apos;&apos;</OUTCOME>
	<OUTCOME>&apos;\&apos;(92.5-246.5]\&apos;&apos;</OUTCOME>
	<OUTCOME>&apos;\&apos;(246.5-inf)\&apos;&apos;</OUTCOME>
	<PROPERTY>position = (0,288)</PROPERTY>
</VARIABLE>
<VARIABLE TYPE="nature">
	<NAME>X1072</NAME>
	<OUTCOME>&apos;\&apos;(-inf-91.5]\&apos;&apos;</OUTCOME>
	<OUTCOME>&apos;\&apos;(91.5-247.5]\&apos;&apos;</OUTCOME>
	<OUTCOME>&apos;\&apos;(247.5-inf)\&apos;&apos;</OUTCOME>
	<PROPERTY>position = (196,384)</PROPERTY>
</VARIABLE>
<VARIABLE TYPE="nature">
	<NAME>X1073</NAME>
	<OUTCOME>&apos;\&apos;(-inf-86.5]\&apos;&apos;</OUTCOME>
	<OUTCOME>&apos;\&apos;(86.5-246.5]\&apos;&apos;</OUTCOME>
	<OUTCOME>&apos;\&apos;(246.5-inf)\&apos;&apos;</OUTCOME>
	<PROPERTY>position = (392,384)</PROPERTY>
</VARIABLE>
<VARIABLE TYPE="nature">
	<NAME>X1074</NAME>
	<OUTCOME>&apos;\&apos;(-inf-91.5]\&apos;&apos;</OUTCOME>
	<OUTCOME>&apos;\&apos;(91.5-246.5]\&apos;&apos;</OUTCOME>
	<OUTCOME>&apos;\&apos;(246.5-inf)\&apos;&apos;</OUTCOME>
	<PROPERTY>position = (441,480)</PROPERTY>
</VARIABLE>
<VARIABLE TYPE="nature">
	<NAME>X1085</NAME>
	<OUTCOME>&apos;\&apos;(-inf-100.5]\&apos;&apos;</OUTCOME>
	<OUTCOME>&apos;\&apos;(100.5-194.5]\&apos;&apos;</OUTCOME>
	<OUTCOME>&apos;\&apos;(194.5-245.5]\&apos;&apos;</OUTCOME>
	<OUTCOME>&apos;\&apos;(245.5-inf)\&apos;&apos;</OUTCOME>
	<PROPERTY>position = (2450,480)</PROPERTY>
</VARIABLE>
<VARIABLE TYPE="nature">
	<NAME>X1086</NAME>
	<OUTCOME>&apos;\&apos;(-inf-102.5]\&apos;&apos;</OUTCOME>
	<OUTCOME>&apos;\&apos;(102.5-226.5]\&apos;&apos;</OUTCOME>
	<OUTCOME>&apos;\&apos;(226.5-244.5]\&apos;&apos;</OUTCOME>
	<OUTCOME>&apos;\&apos;(244.5-inf)\&apos;&apos;</OUTCOME>
	<PROPERTY>position = (2450,576)</PROPERTY>
</VARIABLE>
<VARIABLE TYPE="nature">
	<NAME>X1119</NAME>
	<OUTCOME>&apos;\&apos;(-inf-92.5]\&apos;&apos;</OUTCOME>
	<OUTCOME>&apos;\&apos;(92.5-200.5]\&apos;&apos;</OUTCOME>
	<OUTCOME>&apos;\&apos;(200.5-248.5]\&apos;&apos;</OUTCOME>
	<OUTCOME>&apos;\&apos;(248.5-inf)\&apos;&apos;</OUTCOME>
	<PROPERTY>position = (588,192)</PROPERTY>
</VARIABLE>
<VARIABLE TYPE="nature">
	<NAME>X1120</NAME>
	<OUTCOME>&apos;\&apos;(-inf-102.5]\&apos;&apos;</OUTCOME>
	<OUTCOME>&apos;\&apos;(102.5-199.5]\&apos;&apos;</OUTCOME>
	<OUTCOME>&apos;\&apos;(199.5-247.5]\&apos;&apos;</OUTCOME>
	<OUTCOME>&apos;\&apos;(247.5-inf)\&apos;&apos;</OUTCOME>
	<PROPERTY>position = (1176,288)</PROPERTY>
</VARIABLE>
<VARIABLE TYPE="nature">
	<NAME>X1121</NAME>
	<OUTCOME>&apos;\&apos;(-inf-96.5]\&apos;&apos;</OUTCOME>
	<OUTCOME>&apos;\&apos;(96.5-189.5]\&apos;&apos;</OUTCOME>
	<OUTCOME>&apos;\&apos;(189.5-246.5]\&apos;&apos;</OUTCOME>
	<OUTCOME>&apos;\&apos;(246.5-inf)\&apos;&apos;</OUTCOME>
	<PROPERTY>position = (2842,480)</PROPERTY>
</VARIABLE>
<VARIABLE TYPE="nature">
	<NAME>X1125</NAME>
	<OUTCOME>&apos;\&apos;All\&apos;&apos;</OUTCOME>
	<PROPERTY>position = (784,576)</PROPERTY>
</VARIABLE>
<VARIABLE TYPE="nature">
	<NAME>X1133</NAME>
	<OUTCOME>&apos;\&apos;(-inf-88.5]\&apos;&apos;</OUTCOME>
	<OUTCOME>&apos;\&apos;(88.5-191.5]\&apos;&apos;</OUTCOME>
	<OUTCOME>&apos;\&apos;(191.5-243.5]\&apos;&apos;</OUTCOME>
	<OUTCOME>&apos;\&apos;(243.5-inf)\&apos;&apos;</OUTCOME>
	<PROPERTY>position = (2058,288)</PROPERTY>
</VARIABLE>
<VARIABLE TYPE="nature">
	<NAME>X1134</NAME>
	<OUTCOME>&apos;\&apos;(-inf-90.5]\&apos;&apos;</OUTCOME>
	<OUTCOME>&apos;\&apos;(90.5-222.5]\&apos;&apos;</OUTCOME>
	<OUTCOME>&apos;\&apos;(222.5-244.5]\&apos;&apos;</OUTCOME>
	<OUTCOME>&apos;\&apos;(244.5-inf)\&apos;&apos;</OUTCOME>
	<PROPERTY>position = (2499,672)</PROPERTY>
</VARIABLE>
<VARIABLE TYPE="nature">
	<NAME>X1167</NAME>
	<OUTCOME>&apos;\&apos;(-inf-92.5]\&apos;&apos;</OUTCOME>
	<OUTCOME>&apos;\&apos;(92.5-193.5]\&apos;&apos;</OUTCOME>
	<OUTCOME>&apos;\&apos;(193.5-248.5]\&apos;&apos;</OUTCOME>
	<OUTCOME>&apos;\&apos;(248.5-inf)\&apos;&apos;</OUTCOME>
	<PROPERTY>position = (931,96)</PROPERTY>
</VARIABLE>
<VARIABLE TYPE="nature">
	<NAME>X1168</NAME>
	<OUTCOME>&apos;\&apos;(-inf-99.5]\&apos;&apos;</OUTCOME>
	<OUTCOME>&apos;\&apos;(99.5-196.5]\&apos;&apos;</OUTCOME>
	<OUTCOME>&apos;\&apos;(196.5-248.5]\&apos;&apos;</OUTCOME>
	<OUTCOME>&apos;\&apos;(248.5-inf)\&apos;&apos;</OUTCOME>
	<PROPERTY>position = (2940,384)</PROPERTY>
</VARIABLE>
<VARIABLE TYPE="nature">
	<NAME>X1169</NAME>
	<OUTCOME>&apos;\&apos;(-inf-99.5]\&apos;&apos;</OUTCOME>
	<OUTCOME>&apos;\&apos;(99.5-218.5]\&apos;&apos;</OUTCOME>
	<OUTCOME>&apos;\&apos;(218.5-246.5]\&apos;&apos;</OUTCOME>
	<OUTCOME>&apos;\&apos;(246.5-inf)\&apos;&apos;</OUTCOME>
	<PROPERTY>position = (2793,576)</PROPERTY>
</VARIABLE>
<VARIABLE TYPE="nature">
	<NAME>X1170</NAME>
	<OUTCOME>&apos;\&apos;(-inf-103.5]\&apos;&apos;</OUTCOME>
	<OUTCOME>&apos;\&apos;(103.5-213.5]\&apos;&apos;</OUTCOME>
	<OUTCOME>&apos;\&apos;(213.5-244.5]\&apos;&apos;</OUTCOME>
	<OUTCOME>&apos;\&apos;(244.5-inf)\&apos;&apos;</OUTCOME>
	<PROPERTY>position = (3381,672)</PROPERTY>
</VARIABLE>
<VARIABLE TYPE="nature">
	<NAME>X1171</NAME>
	<OUTCOME>&apos;\&apos;(-inf-102.5]\&apos;&apos;</OUTCOME>
	<OUTCOME>&apos;\&apos;(102.5-236.5]\&apos;&apos;</OUTCOME>
	<OUTCOME>&apos;\&apos;(236.5-inf)\&apos;&apos;</OUTCOME>
	<PROPERTY>position = (3185,768)</PROPERTY>
</VARIABLE>
<VARIABLE TYPE="nature">
	<NAME>X1172</NAME>
	<OUTCOME>&apos;\&apos;All\&apos;&apos;</OUTCOME>
	<PROPERTY>position = (1274,576)</PROPERTY>
</VARIABLE>
<VARIABLE TYPE="nature">
	<NAME>X1173</NAME>
	<OUTCOME>&apos;\&apos;All\&apos;&apos;</OUTCOME>
	<PROPERTY>position = (1372,576)</PROPERTY>
</VARIABLE>
<VARIABLE TYPE="nature">
	<NAME>X1181</NAME>
	<OUTCOME>&apos;\&apos;(-inf-97.5]\&apos;&apos;</OUTCOME>
	<OUTCOME>&apos;\&apos;(97.5-190.5]\&apos;&apos;</OUTCOME>
	<OUTCOME>&apos;\&apos;(190.5-246.5]\&apos;&apos;</OUTCOME>
	<OUTCOME>&apos;\&apos;(246.5-inf)\&apos;&apos;</OUTCOME>
	<PROPERTY>position = (2058,384)</PROPERTY>
</VARIABLE>
<VARIABLE TYPE="nature">
	<NAME>X1182</NAME>
	<OUTCOME>&apos;\&apos;(-inf-87.5]\&apos;&apos;</OUTCOME>
	<OUTCOME>&apos;\&apos;(87.5-226.5]\&apos;&apos;</OUTCOME>
	<OUTCOME>&apos;\&apos;(226.5-245.5]\&apos;&apos;</OUTCOME>
	<OUTCOME>&apos;\&apos;(245.5-inf)\&apos;&apos;</OUTCOME>
	<PROPERTY>position = (2058,768)</PROPERTY>
</VARIABLE>
<VARIABLE TYPE="nature">
	<NAME>X1183</NAME>
	<OUTCOME>&apos;\&apos;(-inf-59.5]\&apos;&apos;</OUTCOME>
	<OUTCOME>&apos;\&apos;(59.5-214.5]\&apos;&apos;</OUTCOME>
	<OUTCOME>&apos;\&apos;(214.5-244.5]\&apos;&apos;</OUTCOME>
	<OUTCOME>&apos;\&apos;(244.5-inf)\&apos;&apos;</OUTCOME>
	<PROPERTY>position = (2107,768)</PROPERTY>
</VARIABLE>
<VARIABLE TYPE="nature">
	<NAME>X1184</NAME>
	<OUTCOME>&apos;\&apos;All\&apos;&apos;</OUTCOME>
	<PROPERTY>position = (1176,576)</PROPERTY>
</VARIABLE>
<VARIABLE TYPE="nature">
	<NAME>X1214</NAME>
	<OUTCOME>&apos;\&apos;(-inf-79.5]\&apos;&apos;</OUTCOME>
	<OUTCOME>&apos;\&apos;(79.5-249.5]\&apos;&apos;</OUTCOME>
	<OUTCOME>&apos;\&apos;(249.5-inf)\&apos;&apos;</OUTCOME>
	<PROPERTY>position = (833,480)</PROPERTY>
</VARIABLE>
<VARIABLE TYPE="nature">
	<NAME>X1215</NAME>
	<OUTCOME>&apos;\&apos;(-inf-91.5]\&apos;&apos;</OUTCOME>
	<OUTCOME>&apos;\&apos;(91.5-194.5]\&apos;&apos;</OUTCOME>
	<OUTCOME>&apos;\&apos;(194.5-246.5]\&apos;&apos;</OUTCOME>
	<OUTCOME>&apos;\&apos;(246.5-inf)\&apos;&apos;</OUTCOME>
	<PROPERTY>position = (1323,192)</PROPERTY>
</VARIABLE>
<VARIABLE TYPE="nature">
	<NAME>X1216</NAME>
	<OUTCOME>&apos;\&apos;(-inf-86.5]\&apos;&apos;</OUTCOME>
	<OUTCOME>&apos;\&apos;(86.5-193.5]\&apos;&apos;</OUTCOME>
	<OUTCOME>&apos;\&apos;(193.5-246.5]\&apos;&apos;</OUTCOME>
	<OUTCOME>&apos;\&apos;(246.5-inf)\&apos;&apos;</OUTCOME>
	<PROPERTY>position = (3087,480)</PROPERTY>
</VARIABLE>
<VARIABLE TYPE="nature">
	<NAME>X1217</NAME>
	<OUTCOME>&apos;\&apos;(-inf-104.5]\&apos;&apos;</OUTCOME>
	<OUTCOME>&apos;\&apos;(104.5-223.5]\&apos;&apos;</OUTCOME>
	<OUTCOME>&apos;\&apos;(223.5-244.5]\&apos;&apos;</OUTCOME>
	<OUTCOME>&apos;\&apos;(244.5-inf)\&apos;&apos;</OUTCOME>
	<PROPERTY>position = (2254,672)</PROPERTY>
</VARIABLE>
<VARIABLE TYPE="nature">
	<NAME>X1218</NAME>
	<OUTCOME>&apos;\&apos;(-inf-211.5]\&apos;&apos;</OUTCOME>
	<OUTCOME>&apos;\&apos;(211.5-238.5]\&apos;&apos;</OUTCOME>
	<OUTCOME>&apos;\&apos;(238.5-inf)\&apos;&apos;</OUTCOME>
	<PROPERTY>position = (2205,768)</PROPERTY>
</VARIABLE>
<VARIABLE TYPE="nature">
	<NAME>X1219</NAME>
	<OUTCOME>&apos;\&apos;(-inf-235.5]\&apos;&apos;</OUTCOME>
	<OUTCOME>&apos;\&apos;(235.5-inf)\&apos;&apos;</OUTCOME>
	<PROPERTY>position = (2303,864)</PROPERTY>
</VARIABLE>
<VARIABLE TYPE="nature">
	<NAME>X1220</NAME>
	<OUTCOME>&apos;\&apos;All\&apos;&apos;</OUTCOME>
	<PROPERTY>position = (1127,576)</PROPERTY>
</VARIABLE>
<VARIABLE TYPE="nature">
	<NAME>X1230</NAME>
	<OUTCOME>&apos;\&apos;(-inf-96.5]\&apos;&apos;</OUTCOME>
	<OUTCOME>&apos;\&apos;(96.5-223.5]\&apos;&apos;</OUTCOME>
	<OUTCOME>&apos;\&apos;(223.5-249.5]\&apos;&apos;</OUTCOME>
	<OUTCOME>&apos;\&apos;(249.5-inf)\&apos;&apos;</OUTCOME>
	<PROPERTY>position = (3381,768)</PROPERTY>
</VARIABLE>
<VARIABLE TYPE="nature">
	<NAME>X1262</NAME>
	<OUTCOME>&apos;\&apos;(-inf-77.5]\&apos;&apos;</OUTCOME>
	<OUTCOME>&apos;\&apos;(77.5-196.5]\&apos;&apos;</OUTCOME>
	<OUTCOME>&apos;\&apos;(196.5-246.5]\&apos;&apos;</OUTCOME>
	<OUTCOME>&apos;\&apos;(246.5-inf)\&apos;&apos;</OUTCOME>
	<PROPERTY>position = (784,384)</PROPERTY>
</VARIABLE>
<VARIABLE TYPE="nature">
	<NAME>X1263</NAME>
	<OUTCOME>&apos;\&apos;(-inf-85.5]\&apos;&apos;</OUTCOME>
	<OUTCOME>&apos;\&apos;(85.5-194.5]\&apos;&apos;</OUTCOME>
	<OUTCOME>&apos;\&apos;(194.5-246.5]\&apos;&apos;</OUTCOME>
	<OUTCOME>&apos;\&apos;(246.5-inf)\&apos;&apos;</OUTCOME>
	<PROPERTY>position = (588,288)</PROPERTY>
</VARIABLE>
<VARIABLE TYPE="nature">
	<NAME>X1264</NAME>
	<OUTCOME>&apos;\&apos;(-inf-88.5]\&apos;&apos;</OUTCOME>
	<OUTCOME>&apos;\&apos;(88.5-214.5]\&apos;&apos;</OUTCOME>
	<OUTCOME>&apos;\&apos;(214.5-246.5]\&apos;&apos;</OUTCOME>
	<OUTCOME>&apos;\&apos;(246.5-inf)\&apos;&apos;</OUTCOME>
	<PROPERTY>position = (3087,576)</PROPERTY>
</VARIABLE>
<VARIABLE TYPE="nature">
	<NAME>X1265</NAME>
	<OUTCOME>&apos;\&apos;(-inf-25.5]\&apos;&apos;</OUTCOME>
	<OUTCOME>&apos;\&apos;(25.5-220.5]\&apos;&apos;</OUTCOME>
	<OUTCOME>&apos;\&apos;(220.5-235.5]\&apos;&apos;</OUTCOME>
	<OUTCOME>&apos;\&apos;(235.5-245.5]\&apos;&apos;</OUTCOME>
	<OUTCOME>&apos;\&apos;(245.5-inf)\&apos;&apos;</OUTCOME>
	<PROPERTY>position = (2303,672)</PROPERTY>
</VARIABLE>
<VARIABLE TYPE="nature">
	<NAME>X1266</NAME>
	<OUTCOME>&apos;\&apos;(-inf-27.5]\&apos;&apos;</OUTCOME>
	<OUTCOME>&apos;\&apos;(27.5-236.5]\&apos;&apos;</OUTCOME>
	<OUTCOME>&apos;\&apos;(236.5-inf)\&apos;&apos;</OUTCOME>
	<PROPERTY>position = (2303,768)</PROPERTY>
</VARIABLE>
<VARIABLE TYPE="nature">
	<NAME>X1267</NAME>
	<OUTCOME>&apos;\&apos;(-inf-52.5]\&apos;&apos;</OUTCOME>
	<OUTCOME>&apos;\&apos;(52.5-231.5]\&apos;&apos;</OUTCOME>
	<OUTCOME>&apos;\&apos;(231.5-inf)\&apos;&apos;</OUTCOME>
	<PROPERTY>position = (3430,960)</PROPERTY>
</VARIABLE>
<VARIABLE TYPE="nature">
	<NAME>X1268</NAME>
	<OUTCOME>&apos;\&apos;(-inf-209.5]\&apos;&apos;</OUTCOME>
	<OUTCOME>&apos;\&apos;(209.5-inf)\&apos;&apos;</OUTCOME>
	<PROPERTY>position = (3577,1056)</PROPERTY>
</VARIABLE>
<VARIABLE TYPE="nature">
	<NAME>X1269</NAME>
	<OUTCOME>&apos;\&apos;(-inf-66.5]\&apos;&apos;</OUTCOME>
	<OUTCOME>&apos;\&apos;(66.5-inf)\&apos;&apos;</OUTCOME>
	<PROPERTY>position = (3871,1248)</PROPERTY>
</VARIABLE>
<VARIABLE TYPE="nature">
	<NAME>X1310</NAME>
	<OUTCOME>&apos;\&apos;(-inf-80.5]\&apos;&apos;</OUTCOME>
	<OUTCOME>&apos;\&apos;(80.5-246.5]\&apos;&apos;</OUTCOME>
	<OUTCOME>&apos;\&apos;(246.5-inf)\&apos;&apos;</OUTCOME>
	<PROPERTY>position = (784,480)</PROPERTY>
</VARIABLE>
<VARIABLE TYPE="nature">
	<NAME>X1311</NAME>
	<OUTCOME>&apos;\&apos;(-inf-78.5]\&apos;&apos;</OUTCOME>
	<OUTCOME>&apos;\&apos;(78.5-193.5]\&apos;&apos;</OUTCOME>
	<OUTCOME>&apos;\&apos;(193.5-246.5]\&apos;&apos;</OUTCOME>
	<OUTCOME>&apos;\&apos;(246.5-inf)\&apos;&apos;</OUTCOME>
	<PROPERTY>position = (343,384)</PROPERTY>
</VARIABLE>
<VARIABLE TYPE="nature">
	<NAME>X1312</NAME>
	<OUTCOME>&apos;\&apos;(-inf-30]\&apos;&apos;</OUTCOME>
	<OUTCOME>&apos;\&apos;(30-205.5]\&apos;&apos;</OUTCOME>
	<OUTCOME>&apos;\&apos;(205.5-246.5]\&apos;&apos;</OUTCOME>
	<OUTCOME>&apos;\&apos;(246.5-inf)\&apos;&apos;</OUTCOME>
	<PROPERTY>position = (2940,672)</PROPERTY>
</VARIABLE>
<VARIABLE TYPE="nature">
	<NAME>X1313</NAME>
	<OUTCOME>&apos;\&apos;(-inf-23.5]\&apos;&apos;</OUTCOME>
	<OUTCOME>&apos;\&apos;(23.5-47.5]\&apos;&apos;</OUTCOME>
	<OUTCOME>&apos;\&apos;(47.5-233.5]\&apos;&apos;</OUTCOME>
	<OUTCOME>&apos;\&apos;(233.5-inf)\&apos;&apos;</OUTCOME>
	<PROPERTY>position = (2646,672)</PROPERTY>
</VARIABLE>
<VARIABLE TYPE="nature">
	<NAME>X1314</NAME>
	<OUTCOME>&apos;\&apos;(-inf-28.5]\&apos;&apos;</OUTCOME>
	<OUTCOME>&apos;\&apos;(28.5-106.5]\&apos;&apos;</OUTCOME>
	<OUTCOME>&apos;\&apos;(106.5-231.5]\&apos;&apos;</OUTCOME>
	<OUTCOME>&apos;\&apos;(231.5-inf)\&apos;&apos;</OUTCOME>
	<PROPERTY>position = (4263,768)</PROPERTY>
</VARIABLE>
<VARIABLE TYPE="nature">
	<NAME>X1315</NAME>
	<OUTCOME>&apos;\&apos;(-inf-104.5]\&apos;&apos;</OUTCOME>
	<OUTCOME>&apos;\&apos;(104.5-134.5]\&apos;&apos;</OUTCOME>
	<OUTCOME>&apos;\&apos;(134.5-234.5]\&apos;&apos;</OUTCOME>
	<OUTCOME>&apos;\&apos;(234.5-inf)\&apos;&apos;</OUTCOME>
	<PROPERTY>position = (4263,864)</PROPERTY>
</VARIABLE>
<VARIABLE TYPE="nature">
	<NAME>X1316</NAME>
	<OUTCOME>&apos;\&apos;(-inf-233.5]\&apos;&apos;</OUTCOME>
	<OUTCOME>&apos;\&apos;(233.5-inf)\&apos;&apos;</OUTCOME>
	<PROPERTY>position = (3332,1056)</PROPERTY>
</VARIABLE>
<VARIABLE TYPE="nature">
	<NAME>X1317</NAME>
	<OUTCOME>&apos;\&apos;(-inf-88.5]\&apos;&apos;</OUTCOME>
	<OUTCOME>&apos;\&apos;(88.5-inf)\&apos;&apos;</OUTCOME>
	<PROPERTY>position = (3969,1152)</PROPERTY>
</VARIABLE>
<VARIABLE TYPE="nature">
	<NAME>X1360</NAME>
	<OUTCOME>&apos;\&apos;(-inf-27.5]\&apos;&apos;</OUTCOME>
	<OUTCOME>&apos;\&apos;(27.5-212.5]\&apos;&apos;</OUTCOME>
	<OUTCOME>&apos;\&apos;(212.5-234.5]\&apos;&apos;</OUTCOME>
	<OUTCOME>&apos;\&apos;(234.5-inf)\&apos;&apos;</OUTCOME>
	<PROPERTY>position = (2940,768)</PROPERTY>
</VARIABLE>
<VARIABLE TYPE="nature">
	<NAME>X1361</NAME>
	<OUTCOME>&apos;\&apos;(-inf-43.5]\&apos;&apos;</OUTCOME>
	<OUTCOME>&apos;\&apos;(43.5-232.5]\&apos;&apos;</OUTCOME>
	<OUTCOME>&apos;\&apos;(232.5-inf)\&apos;&apos;</OUTCOME>
	<PROPERTY>position = (2646,768)</PROPERTY>
</VARIABLE>
<VARIABLE TYPE="nature">
	<NAME>X1362</NAME>
	<OUTCOME>&apos;\&apos;(-inf-47.5]\&apos;&apos;</OUTCOME>
	<OUTCOME>&apos;\&apos;(47.5-127.5]\&apos;&apos;</OUTCOME>
	<OUTCOME>&apos;\&apos;(127.5-224.5]\&apos;&apos;</OUTCOME>
	<OUTCOME>&apos;\&apos;(224.5-inf)\&apos;&apos;</OUTCOME>
	<PROPERTY>position = (4508,1056)</PROPERTY>
</VARIABLE>
<VARIABLE TYPE="nature">
	<NAME>X1363</NAME>
	<OUTCOME>&apos;\&apos;(-inf-119.5]\&apos;&apos;</OUTCOME>
	<OUTCOME>&apos;\&apos;(119.5-204.5]\&apos;&apos;</OUTCOME>
	<OUTCOME>&apos;\&apos;(204.5-inf)\&apos;&apos;</OUTCOME>
	<PROPERTY>position = (4508,960)</PROPERTY>
</VARIABLE>
<VARIABLE TYPE="nature">
	<NAME>X1364</NAME>
	<OUTCOME>&apos;\&apos;(-inf-74.5]\&apos;&apos;</OUTCOME>
	<OUTCOME>&apos;\&apos;(74.5-114.5]\&apos;&apos;</OUTCOME>
	<OUTCOME>&apos;\&apos;(114.5-240.5]\&apos;&apos;</OUTCOME>
	<OUTCOME>&apos;\&apos;(240.5-inf)\&apos;&apos;</OUTCOME>
	<PROPERTY>position = (3871,960)</PROPERTY>
</VARIABLE>
<VARIABLE TYPE="nature">
	<NAME>X1365</NAME>
	<OUTCOME>&apos;\&apos;(-inf-64.5]\&apos;&apos;</OUTCOME>
	<OUTCOME>&apos;\&apos;(64.5-95.5]\&apos;&apos;</OUTCOME>
	<OUTCOME>&apos;\&apos;(95.5-241.5]\&apos;&apos;</OUTCOME>
	<OUTCOME>&apos;\&apos;(241.5-inf)\&apos;&apos;</OUTCOME>
	<PROPERTY>position = (3822,1056)</PROPERTY>
</VARIABLE>
<VARIABLE TYPE="nature">
	<NAME>X1408</NAME>
	<OUTCOME>&apos;\&apos;(-inf-221.5]\&apos;&apos;</OUTCOME>
	<OUTCOME>&apos;\&apos;(221.5-inf)\&apos;&apos;</OUTCOME>
	<PROPERTY>position = (2842,864)</PROPERTY>
</VARIABLE>
<VARIABLE TYPE="nature">
	<NAME>X1409</NAME>
	<OUTCOME>&apos;\&apos;(-inf-35.5]\&apos;&apos;</OUTCOME>
	<OUTCOME>&apos;\&apos;(35.5-117.5]\&apos;&apos;</OUTCOME>
	<OUTCOME>&apos;\&apos;(117.5-230.5]\&apos;&apos;</OUTCOME>
	<OUTCOME>&apos;\&apos;(230.5-inf)\&apos;&apos;</OUTCOME>
	<PROPERTY>position = (4557,1152)</PROPERTY>
</VARIABLE>
<VARIABLE TYPE="nature">
	<NAME>X1459</NAME>
	<OUTCOME>&apos;\&apos;(-inf-207.5]\&apos;&apos;</OUTCOME>
	<OUTCOME>&apos;\&apos;(207.5-inf)\&apos;&apos;</OUTCOME>
	<PROPERTY>position = (4508,1248)</PROPERTY>
</VARIABLE>
<VARIABLE TYPE="nature">
	<NAME>X1460</NAME>
	<OUTCOME>&apos;\&apos;All\&apos;&apos;</OUTCOME>
	<PROPERTY>position = (1519,576)</PROPERTY>
</VARIABLE>
<VARIABLE TYPE="nature">
	<NAME>X1461</NAME>
	<OUTCOME>&apos;\&apos;(-inf-67.5]\&apos;&apos;</OUTCOME>
	<OUTCOME>&apos;\&apos;(67.5-inf)\&apos;&apos;</OUTCOME>
	<PROPERTY>position = (3087,864)</PROPERTY>
</VARIABLE>
<VARIABLE TYPE="nature">
	<NAME>X1468</NAME>
	<OUTCOME>&apos;\&apos;(-inf-185.5]\&apos;&apos;</OUTCOME>
	<OUTCOME>&apos;\&apos;(185.5-inf)\&apos;&apos;</OUTCOME>
	<PROPERTY>position = (3479,960)</PROPERTY>
</VARIABLE>
<VARIABLE TYPE="nature">
	<NAME>X1469</NAME>
	<OUTCOME>&apos;\&apos;(-inf-193.5]\&apos;&apos;</OUTCOME>
	<OUTCOME>&apos;\&apos;(193.5-inf)\&apos;&apos;</OUTCOME>
	<PROPERTY>position = (3430,864)</PROPERTY>
</VARIABLE>
<VARIABLE TYPE="nature">
	<NAME>X1471</NAME>
	<OUTCOME>&apos;\&apos;All\&apos;&apos;</OUTCOME>
	<PROPERTY>position = (1225,576)</PROPERTY>
</VARIABLE>
<VARIABLE TYPE="nature">
	<NAME>X1472</NAME>
	<OUTCOME>&apos;\&apos;(-inf-219.5]\&apos;&apos;</OUTCOME>
	<OUTCOME>&apos;\&apos;(219.5-inf)\&apos;&apos;</OUTCOME>
	<PROPERTY>position = (3920,1056)</PROPERTY>
</VARIABLE>
<VARIABLE TYPE="nature">
	<NAME>X1506</NAME>
	<OUTCOME>&apos;\&apos;(-inf-198.5]\&apos;&apos;</OUTCOME>
	<OUTCOME>&apos;\&apos;(198.5-inf)\&apos;&apos;</OUTCOME>
	<PROPERTY>position = (3577,768)</PROPERTY>
</VARIABLE>
<VARIABLE TYPE="nature">
	<NAME>X1507</NAME>
	<OUTCOME>&apos;\&apos;(-inf-197.5]\&apos;&apos;</OUTCOME>
	<OUTCOME>&apos;\&apos;(197.5-inf)\&apos;&apos;</OUTCOME>
	<PROPERTY>position = (3577,864)</PROPERTY>
</VARIABLE>
<VARIABLE TYPE="nature">
	<NAME>X1508</NAME>
	<OUTCOME>&apos;\&apos;(-inf-200.5]\&apos;&apos;</OUTCOME>
	<OUTCOME>&apos;\&apos;(200.5-inf)\&apos;&apos;</OUTCOME>
	<PROPERTY>position = (3626,960)</PROPERTY>
</VARIABLE>
<VARIABLE TYPE="nature">
	<NAME>X1517</NAME>
	<OUTCOME>&apos;\&apos;All\&apos;&apos;</OUTCOME>
	<PROPERTY>position = (1568,576)</PROPERTY>
</VARIABLE>
<VARIABLE TYPE="nature">
	<NAME>X1518</NAME>
	<OUTCOME>&apos;\&apos;All\&apos;&apos;</OUTCOME>
	<PROPERTY>position = (1617,576)</PROPERTY>
</VARIABLE>
<VARIABLE TYPE="nature">
	<NAME>X1561</NAME>
	<OUTCOME>&apos;\&apos;(-inf-96.5]\&apos;&apos;</OUTCOME>
	<OUTCOME>&apos;\&apos;(96.5-248.5]\&apos;&apos;</OUTCOME>
	<OUTCOME>&apos;\&apos;(248.5-inf)\&apos;&apos;</OUTCOME>
	<PROPERTY>position = (4067,768)</PROPERTY>
</VARIABLE>
<VARIABLE TYPE="nature">
	<NAME>X1562</NAME>
	<OUTCOME>&apos;\&apos;(-inf-100.5]\&apos;&apos;</OUTCOME>
	<OUTCOME>&apos;\&apos;(100.5-249.5]\&apos;&apos;</OUTCOME>
	<OUTCOME>&apos;\&apos;(249.5-inf)\&apos;&apos;</OUTCOME>
	<PROPERTY>position = (4018,864)</PROPERTY>
</VARIABLE>
<VARIABLE TYPE="nature">
	<NAME>X1563</NAME>
	<OUTCOME>&apos;\&apos;(-inf-82.5]\&apos;&apos;</OUTCOME>
	<OUTCOME>&apos;\&apos;(82.5-187.5]\&apos;&apos;</OUTCOME>
	<OUTCOME>&apos;\&apos;(187.5-246.5]\&apos;&apos;</OUTCOME>
	<OUTCOME>&apos;\&apos;(246.5-inf)\&apos;&apos;</OUTCOME>
	<PROPERTY>position = (3969,960)</PROPERTY>
</VARIABLE>
<VARIABLE TYPE="nature">
	<NAME>X1610</NAME>
	<OUTCOME>&apos;\&apos;(-inf-97.5]\&apos;&apos;</OUTCOME>
	<OUTCOME>&apos;\&apos;(97.5-223.5]\&apos;&apos;</OUTCOME>
	<OUTCOME>&apos;\&apos;(223.5-247.5]\&apos;&apos;</OUTCOME>
	<OUTCOME>&apos;\&apos;(247.5-inf)\&apos;&apos;</OUTCOME>
	<PROPERTY>position = (4165,672)</PROPERTY>
</VARIABLE>
<VARIABLE TYPE="nature">
	<NAME>X1646</NAME>
	<OUTCOME>&apos;\&apos;(-inf-35.5]\&apos;&apos;</OUTCOME>
	<OUTCOME>&apos;\&apos;(35.5-inf)\&apos;&apos;</OUTCOME>
	<PROPERTY>position = (5096,1920)</PROPERTY>
</VARIABLE>
<VARIABLE TYPE="nature">
	<NAME>X1666</NAME>
	<OUTCOME>&apos;\&apos;(-inf-36.5]\&apos;&apos;</OUTCOME>
	<OUTCOME>&apos;\&apos;(36.5-inf)\&apos;&apos;</OUTCOME>
	<PROPERTY>position = (4655,1344)</PROPERTY>
</VARIABLE>
<VARIABLE TYPE="nature">
	<NAME>X1667</NAME>
	<OUTCOME>&apos;\&apos;(-inf-33.5]\&apos;&apos;</OUTCOME>
	<OUTCOME>&apos;\&apos;(33.5-inf)\&apos;&apos;</OUTCOME>
	<PROPERTY>position = (4949,1536)</PROPERTY>
</VARIABLE>
<VARIABLE TYPE="nature">
	<NAME>X1694</NAME>
	<OUTCOME>&apos;\&apos;(-inf-35.5]\&apos;&apos;</OUTCOME>
	<OUTCOME>&apos;\&apos;(35.5-144.5]\&apos;&apos;</OUTCOME>
	<OUTCOME>&apos;\&apos;(144.5-inf)\&apos;&apos;</OUTCOME>
	<PROPERTY>position = (5782,1536)</PROPERTY>
</VARIABLE>
<VARIABLE TYPE="nature">
	<NAME>X1695</NAME>
	<OUTCOME>&apos;\&apos;(-inf-36.5]\&apos;&apos;</OUTCOME>
	<OUTCOME>&apos;\&apos;(36.5-inf)\&apos;&apos;</OUTCOME>
	<PROPERTY>position = (5488,1824)</PROPERTY>
</VARIABLE>
<VARIABLE TYPE="nature">
	<NAME>X1696</NAME>
	<OUTCOME>&apos;\&apos;(-inf-35.5]\&apos;&apos;</OUTCOME>
	<OUTCOME>&apos;\&apos;(35.5-234.5]\&apos;&apos;</OUTCOME>
	<OUTCOME>&apos;\&apos;(234.5-inf)\&apos;&apos;</OUTCOME>
	<PROPERTY>position = (4361,1248)</PROPERTY>
</VARIABLE>
<VARIABLE TYPE="nature">
	<NAME>X1713</NAME>
	<OUTCOME>&apos;\&apos;(-inf-35.5]\&apos;&apos;</OUTCOME>
	<OUTCOME>&apos;\&apos;(35.5-99.5]\&apos;&apos;</OUTCOME>
	<OUTCOME>&apos;\&apos;(99.5-inf)\&apos;&apos;</OUTCOME>
	<PROPERTY>position = (4851,1248)</PROPERTY>
</VARIABLE>
<VARIABLE TYPE="nature">
	<NAME>X1714</NAME>
	<OUTCOME>&apos;\&apos;(-inf-32.5]\&apos;&apos;</OUTCOME>
	<OUTCOME>&apos;\&apos;(32.5-inf)\&apos;&apos;</OUTCOME>
	<PROPERTY>position = (4998,1632)</PROPERTY>
</VARIABLE>
<VARIABLE TYPE="nature">
	<NAME>X1715</NAME>
	<OUTCOME>&apos;\&apos;(-inf-34.5]\&apos;&apos;</OUTCOME>
	<OUTCOME>&apos;\&apos;(34.5-inf)\&apos;&apos;</OUTCOME>
	<PROPERTY>position = (4900,1632)</PROPERTY>
</VARIABLE>
<VARIABLE TYPE="nature">
	<NAME>X1742</NAME>
	<OUTCOME>&apos;\&apos;(-inf-34.5]\&apos;&apos;</OUTCOME>
	<OUTCOME>&apos;\&apos;(34.5-inf)\&apos;&apos;</OUTCOME>
	<PROPERTY>position = (5978,1824)</PROPERTY>
</VARIABLE>
<VARIABLE TYPE="nature">
	<NAME>X1743</NAME>
	<OUTCOME>&apos;\&apos;(-inf-33.5]\&apos;&apos;</OUTCOME>
	<OUTCOME>&apos;\&apos;(33.5-inf)\&apos;&apos;</OUTCOME>
	<PROPERTY>position = (5880,1632)</PROPERTY>
</VARIABLE>
<VARIABLE TYPE="nature">
	<NAME>X1744</NAME>
	<OUTCOME>&apos;\&apos;(-inf-36.5]\&apos;&apos;</OUTCOME>
	<OUTCOME>&apos;\&apos;(36.5-inf)\&apos;&apos;</OUTCOME>
	<PROPERTY>position = (5684,1728)</PROPERTY>
</VARIABLE>
<VARIABLE TYPE="nature">
	<NAME>X1760</NAME>
	<OUTCOME>&apos;\&apos;(-inf-28.5]\&apos;&apos;</OUTCOME>
	<OUTCOME>&apos;\&apos;(28.5-106.5]\&apos;&apos;</OUTCOME>
	<OUTCOME>&apos;\&apos;(106.5-142.5]\&apos;&apos;</OUTCOME>
	<OUTCOME>&apos;\&apos;(142.5-inf)\&apos;&apos;</OUTCOME>
	<PROPERTY>position = (5145,1344)</PROPERTY>
</VARIABLE>
<VARIABLE TYPE="nature">
	<NAME>X1761</NAME>
	<OUTCOME>&apos;\&apos;(-inf-30.5]\&apos;&apos;</OUTCOME>
	<OUTCOME>&apos;\&apos;(30.5-inf)\&apos;&apos;</OUTCOME>
	<PROPERTY>position = (5145,1728)</PROPERTY>
</VARIABLE>
<VARIABLE TYPE="nature">
	<NAME>X1762</NAME>
	<OUTCOME>&apos;\&apos;(-inf-34.5]\&apos;&apos;</OUTCOME>
	<OUTCOME>&apos;\&apos;(34.5-168.5]\&apos;&apos;</OUTCOME>
	<OUTCOME>&apos;\&apos;(168.5-inf)\&apos;&apos;</OUTCOME>
	<PROPERTY>position = (4998,1536)</PROPERTY>
</VARIABLE>
<VARIABLE TYPE="nature">
	<NAME>X1763</NAME>
	<OUTCOME>&apos;\&apos;(-inf-27.5]\&apos;&apos;</OUTCOME>
	<OUTCOME>&apos;\&apos;(27.5-inf)\&apos;&apos;</OUTCOME>
	<PROPERTY>position = (5096,1632)</PROPERTY>
</VARIABLE>
<VARIABLE TYPE="nature">
	<NAME>X1791</NAME>
	<OUTCOME>&apos;\&apos;(-inf-33.5]\&apos;&apos;</OUTCOME>
	<OUTCOME>&apos;\&apos;(33.5-inf)\&apos;&apos;</OUTCOME>
	<PROPERTY>position = (6027,1920)</PROPERTY>
</VARIABLE>
<VARIABLE TYPE="nature">
	<NAME>X1792</NAME>
	<OUTCOME>&apos;\&apos;(-inf-32.5]\&apos;&apos;</OUTCOME>
	<OUTCOME>&apos;\&apos;(32.5-inf)\&apos;&apos;</OUTCOME>
	<PROPERTY>position = (5929,1728)</PROPERTY>
</VARIABLE>
<VARIABLE TYPE="nature">
	<NAME>X1793</NAME>
	<OUTCOME>&apos;\&apos;(-inf-34.5]\&apos;&apos;</OUTCOME>
	<OUTCOME>&apos;\&apos;(34.5-inf)\&apos;&apos;</OUTCOME>
	<PROPERTY>position = (5733,1632)</PROPERTY>
</VARIABLE>
<VARIABLE TYPE="nature">
	<NAME>X1808</NAME>
	<OUTCOME>&apos;\&apos;(-inf-32.5]\&apos;&apos;</OUTCOME>
	<OUTCOME>&apos;\&apos;(32.5-102.5]\&apos;&apos;</OUTCOME>
	<OUTCOME>&apos;\&apos;(102.5-118.5]\&apos;&apos;</OUTCOME>
	<OUTCOME>&apos;\&apos;(118.5-inf)\&apos;&apos;</OUTCOME>
	<PROPERTY>position = (5145,1440)</PROPERTY>
</VARIABLE>
<VARIABLE TYPE="nature">
	<NAME>X1979</NAME>
	<OUTCOME>&apos;\&apos;(-inf-82.5]\&apos;&apos;</OUTCOME>
	<OUTCOME>&apos;\&apos;(82.5-inf)\&apos;&apos;</OUTCOME>
	<PROPERTY>position = (6370,2016)</PROPERTY>
</VARIABLE>
<VARIABLE TYPE="nature">
	<NAME>X2025</NAME>
	<OUTCOME>&apos;\&apos;(-inf-73.5]\&apos;&apos;</OUTCOME>
	<OUTCOME>&apos;\&apos;(73.5-254.5]\&apos;&apos;</OUTCOME>
	<OUTCOME>&apos;\&apos;(254.5-inf)\&apos;&apos;</OUTCOME>
	<PROPERTY>position = (6713,2112)</PROPERTY>
</VARIABLE>
<VARIABLE TYPE="nature">
	<NAME>X2026</NAME>
	<OUTCOME>&apos;\&apos;(-inf-70.5]\&apos;&apos;</OUTCOME>
	<OUTCOME>&apos;\&apos;(70.5-inf)\&apos;&apos;</OUTCOME>
	<PROPERTY>position = (6713,2016)</PROPERTY>
</VARIABLE>
<VARIABLE TYPE="nature">
	<NAME>X2027</NAME>
	<OUTCOME>&apos;\&apos;(-inf-78.5]\&apos;&apos;</OUTCOME>
	<OUTCOME>&apos;\&apos;(78.5-inf)\&apos;&apos;</OUTCOME>
	<PROPERTY>position = (6517,1920)</PROPERTY>
</VARIABLE>
<VARIABLE TYPE="nature">
	<NAME>X2028</NAME>
	<OUTCOME>&apos;\&apos;(-inf-80.5]\&apos;&apos;</OUTCOME>
	<OUTCOME>&apos;\&apos;(80.5-inf)\&apos;&apos;</OUTCOME>
	<PROPERTY>position = (6517,1824)</PROPERTY>
</VARIABLE>
<VARIABLE TYPE="nature">
	<NAME>X2049</NAME>
	<OUTCOME>&apos;\&apos;(-inf-32.5]\&apos;&apos;</OUTCOME>
	<OUTCOME>&apos;\&apos;(32.5-66.5]\&apos;&apos;</OUTCOME>
	<OUTCOME>&apos;\&apos;(66.5-inf)\&apos;&apos;</OUTCOME>
	<PROPERTY>position = (5880,1536)</PROPERTY>
</VARIABLE>
<VARIABLE TYPE="nature">
	<NAME>X2050</NAME>
	<OUTCOME>&apos;\&apos;(-inf-78.5]\&apos;&apos;</OUTCOME>
	<OUTCOME>&apos;\&apos;(78.5-inf)\&apos;&apos;</OUTCOME>
	<PROPERTY>position = (6125,1632)</PROPERTY>
</VARIABLE>
<VARIABLE TYPE="nature">
	<NAME>X2078</NAME>
	<OUTCOME>&apos;\&apos;(-inf-79.5]\&apos;&apos;</OUTCOME>
	<OUTCOME>&apos;\&apos;(79.5-inf)\&apos;&apos;</OUTCOME>
	<PROPERTY>position = (6370,1728)</PROPERTY>
</VARIABLE>
<VARIABLE TYPE="nature">
	<NAME>X2094</NAME>
	<OUTCOME>&apos;\&apos;(-inf-81.5]\&apos;&apos;</OUTCOME>
	<OUTCOME>&apos;\&apos;(81.5-inf)\&apos;&apos;</OUTCOME>
	<PROPERTY>position = (5047,1536)</PROPERTY>
</VARIABLE>
<VARIABLE TYPE="nature">
	<NAME>X2095</NAME>
	<OUTCOME>&apos;\&apos;(-inf-74.5]\&apos;&apos;</OUTCOME>
	<OUTCOME>&apos;\&apos;(74.5-inf)\&apos;&apos;</OUTCOME>
	<PROPERTY>position = (5537,1440)</PROPERTY>
</VARIABLE>
<VARIABLE TYPE="nature">
	<NAME>X2096</NAME>
	<OUTCOME>&apos;\&apos;(-inf-103.5]\&apos;&apos;</OUTCOME>
	<OUTCOME>&apos;\&apos;(103.5-inf)\&apos;&apos;</OUTCOME>
	<PROPERTY>position = (5880,1728)</PROPERTY>
</VARIABLE>
<VARIABLE TYPE="nature">
	<NAME>X2097</NAME>
	<OUTCOME>&apos;\&apos;(-inf-56.5]\&apos;&apos;</OUTCOME>
	<OUTCOME>&apos;\&apos;(56.5-inf)\&apos;&apos;</OUTCOME>
	<PROPERTY>position = (5635,1632)</PROPERTY>
</VARIABLE>
<VARIABLE TYPE="nature">
	<NAME>X2138</NAME>
	<OUTCOME>&apos;\&apos;(-inf-27.5]\&apos;&apos;</OUTCOME>
	<OUTCOME>&apos;\&apos;(27.5-63.5]\&apos;&apos;</OUTCOME>
	<OUTCOME>&apos;\&apos;(63.5-88.5]\&apos;&apos;</OUTCOME>
	<OUTCOME>&apos;\&apos;(88.5-164]\&apos;&apos;</OUTCOME>
	<OUTCOME>&apos;\&apos;(164-inf)\&apos;&apos;</OUTCOME>
	<PROPERTY>position = (4851,960)</PROPERTY>
</VARIABLE>
<VARIABLE TYPE="nature">
	<NAME>X2139</NAME>
	<OUTCOME>&apos;\&apos;(-inf-22.5]\&apos;&apos;</OUTCOME>
	<OUTCOME>&apos;\&apos;(22.5-27.5]\&apos;&apos;</OUTCOME>
	<OUTCOME>&apos;\&apos;(27.5-81.5]\&apos;&apos;</OUTCOME>
	<OUTCOME>&apos;\&apos;(81.5-164.5]\&apos;&apos;</OUTCOME>
	<OUTCOME>&apos;\&apos;(164.5-inf)\&apos;&apos;</OUTCOME>
	<PROPERTY>position = (5390,1056)</PROPERTY>
</VARIABLE>
<VARIABLE TYPE="nature">
	<NAME>X2140</NAME>
	<OUTCOME>&apos;\&apos;(-inf-20.5]\&apos;&apos;</OUTCOME>
	<OUTCOME>&apos;\&apos;(20.5-32.5]\&apos;&apos;</OUTCOME>
	<OUTCOME>&apos;\&apos;(32.5-68.5]\&apos;&apos;</OUTCOME>
	<OUTCOME>&apos;\&apos;(68.5-172.5]\&apos;&apos;</OUTCOME>
	<OUTCOME>&apos;\&apos;(172.5-inf)\&apos;&apos;</OUTCOME>
	<PROPERTY>position = (5390,1152)</PROPERTY>
</VARIABLE>
<VARIABLE TYPE="nature">
	<NAME>X2141</NAME>
	<OUTCOME>&apos;\&apos;(-inf-82.5]\&apos;&apos;</OUTCOME>
	<OUTCOME>&apos;\&apos;(82.5-inf)\&apos;&apos;</OUTCOME>
	<PROPERTY>position = (5439,1248)</PROPERTY>
</VARIABLE>
<VARIABLE TYPE="nature">
	<NAME>X2142</NAME>
	<OUTCOME>&apos;\&apos;(-inf-81.5]\&apos;&apos;</OUTCOME>
	<OUTCOME>&apos;\&apos;(81.5-inf)\&apos;&apos;</OUTCOME>
	<PROPERTY>position = (5488,1344)</PROPERTY>
</VARIABLE>
<VARIABLE TYPE="nature">
	<NAME>X2164</NAME>
	<OUTCOME>&apos;\&apos;(-inf-69.5]\&apos;&apos;</OUTCOME>
	<OUTCOME>&apos;\&apos;(69.5-153.5]\&apos;&apos;</OUTCOME>
	<OUTCOME>&apos;\&apos;(153.5-254.5]\&apos;&apos;</OUTCOME>
	<OUTCOME>&apos;\&apos;(254.5-inf)\&apos;&apos;</OUTCOME>
	<PROPERTY>position = (6713,2592)</PROPERTY>
</VARIABLE>
<VARIABLE TYPE="nature">
	<NAME>X2165</NAME>
	<OUTCOME>&apos;\&apos;(-inf-66.5]\&apos;&apos;</OUTCOME>
	<OUTCOME>&apos;\&apos;(66.5-159]\&apos;&apos;</OUTCOME>
	<OUTCOME>&apos;\&apos;(159-254.5]\&apos;&apos;</OUTCOME>
	<OUTCOME>&apos;\&apos;(254.5-inf)\&apos;&apos;</OUTCOME>
	<PROPERTY>position = (7007,2496)</PROPERTY>
</VARIABLE>
<VARIABLE TYPE="nature">
	<NAME>X2166</NAME>
	<OUTCOME>&apos;\&apos;(-inf-79.5]\&apos;&apos;</OUTCOME>
	<OUTCOME>&apos;\&apos;(79.5-158.5]\&apos;&apos;</OUTCOME>
	<OUTCOME>&apos;\&apos;(158.5-254.5]\&apos;&apos;</OUTCOME>
	<OUTCOME>&apos;\&apos;(254.5-inf)\&apos;&apos;</OUTCOME>
	<PROPERTY>position = (6370,2400)</PROPERTY>
</VARIABLE>
<VARIABLE TYPE="nature">
	<NAME>X2186</NAME>
	<OUTCOME>&apos;\&apos;(-inf-35.5]\&apos;&apos;</OUTCOME>
	<OUTCOME>&apos;\&apos;(35.5-82.5]\&apos;&apos;</OUTCOME>
	<OUTCOME>&apos;\&apos;(82.5-164.5]\&apos;&apos;</OUTCOME>
	<OUTCOME>&apos;\&apos;(164.5-inf)\&apos;&apos;</OUTCOME>
	<PROPERTY>position = (4312,1056)</PROPERTY>
</VARIABLE>
<VARIABLE TYPE="nature">
	<NAME>X2211</NAME>
	<OUTCOME>&apos;\&apos;(-inf-67.5]\&apos;&apos;</OUTCOME>
	<OUTCOME>&apos;\&apos;(67.5-254.5]\&apos;&apos;</OUTCOME>
	<OUTCOME>&apos;\&apos;(254.5-inf)\&apos;&apos;</OUTCOME>
	<PROPERTY>position = (7889,2592)</PROPERTY>
</VARIABLE>
<VARIABLE TYPE="nature">
	<NAME>X2212</NAME>
	<OUTCOME>&apos;\&apos;(-inf-55.5]\&apos;&apos;</OUTCOME>
	<OUTCOME>&apos;\&apos;(55.5-79.5]\&apos;&apos;</OUTCOME>
	<OUTCOME>&apos;\&apos;(79.5-241.5]\&apos;&apos;</OUTCOME>
	<OUTCOME>&apos;\&apos;(241.5-253.5]\&apos;&apos;</OUTCOME>
	<OUTCOME>&apos;\&apos;(253.5-inf)\&apos;&apos;</OUTCOME>
	<PROPERTY>position = (7938,2496)</PROPERTY>
</VARIABLE>
<VARIABLE TYPE="nature">
	<NAME>X2213</NAME>
	<OUTCOME>&apos;\&apos;(-inf-46.5]\&apos;&apos;</OUTCOME>
	<OUTCOME>&apos;\&apos;(46.5-81.5]\&apos;&apos;</OUTCOME>
	<OUTCOME>&apos;\&apos;(81.5-164.5]\&apos;&apos;</OUTCOME>
	<OUTCOME>&apos;\&apos;(164.5-254.5]\&apos;&apos;</OUTCOME>
	<OUTCOME>&apos;\&apos;(254.5-inf)\&apos;&apos;</OUTCOME>
	<PROPERTY>position = (7056,2400)</PROPERTY>
</VARIABLE>
<VARIABLE TYPE="nature">
	<NAME>X2214</NAME>
	<OUTCOME>&apos;\&apos;(-inf-70.5]\&apos;&apos;</OUTCOME>
	<OUTCOME>&apos;\&apos;(70.5-157.5]\&apos;&apos;</OUTCOME>
	<OUTCOME>&apos;\&apos;(157.5-254.5]\&apos;&apos;</OUTCOME>
	<OUTCOME>&apos;\&apos;(254.5-inf)\&apos;&apos;</OUTCOME>
	<PROPERTY>position = (6811,2304)</PROPERTY>
</VARIABLE>
<VARIABLE TYPE="nature">
	<NAME>X2215</NAME>
	<OUTCOME>&apos;\&apos;(-inf-79.5]\&apos;&apos;</OUTCOME>
	<OUTCOME>&apos;\&apos;(79.5-inf)\&apos;&apos;</OUTCOME>
	<PROPERTY>position = (6566,2496)</PROPERTY>
</VARIABLE>
<VARIABLE TYPE="nature">
	<NAME>X2216</NAME>
	<OUTCOME>&apos;\&apos;(-inf-69.5]\&apos;&apos;</OUTCOME>
	<OUTCOME>&apos;\&apos;(69.5-156.5]\&apos;&apos;</OUTCOME>
	<OUTCOME>&apos;\&apos;(156.5-254.5]\&apos;&apos;</OUTCOME>
	<OUTCOME>&apos;\&apos;(254.5-inf)\&apos;&apos;</OUTCOME>
	<PROPERTY>position = (6762,2208)</PROPERTY>
</VARIABLE>
<VARIABLE TYPE="nature">
	<NAME>X2259</NAME>
	<OUTCOME>&apos;\&apos;(-inf-65.5]\&apos;&apos;</OUTCOME>
	<OUTCOME>&apos;\&apos;(65.5-inf)\&apos;&apos;</OUTCOME>
	<PROPERTY>position = (7938,2688)</PROPERTY>
</VARIABLE>
<VARIABLE TYPE="nature">
	<NAME>X2260</NAME>
	<OUTCOME>&apos;\&apos;(-inf-74.5]\&apos;&apos;</OUTCOME>
	<OUTCOME>&apos;\&apos;(74.5-inf)\&apos;&apos;</OUTCOME>
	<PROPERTY>position = (7938,2592)</PROPERTY>
</VARIABLE>
<VARIABLE TYPE="nature">
	<NAME>X2261</NAME>
	<OUTCOME>&apos;\&apos;(-inf-68.5]\&apos;&apos;</OUTCOME>
	<OUTCOME>&apos;\&apos;(68.5-239.5]\&apos;&apos;</OUTCOME>
	<OUTCOME>&apos;\&apos;(239.5-254.5]\&apos;&apos;</OUTCOME>
	<OUTCOME>&apos;\&apos;(254.5-inf)\&apos;&apos;</OUTCOME>
	<PROPERTY>position = (6909,2496)</PROPERTY>
</VARIABLE>
<VARIABLE TYPE="nature">
	<NAME>X2262</NAME>
	<OUTCOME>&apos;\&apos;(-inf-72.5]\&apos;&apos;</OUTCOME>
	<OUTCOME>&apos;\&apos;(72.5-158.5]\&apos;&apos;</OUTCOME>
	<OUTCOME>&apos;\&apos;(158.5-254.5]\&apos;&apos;</OUTCOME>
	<OUTCOME>&apos;\&apos;(254.5-inf)\&apos;&apos;</OUTCOME>
	<PROPERTY>position = (6860,2400)</PROPERTY>
</VARIABLE>
<VARIABLE TYPE="nature">
	<NAME>X2263</NAME>
	<OUTCOME>&apos;\&apos;(-inf-55.5]\&apos;&apos;</OUTCOME>
	<OUTCOME>&apos;\&apos;(55.5-81.5]\&apos;&apos;</OUTCOME>
	<OUTCOME>&apos;\&apos;(81.5-inf)\&apos;&apos;</OUTCOME>
	<PROPERTY>position = (6664,2400)</PROPERTY>
</VARIABLE>
<VARIABLE TYPE="nature">
	<NAME>X2264</NAME>
	<OUTCOME>&apos;\&apos;(-inf-54.5]\&apos;&apos;</OUTCOME>
	<OUTCOME>&apos;\&apos;(54.5-81.5]\&apos;&apos;</OUTCOME>
	<OUTCOME>&apos;\&apos;(81.5-161.5]\&apos;&apos;</OUTCOME>
	<OUTCOME>&apos;\&apos;(161.5-254.5]\&apos;&apos;</OUTCOME>
	<OUTCOME>&apos;\&apos;(254.5-inf)\&apos;&apos;</OUTCOME>
	<PROPERTY>position = (6713,2304)</PROPERTY>
</VARIABLE>
<VARIABLE TYPE="nature">
	<NAME>X2269</NAME>
	<OUTCOME>&apos;\&apos;(-inf-62.5]\&apos;&apos;</OUTCOME>
	<OUTCOME>&apos;\&apos;(62.5-inf)\&apos;&apos;</OUTCOME>
	<PROPERTY>position = (6223,1920)</PROPERTY>
</VARIABLE>
<VARIABLE TYPE="nature">
	<NAME>X2270</NAME>
	<OUTCOME>&apos;\&apos;(-inf-63.5]\&apos;&apos;</OUTCOME>
	<OUTCOME>&apos;\&apos;(63.5-inf)\&apos;&apos;</OUTCOME>
	<PROPERTY>position = (6272,1824)</PROPERTY>
</VARIABLE>
<VARIABLE TYPE="nature">
	<NAME>LABEL</NAME>
	<OUTCOME>0</OUTCOME>
	<OUTCOME>1</OUTCOME>
	<PROPERTY>position = (3626,0)</PROPERTY>
</VARIABLE>
<DEFINITION>
<FOR>X743</FOR>
	<GIVEN>LABEL</GIVEN>
	<GIVEN>X744</GIVEN>
<TABLE>
0.7222222222222222 0.16666666666666666 0.05555555555555555 0.05555555555555555 
0.0034965034965034965 0.9825174825174825 0.01048951048951049 0.0034965034965034965 
0.0078125 0.1171875 0.8359375 0.0390625 
0.25 0.25 0.25 0.25 
0.9820415879017014 0.01606805293005671 9.45179584120983E-4 9.45179584120983E-4 
0.012652705061082025 0.9856020942408377 0.0013089005235602095 4.363001745200698E-4 
0.004098360655737705 0.1762295081967213 0.7745901639344263 0.045081967213114756 
0.001160092807424594 0.001160092807424594 0.019721577726218097 0.9779582366589327 
</TABLE>
</DEFINITION>
<DEFINITION>
<FOR>X744</FOR>
	<GIVEN>LABEL</GIVEN>
	<GIVEN>X1120</GIVEN>
<TABLE>
0.3 0.5 0.1 0.1 
0.05371900826446281 0.9132231404958677 0.028925619834710745 0.004132231404958678 
0.005555555555555556 0.3277777777777778 0.6611111111111111 0.005555555555555556 
0.25 0.25 0.25 0.25 
0.9075875486381323 0.09046692607003891 9.727626459143969E-4 9.727626459143969E-4 
0.06031904287138584 0.9227318045862413 0.011465603190428714 0.005483549351944167 
0.004934210526315789 0.5542763157894737 0.26480263157894735 0.17598684210526316 
0.0012285012285012285 0.013513513513513514 0.07248157248157248 0.9127764127764127 
</TABLE>
</DEFINITION>
<DEFINITION>
<FOR>X745</FOR>
	<GIVEN>LABEL</GIVEN>
	<GIVEN>X744</GIVEN>
<TABLE>
0.7222222222222222 0.16666666666666666 0.05555555555555555 0.05555555555555555 
0.0034965034965034965 0.9895104895104895 0.0034965034965034965 0.0034965034965034965 
0.0078125 0.1640625 0.8203125 0.0078125 
0.25 0.25 0.25 0.25 
0.9706994328922496 0.027410207939508508 9.45179584120983E-4 9.45179584120983E-4 
0.010034904013961605 0.9864746945898778 0.0030541012216404886 4.363001745200698E-4 
0.004098360655737705 0.26639344262295084 0.5614754098360656 0.1680327868852459 
0.001160092807424594 0.001160092807424594 0.015081206496519721 0.9825986078886311 
</TABLE>
</DEFINITION>
<DEFINITION>
<FOR>X746</FOR>
	<GIVEN>LABEL</GIVEN>
	<GIVEN>X745</GIVEN>
<TABLE>
0.6470588235294118 0.17647058823529413 0.058823529411764705 0.058823529411764705 0.058823529411764705 
0.009708737864077669 0.948220064724919 0.03559870550161812 0.003236245954692557 0.003236245954692557 
0.009174311926605505 0.027522935779816515 0.908256880733945 0.045871559633027525 0.009174311926605505 
0.2 0.2 0.2 0.2 0.2 
0.9810066476733144 0.016144349477682812 9.49667616334283E-4 9.49667616334283E-4 9.49667616334283E-4 
0.022486211285532458 0.9465422146796776 0.030123037759864236 4.2426813746287653E-4 4.2426813746287653E-4 
0.006289308176100629 0.1069182389937107 0.6729559748427673 0.18238993710691823 0.031446540880503145 
0.001122334455667789 0.001122334455667789 0.02356902356902357 0.04601571268237935 0.9281705948372615 
</TABLE>
</DEFINITION>
<DEFINITION>
<FOR>X791</FOR>
	<GIVEN>LABEL</GIVEN>
	<GIVEN>X792</GIVEN>
<TABLE>
0.7 0.1 0.1 0.1 
0.01 0.9833333333333333 0.0033333333333333335 0.0033333333333333335 
0.008620689655172414 0.0603448275862069 0.9224137931034483 0.008620689655172414 
0.1 0.1 0.7 0.1 
0.25 0.25 0.25 0.25 
0.9753218884120172 0.022532188841201718 0.001072961373390558 0.001072961373390558 
0.011129431162407255 0.9847485572959604 0.003709810387469085 4.1220115416323167E-4 
0.006493506493506494 0.22727272727272727 0.7207792207792207 0.045454545454545456 
0.010869565217391304 0.010869565217391304 0.4891304347826087 0.4891304347826087 
0.0011682242990654205 0.0011682242990654205 0.03154205607476635 0.9661214953271028 
</TABLE>
</DEFINITION>
<DEFINITION>
<FOR>X792</FOR>
	<GIVEN>LABEL</GIVEN>
	<GIVEN>X745</GIVEN>
<TABLE>
0.4117647058823529 0.4117647058823529 0.058823529411764705 0.058823529411764705 0.058823529411764705 
0.003236245954692557 0.9352750809061489 0.05501618122977346 0.003236245954692557 0.003236245954692557 
0.009174311926605505 0.027522935779816515 0.8899082568807339 0.06422018348623854 0.009174311926605505 
0.2 0.2 0.2 0.2 0.2 
0.8727445394112061 0.12440645773979107 9.49667616334283E-4 9.49667616334283E-4 9.49667616334283E-4 
0.004666949512091642 0.9669070852778956 0.01824352991090369 0.003818413237165889 0.006364022061943148 
0.006289308176100629 0.05660377358490566 0.5345911949685535 0.14465408805031446 0.2578616352201258 
0.001122334455667789 0.007856341189674524 0.028058361391694726 0.06621773288439955 0.8967452300785634 
</TABLE>
</DEFINITION>
<DEFINITION>
<FOR>X793</FOR>
	<GIVEN>LABEL</GIVEN>
	<GIVEN>X792</GIVEN>
<TABLE>
0.45454545454545453 0.2727272727272727 0.09090909090909091 0.09090909090909091 0.09090909090909091 
0.0033222591362126247 0.9667774086378738 0.023255813953488372 0.0033222591362126247 0.0033222591362126247 
0.008547008547008548 0.07692307692307693 0.8461538461538461 0.05982905982905983 0.008547008547008548 
0.09090909090909091 0.09090909090909091 0.2727272727272727 0.45454545454545453 0.09090909090909091 
0.2 0.2 0.2 0.2 0.2 
0.9528403001071811 0.04394426580921758 0.0010718113612004287 0.0010718113612004287 0.0010718113612004287 
0.013597033374536464 0.976926246394726 0.00865265760197775 4.1203131437989287E-4 4.1203131437989287E-4 
0.0064516129032258064 0.13548387096774195 0.6645161290322581 0.17419354838709677 0.01935483870967742 
0.010752688172043012 0.053763440860215055 0.20430107526881722 0.46236559139784944 0.26881720430107525 
0.0011668611435239206 0.003500583430571762 0.015169194865810968 0.040840140023337225 0.9393232205367561 
</TABLE>
</DEFINITION>
<DEFINITION>
<FOR>X794</FOR>
	<GIVEN>LABEL</GIVEN>
	<GIVEN>X793</GIVEN>
<TABLE>
0.375 0.375 0.125 0.125 
0.009868421052631578 0.9638157894736842 0.023026315789473683 0.003289473684210526 
0.00909090909090909 0.22727272727272727 0.7545454545454545 0.00909090909090909 
0.07142857142857142 0.07142857142857142 0.7857142857142857 0.07142857142857142 
0.25 0.25 0.25 0.25 
0.9816017316017316 0.016233766233766232 0.0010822510822510823 0.0010822510822510823 
0.04057377049180328 0.9397540983606557 0.019262295081967213 4.098360655737705E-4 
0.00641025641025641 0.26282051282051283 0.7115384615384616 0.019230769230769232 
0.009433962264150943 0.10377358490566038 0.5943396226415094 0.29245283018867924 
0.001199040767386091 0.025179856115107913 0.07793764988009592 0.89568345323741 
</TABLE>
</DEFINITION>
<DEFINITION>
<FOR>X795</FOR>
	<GIVEN>LABEL</GIVEN>
	<GIVEN>X794</GIVEN>
<TABLE>
0.7142857142857143 0.14285714285714285 0.14285714285714285 
0.2087227414330218 0.7881619937694704 0.003115264797507788 
0.009900990099009901 0.9801980198019802 0.009900990099009901 
0.3333333333333333 0.3333333333333333 0.3333333333333333 
0.9960278053624627 0.0029791459781529296 9.930486593843098E-4 
0.20975199663724253 0.7898276586801177 4.203446826397646E-4 
0.010526315789473684 0.9368421052631579 0.05263157894736842 
0.0012804097311139564 0.13444302176696543 0.8642765685019206 
</TABLE>
</DEFINITION>
<DEFINITION>
<FOR>X840</FOR>
	<GIVEN>LABEL</GIVEN>
	<GIVEN>X793</GIVEN>
<TABLE>
0.625 0.125 0.125 0.125 
0.003289473684210526 0.944078947368421 0.049342105263157895 0.003289473684210526 
0.00909090909090909 0.1 0.8818181818181818 0.00909090909090909 
0.07142857142857142 0.07142857142857142 0.7857142857142857 0.07142857142857142 
0.25 0.25 0.25 0.25 
0.9101731601731602 0.08766233766233766 0.0010822510822510823 0.0010822510822510823 
0.01762295081967213 0.965983606557377 0.012704918032786885 0.0036885245901639345 
0.00641025641025641 0.26282051282051283 0.6089743589743589 0.12179487179487179 
0.009433962264150943 0.16037735849056603 0.42452830188679247 0.4056603773584906 
0.001199040767386091 0.008393285371702638 0.0683453237410072 0.9220623501199041 
</TABLE>
</DEFINITION>
<DEFINITION>
<FOR>X841</FOR>
	<GIVEN>LABEL</GIVEN>
	<GIVEN>X794</GIVEN>
<TABLE>
0.625 0.125 0.125 0.125 
0.009316770186335404 0.953416149068323 0.034161490683229816 0.003105590062111801 
0.00980392156862745 0.08823529411764706 0.8921568627450981 0.00980392156862745 
0.25 0.25 0.25 0.25 
0.8660714285714286 0.13194444444444445 9.92063492063492E-4 9.92063492063492E-4 
0.01638655462184874 0.9684873949579832 0.01050420168067227 0.004621848739495798 
0.01048951048951049 0.32517482517482516 0.513986013986014 0.15034965034965034 
0.0012787723785166241 0.0319693094629156 0.07800511508951406 0.8887468030690537 
</TABLE>
</DEFINITION>
<DEFINITION>
<FOR>X842</FOR>
	<GIVEN>LABEL</GIVEN>
	<GIVEN>X795</GIVEN>
<TABLE>
0.863013698630137 0.1232876712328767 0.0136986301369863 
0.036827195467422094 0.9603399433427762 0.0028328611898017 
0.3333333333333333 0.3333333333333333 0.3333333333333333 
0.9215946843853821 0.07774086378737542 6.64451827242525E-4 
0.0954283177984909 0.8854860186418109 0.01908566355969818 
0.001447178002894356 0.22431259044862517 0.7742402315484804 
</TABLE>
</DEFINITION>
<DEFINITION>
<FOR>X843</FOR>
	<GIVEN>LABEL</GIVEN>
	<GIVEN>X842</GIVEN>
<TABLE>
0.9868421052631579 0.013157894736842105 
0.9971264367816092 0.0028735632183908046 
0.5 0.5 
0.9993757802746567 6.242197253433209E-4 
0.9969108561341571 0.003089143865842895 
0.28546712802768165 0.7145328719723183 
</TABLE>
</DEFINITION>
<DEFINITION>
<FOR>X935</FOR>
	<GIVEN>LABEL</GIVEN>
	<GIVEN>X983</GIVEN>
<TABLE>
0.9976190476190476 0.002380952380952381 
0.75 0.25 
0.9965091299677766 0.003490870032223416 
0.1597222222222222 0.8402777777777778 
</TABLE>
</DEFINITION>
<DEFINITION>
<FOR>X981</FOR>
	<GIVEN>LABEL</GIVEN>
	<GIVEN>X1269</GIVEN>
<TABLE>
0.391304347826087 0.5652173913043478 0.043478260869565216 
0.19602977667493796 0.7965260545905707 0.007444168734491315 
0.8749185667752443 0.1244299674267101 6.514657980456026E-4 
0.10340089316386121 0.7904500171762281 0.10614908965991068 
</TABLE>
</DEFINITION>
<DEFINITION>
<FOR>X982</FOR>
	<GIVEN>LABEL</GIVEN>
	<GIVEN>X983</GIVEN>
<TABLE>
0.9738095238095238 0.02619047619047619 
0.25 0.75 
0.9487110633727175 0.05128893662728249 
0.24027777777777778 0.7597222222222222 
</TABLE>
</DEFINITION>
<DEFINITION>
<FOR>X983</FOR>
	<GIVEN>LABEL</GIVEN>
	<GIVEN>X1031</GIVEN>
<TABLE>
0.9928571428571429 0.007142857142857143 
0.75 0.25 
0.994757174392936 0.0052428256070640175 
0.14512195121951219 0.8548780487804878 
</TABLE>
</DEFINITION>
<DEFINITION>
<FOR>X1024</FOR>
	<GIVEN>LABEL</GIVEN>
	<GIVEN>X1072</GIVEN>
<TABLE>
0.7777777777777778 0.1111111111111111 0.1111111111111111 
0.14148681055155876 0.8561151079136691 0.002398081534772182 
0.3333333333333333 0.3333333333333333 0.3333333333333333 
0.9979736575481256 0.0010131712259371835 0.0010131712259371835 
0.17634173055859803 0.80065717415115 0.023001095290251915 
0.0013831258644536654 0.17012448132780084 0.8284923928077456 
</TABLE>
</DEFINITION>
<DEFINITION>
<FOR>X1025</FOR>
	<GIVEN>LABEL</GIVEN>
	<GIVEN>X1073</GIVEN>
<TABLE>
0.2 0.6 0.2 
0.021377672209026127 0.9762470308788599 0.0023752969121140144 
0.3333333333333333 0.3333333333333333 0.3333333333333333 
0.8397212543554007 0.15911730545876887 0.0011614401858304297 
0.030956521739130435 0.952 0.017043478260869566 
0.001402524544179523 0.22861150070126227 0.7699859747545582 
</TABLE>
</DEFINITION>
<DEFINITION>
<FOR>X1026</FOR>
	<GIVEN>LABEL</GIVEN>
	<GIVEN>X1073</GIVEN>
<TABLE>
0.6 0.2 0.2 
0.07363420427553444 0.9239904988123515 0.0023752969121140144 
0.3333333333333333 0.3333333333333333 0.3333333333333333 
0.9907084785133565 0.008130081300813009 0.0011614401858304297 
0.1443478260869565 0.8455652173913043 0.01008695652173913 
0.001402524544179523 0.18934081346423562 0.8092566619915849 
</TABLE>
</DEFINITION>
<DEFINITION>
<FOR>X1029</FOR>
	<GIVEN>LABEL</GIVEN>
	<GIVEN>X981</GIVEN>
<TABLE>
0.9101123595505618 0.07865168539325842 0.011235955056179775 
0.19402985074626866 0.8029850746268656 0.0029850746268656717 
0.2 0.6 0.2 
0.9914893617021276 0.007902735562310031 6.079027355623101E-4 
0.37264340152426795 0.6205375050140393 0.00681909346169274 
0.003215434083601286 0.5819935691318328 0.41479099678456594 
</TABLE>
</DEFINITION>
<DEFINITION>
<FOR>X1030</FOR>
	<GIVEN>LABEL</GIVEN>
	<GIVEN>X982</GIVEN>
<TABLE>
0.9878048780487805 0.012195121951219513 
0.7857142857142857 0.21428571428571427 
0.9937938478143551 0.0062061521856449 
0.25338753387533874 0.7466124661246613 
</TABLE>
</DEFINITION>
<DEFINITION>
<FOR>X1031</FOR>
	<GIVEN>LABEL</GIVEN>
	<GIVEN>X1181</GIVEN>
<TABLE>
0.9285714285714286 0.07142857142857142 
0.9957264957264957 0.004273504273504274 
0.9831460674157303 0.016853932584269662 
0.5 0.5 
0.9955277280858676 0.004472271914132379 
0.9813695871097684 0.01863041289023162 
0.7610759493670886 0.2389240506329114 
0.11657303370786516 0.8834269662921348 
</TABLE>
</DEFINITION>
<DEFINITION>
<FOR>X1071</FOR>
	<GIVEN>LABEL</GIVEN>
	<GIVEN>X1119</GIVEN>
<TABLE>
0.8181818181818182 0.09090909090909091 0.09090909090909091 
0.04247104247104247 0.9536679536679536 0.003861003861003861 
0.006289308176100629 0.9874213836477987 0.006289308176100629 
0.3333333333333333 0.3333333333333333 0.3333333333333333 
0.9959390862944163 0.003045685279187817 0.0010152284263959391 
0.06228874939642685 0.9372283920811202 4.828585224529213E-4 
0.001669449081803005 0.9432387312186978 0.05509181969949917 
0.0012547051442910915 0.11668757841907151 0.8820577164366374 
</TABLE>
</DEFINITION>
<DEFINITION>
<FOR>X1072</FOR>
	<GIVEN>LABEL</GIVEN>
	<GIVEN>X1120</GIVEN>
<TABLE>
0.5555555555555556 0.3333333333333333 0.1111111111111111 
0.012448132780082987 0.983402489626556 0.004149377593360996 
0.00558659217877095 0.9888268156424581 0.00558659217877095 
0.3333333333333333 0.3333333333333333 0.3333333333333333 
0.9065238558909445 0.09250243427458617 9.737098344693282E-4 
0.02743142144638404 0.972069825436409 4.987531172069825E-4 
0.0016474464579901153 0.9308072487644151 0.06754530477759473 
0.0012300123001230013 0.16113161131611317 0.8376383763837638 
</TABLE>
</DEFINITION>
<DEFINITION>
<FOR>X1073</FOR>
	<GIVEN>LABEL</GIVEN>
	<GIVEN>X1120</GIVEN>
<TABLE>
0.1111111111111111 0.7777777777777778 0.1111111111111111 
0.012448132780082987 0.983402489626556 0.004149377593360996 
0.00558659217877095 0.9888268156424581 0.00558659217877095 
0.3333333333333333 0.3333333333333333 0.3333333333333333 
0.7916260954235638 0.2074001947419669 9.737098344693282E-4 
0.02344139650872818 0.9760598503740648 4.987531172069825E-4 
0.0016474464579901153 0.9472817133443163 0.051070840197693576 
0.0012300123001230013 0.16113161131611317 0.8376383763837638 
</TABLE>
</DEFINITION>
<DEFINITION>
<FOR>X1074</FOR>
	<GIVEN>LABEL</GIVEN>
	<GIVEN>X1073</GIVEN>
<TABLE>
0.6 0.2 0.2 
0.011876484560570071 0.9857482185273159 0.0023752969121140144 
0.3333333333333333 0.3333333333333333 0.3333333333333333 
0.9535423925667829 0.04529616724738676 0.0011614401858304297 
0.050434782608695654 0.9346086956521739 0.014956521739130434 
0.001402524544179523 0.1640953716690042 0.8345021037868162 
</TABLE>
</DEFINITION>
<DEFINITION>
<FOR>X1085</FOR>
	<GIVEN>LABEL</GIVEN>
	<GIVEN>X1181</GIVEN>
<TABLE>
0.8125 0.0625 0.0625 0.0625 
0.0211864406779661 0.9533898305084746 0.0211864406779661 0.00423728813559322 
0.005555555555555556 0.11666666666666667 0.8722222222222222 0.005555555555555556 
0.25 0.25 0.25 0.25 
0.9883928571428572 0.009821428571428571 8.928571428571428E-4 8.928571428571428E-4 
0.08199195171026157 0.9119718309859155 0.005533199195171026 5.030181086519115E-4 
0.0015772870662460567 0.222397476340694 0.7586750788643533 0.017350157728706624 
0.0014005602240896359 0.0070028011204481795 0.09663865546218488 0.8949579831932774 
</TABLE>
</DEFINITION>
<DEFINITION>
<FOR>X1086</FOR>
	<GIVEN>LABEL</GIVEN>
	<GIVEN>X1085</GIVEN>
<TABLE>
0.55 0.35 0.05 0.05 
0.04435483870967742 0.9153225806451613 0.036290322580645164 0.004032258064516129 
0.006097560975609756 0.5548780487804879 0.4329268292682927 0.006097560975609756 
0.25 0.25 0.25 0.25 
0.9017295597484277 0.09512578616352202 0.0023584905660377358 7.861635220125787E-4 
0.08984771573604061 0.8949238578680203 0.0025380710659898475 0.012690355329949238 
0.0017793594306049821 0.6530249110320284 0.17259786476868327 0.17259786476868327 
0.0015337423312883436 0.05061349693251534 0.09355828220858896 0.8542944785276073 
</TABLE>
</DEFINITION>
<DEFINITION>
<FOR>X1119</FOR>
	<GIVEN>LABEL</GIVEN>
	<GIVEN>X1167</GIVEN>
<TABLE>
0.75 0.08333333333333333 0.08333333333333333 0.08333333333333333 
0.004310344827586207 0.978448275862069 0.01293103448275862 0.004310344827586207 
0.005319148936170213 0.16489361702127658 0.824468085106383 0.005319148936170213 
0.25 0.25 0.25 0.25 
0.9882478632478633 0.009615384615384616 0.0010683760683760685 0.0010683760683760685 
0.02961847389558233 0.9663654618473896 0.0035140562248995983 5.02008032128514E-4 
0.0014705882352941176 0.19852941176470587 0.7691176470588236 0.030882352941176472 
0.0011792452830188679 0.003537735849056604 0.08136792452830188 0.9139150943396226 
</TABLE>
</DEFINITION>
<DEFINITION>
<FOR>X1120</FOR>
	<GIVEN>LABEL</GIVEN>
	<GIVEN>X1119</GIVEN>
<TABLE>
0.5833333333333334 0.25 0.08333333333333333 0.08333333333333333 
0.0038461538461538464 0.8884615384615384 0.10384615384615385 0.0038461538461538464 
0.00625 0.04375 0.94375 0.00625 
0.25 0.25 0.25 0.25 
0.9158215010141988 0.08012170385395538 0.0030425963488843813 0.0010141987829614604 
0.05936293436293436 0.900096525096525 0.04005791505791506 4.8262548262548264E-4 
0.0016666666666666668 0.095 0.7816666666666666 0.12166666666666667 
0.0012531328320802004 0.006265664160401002 0.06641604010025062 0.9260651629072681 
</TABLE>
</DEFINITION>
<DEFINITION>
<FOR>X1121</FOR>
	<GIVEN>LABEL</GIVEN>
	<GIVEN>X1168</GIVEN>
<TABLE>
0.125 0.625 0.125 0.125 
0.004464285714285714 0.9330357142857143 0.05803571428571429 0.004464285714285714 
0.005 0.055 0.935 0.005 
0.25 0.25 0.25 0.25 
0.8987473903966597 0.09916492693110647 0.0010438413361169101 0.0010438413361169101 
0.07836198179979778 0.8680485338725986 0.05308392315470172 5.055611729019212E-4 
0.007062146892655367 0.18785310734463276 0.7669491525423728 0.038135593220338986 
0.0012315270935960591 0.020935960591133004 0.17118226600985223 0.8066502463054187 
</TABLE>
</DEFINITION>
<DEFINITION>
<FOR>X1125</FOR>
	<GIVEN>LABEL</GIVEN>
	<GIVEN>X743</GIVEN>
<TABLE>
1.0 
1.0 
1.0 
1.0 
1.0 
1.0 
1.0 
1.0 
</TABLE>
</DEFINITION>
<DEFINITION>
<FOR>X1133</FOR>
	<GIVEN>LABEL</GIVEN>
	<GIVEN>X1215</GIVEN>
<TABLE>
0.25 0.5833333333333334 0.08333333333333333 0.08333333333333333 
0.021551724137931036 0.9181034482758621 0.05603448275862069 0.004310344827586207 
0.005319148936170213 0.12234042553191489 0.8670212765957447 0.005319148936170213 
0.25 0.25 0.25 0.25 
0.8646532438478747 0.1331096196868009 0.0011185682326621924 0.0011185682326621924 
0.10612043435340572 0.8573543928923988 0.03405725567620928 0.0024679170779861796 
0.0046875 0.3203125 0.5859375 0.0890625 
0.0033482142857142855 0.09709821428571429 0.15959821428571427 0.7399553571428571 
</TABLE>
</DEFINITION>
<DEFINITION>
<FOR>X1134</FOR>
	<GIVEN>LABEL</GIVEN>
	<GIVEN>X1086</GIVEN>
<TABLE>
0.2916666666666667 0.625 0.041666666666666664 0.041666666666666664 
0.009202453987730062 0.9233128834355828 0.06441717791411043 0.003067484662576687 
0.012195121951219513 0.012195121951219513 0.9634146341463414 0.012195121951219513 
0.25 0.25 0.25 0.25 
0.7714932126696833 0.22699849170437406 7.541478129713424E-4 7.541478129713424E-4 
0.0021891418563922942 0.9592819614711033 0.03546409807355517 0.003064798598949212 
0.006024096385542169 0.018072289156626505 0.7048192771084337 0.2710843373493976 
0.0014705882352941176 0.0014705882352941176 0.016176470588235296 0.9808823529411764 
</TABLE>
</DEFINITION>
<DEFINITION>
<FOR>X1167</FOR>
	<GIVEN>LABEL</GIVEN>
<TABLE>
0.02122641509433962 0.5400943396226415 0.4363207547169811 0.0023584905660377358 
0.20994599459945995 0.44756975697569756 0.15234023402340233 0.19014401440144013 
</TABLE>
</DEFINITION>
<DEFINITION>
<FOR>X1168</FOR>
	<GIVEN>LABEL</GIVEN>
	<GIVEN>X1120</GIVEN>
<TABLE>
0.5 0.3 0.1 0.1 
0.004132231404958678 0.9049586776859504 0.08677685950413223 0.004132231404958678 
0.005555555555555556 0.005555555555555556 0.9833333333333333 0.005555555555555556 
0.25 0.25 0.25 0.25 
0.9017509727626459 0.0963035019455253 9.727626459143969E-4 9.727626459143969E-4 
0.014456630109670987 0.9177467597208375 0.06630109670987039 0.0014955134596211367 
0.001644736842105263 0.05756578947368421 0.8569078947368421 0.08388157894736842 
0.0012285012285012285 0.0036855036855036856 0.06511056511056511 0.9299754299754299 
</TABLE>
</DEFINITION>
<DEFINITION>
<FOR>X1169</FOR>
	<GIVEN>LABEL</GIVEN>
	<GIVEN>X1121</GIVEN>
<TABLE>
0.25 0.25 0.25 0.25 
0.06637168141592921 0.9070796460176991 0.022123893805309734 0.004424778761061947 
0.0049504950495049506 0.3712871287128713 0.6188118811881188 0.0049504950495049506 
0.25 0.25 0.25 0.25 
0.9168297455968689 0.0812133072407045 9.784735812133072E-4 9.784735812133072E-4 
0.13404689092762487 0.8567787971457697 0.00764525993883792 0.0015290519877675841 
0.008883248730964468 0.6256345177664975 0.2956852791878173 0.06979695431472081 
0.0043859649122807015 0.04824561403508772 0.12134502923976608 0.8260233918128655 
</TABLE>
</DEFINITION>
<DEFINITION>
<FOR>X1170</FOR>
	<GIVEN>LABEL</GIVEN>
	<GIVEN>X1169</GIVEN>
<TABLE>
0.7222222222222222 0.16666666666666666 0.05555555555555555 0.05555555555555555 
0.09574468085106383 0.875886524822695 0.024822695035460994 0.0035460992907801418 
0.007575757575757576 0.08333333333333333 0.9015151515151515 0.007575757575757576 
0.25 0.25 0.25 0.25 
0.9859504132231405 0.012396694214876033 8.264462809917355E-4 8.264462809917355E-4 
0.2851528384279476 0.6930131004366812 0.018777292576419215 0.003056768558951965 
0.03313253012048193 0.5632530120481928 0.3825301204819277 0.02108433734939759 
0.004807692307692308 0.20032051282051283 0.20673076923076922 0.5881410256410257 
</TABLE>
</DEFINITION>
<DEFINITION>
<FOR>X1171</FOR>
	<GIVEN>LABEL</GIVEN>
	<GIVEN>X1170</GIVEN>
<TABLE>
0.9512195121951219 0.024390243902439025 0.024390243902439025 
0.26436781609195403 0.7318007662835249 0.0038314176245210726 
0.03937007874015748 0.952755905511811 0.007874015748031496 
0.3333333333333333 0.3333333333333333 0.3333333333333333 
0.9817105970952125 0.01775147928994083 5.379236148466917E-4 
0.30580240460010455 0.6936748562467329 5.227391531625719E-4 
0.023411371237458192 0.939799331103679 0.03678929765886288 
0.0026246719160104987 0.5170603674540682 0.48031496062992124 
</TABLE>
</DEFINITION>
<DEFINITION>
<FOR>X1172</FOR>
	<GIVEN>LABEL</GIVEN>
	<GIVEN>X743</GIVEN>
<TABLE>
1.0 
1.0 
1.0 
1.0 
1.0 
1.0 
1.0 
1.0 
</TABLE>
</DEFINITION>
<DEFINITION>
<FOR>X1173</FOR>
	<GIVEN>LABEL</GIVEN>
	<GIVEN>X743</GIVEN>
<TABLE>
1.0 
1.0 
1.0 
1.0 
1.0 
1.0 
1.0 
1.0 
</TABLE>
</DEFINITION>
<DEFINITION>
<FOR>X1181</FOR>
	<GIVEN>LABEL</GIVEN>
	<GIVEN>X1133</GIVEN>
<TABLE>
0.7 0.1 0.1 0.1 
0.028688524590163935 0.9385245901639344 0.028688524590163935 0.004098360655737705 
0.0056179775280898875 0.028089887640449437 0.9606741573033708 0.0056179775280898875 
0.25 0.25 0.25 0.25 
0.9828973843058351 0.015090543259557344 0.001006036217303823 0.001006036217303823 
0.06564245810055866 0.910148975791434 0.023743016759776536 4.655493482309125E-4 
0.0017006802721088435 0.02891156462585034 0.9370748299319728 0.03231292517006803 
0.0013774104683195593 0.0013774104683195593 0.04269972451790634 0.9545454545454546 
</TABLE>
</DEFINITION>
<DEFINITION>
<FOR>X1182</FOR>
	<GIVEN>LABEL</GIVEN>
	<GIVEN>X1134</GIVEN>
<TABLE>
0.5833333333333334 0.25 0.08333333333333333 0.08333333333333333 
0.009433962264150943 0.9842767295597484 0.0031446540880503146 0.0031446540880503146 
0.00980392156862745 0.06862745098039216 0.9117647058823529 0.00980392156862745 
0.25 0.25 0.25 0.25 
0.8961165048543689 0.10194174757281553 9.70873786407767E-4 9.70873786407767E-4 
0.003605769230769231 0.9907852564102564 0.005208333333333333 4.0064102564102563E-4 
0.004761904761904762 0.16666666666666666 0.680952380952381 0.14761904761904762 
0.001388888888888889 0.006944444444444444 0.018055555555555554 0.9736111111111111 
</TABLE>
</DEFINITION>
<DEFINITION>
<FOR>X1183</FOR>
	<GIVEN>LABEL</GIVEN>
	<GIVEN>X1134</GIVEN>
<TABLE>
0.08333333333333333 0.75 0.08333333333333333 0.08333333333333333 
0.0031446540880503146 0.9339622641509434 0.059748427672955975 0.0031446540880503146 
0.00980392156862745 0.22549019607843138 0.7549019607843137 0.00980392156862745 
0.25 0.25 0.25 0.25 
0.4980582524271845 0.5 9.70873786407767E-4 9.70873786407767E-4 
0.017227564102564104 0.9635416666666666 0.010016025641025642 0.00921474358974359 
0.004761904761904762 0.5666666666666667 0.3476190476190476 0.08095238095238096 
0.001388888888888889 0.09305555555555556 0.22361111111111112 0.6819444444444445 
</TABLE>
</DEFINITION>
<DEFINITION>
<FOR>X1184</FOR>
	<GIVEN>LABEL</GIVEN>
	<GIVEN>X743</GIVEN>
<TABLE>
1.0 
1.0 
1.0 
1.0 
1.0 
1.0 
1.0 
1.0 
</TABLE>
</DEFINITION>
<DEFINITION>
<FOR>X1214</FOR>
	<GIVEN>LABEL</GIVEN>
	<GIVEN>X1262</GIVEN>
<TABLE>
0.7333333333333333 0.2 0.06666666666666667 
0.0038314176245210726 0.9923371647509579 0.0038314176245210726 
0.006535947712418301 0.9869281045751634 0.006535947712418301 
0.3333333333333333 0.3333333333333333 0.3333333333333333 
0.9653179190751445 0.03352601156069364 0.0011560693641618498 
0.012311901504787962 0.9872321021431828 4.5599635202918376E-4 
0.0017271157167530224 0.9827288428324698 0.015544041450777202 
0.001226993865030675 0.05521472392638037 0.943558282208589 
</TABLE>
</DEFINITION>
<DEFINITION>
<FOR>X1215</FOR>
	<GIVEN>LABEL</GIVEN>
	<GIVEN>X1167</GIVEN>
<TABLE>
0.75 0.08333333333333333 0.08333333333333333 0.08333333333333333 
0.004310344827586207 0.9698275862068966 0.021551724137931036 0.004310344827586207 
0.005319148936170213 0.026595744680851064 0.9627659574468085 0.005319148936170213 
0.25 0.25 0.25 0.25 
0.9497863247863247 0.04807692307692308 0.0010683760683760685 0.0010683760683760685 
0.0015060240963855422 0.9794176706827309 0.01857429718875502 5.02008032128514E-4 
0.0014705882352941176 0.04264705882352941 0.8720588235294118 0.0838235294117647 
0.0011792452830188679 0.0011792452830188679 0.01061320754716981 0.9870283018867925 
</TABLE>
</DEFINITION>
<DEFINITION>
<FOR>X1216</FOR>
	<GIVEN>LABEL</GIVEN>
	<GIVEN>X1168</GIVEN>
<TABLE>
0.375 0.375 0.125 0.125 
0.004464285714285714 0.9598214285714286 0.03125 0.004464285714285714 
0.005 0.055 0.935 0.005 
0.25 0.25 0.25 0.25 
0.7400835073068893 0.2578288100208768 0.0010438413361169101 0.0010438413361169101 
0.0025278058645096056 0.9570273003033367 0.038928210313447925 0.0015166835187057635 
0.0014124293785310734 0.046610169491525424 0.8601694915254238 0.09180790960451977 
0.0012315270935960591 0.0012315270935960591 0.02586206896551724 0.9716748768472906 
</TABLE>
</DEFINITION>
<DEFINITION>
<FOR>X1217</FOR>
	<GIVEN>LABEL</GIVEN>
	<GIVEN>X1169</GIVEN>
<TABLE>
0.8333333333333334 0.05555555555555555 0.05555555555555555 0.05555555555555555 
0.09574468085106383 0.8829787234042553 0.01773049645390071 0.0035460992907801418 
0.007575757575757576 0.17424242424242425 0.8106060606060606 0.007575757575757576 
0.25 0.25 0.25 0.25 
0.8669421487603306 0.13140495867768595 8.264462809917355E-4 8.264462809917355E-4 
0.051965065502183404 0.8956331877729258 0.028384279475982533 0.024017467248908297 
0.0030120481927710845 0.2319277108433735 0.5512048192771084 0.21385542168674698 
0.0016025641025641025 0.011217948717948718 0.046474358974358976 0.9407051282051282 
</TABLE>
</DEFINITION>
<DEFINITION>
<FOR>X1218</FOR>
	<GIVEN>LABEL</GIVEN>
	<GIVEN>X1217</GIVEN>
<TABLE>
0.9534883720930233 0.023255813953488372 0.023255813953488372 
0.9267399267399268 0.0695970695970696 0.003663003663003663 
0.2743362831858407 0.7168141592920354 0.008849557522123894 
0.3333333333333333 0.3333333333333333 0.3333333333333333 
0.998289136013687 8.55431993156544E-4 8.55431993156544E-4 
0.96860008722198 0.027474923680767552 0.0039249890972525075 
0.4584837545126354 0.45126353790613716 0.09025270758122744 
0.10238429172510519 0.1697054698457223 0.7279102384291725 
</TABLE>
</DEFINITION>
<DEFINITION>
<FOR>X1219</FOR>
	<GIVEN>LABEL</GIVEN>
	<GIVEN>X1218</GIVEN>
<TABLE>
0.9969135802469136 0.0030864197530864196 
0.99 0.01 
0.5 0.5 
0.9991634132738427 8.365867261572784E-4 
0.9577922077922078 0.04220779220779221 
0.4583333333333333 0.5416666666666666 
</TABLE>
</DEFINITION>
<DEFINITION>
<FOR>X1220</FOR>
	<GIVEN>LABEL</GIVEN>
	<GIVEN>X743</GIVEN>
<TABLE>
1.0 
1.0 
1.0 
1.0 
1.0 
1.0 
1.0 
1.0 
</TABLE>
</DEFINITION>
<DEFINITION>
<FOR>X1230</FOR>
	<GIVEN>LABEL</GIVEN>
	<GIVEN>X1134</GIVEN>
<TABLE>
0.5833333333333334 0.25 0.08333333333333333 0.08333333333333333 
0.0220125786163522 0.9528301886792453 0.0220125786163522 0.0031446540880503146 
0.00980392156862745 0.029411764705882353 0.9509803921568627 0.00980392156862745 
0.25 0.25 0.25 0.25 
0.9524271844660194 0.04563106796116505 9.70873786407767E-4 9.70873786407767E-4 
0.037259615384615384 0.952323717948718 0.010016025641025642 4.0064102564102563E-4 
0.004761904761904762 0.11904761904761904 0.8047619047619048 0.07142857142857142 
0.001388888888888889 0.001388888888888889 0.10694444444444444 0.8902777777777777 
</TABLE>
</DEFINITION>
<DEFINITION>
<FOR>X1262</FOR>
	<GIVEN>LABEL</GIVEN>
	<GIVEN>X1263</GIVEN>
<TABLE>
0.3 0.5 0.1 0.1 
0.045454545454545456 0.9132231404958677 0.0371900826446281 0.004132231404958678 
0.005555555555555556 0.19444444444444445 0.7944444444444444 0.005555555555555556 
0.25 0.25 0.25 0.25 
0.9110275689223057 0.08646616541353383 0.0012531328320802004 0.0012531328320802004 
0.06462264150943396 0.9268867924528302 0.008018867924528302 4.716981132075472E-4 
0.001524390243902439 0.23628048780487804 0.7301829268292683 0.03201219512195122 
0.0011337868480725624 0.005668934240362812 0.09410430839002268 0.8990929705215419 
</TABLE>
</DEFINITION>
<DEFINITION>
<FOR>X1263</FOR>
	<GIVEN>LABEL</GIVEN>
	<GIVEN>X1215</GIVEN>
<TABLE>
0.5833333333333334 0.25 0.08333333333333333 0.08333333333333333 
0.004310344827586207 0.9612068965517241 0.03017241379310345 0.004310344827586207 
0.005319148936170213 0.0797872340425532 0.9095744680851063 0.005319148936170213 
0.25 0.25 0.25 0.25 
0.8870246085011185 0.11073825503355705 0.0011185682326621924 0.0011185682326621924 
0.0014807502467917078 0.9787759131293189 0.0192497532082922 4.935834155972359E-4 
0.0015625 0.0578125 0.9046875 0.0359375 
0.0011160714285714285 0.0011160714285714285 0.041294642857142856 0.9564732142857143 
</TABLE>
</DEFINITION>
<DEFINITION>
<FOR>X1264</FOR>
	<GIVEN>LABEL</GIVEN>
	<GIVEN>X1216</GIVEN>
<TABLE>
0.5 0.16666666666666666 0.16666666666666666 0.16666666666666666 
0.1 0.8913043478260869 0.004347826086956522 0.004347826086956522 
0.00510204081632653 0.3010204081632653 0.6887755102040817 0.00510204081632653 
0.25 0.25 0.25 0.25 
0.9678770949720671 0.029329608938547486 0.0013966480446927375 0.0013966480446927375 
0.02437902483900644 0.9701011959521619 0.004139834406623735 0.0013799448022079118 
0.0014124293785310734 0.3488700564971751 0.5635593220338984 0.08615819209039548 
0.0011655011655011655 0.0034965034965034965 0.03146853146853147 0.9638694638694638 
</TABLE>
</DEFINITION>
<DEFINITION>
<FOR>X1265</FOR>
	<GIVEN>LABEL</GIVEN>
	<GIVEN>X1264</GIVEN>
<TABLE>
0.5172413793103449 0.3793103448275862 0.034482758620689655 0.034482758620689655 0.034482758620689655 
0.003745318352059925 0.9700374531835206 0.018726591760299626 0.003745318352059925 0.003745318352059925 
0.007194244604316547 0.30935251798561153 0.6258992805755396 0.050359712230215826 0.007194244604316547 
0.2 0.2 0.2 0.2 0.2 
0.004005340453938585 0.9919893190921228 0.0013351134846461949 0.0013351134846461949 0.0013351134846461949 
0.00125997480050399 0.9865602687946241 0.00881982360352793 0.00125997480050399 0.0020999580008399833 
0.002288329519450801 0.41876430205949655 0.30434782608695654 0.21739130434782608 0.057208237986270026 
0.0011198208286674132 0.014557670772676373 0.02127659574468085 0.06382978723404255 0.8992161254199328 
</TABLE>
</DEFINITION>
<DEFINITION>
<FOR>X1266</FOR>
	<GIVEN>LABEL</GIVEN>
	<GIVEN>X1265</GIVEN>
<TABLE>
0.6470588235294118 0.29411764705882354 0.058823529411764705 
0.06070287539936102 0.9361022364217252 0.003194888178913738 
0.010752688172043012 0.978494623655914 0.010752688172043012 
0.1111111111111111 0.7777777777777778 0.1111111111111111 
0.3333333333333333 0.3333333333333333 0.3333333333333333 
0.42857142857142855 0.42857142857142855 0.14285714285714285 
0.003346516580468512 0.9945238819592334 0.0021296014602981443 
0.005780346820809248 0.930635838150289 0.06358381502890173 
0.0064516129032258064 0.7806451612903226 0.2129032258064516 
0.0012004801920768306 0.09483793517406963 0.9039615846338536 
</TABLE>
</DEFINITION>
<DEFINITION>
<FOR>X1267</FOR>
	<GIVEN>LABEL</GIVEN>
	<GIVEN>X1315</GIVEN>
<TABLE>
0.41697416974169743 0.5793357933579336 0.0036900369003690036 
0.037037037037037035 0.9506172839506173 0.012345679012345678 
0.012987012987012988 0.974025974025974 0.012987012987012988 
0.3333333333333333 0.3333333333333333 0.3333333333333333 
0.21255605381165918 0.7865470852017937 8.968609865470852E-4 
0.0199203187250996 0.9787516600265604 0.0013280212483399733 
5.589714924538849E-4 0.9731693683622136 0.02627166014533259 
0.0012578616352201257 0.19748427672955976 0.8012578616352202 
</TABLE>
</DEFINITION>
<DEFINITION>
<FOR>X1268</FOR>
	<GIVEN>LABEL</GIVEN>
	<GIVEN>X1267</GIVEN>
<TABLE>
0.9913793103448276 0.008620689655172414 
0.9837662337662337 0.016233766233766232 
0.5 0.5 
0.996031746031746 0.003968253968253968 
0.9883190883190883 0.011680911680911682 
0.25292397660818716 0.7470760233918129 
</TABLE>
</DEFINITION>
<DEFINITION>
<FOR>X1269</FOR>
	<GIVEN>LABEL</GIVEN>
	<GIVEN>X1317</GIVEN>
<TABLE>
0.32142857142857145 0.6785714285714286 
0.03282828282828283 0.9671717171717171 
0.7520449897750511 0.24795501022494887 
0.02532154340836013 0.9746784565916399 
</TABLE>
</DEFINITION>
<DEFINITION>
<FOR>X1310</FOR>
	<GIVEN>LABEL</GIVEN>
	<GIVEN>X1262</GIVEN>
<TABLE>
0.8666666666666667 0.06666666666666667 0.06666666666666667 
0.02681992337164751 0.9693486590038314 0.0038314176245210726 
0.006535947712418301 0.9869281045751634 0.006535947712418301 
0.3333333333333333 0.3333333333333333 0.3333333333333333 
0.9930635838150289 0.005780346820809248 0.0011560693641618498 
0.044231646146830825 0.95531235750114 4.5599635202918376E-4 
0.0017271157167530224 0.9861830742659758 0.012089810017271158 
0.001226993865030675 0.11411042944785275 0.8846625766871166 
</TABLE>
</DEFINITION>
<DEFINITION>
<FOR>X1311</FOR>
	<GIVEN>LABEL</GIVEN>
	<GIVEN>X1263</GIVEN>
<TABLE>
0.3 0.5 0.1 0.1 
0.07024793388429752 0.9132231404958677 0.012396694214876033 0.004132231404958678 
0.005555555555555556 0.11666666666666667 0.8722222222222222 0.005555555555555556 
0.25 0.25 0.25 0.25 
0.9085213032581454 0.08897243107769423 0.0012531328320802004 0.0012531328320802004 
0.010849056603773584 0.9797169811320755 0.008962264150943396 4.716981132075472E-4 
0.001524390243902439 0.1326219512195122 0.8582317073170732 0.007621951219512195 
0.0011337868480725624 0.007936507936507936 0.0963718820861678 0.8945578231292517 
</TABLE>
</DEFINITION>
<DEFINITION>
<FOR>X1312</FOR>
	<GIVEN>LABEL</GIVEN>
	<GIVEN>X1264</GIVEN>
<TABLE>
0.6071428571428571 0.32142857142857145 0.03571428571428571 0.03571428571428571 
0.0037593984962406013 0.9736842105263158 0.018796992481203006 0.0037593984962406013 
0.007246376811594203 0.06521739130434782 0.9202898550724637 0.007246376811594203 
0.25 0.25 0.25 0.25 
0.009358288770053475 0.9879679144385026 0.001336898395721925 0.001336898395721925 
0.0012605042016806723 0.9609243697478992 0.03571428571428571 0.0021008403361344537 
0.0022935779816513763 0.11238532110091744 0.8096330275229358 0.07568807339449542 
0.0011210762331838565 0.014573991031390135 0.08856502242152467 0.8957399103139013 
</TABLE>
</DEFINITION>
<DEFINITION>
<FOR>X1313</FOR>
	<GIVEN>LABEL</GIVEN>
	<GIVEN>X1264</GIVEN>
<TABLE>
0.39285714285714285 0.4642857142857143 0.10714285714285714 0.03571428571428571 
0.018796992481203006 0.12406015037593984 0.8533834586466166 0.0037593984962406013 
0.007246376811594203 0.007246376811594203 0.9782608695652174 0.007246376811594203 
0.25 0.25 0.25 0.25 
0.001336898395721925 0.13770053475935828 0.8596256684491979 0.001336898395721925 
4.201680672268908E-4 0.0012605042016806723 0.9953781512605042 0.0029411764705882353 
0.0022935779816513763 0.0022935779816513763 0.6811926605504587 0.31422018348623854 
0.0011210762331838565 0.0011210762331838565 0.028026905829596414 0.9697309417040358 
</TABLE>
</DEFINITION>
<DEFINITION>
<FOR>X1314</FOR>
	<GIVEN>LABEL</GIVEN>
	<GIVEN>X1610</GIVEN>
<TABLE>
0.08333333333333333 0.75 0.08333333333333333 0.08333333333333333 
0.10064935064935066 0.5487012987012987 0.3474025974025974 0.003246753246753247 
0.0625 0.36607142857142855 0.5625 0.008928571428571428 
0.25 0.25 0.25 0.25 
0.01076555023923445 0.9533492822966507 0.034688995215311005 0.0011961722488038277 
3.980891719745223E-4 0.09593949044585988 0.8793789808917197 0.02428343949044586 
0.003816793893129771 0.003816793893129771 0.5 0.49236641221374045 
0.001182033096926714 0.001182033096926714 0.03900709219858156 0.958628841607565 
</TABLE>
</DEFINITION>
<DEFINITION>
<FOR>X1315</FOR>
	<GIVEN>LABEL</GIVEN>
	<GIVEN>X1314</GIVEN>
<TABLE>
0.925 0.025 0.025 0.025 
0.85 0.09545454545454546 0.05 0.004545454545454545 
0.27325581395348836 0.3430232558139535 0.37790697674418605 0.005813953488372093 
0.25 0.25 0.25 0.25 
0.75 0.08333333333333333 0.08333333333333333 0.08333333333333333 
0.9432692307692307 0.052884615384615384 0.0028846153846153848 9.615384615384616E-4 
0.05120732722731058 0.2885095753538718 0.6582014987510408 0.0020815986677768525 
0.0029940119760479044 0.00499001996007984 0.20459081836327345 0.7874251497005988 
</TABLE>
</DEFINITION>
<DEFINITION>
<FOR>X1316</FOR>
	<GIVEN>LABEL</GIVEN>
	<GIVEN>X1267</GIVEN>
<TABLE>
0.9913793103448276 0.008620689655172414 
0.9967532467532467 0.003246753246753247 
0.5 0.5 
0.996031746031746 0.003968253968253968 
0.9905982905982906 0.009401709401709401 
0.24415204678362573 0.7558479532163743 
</TABLE>
</DEFINITION>
<DEFINITION>
<FOR>X1317</FOR>
	<GIVEN>LABEL</GIVEN>
	<GIVEN>X1365</GIVEN>
<TABLE>
0.5 0.5 
0.425 0.575 
0.02368421052631579 0.9763157894736842 
0.5 0.5 
0.9908789386401327 0.00912106135986733 
0.6830543933054394 0.3169456066945607 
0.05065055762081784 0.9493494423791822 
0.007462686567164179 0.9925373134328358 
</TABLE>
</DEFINITION>
<DEFINITION>
<FOR>X1360</FOR>
	<GIVEN>LABEL</GIVEN>
	<GIVEN>X1312</GIVEN>
<TABLE>
0.75 0.15 0.05 0.05 
0.025179856115107913 0.9676258992805755 0.0035971223021582736 0.0035971223021582736 
0.007462686567164179 0.41044776119402987 0.5746268656716418 0.007462686567164179 
0.25 0.25 0.25 0.25 
0.25 0.5833333333333334 0.08333333333333333 0.08333333333333333 
0.006152849740932643 0.9919041450777202 9.715025906735751E-4 9.715025906735751E-4 
0.0019305019305019305 0.581081081081081 0.2799227799227799 0.13706563706563707 
0.0011933174224343676 0.05847255369928401 0.08711217183770883 0.8532219570405728 
</TABLE>
</DEFINITION>
<DEFINITION>
<FOR>X1361</FOR>
	<GIVEN>LABEL</GIVEN>
	<GIVEN>X1313</GIVEN>
<TABLE>
0.5294117647058824 0.4117647058823529 0.058823529411764705 
0.6595744680851063 0.3191489361702128 0.02127659574468085 
0.0958904109589041 0.9013698630136986 0.0027397260273972603 
0.3333333333333333 0.3333333333333333 0.3333333333333333 
0.3333333333333333 0.3333333333333333 0.3333333333333333 
0.7570093457943925 0.2336448598130841 0.009345794392523364 
0.0111011101110111 0.9855985598559855 0.0033003300330033004 
9.910802775024777E-4 0.1694747274529237 0.8295341922695738 
</TABLE>
</DEFINITION>
<DEFINITION>
<FOR>X1362</FOR>
	<GIVEN>LABEL</GIVEN>
	<GIVEN>X1363</GIVEN>
<TABLE>
0.2152317880794702 0.6655629139072847 0.11589403973509933 0.0033112582781456954 
0.14166666666666666 0.4083333333333333 0.44166666666666665 0.008333333333333333 
0.1 0.3 0.5 0.1 
0.08376623376623377 0.8577922077922078 0.05779220779220779 6.493506493506494E-4 
5.813953488372093E-4 0.11802325581395348 0.8505813953488373 0.030813953488372094 
8.389261744966443E-4 8.389261744966443E-4 0.21728187919463088 0.7810402684563759 
</TABLE>
</DEFINITION>
<DEFINITION>
<FOR>X1363</FOR>
	<GIVEN>LABEL</GIVEN>
	<GIVEN>X1315</GIVEN>
<TABLE>
0.8523985239852399 0.14391143911439114 0.0036900369003690036 
0.7037037037037037 0.25925925925925924 0.037037037037037035 
0.16883116883116883 0.7662337662337663 0.06493506493506493 
0.3333333333333333 0.3333333333333333 0.3333333333333333 
0.9641255605381166 0.033183856502242155 0.0026905829596412557 
0.5378486055776892 0.46082337317397076 0.0013280212483399733 
0.03297931805477921 0.7406372275013974 0.22638345444382338 
0.0012578616352201257 0.013836477987421384 0.9849056603773585 
</TABLE>
</DEFINITION>
<DEFINITION>
<FOR>X1364</FOR>
	<GIVEN>LABEL</GIVEN>
	<GIVEN>X1315</GIVEN>
<TABLE>
0.0625 0.45955882352941174 0.4742647058823529 0.003676470588235294 
0.036585365853658534 0.6707317073170732 0.2804878048780488 0.012195121951219513 
0.038461538461538464 0.24358974358974358 0.7051282051282052 0.01282051282051282 
0.25 0.25 0.25 0.25 
0.692652329749104 0.2948028673835125 0.011648745519713262 8.960573476702509E-4 
0.08355437665782493 0.616710875331565 0.2984084880636605 0.001326259946949602 
0.008379888268156424 0.09106145251396648 0.8988826815642458 0.0016759776536312849 
0.001256281407035176 0.011306532663316583 0.3957286432160804 0.5917085427135679 
</TABLE>
</DEFINITION>
<DEFINITION>
<FOR>X1365</FOR>
	<GIVEN>LABEL</GIVEN>
	<GIVEN>X1364</GIVEN>
<TABLE>
0.20833333333333334 0.5416666666666666 0.20833333333333334 0.041666666666666664 
0.005 0.135 0.855 0.005 
0.004807692307692308 0.004807692307692308 0.9855769230769231 0.004807692307692308 
0.25 0.25 0.25 0.25 
0.9096244131455399 0.07863849765258216 0.01056338028169014 0.0011737089201877935 
0.31573498964803315 0.5455486542443064 0.13561076604554864 0.003105590062111801 
0.05596669750231267 0.16234967622571692 0.7719703977798335 0.00971322849213691 
0.014705882352941176 0.0273109243697479 0.7247899159663865 0.23319327731092437 
</TABLE>
</DEFINITION>
<DEFINITION>
<FOR>X1408</FOR>
	<GIVEN>LABEL</GIVEN>
	<GIVEN>X1360</GIVEN>
<TABLE>
0.9545454545454546 0.045454545454545456 
0.9969325153374233 0.003067484662576687 
0.9615384615384616 0.038461538461538464 
0.5 0.5 
0.9545454545454546 0.045454545454545456 
0.9979520187244002 0.002047981275599766 
0.8954545454545455 0.10454545454545454 
0.4149746192893401 0.5850253807106599 
</TABLE>
</DEFINITION>
<DEFINITION>
<FOR>X1409</FOR>
	<GIVEN>LABEL</GIVEN>
	<GIVEN>X1362</GIVEN>
<TABLE>
0.6547619047619048 0.32142857142857145 0.011904761904761904 0.011904761904761904 
0.05905511811023622 0.8385826771653543 0.0984251968503937 0.003937007874015748 
0.010638297872340425 0.11702127659574468 0.8617021276595744 0.010638297872340425 
0.25 0.25 0.25 0.25 
0.6136363636363636 0.3560606060606061 0.022727272727272728 0.007575757575757576 
0.04128440366972477 0.8931847968545217 0.062254259501965926 0.00327653997378768 
5.518763796909492E-4 0.23896247240618101 0.7466887417218543 0.01379690949227373 
0.0010141987829614604 0.011156186612576065 0.473630831643002 0.5141987829614605 
</TABLE>
</DEFINITION>
<DEFINITION>
<FOR>X1459</FOR>
	<GIVEN>LABEL</GIVEN>
	<GIVEN>X1409</GIVEN>
<TABLE>
0.9857142857142858 0.014285714285714285 
0.996 0.004 
0.9905660377358491 0.009433962264150943 
0.5 0.5 
0.9930555555555556 0.006944444444444444 
0.9994600431965442 5.399568034557236E-4 
0.9608559498956158 0.03914405010438413 
0.4944029850746269 0.5055970149253731 
</TABLE>
</DEFINITION>
<DEFINITION>
<FOR>X1460</FOR>
	<GIVEN>LABEL</GIVEN>
	<GIVEN>X743</GIVEN>
<TABLE>
1.0 
1.0 
1.0 
1.0 
1.0 
1.0 
1.0 
1.0 
</TABLE>
</DEFINITION>
<DEFINITION>
<FOR>X1461</FOR>
	<GIVEN>LABEL</GIVEN>
	<GIVEN>X1171</GIVEN>
<TABLE>
0.5625 0.4375 
0.11217948717948718 0.8878205128205128 
0.5 0.5 
0.6974337748344371 0.3025662251655629 
0.0593681917211329 0.940631808278867 
0.005154639175257732 0.9948453608247423 
</TABLE>
</DEFINITION>
<DEFINITION>
<FOR>X1468</FOR>
	<GIVEN>LABEL</GIVEN>
	<GIVEN>X1469</GIVEN>
<TABLE>
0.992822966507177 0.007177033492822967 
0.16666666666666666 0.8333333333333334 
0.9749130650769995 0.025086934923000497 
0.2942583732057416 0.7057416267942583 
</TABLE>
</DEFINITION>
<DEFINITION>
<FOR>X1469</FOR>
	<GIVEN>LABEL</GIVEN>
	<GIVEN>X1230</GIVEN>
<TABLE>
0.9285714285714286 0.07142857142857142 
0.9902597402597403 0.00974025974025974 
0.9711538461538461 0.028846153846153848 
0.5 0.5 
0.9990689013035382 9.31098696461825E-4 
0.9840686274509803 0.015931372549019607 
0.6407407407407407 0.3592592592592593 
0.5685975609756098 0.43140243902439024 
</TABLE>
</DEFINITION>
<DEFINITION>
<FOR>X1471</FOR>
	<GIVEN>LABEL</GIVEN>
	<GIVEN>X743</GIVEN>
<TABLE>
1.0 
1.0 
1.0 
1.0 
1.0 
1.0 
1.0 
1.0 
</TABLE>
</DEFINITION>
<DEFINITION>
<FOR>X1472</FOR>
	<GIVEN>LABEL</GIVEN>
	<GIVEN>X1563</GIVEN>
<TABLE>
0.9615384615384616 0.038461538461538464 
0.9957983193277311 0.004201680672268907 
0.9938271604938271 0.006172839506172839 
0.5 0.5 
0.9989035087719298 0.0010964912280701754 
0.9943965517241379 0.005603448275862069 
0.9580745341614907 0.04192546583850932 
0.6416083916083916 0.3583916083916084 
</TABLE>
</DEFINITION>
<DEFINITION>
<FOR>X1506</FOR>
	<GIVEN>LABEL</GIVEN>
	<GIVEN>X1170</GIVEN>
<TABLE>
0.975 0.025 
0.9961538461538462 0.0038461538461538464 
0.9920634920634921 0.007936507936507936 
0.5 0.5 
0.9983853606027987 0.0016146393972012918 
0.9911087866108786 0.00889121338912134 
0.8624161073825504 0.13758389261744966 
0.4026315789473684 0.5973684210526315 
</TABLE>
</DEFINITION>
<DEFINITION>
<FOR>X1507</FOR>
	<GIVEN>LABEL</GIVEN>
	<GIVEN>X1506</GIVEN>
<TABLE>
0.9976303317535545 0.002369668246445498 
0.5 0.5 
0.9906204906204906 0.00937950937950938 
0.17132867132867133 0.8286713286713286 
</TABLE>
</DEFINITION>
<DEFINITION>
<FOR>X1508</FOR>
	<GIVEN>LABEL</GIVEN>
	<GIVEN>X1507</GIVEN>
<TABLE>
0.9976303317535545 0.002369668246445498 
0.5 0.5 
0.9853646833013435 0.01463531669865643 
0.19927536231884058 0.8007246376811594 
</TABLE>
</DEFINITION>
<DEFINITION>
<FOR>X1517</FOR>
	<GIVEN>LABEL</GIVEN>
	<GIVEN>X743</GIVEN>
<TABLE>
1.0 
1.0 
1.0 
1.0 
1.0 
1.0 
1.0 
1.0 
</TABLE>
</DEFINITION>
<DEFINITION>
<FOR>X1518</FOR>
	<GIVEN>LABEL</GIVEN>
	<GIVEN>X743</GIVEN>
<TABLE>
1.0 
1.0 
1.0 
1.0 
1.0 
1.0 
1.0 
1.0 
</TABLE>
</DEFINITION>
<DEFINITION>
<FOR>X1561</FOR>
	<GIVEN>LABEL</GIVEN>
	<GIVEN>X1610</GIVEN>
<TABLE>
0.09090909090909091 0.8181818181818182 0.09090909090909091 
0.016286644951140065 0.9804560260586319 0.003257328990228013 
0.009009009009009009 0.9819819819819819 0.009009009009009009 
0.3333333333333333 0.3333333333333333 0.3333333333333333 
0.9233532934131736 0.07544910179640718 0.0011976047904191617 
0.02190362405416169 0.9769016328156113 0.0011947431302270011 
0.0038314176245210726 0.9310344827586207 0.06513409961685823 
0.001183431952662722 0.07928994082840236 0.919526627218935 
</TABLE>
</DEFINITION>
<DEFINITION>
<FOR>X1562</FOR>
	<GIVEN>LABEL</GIVEN>
	<GIVEN>X1561</GIVEN>
<TABLE>
0.42857142857142855 0.42857142857142855 0.14285714285714285 
0.06443914081145585 0.9331742243436754 0.002386634844868735 
0.3333333333333333 0.3333333333333333 0.3333333333333333 
0.9709794437726723 0.02781136638452237 0.0012091898428053204 
0.07893805309734513 0.9185840707964602 0.00247787610619469 
0.0012547051442910915 0.15181932245922208 0.8469259723964868 
</TABLE>
</DEFINITION>
<DEFINITION>
<FOR>X1563</FOR>
	<GIVEN>LABEL</GIVEN>
	<GIVEN>X1562</GIVEN>
<TABLE>
0.53125 0.40625 0.03125 0.03125 
0.022727272727272728 0.5681818181818182 0.4065656565656566 0.0025252525252525255 
0.25 0.25 0.25 0.25 
0.806420233463035 0.1916342412451362 9.727626459143969E-4 9.727626459143969E-4 
0.030291970802919708 0.7748175182481751 0.19233576642335767 0.0025547445255474453 
0.0014619883040935672 0.0014619883040935672 0.17105263157894737 0.8260233918128655 
</TABLE>
</DEFINITION>
<DEFINITION>
<FOR>X1610</FOR>
	<GIVEN>LABEL</GIVEN>
	<GIVEN>X1264</GIVEN>
<TABLE>
0.10714285714285714 0.8214285714285714 0.03571428571428571 0.03571428571428571 
0.02631578947368421 0.9210526315789473 0.04887218045112782 0.0037593984962406013 
0.007246376811594203 0.2826086956521739 0.7028985507246377 0.007246376811594203 
0.25 0.25 0.25 0.25 
0.9050802139037433 0.09224598930481283 0.001336898395721925 0.001336898395721925 
0.06512605042016807 0.9130252100840336 0.015546218487394958 0.0063025210084033615 
0.006880733944954129 0.5711009174311926 0.3646788990825688 0.05733944954128441 
0.0011210762331838565 0.023542600896860985 0.07286995515695067 0.9024663677130045 
</TABLE>
</DEFINITION>
<DEFINITION>
<FOR>X1646</FOR>
	<GIVEN>LABEL</GIVEN>
	<GIVEN>X1695</GIVEN>
<TABLE>
0.7 0.3 
0.0024154589371980675 0.9975845410628019 
0.8883495145631068 0.11165048543689321 
0.002875065342394145 0.9971249346576059 
</TABLE>
</DEFINITION>
<DEFINITION>
<FOR>X1666</FOR>
	<GIVEN>LABEL</GIVEN>
	<GIVEN>X1713</GIVEN>
<TABLE>
0.5 0.5 
0.015789473684210527 0.9842105263157894 
0.004347826086956522 0.9956521739130435 
0.9526315789473684 0.04736842105263158 
0.017169179229480736 0.9828308207705193 
6.720430107526882E-4 0.9993279569892473 
</TABLE>
</DEFINITION>
<DEFINITION>
<FOR>X1667</FOR>
	<GIVEN>LABEL</GIVEN>
	<GIVEN>X1808</GIVEN>
<TABLE>
0.7 0.3 
0.012295081967213115 0.9877049180327869 
0.00980392156862745 0.9901960784313726 
0.013888888888888888 0.9861111111111112 
0.8493377483443708 0.15066225165562913 
0.03177257525083612 0.9682274247491639 
0.004347826086956522 0.9956521739130435 
0.0016025641025641025 0.9983974358974359 
</TABLE>
</DEFINITION>
<DEFINITION>
<FOR>X1694</FOR>
	<GIVEN>LABEL</GIVEN>
	<GIVEN>X1808</GIVEN>
<TABLE>
0.6363636363636364 0.2727272727272727 0.09090909090909091 
0.02857142857142857 0.9510204081632653 0.02040816326530612 
0.009708737864077669 0.9611650485436893 0.02912621359223301 
0.0136986301369863 0.8356164383561644 0.1506849315068493 
0.771900826446281 0.2231404958677686 0.0049586776859504135 
0.07255098629220996 0.8729521899030425 0.054496823804747574 
0.004329004329004329 0.8268398268398268 0.16883116883116883 
0.008 0.456 0.536 
</TABLE>
</DEFINITION>
<DEFINITION>
<FOR>X1695</FOR>
	<GIVEN>LABEL</GIVEN>
	<GIVEN>X1744</GIVEN>
<TABLE>
0.6428571428571429 0.35714285714285715 
0.0024390243902439024 0.9975609756097561 
0.870919881305638 0.129080118694362 
0.008222811671087533 0.9917771883289125 
</TABLE>
</DEFINITION>
<DEFINITION>
<FOR>X1696</FOR>
	<GIVEN>LABEL</GIVEN>
	<GIVEN>X1409</GIVEN>
<TABLE>
0.04225352112676056 0.9436619718309859 0.014084507042253521 
0.01195219123505976 0.9840637450199203 0.00398406374501992 
0.009345794392523364 0.9813084112149533 0.009345794392523364 
0.3333333333333333 0.3333333333333333 0.3333333333333333 
0.8620689655172413 0.1310344827586207 0.006896551724137931 
0.1829465731246627 0.8165137614678899 5.396654074473826E-4 
0.001564945226917058 0.9874804381846636 0.010954616588419406 
0.00186219739292365 0.6089385474860335 0.3891992551210428 
</TABLE>
</DEFINITION>
<DEFINITION>
<FOR>X1713</FOR>
	<GIVEN>LABEL</GIVEN>
	<GIVEN>X1409</GIVEN>
<TABLE>
0.014084507042253521 0.5774647887323944 0.4084507042253521 
0.0199203187250996 0.5378486055776892 0.44223107569721115 
0.009345794392523364 0.14018691588785046 0.8504672897196262 
0.3333333333333333 0.3333333333333333 0.3333333333333333 
0.9310344827586207 0.06206896551724138 0.006896551724137931 
0.22611980572045332 0.7053426875337291 0.06853750674581759 
0.008868022952529996 0.5023474178403756 0.4887845592070944 
0.00186219739292365 0.20670391061452514 0.7914338919925512 
</TABLE>
</DEFINITION>
<DEFINITION>
<FOR>X1714</FOR>
	<GIVEN>LABEL</GIVEN>
	<GIVEN>X1667</GIVEN>
<TABLE>
0.5 0.5 
0.007246376811594203 0.9927536231884058 
0.8700657894736842 0.1299342105263158 
0.0044316996871741395 0.9955683003128258 
</TABLE>
</DEFINITION>
<DEFINITION>
<FOR>X1715</FOR>
	<GIVEN>LABEL</GIVEN>
	<GIVEN>X1762</GIVEN>
<TABLE>
0.9444444444444444 0.05555555555555555 
0.0024630541871921183 0.9975369458128078 
0.5 0.5 
0.9407894736842105 0.05921052631578947 
0.011700913242009132 0.9882990867579908 
0.005494505494505495 0.9945054945054945 
</TABLE>
</DEFINITION>
<DEFINITION>
<FOR>X1742</FOR>
	<GIVEN>LABEL</GIVEN>
	<GIVEN>X1792</GIVEN>
<TABLE>
0.875 0.125 
0.01201923076923077 0.9879807692307693 
0.9125 0.0875 
0.0378475798146241 0.962152420185376 
</TABLE>
</DEFINITION>
<DEFINITION>
<FOR>X1743</FOR>
	<GIVEN>LABEL</GIVEN>
	<GIVEN>X1694</GIVEN>
<TABLE>
0.6428571428571429 0.35714285714285715 
0.0025380710659898475 0.9974619289340102 
0.05555555555555555 0.9444444444444444 
0.8677325581395349 0.13226744186046513 
0.004037267080745342 0.9959627329192546 
0.0018587360594795538 0.9981412639405205 
</TABLE>
</DEFINITION>
<DEFINITION>
<FOR>X1744</FOR>
	<GIVEN>LABEL</GIVEN>
	<GIVEN>X1793</GIVEN>
<TABLE>
0.9 0.1 
0.012077294685990338 0.9879227053140096 
0.928343949044586 0.07165605095541401 
0.023846960167714884 0.9761530398322851 
</TABLE>
</DEFINITION>
<DEFINITION>
<FOR>X1760</FOR>
	<GIVEN>LABEL</GIVEN>
	<GIVEN>X1713</GIVEN>
<TABLE>
0.125 0.625 0.125 0.125 
0.005208333333333333 0.953125 0.036458333333333336 0.005208333333333333 
0.004310344827586207 0.11637931034482758 0.6767241379310345 0.2025862068965517 
0.5297202797202797 0.46678321678321677 0.0017482517482517483 0.0017482517482517483 
0.0029288702928870294 0.9878661087866109 0.008786610878661089 4.1841004184100416E-4 
6.711409395973154E-4 0.24899328859060402 0.3711409395973154 0.37919463087248323 
</TABLE>
</DEFINITION>
<DEFINITION>
<FOR>X1761</FOR>
	<GIVEN>LABEL</GIVEN>
	<GIVEN>X1714</GIVEN>
<TABLE>
0.375 0.625 
0.007211538461538462 0.9927884615384616 
0.8003663003663004 0.19963369963369965 
0.0017957927142124167 0.9982042072857876 
</TABLE>
</DEFINITION>
<DEFINITION>
<FOR>X1762</FOR>
	<GIVEN>LABEL</GIVEN>
	<GIVEN>X1808</GIVEN>
<TABLE>
0.8181818181818182 0.09090909090909091 0.09090909090909091 
0.036734693877551024 0.9591836734693877 0.004081632653061225 
0.009708737864077669 0.9805825242718447 0.009708737864077669 
0.0136986301369863 0.9726027397260274 0.0136986301369863 
0.947107438016529 0.0512396694214876 0.001652892561983471 
0.06252089602139753 0.9371447676362421 3.3433634236041456E-4 
0.004329004329004329 0.9913419913419913 0.004329004329004329 
0.0016 0.7088 0.2896 
</TABLE>
</DEFINITION>
<DEFINITION>
<FOR>X1763</FOR>
	<GIVEN>LABEL</GIVEN>
	<GIVEN>X1762</GIVEN>
<TABLE>
0.05555555555555555 0.9444444444444444 
0.0024630541871921183 0.9975369458128078 
0.5 0.5 
0.4039473684210526 0.5960526315789474 
0.0037100456621004564 0.9962899543378996 
0.005494505494505495 0.9945054945054945 
</TABLE>
</DEFINITION>
<DEFINITION>
<FOR>X1791</FOR>
	<GIVEN>LABEL</GIVEN>
	<GIVEN>X1742</GIVEN>
<TABLE>
0.75 0.25 
0.0024271844660194173 0.9975728155339806 
0.8860182370820668 0.11398176291793313 
0.00977284733227681 0.9902271526677232 
</TABLE>
</DEFINITION>
<DEFINITION>
<FOR>X1792</FOR>
	<GIVEN>LABEL</GIVEN>
	<GIVEN>X1743</GIVEN>
<TABLE>
0.7 0.3 
0.0024154589371980675 0.9975845410628019 
0.8803278688524591 0.11967213114754098 
0.005998956703182056 0.9940010432968179 
</TABLE>
</DEFINITION>
<DEFINITION>
<FOR>X1793</FOR>
	<GIVEN>LABEL</GIVEN>
	<GIVEN>X1694</GIVEN>
<TABLE>
0.6428571428571429 0.35714285714285715 
0.0025380710659898475 0.9974619289340102 
0.05555555555555555 0.9444444444444444 
0.8531976744186046 0.14680232558139536 
0.012732919254658385 0.9872670807453416 
0.0018587360594795538 0.9981412639405205 
</TABLE>
</DEFINITION>
<DEFINITION>
<FOR>X1808</FOR>
	<GIVEN>LABEL</GIVEN>
	<GIVEN>X1760</GIVEN>
<TABLE>
0.25 0.25 0.25 0.25 
0.041666666666666664 0.8472222222222222 0.09722222222222222 0.013888888888888888 
0.006024096385542169 0.29518072289156627 0.45180722891566266 0.2469879518072289 
0.02 0.26 0.14 0.58 
0.907051282051282 0.08653846153846154 0.003205128205128205 0.003205128205128205 
0.107 0.8516666666666667 0.021 0.02033333333333333 
0.001736111111111111 0.5399305555555556 0.1892361111111111 0.2690972222222222 
0.0017605633802816902 0.1742957746478873 0.10387323943661972 0.7200704225352113 
</TABLE>
</DEFINITION>
<DEFINITION>
<FOR>X1979</FOR>
	<GIVEN>LABEL</GIVEN>
	<GIVEN>X2027</GIVEN>
<TABLE>
0.8452380952380952 0.15476190476190477 
0.05588235294117647 0.9441176470588235 
0.9658018867924528 0.03419811320754717 
0.09842105263157895 0.901578947368421 
</TABLE>
</DEFINITION>
<DEFINITION>
<FOR>X2025</FOR>
	<GIVEN>LABEL</GIVEN>
	<GIVEN>X2026</GIVEN>
<TABLE>
0.8412698412698413 0.14285714285714285 0.015873015873015872 
0.05234159779614325 0.9118457300275482 0.03581267217630854 
0.9766374634960368 0.0229453483521068 4.1718815185648727E-4 
0.09028794533918985 0.7813567593948267 0.1283552952659834 
</TABLE>
</DEFINITION>
<DEFINITION>
<FOR>X2026</FOR>
	<GIVEN>LABEL</GIVEN>
	<GIVEN>X2027</GIVEN>
<TABLE>
0.7023809523809523 0.2976190476190476 
0.008823529411764706 0.9911764705882353 
0.9099842767295597 0.09001572327044025 
0.04263157894736842 0.9573684210526315 
</TABLE>
</DEFINITION>
<DEFINITION>
<FOR>X2027</FOR>
	<GIVEN>LABEL</GIVEN>
	<GIVEN>X2028</GIVEN>
<TABLE>
0.9186046511627907 0.08139534883720931 
0.014792899408284023 0.985207100591716 
0.9544374009508716 0.04556259904912837 
0.0703125 0.9296875 
</TABLE>
</DEFINITION>
<DEFINITION>
<FOR>X2028</FOR>
	<GIVEN>LABEL</GIVEN>
	<GIVEN>X2078</GIVEN>
<TABLE>
0.8295454545454546 0.17045454545454544 
0.03869047619047619 0.9613095238095238 
0.9374468085106383 0.0625531914893617 
0.15329512893982808 0.8467048710601719 
</TABLE>
</DEFINITION>
<DEFINITION>
<FOR>X2049</FOR>
	<GIVEN>LABEL</GIVEN>
	<GIVEN>X2095</GIVEN>
<TABLE>
0.010752688172043012 0.6344086021505376 0.3548387096774194 
0.003003003003003003 0.003003003003003003 0.993993993993994 
0.24343798250128668 0.5779722079258878 0.17858980957282553 
0.0011985617259288853 0.04115061925689173 0.9576508190171794 
</TABLE>
</DEFINITION>
<DEFINITION>
<FOR>X2050</FOR>
	<GIVEN>LABEL</GIVEN>
	<GIVEN>X2049</GIVEN>
<TABLE>
0.5 0.5 
