<?xml version="1.0"?>
<!-- DTD for the XMLBIF 0.3 format -->
<!DOCTYPE BIF [
	<!ELEMENT BIF ( NETWORK )*>
	      <!ATTLIST BIF VERSION CDATA #REQUIRED>
	<!ELEMENT NETWORK ( NAME, ( PROPERTY | VARIABLE | DEFINITION )* )>
	<!ELEMENT NAME (#PCDATA)>
	<!ELEMENT VARIABLE ( NAME, ( OUTCOME |  PROPERTY )* ) >
	      <!ATTLIST VARIABLE TYPE (nature|decision|utility) "nature">
	<!ELEMENT OUTCOME (#PCDATA)>
	<!ELEMENT DEFINITION ( FOR | GIVEN | TABLE | PROPERTY )* >
	<!ELEMENT FOR (#PCDATA)>
	<!ELEMENT GIVEN (#PCDATA)>
	<!ELEMENT TABLE (#PCDATA)>
	<!ELEMENT PROPERTY (#PCDATA)>
]>


<BIF VERSION="0.3">
<NETWORK>
<NAME>&apos;x_train_smpl_bin-weka.filters.unsupervised.instance.Randomize-S42-weka.filters.unsupervised.attribute.NumericToNominal-Rlast-weka.filters.unsupervised.attribute.Remove-R1-792,796-841,844-935,937-982,985-1030,1033-1073,1076-1086,1088-1120,1123-1134,1136-1168,1170-1215,1218,1221-1263,1265,1268,1271-1313,1315-1316,1319-1507,1510-1666,1668-1694,1697-1714,1717-1742,1746-1761,1763-2213,2215-2260,2265-2304-weka.filters.supervised.attribute.Discretize-Rfirst-last-precision6-weka.filters.unsupervised.attribute.ReplaceMissingValues&apos;</NAME>
<VARIABLE TYPE="nature">
	<NAME>X792</NAME>
	<OUTCOME>&apos;\&apos;(-inf-102.5]\&apos;&apos;</OUTCOME>
	<OUTCOME>&apos;\&apos;(102.5-230.5]\&apos;&apos;</OUTCOME>
	<OUTCOME>&apos;\&apos;(230.5-248.5]\&apos;&apos;</OUTCOME>
	<OUTCOME>&apos;\&apos;(248.5-253.5]\&apos;&apos;</OUTCOME>
	<OUTCOME>&apos;\&apos;(253.5-inf)\&apos;&apos;</OUTCOME>
	<PROPERTY>position = (196,384)</PROPERTY>
</VARIABLE>
<VARIABLE TYPE="nature">
	<NAME>X793</NAME>
	<OUTCOME>&apos;\&apos;(-inf-99.5]\&apos;&apos;</OUTCOME>
	<OUTCOME>&apos;\&apos;(99.5-230.5]\&apos;&apos;</OUTCOME>
	<OUTCOME>&apos;\&apos;(230.5-246.5]\&apos;&apos;</OUTCOME>
	<OUTCOME>&apos;\&apos;(246.5-252.5]\&apos;&apos;</OUTCOME>
	<OUTCOME>&apos;\&apos;(252.5-inf)\&apos;&apos;</OUTCOME>
	<PROPERTY>position = (0,480)</PROPERTY>
</VARIABLE>
<VARIABLE TYPE="nature">
	<NAME>X794</NAME>
	<OUTCOME>&apos;\&apos;(-inf-99.5]\&apos;&apos;</OUTCOME>
	<OUTCOME>&apos;\&apos;(99.5-225.5]\&apos;&apos;</OUTCOME>
	<OUTCOME>&apos;\&apos;(225.5-250.5]\&apos;&apos;</OUTCOME>
	<OUTCOME>&apos;\&apos;(250.5-inf)\&apos;&apos;</OUTCOME>
	<PROPERTY>position = (49,576)</PROPERTY>
</VARIABLE>
<VARIABLE TYPE="nature">
	<NAME>X841</NAME>
	<OUTCOME>&apos;\&apos;(-inf-97.5]\&apos;&apos;</OUTCOME>
	<OUTCOME>&apos;\&apos;(97.5-229.5]\&apos;&apos;</OUTCOME>
	<OUTCOME>&apos;\&apos;(229.5-251.5]\&apos;&apos;</OUTCOME>
	<OUTCOME>&apos;\&apos;(251.5-inf)\&apos;&apos;</OUTCOME>
	<PROPERTY>position = (441,672)</PROPERTY>
</VARIABLE>
<VARIABLE TYPE="nature">
	<NAME>X842</NAME>
	<OUTCOME>&apos;\&apos;(-inf-113.5]\&apos;&apos;</OUTCOME>
	<OUTCOME>&apos;\&apos;(113.5-248.5]\&apos;&apos;</OUTCOME>
	<OUTCOME>&apos;\&apos;(248.5-inf)\&apos;&apos;</OUTCOME>
	<PROPERTY>position = (1078,768)</PROPERTY>
</VARIABLE>
<VARIABLE TYPE="nature">
	<NAME>X935</NAME>
	<OUTCOME>&apos;\&apos;(-inf-239.5]\&apos;&apos;</OUTCOME>
	<OUTCOME>&apos;\&apos;(239.5-inf)\&apos;&apos;</OUTCOME>
	<PROPERTY>position = (49,480)</PROPERTY>
</VARIABLE>
<VARIABLE TYPE="nature">
	<NAME>X982</NAME>
	<OUTCOME>&apos;\&apos;(-inf-163.5]\&apos;&apos;</OUTCOME>
	<OUTCOME>&apos;\&apos;(163.5-inf)\&apos;&apos;</OUTCOME>
	<PROPERTY>position = (588,480)</PROPERTY>
</VARIABLE>
<VARIABLE TYPE="nature">
	<NAME>X983</NAME>
	<OUTCOME>&apos;\&apos;(-inf-208.5]\&apos;&apos;</OUTCOME>
	<OUTCOME>&apos;\&apos;(208.5-inf)\&apos;&apos;</OUTCOME>
	<PROPERTY>position = (392,384)</PROPERTY>
</VARIABLE>
<VARIABLE TYPE="nature">
	<NAME>X1030</NAME>
	<OUTCOME>&apos;\&apos;(-inf-169.5]\&apos;&apos;</OUTCOME>
	<OUTCOME>&apos;\&apos;(169.5-inf)\&apos;&apos;</OUTCOME>
	<PROPERTY>position = (686,576)</PROPERTY>
</VARIABLE>
<VARIABLE TYPE="nature">
	<NAME>X1031</NAME>
	<OUTCOME>&apos;\&apos;(-inf-190.5]\&apos;&apos;</OUTCOME>
	<OUTCOME>&apos;\&apos;(190.5-inf)\&apos;&apos;</OUTCOME>
	<PROPERTY>position = (392,288)</PROPERTY>
</VARIABLE>
<VARIABLE TYPE="nature">
	<NAME>X1073</NAME>
	<OUTCOME>&apos;\&apos;(-inf-86.5]\&apos;&apos;</OUTCOME>
	<OUTCOME>&apos;\&apos;(86.5-246.5]\&apos;&apos;</OUTCOME>
	<OUTCOME>&apos;\&apos;(246.5-inf)\&apos;&apos;</OUTCOME>
	<PROPERTY>position = (245,384)</PROPERTY>
</VARIABLE>
<VARIABLE TYPE="nature">
	<NAME>X1074</NAME>
	<OUTCOME>&apos;\&apos;(-inf-91.5]\&apos;&apos;</OUTCOME>
	<OUTCOME>&apos;\&apos;(91.5-246.5]\&apos;&apos;</OUTCOME>
	<OUTCOME>&apos;\&apos;(246.5-inf)\&apos;&apos;</OUTCOME>
	<PROPERTY>position = (294,480)</PROPERTY>
</VARIABLE>
<VARIABLE TYPE="nature">
	<NAME>X1086</NAME>
	<OUTCOME>&apos;\&apos;(-inf-102.5]\&apos;&apos;</OUTCOME>
	<OUTCOME>&apos;\&apos;(102.5-226.5]\&apos;&apos;</OUTCOME>
	<OUTCOME>&apos;\&apos;(226.5-244.5]\&apos;&apos;</OUTCOME>
	<OUTCOME>&apos;\&apos;(244.5-inf)\&apos;&apos;</OUTCOME>
	<PROPERTY>position = (441,576)</PROPERTY>
</VARIABLE>
<VARIABLE TYPE="nature">
	<NAME>X1120</NAME>
	<OUTCOME>&apos;\&apos;(-inf-102.5]\&apos;&apos;</OUTCOME>
	<OUTCOME>&apos;\&apos;(102.5-199.5]\&apos;&apos;</OUTCOME>
	<OUTCOME>&apos;\&apos;(199.5-247.5]\&apos;&apos;</OUTCOME>
	<OUTCOME>&apos;\&apos;(247.5-inf)\&apos;&apos;</OUTCOME>
	<PROPERTY>position = (196,288)</PROPERTY>
</VARIABLE>
<VARIABLE TYPE="nature">
	<NAME>X1121</NAME>
	<OUTCOME>&apos;\&apos;(-inf-96.5]\&apos;&apos;</OUTCOME>
	<OUTCOME>&apos;\&apos;(96.5-189.5]\&apos;&apos;</OUTCOME>
	<OUTCOME>&apos;\&apos;(189.5-246.5]\&apos;&apos;</OUTCOME>
	<OUTCOME>&apos;\&apos;(246.5-inf)\&apos;&apos;</OUTCOME>
	<PROPERTY>position = (1176,288)</PROPERTY>
</VARIABLE>
<VARIABLE TYPE="nature">
	<NAME>X1134</NAME>
	<OUTCOME>&apos;\&apos;(-inf-90.5]\&apos;&apos;</OUTCOME>
	<OUTCOME>&apos;\&apos;(90.5-222.5]\&apos;&apos;</OUTCOME>
	<OUTCOME>&apos;\&apos;(222.5-244.5]\&apos;&apos;</OUTCOME>
	<OUTCOME>&apos;\&apos;(244.5-inf)\&apos;&apos;</OUTCOME>
	<PROPERTY>position = (343,480)</PROPERTY>
</VARIABLE>
<VARIABLE TYPE="nature">
	<NAME>X1168</NAME>
	<OUTCOME>&apos;\&apos;(-inf-99.5]\&apos;&apos;</OUTCOME>
	<OUTCOME>&apos;\&apos;(99.5-196.5]\&apos;&apos;</OUTCOME>
	<OUTCOME>&apos;\&apos;(196.5-248.5]\&apos;&apos;</OUTCOME>
	<OUTCOME>&apos;\&apos;(248.5-inf)\&apos;&apos;</OUTCOME>
	<PROPERTY>position = (931,192)</PROPERTY>
</VARIABLE>
<VARIABLE TYPE="nature">
	<NAME>X1215</NAME>
	<OUTCOME>&apos;\&apos;(-inf-91.5]\&apos;&apos;</OUTCOME>
	<OUTCOME>&apos;\&apos;(91.5-194.5]\&apos;&apos;</OUTCOME>
	<OUTCOME>&apos;\&apos;(194.5-246.5]\&apos;&apos;</OUTCOME>
	<OUTCOME>&apos;\&apos;(246.5-inf)\&apos;&apos;</OUTCOME>
	<PROPERTY>position = (686,96)</PROPERTY>
</VARIABLE>
<VARIABLE TYPE="nature">
	<NAME>X1216</NAME>
	<OUTCOME>&apos;\&apos;(-inf-86.5]\&apos;&apos;</OUTCOME>
	<OUTCOME>&apos;\&apos;(86.5-193.5]\&apos;&apos;</OUTCOME>
	<OUTCOME>&apos;\&apos;(193.5-246.5]\&apos;&apos;</OUTCOME>
	<OUTCOME>&apos;\&apos;(246.5-inf)\&apos;&apos;</OUTCOME>
	<PROPERTY>position = (1372,288)</PROPERTY>
</VARIABLE>
<VARIABLE TYPE="nature">
	<NAME>X1218</NAME>
	<OUTCOME>&apos;\&apos;(-inf-211.5]\&apos;&apos;</OUTCOME>
	<OUTCOME>&apos;\&apos;(211.5-238.5]\&apos;&apos;</OUTCOME>
	<OUTCOME>&apos;\&apos;(238.5-inf)\&apos;&apos;</OUTCOME>
	<PROPERTY>position = (1029,480)</PROPERTY>
</VARIABLE>
<VARIABLE TYPE="nature">
	<NAME>X1219</NAME>
	<OUTCOME>&apos;\&apos;(-inf-235.5]\&apos;&apos;</OUTCOME>
	<OUTCOME>&apos;\&apos;(235.5-inf)\&apos;&apos;</OUTCOME>
	<PROPERTY>position = (980,576)</PROPERTY>
</VARIABLE>
<VARIABLE TYPE="nature">
	<NAME>X1263</NAME>
	<OUTCOME>&apos;\&apos;(-inf-85.5]\&apos;&apos;</OUTCOME>
	<OUTCOME>&apos;\&apos;(85.5-194.5]\&apos;&apos;</OUTCOME>
	<OUTCOME>&apos;\&apos;(194.5-246.5]\&apos;&apos;</OUTCOME>
	<OUTCOME>&apos;\&apos;(246.5-inf)\&apos;&apos;</OUTCOME>
	<PROPERTY>position = (441,192)</PROPERTY>
</VARIABLE>
<VARIABLE TYPE="nature">
	<NAME>X1265</NAME>
	<OUTCOME>&apos;\&apos;(-inf-25.5]\&apos;&apos;</OUTCOME>
	<OUTCOME>&apos;\&apos;(25.5-220.5]\&apos;&apos;</OUTCOME>
	<OUTCOME>&apos;\&apos;(220.5-235.5]\&apos;&apos;</OUTCOME>
	<OUTCOME>&apos;\&apos;(235.5-245.5]\&apos;&apos;</OUTCOME>
	<OUTCOME>&apos;\&apos;(245.5-inf)\&apos;&apos;</OUTCOME>
	<PROPERTY>position = (1078,384)</PROPERTY>
</VARIABLE>
<VARIABLE TYPE="nature">
	<NAME>X1266</NAME>
	<OUTCOME>&apos;\&apos;(-inf-27.5]\&apos;&apos;</OUTCOME>
	<OUTCOME>&apos;\&apos;(27.5-236.5]\&apos;&apos;</OUTCOME>
	<OUTCOME>&apos;\&apos;(236.5-inf)\&apos;&apos;</OUTCOME>
	<PROPERTY>position = (1372,480)</PROPERTY>
</VARIABLE>
<VARIABLE TYPE="nature">
	<NAME>X1268</NAME>
	<OUTCOME>&apos;\&apos;(-inf-209.5]\&apos;&apos;</OUTCOME>
	<OUTCOME>&apos;\&apos;(209.5-inf)\&apos;&apos;</OUTCOME>
	<PROPERTY>position = (1470,672)</PROPERTY>
</VARIABLE>
<VARIABLE TYPE="nature">
	<NAME>X1269</NAME>
	<OUTCOME>&apos;\&apos;(-inf-66.5]\&apos;&apos;</OUTCOME>
	<OUTCOME>&apos;\&apos;(66.5-inf)\&apos;&apos;</OUTCOME>
	<PROPERTY>position = (686,480)</PROPERTY>
</VARIABLE>
<VARIABLE TYPE="nature">
	<NAME>X1313</NAME>
	<OUTCOME>&apos;\&apos;(-inf-23.5]\&apos;&apos;</OUTCOME>
	<OUTCOME>&apos;\&apos;(23.5-47.5]\&apos;&apos;</OUTCOME>
	<OUTCOME>&apos;\&apos;(47.5-233.5]\&apos;&apos;</OUTCOME>
	<OUTCOME>&apos;\&apos;(233.5-inf)\&apos;&apos;</OUTCOME>
	<PROPERTY>position = (784,480)</PROPERTY>
</VARIABLE>
<VARIABLE TYPE="nature">
	<NAME>X1316</NAME>
	<OUTCOME>&apos;\&apos;(-inf-233.5]\&apos;&apos;</OUTCOME>
	<OUTCOME>&apos;\&apos;(233.5-inf)\&apos;&apos;</OUTCOME>
	<PROPERTY>position = (1421,576)</PROPERTY>
</VARIABLE>
<VARIABLE TYPE="nature">
	<NAME>X1317</NAME>
	<OUTCOME>&apos;\&apos;(-inf-88.5]\&apos;&apos;</OUTCOME>
	<OUTCOME>&apos;\&apos;(88.5-inf)\&apos;&apos;</OUTCOME>
	<PROPERTY>position = (735,384)</PROPERTY>
</VARIABLE>
<VARIABLE TYPE="nature">
	<NAME>X1507</NAME>
	<OUTCOME>&apos;\&apos;(-inf-197.5]\&apos;&apos;</OUTCOME>
	<OUTCOME>&apos;\&apos;(197.5-inf)\&apos;&apos;</OUTCOME>
	<PROPERTY>position = (1176,672)</PROPERTY>
</VARIABLE>
<VARIABLE TYPE="nature">
	<NAME>X1508</NAME>
	<OUTCOME>&apos;\&apos;(-inf-200.5]\&apos;&apos;</OUTCOME>
	<OUTCOME>&apos;\&apos;(200.5-inf)\&apos;&apos;</OUTCOME>
	<PROPERTY>position = (1078,576)</PROPERTY>
</VARIABLE>
<VARIABLE TYPE="nature">
	<NAME>X1666</NAME>
	<OUTCOME>&apos;\&apos;(-inf-36.5]\&apos;&apos;</OUTCOME>
	<OUTCOME>&apos;\&apos;(36.5-inf)\&apos;&apos;</OUTCOME>
	<PROPERTY>position = (2352,864)</PROPERTY>
</VARIABLE>
<VARIABLE TYPE="nature">
	<NAME>X1694</NAME>
	<OUTCOME>&apos;\&apos;(-inf-35.5]\&apos;&apos;</OUTCOME>
	<OUTCOME>&apos;\&apos;(35.5-144.5]\&apos;&apos;</OUTCOME>
	<OUTCOME>&apos;\&apos;(144.5-inf)\&apos;&apos;</OUTCOME>
	<PROPERTY>position = (1617,384)</PROPERTY>
</VARIABLE>
<VARIABLE TYPE="nature">
	<NAME>X1695</NAME>
	<OUTCOME>&apos;\&apos;(-inf-36.5]\&apos;&apos;</OUTCOME>
	<OUTCOME>&apos;\&apos;(36.5-inf)\&apos;&apos;</OUTCOME>
	<PROPERTY>position = (1225,576)</PROPERTY>
</VARIABLE>
<VARIABLE TYPE="nature">
	<NAME>X1714</NAME>
	<OUTCOME>&apos;\&apos;(-inf-32.5]\&apos;&apos;</OUTCOME>
	<OUTCOME>&apos;\&apos;(32.5-inf)\&apos;&apos;</OUTCOME>
	<PROPERTY>position = (2450,768)</PROPERTY>
</VARIABLE>
<VARIABLE TYPE="nature">
	<NAME>X1715</NAME>
	<OUTCOME>&apos;\&apos;(-inf-34.5]\&apos;&apos;</OUTCOME>
	<OUTCOME>&apos;\&apos;(34.5-inf)\&apos;&apos;</OUTCOME>
	<PROPERTY>position = (2401,672)</PROPERTY>
</VARIABLE>
<VARIABLE TYPE="nature">
	<NAME>X1742</NAME>
	<OUTCOME>&apos;\&apos;(-inf-34.5]\&apos;&apos;</OUTCOME>
	<OUTCOME>&apos;\&apos;(34.5-inf)\&apos;&apos;</OUTCOME>
	<PROPERTY>position = (2352,576)</PROPERTY>
</VARIABLE>
<VARIABLE TYPE="nature">
	<NAME>X1743</NAME>
	<OUTCOME>&apos;\&apos;(-inf-33.5]\&apos;&apos;</OUTCOME>
	<OUTCOME>&apos;\&apos;(33.5-inf)\&apos;&apos;</OUTCOME>
	<PROPERTY>position = (2352,480)</PROPERTY>
</VARIABLE>
<VARIABLE TYPE="nature">
	<NAME>X1744</NAME>
	<OUTCOME>&apos;\&apos;(-inf-36.5]\&apos;&apos;</OUTCOME>
	<OUTCOME>&apos;\&apos;(36.5-inf)\&apos;&apos;</OUTCOME>
	<PROPERTY>position = (1274,480)</PROPERTY>
</VARIABLE>
<VARIABLE TYPE="nature">
	<NAME>X1761</NAME>
	<OUTCOME>&apos;\&apos;(-inf-30.5]\&apos;&apos;</OUTCOME>
	<OUTCOME>&apos;\&apos;(30.5-inf)\&apos;&apos;</OUTCOME>
	<PROPERTY>position = (2499,864)</PROPERTY>
</VARIABLE>
<VARIABLE TYPE="nature">
	<NAME>X2213</NAME>
	<OUTCOME>&apos;\&apos;(-inf-46.5]\&apos;&apos;</OUTCOME>
	<OUTCOME>&apos;\&apos;(46.5-81.5]\&apos;&apos;</OUTCOME>
	<OUTCOME>&apos;\&apos;(81.5-164.5]\&apos;&apos;</OUTCOME>
	<OUTCOME>&apos;\&apos;(164.5-254.5]\&apos;&apos;</OUTCOME>
	<OUTCOME>&apos;\&apos;(254.5-inf)\&apos;&apos;</OUTCOME>
	<PROPERTY>position = (1666,480)</PROPERTY>
</VARIABLE>
<VARIABLE TYPE="nature">
	<NAME>X2260</NAME>
	<OUTCOME>&apos;\&apos;(-inf-74.5]\&apos;&apos;</OUTCOME>
	<OUTCOME>&apos;\&apos;(74.5-inf)\&apos;&apos;</OUTCOME>
	<PROPERTY>position = (1617,576)</PROPERTY>
</VARIABLE>
<VARIABLE TYPE="nature">
	<NAME>X2261</NAME>
	<OUTCOME>&apos;\&apos;(-inf-68.5]\&apos;&apos;</OUTCOME>
	<OUTCOME>&apos;\&apos;(68.5-239.5]\&apos;&apos;</OUTCOME>
	<OUTCOME>&apos;\&apos;(239.5-254.5]\&apos;&apos;</OUTCOME>
	<OUTCOME>&apos;\&apos;(254.5-inf)\&apos;&apos;</OUTCOME>
	<PROPERTY>position = (1813,672)</PROPERTY>
</VARIABLE>
<VARIABLE TYPE="nature">
	<NAME>X2262</NAME>
	<OUTCOME>&apos;\&apos;(-inf-72.5]\&apos;&apos;</OUTCOME>
	<OUTCOME>&apos;\&apos;(72.5-158.5]\&apos;&apos;</OUTCOME>
	<OUTCOME>&apos;\&apos;(158.5-254.5]\&apos;&apos;</OUTCOME>
	<OUTCOME>&apos;\&apos;(254.5-inf)\&apos;&apos;</OUTCOME>
	<PROPERTY>position = (1813,576)</PROPERTY>
</VARIABLE>
<VARIABLE TYPE="nature">
	<NAME>X2263</NAME>
	<OUTCOME>&apos;\&apos;(-inf-55.5]\&apos;&apos;</OUTCOME>
	<OUTCOME>&apos;\&apos;(55.5-81.5]\&apos;&apos;</OUTCOME>
	<OUTCOME>&apos;\&apos;(81.5-inf)\&apos;&apos;</OUTCOME>
	<PROPERTY>position = (1666,384)</PROPERTY>
</VARIABLE>
<VARIABLE TYPE="nature">
	<NAME>LABEL</NAME>
	<OUTCOME>0</OUTCOME>
	<OUTCOME>1</OUTCOME>
	<PROPERTY>position = (1127,0)</PROPERTY>
</VARIABLE>
<DEFINITION>
<FOR>X792</FOR>
	<GIVEN>LABEL</GIVEN>
	<GIVEN>X1120</GIVEN>
<TABLE>
0.2727272727272727 0.45454545454545453 0.09090909090909091 0.09090909090909091 0.09090909090909091 
0.0205761316872428 0.9423868312757202 0.02880658436213992 0.00411522633744856 0.00411522633744856 
0.0055248618784530384 0.35911602209944754 0.5911602209944752 0.03867403314917127 0.0055248618784530384 
0.2 0.2 0.2 0.2 0.2 
0.8561710398445093 0.14091350826044705 9.718172983479105E-4 9.718172983479105E-4 9.718172983479105E-4 
0.024414549078226207 0.9501743896362731 0.01245640259093174 0.002491280518186348 0.01046337817638266 
0.0016420361247947454 0.5960591133004927 0.1592775041050903 0.07717569786535304 0.16584564860426929 
0.001226993865030675 0.013496932515337423 0.03803680981595092 0.04785276073619632 0.8993865030674847 
</TABLE>
</DEFINITION>
<DEFINITION>
<FOR>X793</FOR>
	<GIVEN>LABEL</GIVEN>
	<GIVEN>X792</GIVEN>
<TABLE>
0.45454545454545453 0.2727272727272727 0.09090909090909091 0.09090909090909091 0.09090909090909091 
0.0033222591362126247 0.9667774086378738 0.023255813953488372 0.0033222591362126247 0.0033222591362126247 
0.008547008547008548 0.07692307692307693 0.8461538461538461 0.05982905982905983 0.008547008547008548 
0.09090909090909091 0.09090909090909091 0.2727272727272727 0.45454545454545453 0.09090909090909091 
0.2 0.2 0.2 0.2 0.2 
0.9528403001071811 0.04394426580921758 0.0010718113612004287 0.0010718113612004287 0.0010718113612004287 
0.013597033374536464 0.976926246394726 0.00865265760197775 4.1203131437989287E-4 4.1203131437989287E-4 
0.0064516129032258064 0.13548387096774195 0.6645161290322581 0.17419354838709677 0.01935483870967742 
0.010752688172043012 0.053763440860215055 0.20430107526881722 0.46236559139784944 0.26881720430107525 
0.0011668611435239206 0.003500583430571762 0.015169194865810968 0.040840140023337225 0.9393232205367561 
</TABLE>
</DEFINITION>
<DEFINITION>
<FOR>X794</FOR>
	<GIVEN>LABEL</GIVEN>
	<GIVEN>X793</GIVEN>
<TABLE>
0.375 0.375 0.125 0.125 
0.009868421052631578 0.9638157894736842 0.023026315789473683 0.003289473684210526 
0.00909090909090909 0.22727272727272727 0.7545454545454545 0.00909090909090909 
0.07142857142857142 0.07142857142857142 0.7857142857142857 0.07142857142857142 
0.25 0.25 0.25 0.25 
0.9816017316017316 0.016233766233766232 0.0010822510822510823 0.0010822510822510823 
0.04057377049180328 0.9397540983606557 0.019262295081967213 4.098360655737705E-4 
0.00641025641025641 0.26282051282051283 0.7115384615384616 0.019230769230769232 
0.009433962264150943 0.10377358490566038 0.5943396226415094 0.29245283018867924 
0.001199040767386091 0.025179856115107913 0.07793764988009592 0.89568345323741 
</TABLE>
</DEFINITION>
<DEFINITION>
<FOR>X841</FOR>
	<GIVEN>LABEL</GIVEN>
	<GIVEN>X794</GIVEN>
<TABLE>
0.625 0.125 0.125 0.125 
0.009316770186335404 0.953416149068323 0.034161490683229816 0.003105590062111801 
0.00980392156862745 0.08823529411764706 0.8921568627450981 0.00980392156862745 
0.25 0.25 0.25 0.25 
0.8660714285714286 0.13194444444444445 9.92063492063492E-4 9.92063492063492E-4 
0.01638655462184874 0.9684873949579832 0.01050420168067227 0.004621848739495798 
0.01048951048951049 0.32517482517482516 0.513986013986014 0.15034965034965034 
0.0012787723785166241 0.0319693094629156 0.07800511508951406 0.8887468030690537 
</TABLE>
</DEFINITION>
<DEFINITION>
<FOR>X842</FOR>
	<GIVEN>LABEL</GIVEN>
	<GIVEN>X841</GIVEN>
<TABLE>
0.7777777777777778 0.1111111111111111 0.1111111111111111 
0.21766561514195584 0.7791798107255521 0.0031545741324921135 
0.009708737864077669 0.9805825242718447 0.009708737864077669 
0.3333333333333333 0.3333333333333333 0.3333333333333333 
0.9934426229508196 0.00546448087431694 0.001092896174863388 
0.2696673189823875 0.7299412915851272 3.913894324853229E-4 
0.02145922746781116 0.9227467811158798 0.055793991416309016 
0.0013351134846461949 0.24432576769025366 0.7543391188251002 
</TABLE>
</DEFINITION>
<DEFINITION>
<FOR>X935</FOR>
	<GIVEN>LABEL</GIVEN>
	<GIVEN>X983</GIVEN>
<TABLE>
0.9976190476190476 0.002380952380952381 
0.75 0.25 
0.9965091299677766 0.003490870032223416 
0.1597222222222222 0.8402777777777778 
</TABLE>
</DEFINITION>
<DEFINITION>
<FOR>X982</FOR>
	<GIVEN>LABEL</GIVEN>
	<GIVEN>X983</GIVEN>
<TABLE>
0.9738095238095238 0.02619047619047619 
0.25 0.75 
0.9487110633727175 0.05128893662728249 
0.24027777777777778 0.7597222222222222 
</TABLE>
</DEFINITION>
<DEFINITION>
<FOR>X983</FOR>
	<GIVEN>LABEL</GIVEN>
	<GIVEN>X1031</GIVEN>
<TABLE>
0.9928571428571429 0.007142857142857143 
0.75 0.25 
0.994757174392936 0.0052428256070640175 
0.14512195121951219 0.8548780487804878 
</TABLE>
</DEFINITION>
<DEFINITION>
<FOR>X1030</FOR>
	<GIVEN>LABEL</GIVEN>
	<GIVEN>X982</GIVEN>
<TABLE>
0.9878048780487805 0.012195121951219513 
0.7857142857142857 0.21428571428571427 
0.9937938478143551 0.0062061521856449 
0.25338753387533874 0.7466124661246613 
</TABLE>
</DEFINITION>
<DEFINITION>
<FOR>X1031</FOR>
	<GIVEN>LABEL</GIVEN>
	<GIVEN>X1263</GIVEN>
<TABLE>
0.875 0.125 
0.9958333333333333 0.004166666666666667 
0.9831460674157303 0.016853932584269662 
0.5 0.5 
0.9987437185929648 0.001256281407035176 
0.9891406987724268 0.010859301227573183 
0.7935779816513762 0.20642201834862386 
0.24659090909090908 0.7534090909090909 
</TABLE>
</DEFINITION>
<DEFINITION>
<FOR>X1073</FOR>
	<GIVEN>LABEL</GIVEN>
	<GIVEN>X1120</GIVEN>
<TABLE>
0.1111111111111111 0.7777777777777778 0.1111111111111111 
0.012448132780082987 0.983402489626556 0.004149377593360996 
0.00558659217877095 0.9888268156424581 0.00558659217877095 
0.3333333333333333 0.3333333333333333 0.3333333333333333 
0.7916260954235638 0.2074001947419669 9.737098344693282E-4 
0.02344139650872818 0.9760598503740648 4.987531172069825E-4 
0.0016474464579901153 0.9472817133443163 0.051070840197693576 
0.0012300123001230013 0.16113161131611317 0.8376383763837638 
</TABLE>
</DEFINITION>
<DEFINITION>
<FOR>X1074</FOR>
	<GIVEN>LABEL</GIVEN>
	<GIVEN>X1073</GIVEN>
<TABLE>
0.6 0.2 0.2 
0.011876484560570071 0.9857482185273159 0.0023752969121140144 
0.3333333333333333 0.3333333333333333 0.3333333333333333 
0.9535423925667829 0.04529616724738676 0.0011614401858304297 
0.050434782608695654 0.9346086956521739 0.014956521739130434 
0.001402524544179523 0.1640953716690042 0.8345021037868162 
</TABLE>
</DEFINITION>
<DEFINITION>
<FOR>X1086</FOR>
	<GIVEN>LABEL</GIVEN>
	<GIVEN>X1134</GIVEN>
<TABLE>
0.5833333333333334 0.25 0.08333333333333333 0.08333333333333333 
0.04716981132075472 0.9465408805031447 0.0031446540880503146 0.0031446540880503146 
0.00980392156862745 0.20588235294117646 0.7745098039215687 0.00980392156862745 
0.25 0.25 0.25 0.25 
0.9932038834951457 0.0048543689320388345 9.70873786407767E-4 9.70873786407767E-4 
0.12059294871794872 0.8778044871794872 0.001201923076923077 4.0064102564102563E-4 
0.004761904761904762 0.38571428571428573 0.5571428571428572 0.05238095238095238 
0.001388888888888889 0.009722222222222222 0.0625 0.9263888888888889 
</TABLE>
</DEFINITION>
<DEFINITION>
<FOR>X1120</FOR>
	<GIVEN>LABEL</GIVEN>
	<GIVEN>X1168</GIVEN>
<TABLE>
0.625 0.125 0.125 0.125 
0.013392857142857142 0.9776785714285714 0.004464285714285714 0.004464285714285714 
0.005 0.105 0.885 0.005 
0.25 0.25 0.25 0.25 
0.9676409185803758 0.030271398747390398 0.0010438413361169101 0.0010438413361169101 
0.050050556117290194 0.9307381193124368 0.01769464105156724 0.0015166835187057635 
0.0014124293785310734 0.18785310734463276 0.7358757062146892 0.0748587570621469 
0.0012315270935960591 0.003694581280788177 0.06280788177339902 0.9322660098522167 
</TABLE>
</DEFINITION>
<DEFINITION>
<FOR>X1121</FOR>
	<GIVEN>LABEL</GIVEN>
	<GIVEN>X1168</GIVEN>
<TABLE>
0.125 0.625 0.125 0.125 
0.004464285714285714 0.9330357142857143 0.05803571428571429 0.004464285714285714 
0.005 0.055 0.935 0.005 
0.25 0.25 0.25 0.25 
0.8987473903966597 0.09916492693110647 0.0010438413361169101 0.0010438413361169101 
0.07836198179979778 0.8680485338725986 0.05308392315470172 5.055611729019212E-4 
0.007062146892655367 0.18785310734463276 0.7669491525423728 0.038135593220338986 
0.0012315270935960591 0.020935960591133004 0.17118226600985223 0.8066502463054187 
</TABLE>
</DEFINITION>
<DEFINITION>
<FOR>X1134</FOR>
	<GIVEN>LABEL</GIVEN>
	<GIVEN>X792</GIVEN>
<TABLE>
0.5 0.3 0.1 0.1 
0.016666666666666666 0.95 0.03 0.0033333333333333335 
0.008620689655172414 0.23275862068965517 0.75 0.008620689655172414 
0.1 0.3 0.5 0.1 
0.25 0.25 0.25 0.25 
0.8615879828326181 0.13626609442060086 0.001072961373390558 0.001072961373390558 
0.09192085737840065 0.8973619126133553 0.008656224237427864 0.002061005770816158 
0.006493506493506494 0.44805194805194803 0.3961038961038961 0.14935064935064934 
0.010869565217391304 0.25 0.358695652173913 0.3804347826086957 
0.0035046728971962616 0.11799065420560748 0.11098130841121495 0.7675233644859814 
</TABLE>
</DEFINITION>
<DEFINITION>
<FOR>X1168</FOR>
	<GIVEN>LABEL</GIVEN>
	<GIVEN>X1215</GIVEN>
<TABLE>
0.4166666666666667 0.4166666666666667 0.08333333333333333 0.08333333333333333 
0.004310344827586207 0.9094827586206896 0.08189655172413793 0.004310344827586207 
0.005319148936170213 0.03723404255319149 0.9521276595744681 0.005319148936170213 
0.25 0.25 0.25 0.25 
0.9183445190156599 0.07941834451901567 0.0011185682326621924 0.0011185682326621924 
0.06663376110562685 0.8899308983218164 0.041954590325765054 0.0014807502467917078 
0.0015625 0.1546875 0.7640625 0.0796875 
0.0011160714285714285 0.005580357142857143 0.1484375 0.8448660714285714 
</TABLE>
</DEFINITION>
<DEFINITION>
<FOR>X1215</FOR>
	<GIVEN>LABEL</GIVEN>
<TABLE>
0.02122641509433962 0.5400943396226415 0.4363207547169811 0.0023584905660377358 
0.2004950495049505 0.4552205220522052 0.14333933393339335 0.20094509450945094 
</TABLE>
</DEFINITION>
<DEFINITION>
<FOR>X1216</FOR>
	<GIVEN>LABEL</GIVEN>
	<GIVEN>X1168</GIVEN>
<TABLE>
0.375 0.375 0.125 0.125 
0.004464285714285714 0.9598214285714286 0.03125 0.004464285714285714 
0.005 0.055 0.935 0.005 
0.25 0.25 0.25 0.25 
0.7400835073068893 0.2578288100208768 0.0010438413361169101 0.0010438413361169101 
0.0025278058645096056 0.9570273003033367 0.038928210313447925 0.0015166835187057635 
0.0014124293785310734 0.046610169491525424 0.8601694915254238 0.09180790960451977 
0.0012315270935960591 0.0012315270935960591 0.02586206896551724 0.9716748768472906 
</TABLE>
</DEFINITION>
<DEFINITION>
<FOR>X1218</FOR>
	<GIVEN>LABEL</GIVEN>
	<GIVEN>X1265</GIVEN>
<TABLE>
0.8823529411764706 0.058823529411764705 0.058823529411764705 
0.9616613418530351 0.03514376996805112 0.003194888178913738 
0.0967741935483871 0.8924731182795699 0.010752688172043012 
0.1111111111111111 0.7777777777777778 0.1111111111111111 
0.3333333333333333 0.3333333333333333 0.3333333333333333 
0.7142857142857143 0.14285714285714285 0.14285714285714285 
0.9762701551566778 0.0191664131426833 0.004563431700638881 
0.5260115606936416 0.41040462427745666 0.06358381502890173 
0.5870967741935483 0.25161290322580643 0.16129032258064516 
0.23169267707082833 0.1644657863145258 0.6038415366146459 
</TABLE>
</DEFINITION>
<DEFINITION>
<FOR>X1219</FOR>
	<GIVEN>LABEL</GIVEN>
	<GIVEN>X1218</GIVEN>
<TABLE>
0.9969135802469136 0.0030864197530864196 
0.99 0.01 
0.5 0.5 
0.9991634132738427 8.365867261572784E-4 
0.9577922077922078 0.04220779220779221 
0.4583333333333333 0.5416666666666666 
</TABLE>
</DEFINITION>
<DEFINITION>
<FOR>X1263</FOR>
	<GIVEN>LABEL</GIVEN>
	<GIVEN>X1215</GIVEN>
<TABLE>
0.5833333333333334 0.25 0.08333333333333333 0.08333333333333333 
0.004310344827586207 0.9612068965517241 0.03017241379310345 0.004310344827586207 
0.005319148936170213 0.0797872340425532 0.9095744680851063 0.005319148936170213 
0.25 0.25 0.25 0.25 
0.8870246085011185 0.11073825503355705 0.0011185682326621924 0.0011185682326621924 
0.0014807502467917078 0.9787759131293189 0.0192497532082922 4.935834155972359E-4 
0.0015625 0.0578125 0.9046875 0.0359375 
0.0011160714285714285 0.0011160714285714285 0.041294642857142856 0.9564732142857143 
</TABLE>
</DEFINITION>
<DEFINITION>
<FOR>X1265</FOR>
	<GIVEN>LABEL</GIVEN>
	<GIVEN>X1216</GIVEN>
<TABLE>
0.14285714285714285 0.42857142857142855 0.14285714285714285 0.14285714285714285 0.14285714285714285 
0.06493506493506493 0.922077922077922 0.004329004329004329 0.004329004329004329 0.004329004329004329 
0.005076142131979695 0.49238578680203043 0.4619289340101523 0.03553299492385787 0.005076142131979695 
0.2 0.2 0.2 0.2 0.2 
0.0041841004184100415 0.9916317991631799 0.001394700139470014 0.001394700139470014 0.001394700139470014 
4.597701149425287E-4 0.9926436781609196 0.004137931034482759 0.0022988505747126436 4.597701149425287E-4 
0.004231311706629055 0.5684062059238364 0.21015514809590974 0.14809590973201692 0.0691114245416079 
0.0011641443538998836 0.017462165308498253 0.017462165308498253 0.05238649592549476 0.9115250291036089 
</TABLE>
</DEFINITION>
<DEFINITION>
<FOR>X1266</FOR>
	<GIVEN>LABEL</GIVEN>
	<GIVEN>X1265</GIVEN>
<TABLE>
0.6470588235294118 0.29411764705882354 0.058823529411764705 
0.06070287539936102 0.9361022364217252 0.003194888178913738 
0.010752688172043012 0.978494623655914 0.010752688172043012 
0.1111111111111111 0.7777777777777778 0.1111111111111111 
0.3333333333333333 0.3333333333333333 0.3333333333333333 
0.42857142857142855 0.42857142857142855 0.14285714285714285 
0.003346516580468512 0.9945238819592334 0.0021296014602981443 
0.005780346820809248 0.930635838150289 0.06358381502890173 
0.0064516129032258064 0.7806451612903226 0.2129032258064516 
0.0012004801920768306 0.09483793517406963 0.9039615846338536 
</TABLE>
</DEFINITION>
<DEFINITION>
<FOR>X1268</FOR>
	<GIVEN>LABEL</GIVEN>
	<GIVEN>X1316</GIVEN>
<TABLE>
0.9881516587677726 0.011848341232227487 
0.5 0.5 
0.9735490498202363 0.02645095017976374 
0.18363636363636363 0.8163636363636364 
</TABLE>
</DEFINITION>
<DEFINITION>
<FOR>X1269</FOR>
	<GIVEN>LABEL</GIVEN>
	<GIVEN>X1317</GIVEN>
<TABLE>
0.32142857142857145 0.6785714285714286 
0.03282828282828283 0.9671717171717171 
0.7520449897750511 0.24795501022494887 
0.02532154340836013 0.9746784565916399 
</TABLE>
</DEFINITION>
<DEFINITION>
<FOR>X1313</FOR>
	<GIVEN>LABEL</GIVEN>
	<GIVEN>X1265</GIVEN>
<TABLE>
0.6111111111111112 0.2777777777777778 0.05555555555555555 0.05555555555555555 
0.01592356687898089 0.1305732484076433 0.8503184713375797 0.0031847133757961785 
0.010638297872340425 0.010638297872340425 0.9680851063829787 0.010638297872340425 
0.1 0.1 0.7 0.1 
0.25 0.25 0.25 0.25 
0.125 0.625 0.125 0.125 
3.0413625304136254E-4 0.030717761557177616 0.9577250608272506 0.011253041362530414 
0.005747126436781609 0.005747126436781609 0.764367816091954 0.22413793103448276 
0.00641025641025641 0.00641025641025641 0.1987179487179487 0.7884615384615384 
0.001199040767386091 0.001199040767386091 0.025179856115107913 0.9724220623501199 
</TABLE>
</DEFINITION>
<DEFINITION>
<FOR>X1316</FOR>
	<GIVEN>LABEL</GIVEN>
	<GIVEN>X1266</GIVEN>
<TABLE>
0.9666666666666667 0.03333333333333333 
0.9974619289340102 0.0025380710659898475 
0.5 0.5 
0.9285714285714286 0.07142857142857142 
0.9942148760330578 0.005785123966942148 
0.3403990024937656 0.6596009975062345 
</TABLE>
</DEFINITION>
<DEFINITION>
<FOR>X1317</FOR>
	<GIVEN>LABEL</GIVEN>
	<GIVEN>X1121</GIVEN>
<TABLE>
0.5 0.5 
0.10267857142857142 0.8973214285714286 
0.025 0.975 
0.5 0.5 
0.9303921568627451 0.0696078431372549 
0.44540816326530613 0.5545918367346939 
0.13358778625954199 0.8664122137404581 
0.045454545454545456 0.9545454545454546 
</TABLE>
</DEFINITION>
<DEFINITION>
<FOR>X1507</FOR>
	<GIVEN>LABEL</GIVEN>
	<GIVEN>X1508</GIVEN>
<TABLE>
0.9976303317535545 0.002369668246445498 
0.5 0.5 
0.9867851994233542 0.013214800576645843 
0.21631205673758866 0.7836879432624113 
</TABLE>
</DEFINITION>
<DEFINITION>
<FOR>X1508</FOR>
	<GIVEN>LABEL</GIVEN>
	<GIVEN>X1218</GIVEN>
<TABLE>
0.9969135802469136 0.0030864197530864196 
0.99 0.01 
0.5 0.5 
0.9947016174010039 0.005298382598996096 
0.8993506493506493 0.10064935064935066 
0.5778985507246377 0.4221014492753623 
</TABLE>
</DEFINITION>
<DEFINITION>
<FOR>X1666</FOR>
	<GIVEN>LABEL</GIVEN>
	<GIVEN>X1714</GIVEN>
<TABLE>
0.375 0.625 
0.007211538461538462 0.9927884615384616 
0.7783882783882784 0.2216117216117216 
0.04079014879425346 0.9592098512057465 
</TABLE>
</DEFINITION>
<DEFINITION>
<FOR>X1694</FOR>
	<GIVEN>LABEL</GIVEN>
	<GIVEN>X1121</GIVEN>
<TABLE>
0.3333333333333333 0.3333333333333333 0.3333333333333333 
0.057777777777777775 0.9022222222222223 0.04 
0.004975124378109453 0.9502487562189055 0.04477611940298507 
0.3333333333333333 0.3333333333333333 0.3333333333333333 
0.3907933398628795 0.5984329089128305 0.010773751224289911 
0.14431412544620092 0.7807241203467619 0.07496175420703723 
0.008894536213468869 0.832274459974587 0.1588310038119441 
0.0014641288433382138 0.6222547584187409 0.3762811127379209 
</TABLE>
</DEFINITION>
<DEFINITION>
<FOR>X1695</FOR>
	<GIVEN>LABEL</GIVEN>
	<GIVEN>X1744</GIVEN>
<TABLE>
0.6428571428571429 0.35714285714285715 
0.0024390243902439024 0.9975609756097561 
0.870919881305638 0.129080118694362 
0.008222811671087533 0.9917771883289125 
</TABLE>
</DEFINITION>
<DEFINITION>
<FOR>X1714</FOR>
	<GIVEN>LABEL</GIVEN>
	<GIVEN>X1715</GIVEN>
<TABLE>
0.3888888888888889 0.6111111111111112 
0.0024630541871921183 0.9975369458128078 
0.6574074074074074 0.3425925925925926 
0.013286334056399132 0.9867136659436009 
</TABLE>
</DEFINITION>
<DEFINITION>
<FOR>X1715</FOR>
	<GIVEN>LABEL</GIVEN>
	<GIVEN>X1742</GIVEN>
<TABLE>
0.75 0.25 
0.021844660194174758 0.9781553398058253 
0.7917933130699089 0.20820668693009117 
0.06207078711040676 0.9379292128895932 
</TABLE>
</DEFINITION>
<DEFINITION>
<FOR>X1742</FOR>
	<GIVEN>LABEL</GIVEN>
	<GIVEN>X1743</GIVEN>
<TABLE>
0.7 0.3 
0.012077294685990338 0.9879227053140096 
0.8672131147540983 0.13278688524590163 
0.033646322378716745 0.9663536776212832 
</TABLE>
</DEFINITION>
<DEFINITION>
<FOR>X1743</FOR>
	<GIVEN>LABEL</GIVEN>
	<GIVEN>X1694</GIVEN>
<TABLE>
0.6428571428571429 0.35714285714285715 
0.0025380710659898475 0.9974619289340102 
0.05555555555555555 0.9444444444444444 
0.8677325581395349 0.13226744186046513 
0.004037267080745342 0.9959627329192546 
0.0018587360594795538 0.9981412639405205 
</TABLE>
</DEFINITION>
<DEFINITION>
<FOR>X1744</FOR>
	<GIVEN>LABEL</GIVEN>
	<GIVEN>X1694</GIVEN>
<TABLE>
0.7857142857142857 0.21428571428571427 
0.007614213197969543 0.9923857868020305 
0.05555555555555555 0.9444444444444444 
0.8386627906976745 0.1613372093023256 
0.03012422360248447 0.9698757763975155 
0.0018587360594795538 0.9981412639405205 
</TABLE>
</DEFINITION>
<DEFINITION>
<FOR>X1761</FOR>
	<GIVEN>LABEL</GIVEN>
	<GIVEN>X1714</GIVEN>
<TABLE>
0.375 0.625 
0.007211538461538462 0.9927884615384616 
0.8003663003663004 0.19963369963369965 
0.0017957927142124167 0.9982042072857876 
</TABLE>
</DEFINITION>
<DEFINITION>
<FOR>X2213</FOR>
	<GIVEN>LABEL</GIVEN>
	<GIVEN>X2263</GIVEN>
<TABLE>
0.3103448275862069 0.5172413793103449 0.10344827586206896 0.034482758620689655 0.034482758620689655 
0.04477611940298507 0.7014925373134329 0.22388059701492538 0.014925373134328358 0.014925373134328358 
0.0029498525073746312 0.038348082595870206 0.3805309734513274 0.5575221238938053 0.02064896755162242 
0.6949554896142434 0.2795252225519288 0.02195845697329377 0.002967359050445104 5.934718100890207E-4 
0.06045589692765114 0.8097125867195243 0.1199207135777998 0.008919722497522299 9.910802775024777E-4 
0.01192504258943782 0.13003975014196478 0.4287336740488359 0.28563316297558206 0.14366837024417944 
</TABLE>
</DEFINITION>
<DEFINITION>
<FOR>X2260</FOR>
	<GIVEN>LABEL</GIVEN>
	<GIVEN>X2213</GIVEN>
<TABLE>
0.9166666666666666 0.08333333333333333 
0.6621621621621622 0.33783783783783783 
0.00684931506849315 0.9931506849315068 
0.005263157894736842 0.9947368421052631 
0.125 0.875 
0.9912140575079872 0.00878594249201278 
0.8489445910290238 0.15105540897097625 
0.10197368421052631 0.8980263157894737 
0.001937984496124031 0.998062015503876 
0.003937007874015748 0.9960629921259843 
</TABLE>
</DEFINITION>
<DEFINITION>
<FOR>X2261</FOR>
	<GIVEN>LABEL</GIVEN>
	<GIVEN>X2262</GIVEN>
<TABLE>
0.7205882352941176 0.25 0.014705882352941176 0.014705882352941176 
0.006944444444444444 0.9791666666666666 0.006944444444444444 0.006944444444444444 
0.004761904761904762 0.6428571428571429 0.32857142857142857 0.023809523809523808 
0.07142857142857142 0.07142857142857142 0.35714285714285715 0.5 
0.9276 0.0716 4.0E-4 4.0E-4 
0.07142857142857142 0.9251290877796902 0.0025817555938037868 8.605851979345956E-4 
0.0018450184501845018 0.8099630996309963 0.15682656826568267 0.03136531365313653 
0.003968253968253968 0.011904761904761904 0.03571428571428571 0.9484126984126984 
</TABLE>
</DEFINITION>
<DEFINITION>
<FOR>X2262</FOR>
	<GIVEN>LABEL</GIVEN>
	<GIVEN>X2213</GIVEN>
<TABLE>
0.7857142857142857 0.07142857142857142 0.07142857142857142 0.07142857142857142 
0.618421052631579 0.32894736842105265 0.039473684210526314 0.013157894736842105 
0.060810810810810814 0.7635135135135135 0.16891891891891891 0.006756756756756757 
0.005208333333333333 0.026041666666666668 0.9322916666666666 0.036458333333333336 
0.1 0.1 0.3 0.5 
0.9896331738437002 0.008771929824561403 7.974481658692185E-4 7.974481658692185E-4 
0.7872200263504612 0.2075098814229249 0.00461133069828722 6.587615283267457E-4 
0.06673960612691467 0.8304157549234136 0.09737417943107221 0.005470459518599562 
0.005791505791505791 0.14864864864864866 0.8166023166023166 0.02895752895752896 
0.00390625 0.00390625 0.08984375 0.90234375 
</TABLE>
</DEFINITION>
<DEFINITION>
<FOR>X2263</FOR>
	<GIVEN>LABEL</GIVEN>
	<GIVEN>X1216</GIVEN>
<TABLE>
0.2 0.6 0.2 
0.048034934497816595 0.2052401746724891 0.7467248908296943 
0.07692307692307693 0.07692307692307693 0.8461538461538461 
0.3333333333333333 0.3333333333333333 0.3333333333333333 
0.6307692307692307 0.2111888111888112 0.15804195804195803 
0.36953520478601015 0.1854578923147722 0.4450069028992177 
0.13437057991513437 0.32956152758132956 0.536067892503536 
0.3908984830805134 0.25787631271878647 0.35122520420070014 
</TABLE>
</DEFINITION>
<DEFINITION>
<FOR>LABEL</FOR>
<TABLE>
0.08658988070752777 0.9134101192924723 
</TABLE>
</DEFINITION>
</NETWORK>
</BIF>
