<?xml version="1.0"?>
<!-- DTD for the XMLBIF 0.3 format -->
<!DOCTYPE BIF [
	<!ELEMENT BIF ( NETWORK )*>
	      <!ATTLIST BIF VERSION CDATA #REQUIRED>
	<!ELEMENT NETWORK ( NAME, ( PROPERTY | VARIABLE | DEFINITION )* )>
	<!ELEMENT NAME (#PCDATA)>
	<!ELEMENT VARIABLE ( NAME, ( OUTCOME |  PROPERTY )* ) >
	      <!ATTLIST VARIABLE TYPE (nature|decision|utility) "nature">
	<!ELEMENT OUTCOME (#PCDATA)>
	<!ELEMENT DEFINITION ( FOR | GIVEN | TABLE | PROPERTY )* >
	<!ELEMENT FOR (#PCDATA)>
	<!ELEMENT GIVEN (#PCDATA)>
	<!ELEMENT TABLE (#PCDATA)>
	<!ELEMENT PROPERTY (#PCDATA)>
]>


<BIF VERSION="0.3">
<NETWORK>
<NAME>&apos;x_train_smpl_bin-weka.filters.unsupervised.attribute.NumericToNominal-Rlast-weka.filters.unsupervised.instance.Randomize-S42-weka.filters.unsupervised.attribute.Remove-R1-744,747-792,797-841,844-935,937-982,985-1025,1028-1030,1033-1072,1076-1086,1088-1119,1123-1134,1136-1167,1170-1171,1173-1182,1184-1215,1221-1263,1265,1268,1271-1312,1319-1361,1363-1364,1367-1460,1463-1506,1510-1561,1564-1610,1612-1666,1669-1694,1697-1713,1717-1742,1746-1760,1764-2095,2098-2138,2142-2165,2167-2213,2217-2260,2266-2304-weka.filters.supervised.attribute.Discretize-Rfirst-last-precision6-weka.filters.unsupervised.attribute.ReplaceMissingValues&apos;</NAME>
<VARIABLE TYPE="nature">
	<NAME>X744</NAME>
	<OUTCOME>&apos;\&apos;(-inf-102.5]\&apos;&apos;</OUTCOME>
	<OUTCOME>&apos;\&apos;(102.5-226.5]\&apos;&apos;</OUTCOME>
	<OUTCOME>&apos;\&apos;(226.5-252.5]\&apos;&apos;</OUTCOME>
	<OUTCOME>&apos;\&apos;(252.5-inf)\&apos;&apos;</OUTCOME>
	<PROPERTY>position = (1225,384)</PROPERTY>
</VARIABLE>
<VARIABLE TYPE="nature">
	<NAME>X745</NAME>
	<OUTCOME>&apos;\&apos;(-inf-102.5]\&apos;&apos;</OUTCOME>
	<OUTCOME>&apos;\&apos;(102.5-232.5]\&apos;&apos;</OUTCOME>
	<OUTCOME>&apos;\&apos;(232.5-251.5]\&apos;&apos;</OUTCOME>
	<OUTCOME>&apos;\&apos;(251.5-inf)\&apos;&apos;</OUTCOME>
	<PROPERTY>position = (1617,480)</PROPERTY>
</VARIABLE>
<VARIABLE TYPE="nature">
	<NAME>X792</NAME>
	<OUTCOME>&apos;\&apos;(-inf-102.5]\&apos;&apos;</OUTCOME>
	<OUTCOME>&apos;\&apos;(102.5-230.5]\&apos;&apos;</OUTCOME>
	<OUTCOME>&apos;\&apos;(230.5-248.5]\&apos;&apos;</OUTCOME>
	<OUTCOME>&apos;\&apos;(248.5-253.5]\&apos;&apos;</OUTCOME>
	<OUTCOME>&apos;\&apos;(253.5-inf)\&apos;&apos;</OUTCOME>
	<PROPERTY>position = (1617,576)</PROPERTY>
</VARIABLE>
<VARIABLE TYPE="nature">
	<NAME>X793</NAME>
	<OUTCOME>&apos;\&apos;(-inf-99.5]\&apos;&apos;</OUTCOME>
	<OUTCOME>&apos;\&apos;(99.5-230.5]\&apos;&apos;</OUTCOME>
	<OUTCOME>&apos;\&apos;(230.5-246.5]\&apos;&apos;</OUTCOME>
	<OUTCOME>&apos;\&apos;(246.5-252.5]\&apos;&apos;</OUTCOME>
	<OUTCOME>&apos;\&apos;(252.5-inf)\&apos;&apos;</OUTCOME>
	<PROPERTY>position = (1372,672)</PROPERTY>
</VARIABLE>
<VARIABLE TYPE="nature">
	<NAME>X794</NAME>
	<OUTCOME>&apos;\&apos;(-inf-99.5]\&apos;&apos;</OUTCOME>
	<OUTCOME>&apos;\&apos;(99.5-225.5]\&apos;&apos;</OUTCOME>
	<OUTCOME>&apos;\&apos;(225.5-250.5]\&apos;&apos;</OUTCOME>
	<OUTCOME>&apos;\&apos;(250.5-inf)\&apos;&apos;</OUTCOME>
	<PROPERTY>position = (1372,768)</PROPERTY>
</VARIABLE>
<VARIABLE TYPE="nature">
	<NAME>X795</NAME>
	<OUTCOME>&apos;\&apos;(-inf-113.5]\&apos;&apos;</OUTCOME>
	<OUTCOME>&apos;\&apos;(113.5-248.5]\&apos;&apos;</OUTCOME>
	<OUTCOME>&apos;\&apos;(248.5-inf)\&apos;&apos;</OUTCOME>
	<PROPERTY>position = (686,864)</PROPERTY>
</VARIABLE>
<VARIABLE TYPE="nature">
	<NAME>X841</NAME>
	<OUTCOME>&apos;\&apos;(-inf-97.5]\&apos;&apos;</OUTCOME>
	<OUTCOME>&apos;\&apos;(97.5-229.5]\&apos;&apos;</OUTCOME>
	<OUTCOME>&apos;\&apos;(229.5-251.5]\&apos;&apos;</OUTCOME>
	<OUTCOME>&apos;\&apos;(251.5-inf)\&apos;&apos;</OUTCOME>
	<PROPERTY>position = (1470,864)</PROPERTY>
</VARIABLE>
<VARIABLE TYPE="nature">
	<NAME>X842</NAME>
	<OUTCOME>&apos;\&apos;(-inf-113.5]\&apos;&apos;</OUTCOME>
	<OUTCOME>&apos;\&apos;(113.5-248.5]\&apos;&apos;</OUTCOME>
	<OUTCOME>&apos;\&apos;(248.5-inf)\&apos;&apos;</OUTCOME>
	<PROPERTY>position = (1176,960)</PROPERTY>
</VARIABLE>
<VARIABLE TYPE="nature">
	<NAME>X935</NAME>
	<OUTCOME>&apos;\&apos;(-inf-239.5]\&apos;&apos;</OUTCOME>
	<OUTCOME>&apos;\&apos;(239.5-inf)\&apos;&apos;</OUTCOME>
	<PROPERTY>position = (343,576)</PROPERTY>
</VARIABLE>
<VARIABLE TYPE="nature">
	<NAME>X982</NAME>
	<OUTCOME>&apos;\&apos;(-inf-163.5]\&apos;&apos;</OUTCOME>
	<OUTCOME>&apos;\&apos;(163.5-inf)\&apos;&apos;</OUTCOME>
	<PROPERTY>position = (686,576)</PROPERTY>
</VARIABLE>
<VARIABLE TYPE="nature">
	<NAME>X983</NAME>
	<OUTCOME>&apos;\&apos;(-inf-208.5]\&apos;&apos;</OUTCOME>
	<OUTCOME>&apos;\&apos;(208.5-inf)\&apos;&apos;</OUTCOME>
	<PROPERTY>position = (588,480)</PROPERTY>
</VARIABLE>
<VARIABLE TYPE="nature">
	<NAME>X1025</NAME>
	<OUTCOME>&apos;\&apos;(-inf-73.5]\&apos;&apos;</OUTCOME>
	<OUTCOME>&apos;\&apos;(73.5-246.5]\&apos;&apos;</OUTCOME>
	<OUTCOME>&apos;\&apos;(246.5-inf)\&apos;&apos;</OUTCOME>
	<PROPERTY>position = (196,480)</PROPERTY>
</VARIABLE>
<VARIABLE TYPE="nature">
	<NAME>X1026</NAME>
	<OUTCOME>&apos;\&apos;(-inf-99.5]\&apos;&apos;</OUTCOME>
	<OUTCOME>&apos;\&apos;(99.5-246.5]\&apos;&apos;</OUTCOME>
	<OUTCOME>&apos;\&apos;(246.5-inf)\&apos;&apos;</OUTCOME>
	<PROPERTY>position = (245,480)</PROPERTY>
</VARIABLE>
<VARIABLE TYPE="nature">
	<NAME>X1030</NAME>
	<OUTCOME>&apos;\&apos;(-inf-169.5]\&apos;&apos;</OUTCOME>
	<OUTCOME>&apos;\&apos;(169.5-inf)\&apos;&apos;</OUTCOME>
	<PROPERTY>position = (784,672)</PROPERTY>
</VARIABLE>
<VARIABLE TYPE="nature">
	<NAME>X1031</NAME>
	<OUTCOME>&apos;\&apos;(-inf-190.5]\&apos;&apos;</OUTCOME>
	<OUTCOME>&apos;\&apos;(190.5-inf)\&apos;&apos;</OUTCOME>
	<PROPERTY>position = (539,384)</PROPERTY>
</VARIABLE>
<VARIABLE TYPE="nature">
	<NAME>X1072</NAME>
	<OUTCOME>&apos;\&apos;(-inf-91.5]\&apos;&apos;</OUTCOME>
	<OUTCOME>&apos;\&apos;(91.5-247.5]\&apos;&apos;</OUTCOME>
	<OUTCOME>&apos;\&apos;(247.5-inf)\&apos;&apos;</OUTCOME>
	<PROPERTY>position = (98,384)</PROPERTY>
</VARIABLE>
<VARIABLE TYPE="nature">
	<NAME>X1073</NAME>
	<OUTCOME>&apos;\&apos;(-inf-86.5]\&apos;&apos;</OUTCOME>
	<OUTCOME>&apos;\&apos;(86.5-246.5]\&apos;&apos;</OUTCOME>
	<OUTCOME>&apos;\&apos;(246.5-inf)\&apos;&apos;</OUTCOME>
	<PROPERTY>position = (294,384)</PROPERTY>
</VARIABLE>
<VARIABLE TYPE="nature">
	<NAME>X1074</NAME>
	<OUTCOME>&apos;\&apos;(-inf-91.5]\&apos;&apos;</OUTCOME>
	<OUTCOME>&apos;\&apos;(91.5-246.5]\&apos;&apos;</OUTCOME>
	<OUTCOME>&apos;\&apos;(246.5-inf)\&apos;&apos;</OUTCOME>
	<PROPERTY>position = (343,480)</PROPERTY>
</VARIABLE>
<VARIABLE TYPE="nature">
	<NAME>X1086</NAME>
	<OUTCOME>&apos;\&apos;(-inf-102.5]\&apos;&apos;</OUTCOME>
	<OUTCOME>&apos;\&apos;(102.5-226.5]\&apos;&apos;</OUTCOME>
	<OUTCOME>&apos;\&apos;(226.5-244.5]\&apos;&apos;</OUTCOME>
	<OUTCOME>&apos;\&apos;(244.5-inf)\&apos;&apos;</OUTCOME>
	<PROPERTY>position = (1078,768)</PROPERTY>
</VARIABLE>
<VARIABLE TYPE="nature">
	<NAME>X1119</NAME>
	<OUTCOME>&apos;\&apos;(-inf-92.5]\&apos;&apos;</OUTCOME>
	<OUTCOME>&apos;\&apos;(92.5-200.5]\&apos;&apos;</OUTCOME>
	<OUTCOME>&apos;\&apos;(200.5-248.5]\&apos;&apos;</OUTCOME>
	<OUTCOME>&apos;\&apos;(248.5-inf)\&apos;&apos;</OUTCOME>
	<PROPERTY>position = (686,192)</PROPERTY>
</VARIABLE>
<VARIABLE TYPE="nature">
	<NAME>X1120</NAME>
	<OUTCOME>&apos;\&apos;(-inf-102.5]\&apos;&apos;</OUTCOME>
	<OUTCOME>&apos;\&apos;(102.5-199.5]\&apos;&apos;</OUTCOME>
	<OUTCOME>&apos;\&apos;(199.5-247.5]\&apos;&apos;</OUTCOME>
	<OUTCOME>&apos;\&apos;(247.5-inf)\&apos;&apos;</OUTCOME>
	<PROPERTY>position = (686,288)</PROPERTY>
</VARIABLE>
<VARIABLE TYPE="nature">
	<NAME>X1121</NAME>
	<OUTCOME>&apos;\&apos;(-inf-96.5]\&apos;&apos;</OUTCOME>
	<OUTCOME>&apos;\&apos;(96.5-189.5]\&apos;&apos;</OUTCOME>
	<OUTCOME>&apos;\&apos;(189.5-246.5]\&apos;&apos;</OUTCOME>
	<OUTCOME>&apos;\&apos;(246.5-inf)\&apos;&apos;</OUTCOME>
	<PROPERTY>position = (539,480)</PROPERTY>
</VARIABLE>
<VARIABLE TYPE="nature">
	<NAME>X1134</NAME>
	<OUTCOME>&apos;\&apos;(-inf-90.5]\&apos;&apos;</OUTCOME>
	<OUTCOME>&apos;\&apos;(90.5-222.5]\&apos;&apos;</OUTCOME>
	<OUTCOME>&apos;\&apos;(222.5-244.5]\&apos;&apos;</OUTCOME>
	<OUTCOME>&apos;\&apos;(244.5-inf)\&apos;&apos;</OUTCOME>
	<PROPERTY>position = (1274,672)</PROPERTY>
</VARIABLE>
<VARIABLE TYPE="nature">
	<NAME>X1167</NAME>
	<OUTCOME>&apos;\&apos;(-inf-92.5]\&apos;&apos;</OUTCOME>
	<OUTCOME>&apos;\&apos;(92.5-193.5]\&apos;&apos;</OUTCOME>
	<OUTCOME>&apos;\&apos;(193.5-248.5]\&apos;&apos;</OUTCOME>
	<OUTCOME>&apos;\&apos;(248.5-inf)\&apos;&apos;</OUTCOME>
	<PROPERTY>position = (588,96)</PROPERTY>
</VARIABLE>
<VARIABLE TYPE="nature">
	<NAME>X1168</NAME>
	<OUTCOME>&apos;\&apos;(-inf-99.5]\&apos;&apos;</OUTCOME>
	<OUTCOME>&apos;\&apos;(99.5-196.5]\&apos;&apos;</OUTCOME>
	<OUTCOME>&apos;\&apos;(196.5-248.5]\&apos;&apos;</OUTCOME>
	<OUTCOME>&apos;\&apos;(248.5-inf)\&apos;&apos;</OUTCOME>
	<PROPERTY>position = (1029,384)</PROPERTY>
</VARIABLE>
<VARIABLE TYPE="nature">
	<NAME>X1171</NAME>
	<OUTCOME>&apos;\&apos;(-inf-102.5]\&apos;&apos;</OUTCOME>
	<OUTCOME>&apos;\&apos;(102.5-236.5]\&apos;&apos;</OUTCOME>
	<OUTCOME>&apos;\&apos;(236.5-inf)\&apos;&apos;</OUTCOME>
	<PROPERTY>position = (2450,1152)</PROPERTY>
</VARIABLE>
<VARIABLE TYPE="nature">
	<NAME>X1182</NAME>
	<OUTCOME>&apos;\&apos;(-inf-87.5]\&apos;&apos;</OUTCOME>
	<OUTCOME>&apos;\&apos;(87.5-226.5]\&apos;&apos;</OUTCOME>
	<OUTCOME>&apos;\&apos;(226.5-245.5]\&apos;&apos;</OUTCOME>
	<OUTCOME>&apos;\&apos;(245.5-inf)\&apos;&apos;</OUTCOME>
	<PROPERTY>position = (1274,768)</PROPERTY>
</VARIABLE>
<VARIABLE TYPE="nature">
	<NAME>X1215</NAME>
	<OUTCOME>&apos;\&apos;(-inf-91.5]\&apos;&apos;</OUTCOME>
	<OUTCOME>&apos;\&apos;(91.5-194.5]\&apos;&apos;</OUTCOME>
	<OUTCOME>&apos;\&apos;(194.5-246.5]\&apos;&apos;</OUTCOME>
	<OUTCOME>&apos;\&apos;(246.5-inf)\&apos;&apos;</OUTCOME>
	<PROPERTY>position = (441,192)</PROPERTY>
</VARIABLE>
<VARIABLE TYPE="nature">
	<NAME>X1216</NAME>
	<OUTCOME>&apos;\&apos;(-inf-86.5]\&apos;&apos;</OUTCOME>
	<OUTCOME>&apos;\&apos;(86.5-193.5]\&apos;&apos;</OUTCOME>
	<OUTCOME>&apos;\&apos;(193.5-246.5]\&apos;&apos;</OUTCOME>
	<OUTCOME>&apos;\&apos;(246.5-inf)\&apos;&apos;</OUTCOME>
	<PROPERTY>position = (980,480)</PROPERTY>
</VARIABLE>
<VARIABLE TYPE="nature">
	<NAME>X1217</NAME>
	<OUTCOME>&apos;\&apos;(-inf-104.5]\&apos;&apos;</OUTCOME>
	<OUTCOME>&apos;\&apos;(104.5-223.5]\&apos;&apos;</OUTCOME>
	<OUTCOME>&apos;\&apos;(223.5-244.5]\&apos;&apos;</OUTCOME>
	<OUTCOME>&apos;\&apos;(244.5-inf)\&apos;&apos;</OUTCOME>
	<PROPERTY>position = (1470,480)</PROPERTY>
</VARIABLE>
<VARIABLE TYPE="nature">
	<NAME>X1218</NAME>
	<OUTCOME>&apos;\&apos;(-inf-211.5]\&apos;&apos;</OUTCOME>
	<OUTCOME>&apos;\&apos;(211.5-238.5]\&apos;&apos;</OUTCOME>
	<OUTCOME>&apos;\&apos;(238.5-inf)\&apos;&apos;</OUTCOME>
	<PROPERTY>position = (1470,576)</PROPERTY>
</VARIABLE>
<VARIABLE TYPE="nature">
	<NAME>X1219</NAME>
	<OUTCOME>&apos;\&apos;(-inf-235.5]\&apos;&apos;</OUTCOME>
	<OUTCOME>&apos;\&apos;(235.5-inf)\&apos;&apos;</OUTCOME>
	<PROPERTY>position = (1225,672)</PROPERTY>
</VARIABLE>
<VARIABLE TYPE="nature">
	<NAME>X1263</NAME>
	<OUTCOME>&apos;\&apos;(-inf-85.5]\&apos;&apos;</OUTCOME>
	<OUTCOME>&apos;\&apos;(85.5-194.5]\&apos;&apos;</OUTCOME>
	<OUTCOME>&apos;\&apos;(194.5-246.5]\&apos;&apos;</OUTCOME>
	<OUTCOME>&apos;\&apos;(246.5-inf)\&apos;&apos;</OUTCOME>
	<PROPERTY>position = (441,288)</PROPERTY>
</VARIABLE>
<VARIABLE TYPE="nature">
	<NAME>X1265</NAME>
	<OUTCOME>&apos;\&apos;(-inf-25.5]\&apos;&apos;</OUTCOME>
	<OUTCOME>&apos;\&apos;(25.5-220.5]\&apos;&apos;</OUTCOME>
	<OUTCOME>&apos;\&apos;(220.5-235.5]\&apos;&apos;</OUTCOME>
	<OUTCOME>&apos;\&apos;(235.5-245.5]\&apos;&apos;</OUTCOME>
	<OUTCOME>&apos;\&apos;(245.5-inf)\&apos;&apos;</OUTCOME>
	<PROPERTY>position = (1029,576)</PROPERTY>
</VARIABLE>
<VARIABLE TYPE="nature">
	<NAME>X1266</NAME>
	<OUTCOME>&apos;\&apos;(-inf-27.5]\&apos;&apos;</OUTCOME>
	<OUTCOME>&apos;\&apos;(27.5-236.5]\&apos;&apos;</OUTCOME>
	<OUTCOME>&apos;\&apos;(236.5-inf)\&apos;&apos;</OUTCOME>
	<PROPERTY>position = (1078,672)</PROPERTY>
</VARIABLE>
<VARIABLE TYPE="nature">
	<NAME>X1268</NAME>
	<OUTCOME>&apos;\&apos;(-inf-209.5]\&apos;&apos;</OUTCOME>
	<OUTCOME>&apos;\&apos;(209.5-inf)\&apos;&apos;</OUTCOME>
	<PROPERTY>position = (2009,1056)</PROPERTY>
</VARIABLE>
<VARIABLE TYPE="nature">
	<NAME>X1269</NAME>
	<OUTCOME>&apos;\&apos;(-inf-66.5]\&apos;&apos;</OUTCOME>
	<OUTCOME>&apos;\&apos;(66.5-inf)\&apos;&apos;</OUTCOME>
	<PROPERTY>position = (2303,1248)</PROPERTY>
</VARIABLE>
<VARIABLE TYPE="nature">
	<NAME>X1312</NAME>
	<OUTCOME>&apos;\&apos;(-inf-30]\&apos;&apos;</OUTCOME>
	<OUTCOME>&apos;\&apos;(30-205.5]\&apos;&apos;</OUTCOME>
	<OUTCOME>&apos;\&apos;(205.5-246.5]\&apos;&apos;</OUTCOME>
	<OUTCOME>&apos;\&apos;(246.5-inf)\&apos;&apos;</OUTCOME>
	<PROPERTY>position = (245,384)</PROPERTY>
</VARIABLE>
<VARIABLE TYPE="nature">
	<NAME>X1313</NAME>
	<OUTCOME>&apos;\&apos;(-inf-23.5]\&apos;&apos;</OUTCOME>
	<OUTCOME>&apos;\&apos;(23.5-47.5]\&apos;&apos;</OUTCOME>
	<OUTCOME>&apos;\&apos;(47.5-233.5]\&apos;&apos;</OUTCOME>
	<OUTCOME>&apos;\&apos;(233.5-inf)\&apos;&apos;</OUTCOME>
	<PROPERTY>position = (2107,864)</PROPERTY>
</VARIABLE>
<VARIABLE TYPE="nature">
	<NAME>X1314</NAME>
	<OUTCOME>&apos;\&apos;(-inf-28.5]\&apos;&apos;</OUTCOME>
	<OUTCOME>&apos;\&apos;(28.5-106.5]\&apos;&apos;</OUTCOME>
	<OUTCOME>&apos;\&apos;(106.5-231.5]\&apos;&apos;</OUTCOME>
	<OUTCOME>&apos;\&apos;(231.5-inf)\&apos;&apos;</OUTCOME>
	<PROPERTY>position = (2352,768)</PROPERTY>
</VARIABLE>
<VARIABLE TYPE="nature">
	<NAME>X1315</NAME>
	<OUTCOME>&apos;\&apos;(-inf-104.5]\&apos;&apos;</OUTCOME>
	<OUTCOME>&apos;\&apos;(104.5-134.5]\&apos;&apos;</OUTCOME>
	<OUTCOME>&apos;\&apos;(134.5-234.5]\&apos;&apos;</OUTCOME>
	<OUTCOME>&apos;\&apos;(234.5-inf)\&apos;&apos;</OUTCOME>
	<PROPERTY>position = (2646,864)</PROPERTY>
</VARIABLE>
<VARIABLE TYPE="nature">
	<NAME>X1316</NAME>
	<OUTCOME>&apos;\&apos;(-inf-233.5]\&apos;&apos;</OUTCOME>
	<OUTCOME>&apos;\&apos;(233.5-inf)\&apos;&apos;</OUTCOME>
	<PROPERTY>position = (1862,960)</PROPERTY>
</VARIABLE>
<VARIABLE TYPE="nature">
	<NAME>X1317</NAME>
	<OUTCOME>&apos;\&apos;(-inf-88.5]\&apos;&apos;</OUTCOME>
	<OUTCOME>&apos;\&apos;(88.5-inf)\&apos;&apos;</OUTCOME>
	<PROPERTY>position = (2352,1152)</PROPERTY>
</VARIABLE>
<VARIABLE TYPE="nature">
	<NAME>X1361</NAME>
	<OUTCOME>&apos;\&apos;(-inf-43.5]\&apos;&apos;</OUTCOME>
	<OUTCOME>&apos;\&apos;(43.5-232.5]\&apos;&apos;</OUTCOME>
	<OUTCOME>&apos;\&apos;(232.5-inf)\&apos;&apos;</OUTCOME>
	<PROPERTY>position = (2107,960)</PROPERTY>
</VARIABLE>
<VARIABLE TYPE="nature">
	<NAME>X1364</NAME>
	<OUTCOME>&apos;\&apos;(-inf-74.5]\&apos;&apos;</OUTCOME>
	<OUTCOME>&apos;\&apos;(74.5-114.5]\&apos;&apos;</OUTCOME>
	<OUTCOME>&apos;\&apos;(114.5-240.5]\&apos;&apos;</OUTCOME>
	<OUTCOME>&apos;\&apos;(240.5-inf)\&apos;&apos;</OUTCOME>
	<PROPERTY>position = (2401,960)</PROPERTY>
</VARIABLE>
<VARIABLE TYPE="nature">
	<NAME>X1365</NAME>
	<OUTCOME>&apos;\&apos;(-inf-64.5]\&apos;&apos;</OUTCOME>
	<OUTCOME>&apos;\&apos;(64.5-95.5]\&apos;&apos;</OUTCOME>
	<OUTCOME>&apos;\&apos;(95.5-241.5]\&apos;&apos;</OUTCOME>
	<OUTCOME>&apos;\&apos;(241.5-inf)\&apos;&apos;</OUTCOME>
	<PROPERTY>position = (2401,1056)</PROPERTY>
</VARIABLE>
<VARIABLE TYPE="nature">
	<NAME>X1460</NAME>
	<OUTCOME>&apos;\&apos;All\&apos;&apos;</OUTCOME>
	<PROPERTY>position = (833,480)</PROPERTY>
</VARIABLE>
<VARIABLE TYPE="nature">
	<NAME>X1461</NAME>
	<OUTCOME>&apos;\&apos;(-inf-67.5]\&apos;&apos;</OUTCOME>
	<OUTCOME>&apos;\&apos;(67.5-inf)\&apos;&apos;</OUTCOME>
	<PROPERTY>position = (2597,1248)</PROPERTY>
</VARIABLE>
<VARIABLE TYPE="nature">
	<NAME>X1506</NAME>
	<OUTCOME>&apos;\&apos;(-inf-198.5]\&apos;&apos;</OUTCOME>
	<OUTCOME>&apos;\&apos;(198.5-inf)\&apos;&apos;</OUTCOME>
	<PROPERTY>position = (1862,672)</PROPERTY>
</VARIABLE>
<VARIABLE TYPE="nature">
	<NAME>X1507</NAME>
	<OUTCOME>&apos;\&apos;(-inf-197.5]\&apos;&apos;</OUTCOME>
	<OUTCOME>&apos;\&apos;(197.5-inf)\&apos;&apos;</OUTCOME>
	<PROPERTY>position = (1862,768)</PROPERTY>
</VARIABLE>
<VARIABLE TYPE="nature">
	<NAME>X1508</NAME>
	<OUTCOME>&apos;\&apos;(-inf-200.5]\&apos;&apos;</OUTCOME>
	<OUTCOME>&apos;\&apos;(200.5-inf)\&apos;&apos;</OUTCOME>
	<PROPERTY>position = (1911,864)</PROPERTY>
</VARIABLE>
<VARIABLE TYPE="nature">
	<NAME>X1561</NAME>
	<OUTCOME>&apos;\&apos;(-inf-96.5]\&apos;&apos;</OUTCOME>
	<OUTCOME>&apos;\&apos;(96.5-248.5]\&apos;&apos;</OUTCOME>
	<OUTCOME>&apos;\&apos;(248.5-inf)\&apos;&apos;</OUTCOME>
	<PROPERTY>position = (1813,768)</PROPERTY>
</VARIABLE>
<VARIABLE TYPE="nature">
	<NAME>X1562</NAME>
	<OUTCOME>&apos;\&apos;(-inf-100.5]\&apos;&apos;</OUTCOME>
	<OUTCOME>&apos;\&apos;(100.5-249.5]\&apos;&apos;</OUTCOME>
	<OUTCOME>&apos;\&apos;(249.5-inf)\&apos;&apos;</OUTCOME>
	<PROPERTY>position = (1764,864)</PROPERTY>
</VARIABLE>
<VARIABLE TYPE="nature">
	<NAME>X1610</NAME>
	<OUTCOME>&apos;\&apos;(-inf-97.5]\&apos;&apos;</OUTCOME>
	<OUTCOME>&apos;\&apos;(97.5-223.5]\&apos;&apos;</OUTCOME>
	<OUTCOME>&apos;\&apos;(223.5-247.5]\&apos;&apos;</OUTCOME>
	<OUTCOME>&apos;\&apos;(247.5-inf)\&apos;&apos;</OUTCOME>
	<PROPERTY>position = (2107,672)</PROPERTY>
</VARIABLE>
<VARIABLE TYPE="nature">
	<NAME>X1666</NAME>
	<OUTCOME>&apos;\&apos;(-inf-36.5]\&apos;&apos;</OUTCOME>
	<OUTCOME>&apos;\&apos;(36.5-inf)\&apos;&apos;</OUTCOME>
	<PROPERTY>position = (2401,1152)</PROPERTY>
</VARIABLE>
<VARIABLE TYPE="nature">
	<NAME>X1667</NAME>
	<OUTCOME>&apos;\&apos;(-inf-33.5]\&apos;&apos;</OUTCOME>
	<OUTCOME>&apos;\&apos;(33.5-inf)\&apos;&apos;</OUTCOME>
	<PROPERTY>position = (3381,1152)</PROPERTY>
</VARIABLE>
<VARIABLE TYPE="nature">
	<NAME>X1694</NAME>
	<OUTCOME>&apos;\&apos;(-inf-35.5]\&apos;&apos;</OUTCOME>
	<OUTCOME>&apos;\&apos;(35.5-144.5]\&apos;&apos;</OUTCOME>
	<OUTCOME>&apos;\&apos;(144.5-inf)\&apos;&apos;</OUTCOME>
	<PROPERTY>position = (3871,1440)</PROPERTY>
</VARIABLE>
<VARIABLE TYPE="nature">
	<NAME>X1695</NAME>
	<OUTCOME>&apos;\&apos;(-inf-36.5]\&apos;&apos;</OUTCOME>
	<OUTCOME>&apos;\&apos;(36.5-inf)\&apos;&apos;</OUTCOME>
	<PROPERTY>position = (3822,1632)</PROPERTY>
</VARIABLE>
<VARIABLE TYPE="nature">
	<NAME>X1713</NAME>
	<OUTCOME>&apos;\&apos;(-inf-35.5]\&apos;&apos;</OUTCOME>
	<OUTCOME>&apos;\&apos;(35.5-99.5]\&apos;&apos;</OUTCOME>
	<OUTCOME>&apos;\&apos;(99.5-inf)\&apos;&apos;</OUTCOME>
	<PROPERTY>position = (2695,1056)</PROPERTY>
</VARIABLE>
<VARIABLE TYPE="nature">
	<NAME>X1714</NAME>
	<OUTCOME>&apos;\&apos;(-inf-32.5]\&apos;&apos;</OUTCOME>
	<OUTCOME>&apos;\&apos;(32.5-inf)\&apos;&apos;</OUTCOME>
	<PROPERTY>position = (2793,1248)</PROPERTY>
</VARIABLE>
<VARIABLE TYPE="nature">
	<NAME>X1715</NAME>
	<OUTCOME>&apos;\&apos;(-inf-34.5]\&apos;&apos;</OUTCOME>
	<OUTCOME>&apos;\&apos;(34.5-inf)\&apos;&apos;</OUTCOME>
	<PROPERTY>position = (3626,1248)</PROPERTY>
</VARIABLE>
<VARIABLE TYPE="nature">
	<NAME>X1742</NAME>
	<OUTCOME>&apos;\&apos;(-inf-34.5]\&apos;&apos;</OUTCOME>
	<OUTCOME>&apos;\&apos;(34.5-inf)\&apos;&apos;</OUTCOME>
	<PROPERTY>position = (4165,1632)</PROPERTY>
</VARIABLE>
<VARIABLE TYPE="nature">
	<NAME>X1743</NAME>
	<OUTCOME>&apos;\&apos;(-inf-33.5]\&apos;&apos;</OUTCOME>
	<OUTCOME>&apos;\&apos;(33.5-inf)\&apos;&apos;</OUTCOME>
	<PROPERTY>position = (4165,1536)</PROPERTY>
</VARIABLE>
<VARIABLE TYPE="nature">
	<NAME>X1744</NAME>
	<OUTCOME>&apos;\&apos;(-inf-36.5]\&apos;&apos;</OUTCOME>
	<OUTCOME>&apos;\&apos;(36.5-inf)\&apos;&apos;</OUTCOME>
	<PROPERTY>position = (3577,1536)</PROPERTY>
</VARIABLE>
<VARIABLE TYPE="nature">
	<NAME>X1760</NAME>
	<OUTCOME>&apos;\&apos;(-inf-28.5]\&apos;&apos;</OUTCOME>
	<OUTCOME>&apos;\&apos;(28.5-106.5]\&apos;&apos;</OUTCOME>
	<OUTCOME>&apos;\&apos;(106.5-142.5]\&apos;&apos;</OUTCOME>
	<OUTCOME>&apos;\&apos;(142.5-inf)\&apos;&apos;</OUTCOME>
	<PROPERTY>position = (2646,1152)</PROPERTY>
</VARIABLE>
<VARIABLE TYPE="nature">
	<NAME>X1761</NAME>
	<OUTCOME>&apos;\&apos;(-inf-30.5]\&apos;&apos;</OUTCOME>
	<OUTCOME>&apos;\&apos;(30.5-inf)\&apos;&apos;</OUTCOME>
	<PROPERTY>position = (2793,1344)</PROPERTY>
</VARIABLE>
<VARIABLE TYPE="nature">
	<NAME>X1762</NAME>
	<OUTCOME>&apos;\&apos;(-inf-34.5]\&apos;&apos;</OUTCOME>
	<OUTCOME>&apos;\&apos;(34.5-168.5]\&apos;&apos;</OUTCOME>
	<OUTCOME>&apos;\&apos;(168.5-inf)\&apos;&apos;</OUTCOME>
	<PROPERTY>position = (3675,1344)</PROPERTY>
</VARIABLE>
<VARIABLE TYPE="nature">
	<NAME>X2095</NAME>
	<OUTCOME>&apos;\&apos;(-inf-74.5]\&apos;&apos;</OUTCOME>
	<OUTCOME>&apos;\&apos;(74.5-inf)\&apos;&apos;</OUTCOME>
	<PROPERTY>position = (3479,1248)</PROPERTY>
</VARIABLE>
<VARIABLE TYPE="nature">
	<NAME>X2096</NAME>
	<OUTCOME>&apos;\&apos;(-inf-103.5]\&apos;&apos;</OUTCOME>
	<OUTCOME>&apos;\&apos;(103.5-inf)\&apos;&apos;</OUTCOME>
	<PROPERTY>position = (3479,1344)</PROPERTY>
</VARIABLE>
<VARIABLE TYPE="nature">
	<NAME>X2138</NAME>
	<OUTCOME>&apos;\&apos;(-inf-27.5]\&apos;&apos;</OUTCOME>
	<OUTCOME>&apos;\&apos;(27.5-63.5]\&apos;&apos;</OUTCOME>
	<OUTCOME>&apos;\&apos;(63.5-88.5]\&apos;&apos;</OUTCOME>
	<OUTCOME>&apos;\&apos;(88.5-164]\&apos;&apos;</OUTCOME>
	<OUTCOME>&apos;\&apos;(164-inf)\&apos;&apos;</OUTCOME>
	<PROPERTY>position = (3381,960)</PROPERTY>
</VARIABLE>
<VARIABLE TYPE="nature">
	<NAME>X2139</NAME>
	<OUTCOME>&apos;\&apos;(-inf-22.5]\&apos;&apos;</OUTCOME>
	<OUTCOME>&apos;\&apos;(22.5-27.5]\&apos;&apos;</OUTCOME>
	<OUTCOME>&apos;\&apos;(27.5-81.5]\&apos;&apos;</OUTCOME>
	<OUTCOME>&apos;\&apos;(81.5-164.5]\&apos;&apos;</OUTCOME>
	<OUTCOME>&apos;\&apos;(164.5-inf)\&apos;&apos;</OUTCOME>
	<PROPERTY>position = (3675,1056)</PROPERTY>
</VARIABLE>
<VARIABLE TYPE="nature">
	<NAME>X2140</NAME>
	<OUTCOME>&apos;\&apos;(-inf-20.5]\&apos;&apos;</OUTCOME>
	<OUTCOME>&apos;\&apos;(20.5-32.5]\&apos;&apos;</OUTCOME>
	<OUTCOME>&apos;\&apos;(32.5-68.5]\&apos;&apos;</OUTCOME>
	<OUTCOME>&apos;\&apos;(68.5-172.5]\&apos;&apos;</OUTCOME>
	<OUTCOME>&apos;\&apos;(172.5-inf)\&apos;&apos;</OUTCOME>
	<PROPERTY>position = (3675,1152)</PROPERTY>
</VARIABLE>
<VARIABLE TYPE="nature">
	<NAME>X2165</NAME>
	<OUTCOME>&apos;\&apos;(-inf-66.5]\&apos;&apos;</OUTCOME>
	<OUTCOME>&apos;\&apos;(66.5-159]\&apos;&apos;</OUTCOME>
	<OUTCOME>&apos;\&apos;(159-254.5]\&apos;&apos;</OUTCOME>
	<OUTCOME>&apos;\&apos;(254.5-inf)\&apos;&apos;</OUTCOME>
	<PROPERTY>position = (3822,1440)</PROPERTY>
</VARIABLE>
<VARIABLE TYPE="nature">
	<NAME>X2213</NAME>
	<OUTCOME>&apos;\&apos;(-inf-46.5]\&apos;&apos;</OUTCOME>
	<OUTCOME>&apos;\&apos;(46.5-81.5]\&apos;&apos;</OUTCOME>
	<OUTCOME>&apos;\&apos;(81.5-164.5]\&apos;&apos;</OUTCOME>
	<OUTCOME>&apos;\&apos;(164.5-254.5]\&apos;&apos;</OUTCOME>
	<OUTCOME>&apos;\&apos;(254.5-inf)\&apos;&apos;</OUTCOME>
	<PROPERTY>position = (4067,1344)</PROPERTY>
</VARIABLE>
<VARIABLE TYPE="nature">
	<NAME>X2214</NAME>
	<OUTCOME>&apos;\&apos;(-inf-70.5]\&apos;&apos;</OUTCOME>
	<OUTCOME>&apos;\&apos;(70.5-157.5]\&apos;&apos;</OUTCOME>
	<OUTCOME>&apos;\&apos;(157.5-254.5]\&apos;&apos;</OUTCOME>
	<OUTCOME>&apos;\&apos;(254.5-inf)\&apos;&apos;</OUTCOME>
	<PROPERTY>position = (4263,1440)</PROPERTY>
</VARIABLE>
<VARIABLE TYPE="nature">
	<NAME>X2215</NAME>
	<OUTCOME>&apos;\&apos;(-inf-79.5]\&apos;&apos;</OUTCOME>
	<OUTCOME>&apos;\&apos;(79.5-inf)\&apos;&apos;</OUTCOME>
	<PROPERTY>position = (3920,1440)</PROPERTY>
</VARIABLE>
<VARIABLE TYPE="nature">
	<NAME>X2260</NAME>
	<OUTCOME>&apos;\&apos;(-inf-74.5]\&apos;&apos;</OUTCOME>
	<OUTCOME>&apos;\&apos;(74.5-inf)\&apos;&apos;</OUTCOME>
	<PROPERTY>position = (4018,1440)</PROPERTY>
</VARIABLE>
<VARIABLE TYPE="nature">
	<NAME>X2261</NAME>
	<OUTCOME>&apos;\&apos;(-inf-68.5]\&apos;&apos;</OUTCOME>
	<OUTCOME>&apos;\&apos;(68.5-239.5]\&apos;&apos;</OUTCOME>
	<OUTCOME>&apos;\&apos;(239.5-254.5]\&apos;&apos;</OUTCOME>
	<OUTCOME>&apos;\&apos;(254.5-inf)\&apos;&apos;</OUTCOME>
	<PROPERTY>position = (4312,1632)</PROPERTY>
</VARIABLE>
<VARIABLE TYPE="nature">
	<NAME>X2262</NAME>
	<OUTCOME>&apos;\&apos;(-inf-72.5]\&apos;&apos;</OUTCOME>
	<OUTCOME>&apos;\&apos;(72.5-158.5]\&apos;&apos;</OUTCOME>
	<OUTCOME>&apos;\&apos;(158.5-254.5]\&apos;&apos;</OUTCOME>
	<OUTCOME>&apos;\&apos;(254.5-inf)\&apos;&apos;</OUTCOME>
	<PROPERTY>position = (4263,1536)</PROPERTY>
</VARIABLE>
<VARIABLE TYPE="nature">
	<NAME>X2263</NAME>
	<OUTCOME>&apos;\&apos;(-inf-55.5]\&apos;&apos;</OUTCOME>
	<OUTCOME>&apos;\&apos;(55.5-81.5]\&apos;&apos;</OUTCOME>
	<OUTCOME>&apos;\&apos;(81.5-inf)\&apos;&apos;</OUTCOME>
	<PROPERTY>position = (3920,1344)</PROPERTY>
</VARIABLE>
<VARIABLE TYPE="nature">
	<NAME>X2264</NAME>
	<OUTCOME>&apos;\&apos;(-inf-54.5]\&apos;&apos;</OUTCOME>
	<OUTCOME>&apos;\&apos;(54.5-81.5]\&apos;&apos;</OUTCOME>
	<OUTCOME>&apos;\&apos;(81.5-161.5]\&apos;&apos;</OUTCOME>
	<OUTCOME>&apos;\&apos;(161.5-254.5]\&apos;&apos;</OUTCOME>
	<OUTCOME>&apos;\&apos;(254.5-inf)\&apos;&apos;</OUTCOME>
	<PROPERTY>position = (3969,1248)</PROPERTY>
</VARIABLE>
<VARIABLE TYPE="nature">
	<NAME>LABEL</NAME>
	<OUTCOME>0</OUTCOME>
	<OUTCOME>1</OUTCOME>
	<PROPERTY>position = (2058,0)</PROPERTY>
</VARIABLE>
<DEFINITION>
<FOR>X744</FOR>
	<GIVEN>LABEL</GIVEN>
	<GIVEN>X1120</GIVEN>
<TABLE>
0.3 0.5 0.1 0.1 
0.05371900826446281 0.9132231404958677 0.028925619834710745 0.004132231404958678 
0.005555555555555556 0.3277777777777778 0.6611111111111111 0.005555555555555556 
0.25 0.25 0.25 0.25 
0.9075875486381323 0.09046692607003891 9.727626459143969E-4 9.727626459143969E-4 
0.06031904287138584 0.9227318045862413 0.011465603190428714 0.005483549351944167 
0.004934210526315789 0.5542763157894737 0.26480263157894735 0.17598684210526316 
0.0012285012285012285 0.013513513513513514 0.07248157248157248 0.9127764127764127 
</TABLE>
</DEFINITION>
<DEFINITION>
<FOR>X745</FOR>
	<GIVEN>LABEL</GIVEN>
	<GIVEN>X744</GIVEN>
<TABLE>
0.7222222222222222 0.16666666666666666 0.05555555555555555 0.05555555555555555 
0.0034965034965034965 0.9895104895104895 0.0034965034965034965 0.0034965034965034965 
0.0078125 0.1640625 0.8203125 0.0078125 
0.25 0.25 0.25 0.25 
0.9706994328922496 0.027410207939508508 9.45179584120983E-4 9.45179584120983E-4 
0.010034904013961605 0.9864746945898778 0.0030541012216404886 4.363001745200698E-4 
0.004098360655737705 0.26639344262295084 0.5614754098360656 0.1680327868852459 
0.001160092807424594 0.001160092807424594 0.015081206496519721 0.9825986078886311 
</TABLE>
</DEFINITION>
<DEFINITION>
<FOR>X792</FOR>
	<GIVEN>LABEL</GIVEN>
	<GIVEN>X745</GIVEN>
<TABLE>
0.4117647058823529 0.4117647058823529 0.058823529411764705 0.058823529411764705 0.058823529411764705 
0.003236245954692557 0.9352750809061489 0.05501618122977346 0.003236245954692557 0.003236245954692557 
0.009174311926605505 0.027522935779816515 0.8899082568807339 0.06422018348623854 0.009174311926605505 
0.2 0.2 0.2 0.2 0.2 
0.8727445394112061 0.12440645773979107 9.49667616334283E-4 9.49667616334283E-4 9.49667616334283E-4 
0.004666949512091642 0.9669070852778956 0.01824352991090369 0.003818413237165889 0.006364022061943148 
0.006289308176100629 0.05660377358490566 0.5345911949685535 0.14465408805031446 0.2578616352201258 
0.001122334455667789 0.007856341189674524 0.028058361391694726 0.06621773288439955 0.8967452300785634 
</TABLE>
</DEFINITION>
<DEFINITION>
<FOR>X793</FOR>
	<GIVEN>LABEL</GIVEN>
	<GIVEN>X792</GIVEN>
<TABLE>
0.45454545454545453 0.2727272727272727 0.09090909090909091 0.09090909090909091 0.09090909090909091 
0.0033222591362126247 0.9667774086378738 0.023255813953488372 0.0033222591362126247 0.0033222591362126247 
0.008547008547008548 0.07692307692307693 0.8461538461538461 0.05982905982905983 0.008547008547008548 
0.09090909090909091 0.09090909090909091 0.2727272727272727 0.45454545454545453 0.09090909090909091 
0.2 0.2 0.2 0.2 0.2 
0.9528403001071811 0.04394426580921758 0.0010718113612004287 0.0010718113612004287 0.0010718113612004287 
0.013597033374536464 0.976926246394726 0.00865265760197775 4.1203131437989287E-4 4.1203131437989287E-4 
0.0064516129032258064 0.13548387096774195 0.6645161290322581 0.17419354838709677 0.01935483870967742 
0.010752688172043012 0.053763440860215055 0.20430107526881722 0.46236559139784944 0.26881720430107525 
0.0011668611435239206 0.003500583430571762 0.015169194865810968 0.040840140023337225 0.9393232205367561 
</TABLE>
</DEFINITION>
<DEFINITION>
<FOR>X794</FOR>
	<GIVEN>LABEL</GIVEN>
	<GIVEN>X793</GIVEN>
<TABLE>
0.375 0.375 0.125 0.125 
0.009868421052631578 0.9638157894736842 0.023026315789473683 0.003289473684210526 
0.00909090909090909 0.22727272727272727 0.7545454545454545 0.00909090909090909 
0.07142857142857142 0.07142857142857142 0.7857142857142857 0.07142857142857142 
0.25 0.25 0.25 0.25 
0.9816017316017316 0.016233766233766232 0.0010822510822510823 0.0010822510822510823 
0.04057377049180328 0.9397540983606557 0.019262295081967213 4.098360655737705E-4 
0.00641025641025641 0.26282051282051283 0.7115384615384616 0.019230769230769232 
0.009433962264150943 0.10377358490566038 0.5943396226415094 0.29245283018867924 
0.001199040767386091 0.025179856115107913 0.07793764988009592 0.89568345323741 
</TABLE>
</DEFINITION>
<DEFINITION>
<FOR>X795</FOR>
	<GIVEN>LABEL</GIVEN>
	<GIVEN>X794</GIVEN>
<TABLE>
0.7142857142857143 0.14285714285714285 0.14285714285714285 
0.2087227414330218 0.7881619937694704 0.003115264797507788 
0.009900990099009901 0.9801980198019802 0.009900990099009901 
0.3333333333333333 0.3333333333333333 0.3333333333333333 
0.9960278053624627 0.0029791459781529296 9.930486593843098E-4 
0.20975199663724253 0.7898276586801177 4.203446826397646E-4 
0.010526315789473684 0.9368421052631579 0.05263157894736842 
0.0012804097311139564 0.13444302176696543 0.8642765685019206 
</TABLE>
</DEFINITION>
<DEFINITION>
<FOR>X841</FOR>
	<GIVEN>LABEL</GIVEN>
	<GIVEN>X794</GIVEN>
<TABLE>
0.625 0.125 0.125 0.125 
0.009316770186335404 0.953416149068323 0.034161490683229816 0.003105590062111801 
0.00980392156862745 0.08823529411764706 0.8921568627450981 0.00980392156862745 
0.25 0.25 0.25 0.25 
0.8660714285714286 0.13194444444444445 9.92063492063492E-4 9.92063492063492E-4 
0.01638655462184874 0.9684873949579832 0.01050420168067227 0.004621848739495798 
0.01048951048951049 0.32517482517482516 0.513986013986014 0.15034965034965034 
0.0012787723785166241 0.0319693094629156 0.07800511508951406 0.8887468030690537 
</TABLE>
</DEFINITION>
<DEFINITION>
<FOR>X842</FOR>
	<GIVEN>LABEL</GIVEN>
	<GIVEN>X795</GIVEN>
<TABLE>
0.863013698630137 0.1232876712328767 0.0136986301369863 
0.036827195467422094 0.9603399433427762 0.0028328611898017 
0.3333333333333333 0.3333333333333333 0.3333333333333333 
0.9215946843853821 0.07774086378737542 6.64451827242525E-4 
0.0954283177984909 0.8854860186418109 0.01908566355969818 
0.001447178002894356 0.22431259044862517 0.7742402315484804 
</TABLE>
</DEFINITION>
<DEFINITION>
<FOR>X935</FOR>
	<GIVEN>LABEL</GIVEN>
	<GIVEN>X983</GIVEN>
<TABLE>
0.9976190476190476 0.002380952380952381 
0.75 0.25 
0.9965091299677766 0.003490870032223416 
0.1597222222222222 0.8402777777777778 
</TABLE>
</DEFINITION>
<DEFINITION>
<FOR>X982</FOR>
	<GIVEN>LABEL</GIVEN>
	<GIVEN>X983</GIVEN>
<TABLE>
0.9738095238095238 0.02619047619047619 
0.25 0.75 
0.9487110633727175 0.05128893662728249 
0.24027777777777778 0.7597222222222222 
</TABLE>
</DEFINITION>
<DEFINITION>
<FOR>X983</FOR>
	<GIVEN>LABEL</GIVEN>
	<GIVEN>X1031</GIVEN>
<TABLE>
0.9928571428571429 0.007142857142857143 
0.75 0.25 
0.994757174392936 0.0052428256070640175 
0.14512195121951219 0.8548780487804878 
</TABLE>
</DEFINITION>
<DEFINITION>
<FOR>X1025</FOR>
	<GIVEN>LABEL</GIVEN>
	<GIVEN>X1073</GIVEN>
<TABLE>
0.2 0.6 0.2 
0.021377672209026127 0.9762470308788599 0.0023752969121140144 
0.3333333333333333 0.3333333333333333 0.3333333333333333 
0.8397212543554007 0.15911730545876887 0.0011614401858304297 
0.030956521739130435 0.952 0.017043478260869566 
0.001402524544179523 0.22861150070126227 0.7699859747545582 
</TABLE>
</DEFINITION>
<DEFINITION>
<FOR>X1026</FOR>
	<GIVEN>LABEL</GIVEN>
	<GIVEN>X1073</GIVEN>
<TABLE>
0.6 0.2 0.2 
0.07363420427553444 0.9239904988123515 0.0023752969121140144 
0.3333333333333333 0.3333333333333333 0.3333333333333333 
0.9907084785133565 0.008130081300813009 0.0011614401858304297 
0.1443478260869565 0.8455652173913043 0.01008695652173913 
0.001402524544179523 0.18934081346423562 0.8092566619915849 
</TABLE>
</DEFINITION>
<DEFINITION>
<FOR>X1030</FOR>
	<GIVEN>LABEL</GIVEN>
	<GIVEN>X982</GIVEN>
<TABLE>
0.9878048780487805 0.012195121951219513 
0.7857142857142857 0.21428571428571427 
0.9937938478143551 0.0062061521856449 
0.25338753387533874 0.7466124661246613 
</TABLE>
</DEFINITION>
<DEFINITION>
<FOR>X1031</FOR>
	<GIVEN>LABEL</GIVEN>
	<GIVEN>X1263</GIVEN>
<TABLE>
0.875 0.125 
0.9958333333333333 0.004166666666666667 
0.9831460674157303 0.016853932584269662 
0.5 0.5 
0.9987437185929648 0.001256281407035176 
0.9891406987724268 0.010859301227573183 
0.7935779816513762 0.20642201834862386 
0.24659090909090908 0.7534090909090909 
</TABLE>
</DEFINITION>
<DEFINITION>
<FOR>X1072</FOR>
	<GIVEN>LABEL</GIVEN>
	<GIVEN>X1120</GIVEN>
<TABLE>
0.5555555555555556 0.3333333333333333 0.1111111111111111 
0.012448132780082987 0.983402489626556 0.004149377593360996 
0.00558659217877095 0.9888268156424581 0.00558659217877095 
0.3333333333333333 0.3333333333333333 0.3333333333333333 
0.9065238558909445 0.09250243427458617 9.737098344693282E-4 
0.02743142144638404 0.972069825436409 4.987531172069825E-4 
0.0016474464579901153 0.9308072487644151 0.06754530477759473 
0.0012300123001230013 0.16113161131611317 0.8376383763837638 
</TABLE>
</DEFINITION>
<DEFINITION>
<FOR>X1073</FOR>
	<GIVEN>LABEL</GIVEN>
	<GIVEN>X1120</GIVEN>
<TABLE>
0.1111111111111111 0.7777777777777778 0.1111111111111111 
0.012448132780082987 0.983402489626556 0.004149377593360996 
0.00558659217877095 0.9888268156424581 0.00558659217877095 
0.3333333333333333 0.3333333333333333 0.3333333333333333 
0.7916260954235638 0.2074001947419669 9.737098344693282E-4 
0.02344139650872818 0.9760598503740648 4.987531172069825E-4 
0.0016474464579901153 0.9472817133443163 0.051070840197693576 
0.0012300123001230013 0.16113161131611317 0.8376383763837638 
</TABLE>
</DEFINITION>
<DEFINITION>
<FOR>X1074</FOR>
	<GIVEN>LABEL</GIVEN>
	<GIVEN>X1073</GIVEN>
<TABLE>
0.6 0.2 0.2 
0.011876484560570071 0.9857482185273159 0.0023752969121140144 
0.3333333333333333 0.3333333333333333 0.3333333333333333 
0.9535423925667829 0.04529616724738676 0.0011614401858304297 
0.050434782608695654 0.9346086956521739 0.014956521739130434 
0.001402524544179523 0.1640953716690042 0.8345021037868162 
</TABLE>
</DEFINITION>
<DEFINITION>
<FOR>X1086</FOR>
	<GIVEN>LABEL</GIVEN>
	<GIVEN>X1134</GIVEN>
<TABLE>
0.5833333333333334 0.25 0.08333333333333333 0.08333333333333333 
0.04716981132075472 0.9465408805031447 0.0031446540880503146 0.0031446540880503146 
0.00980392156862745 0.20588235294117646 0.7745098039215687 0.00980392156862745 
0.25 0.25 0.25 0.25 
0.9932038834951457 0.0048543689320388345 9.70873786407767E-4 9.70873786407767E-4 
0.12059294871794872 0.8778044871794872 0.001201923076923077 4.0064102564102563E-4 
0.004761904761904762 0.38571428571428573 0.5571428571428572 0.05238095238095238 
0.001388888888888889 0.009722222222222222 0.0625 0.9263888888888889 
</TABLE>
</DEFINITION>
<DEFINITION>
<FOR>X1119</FOR>
	<GIVEN>LABEL</GIVEN>
	<GIVEN>X1167</GIVEN>
<TABLE>
0.75 0.08333333333333333 0.08333333333333333 0.08333333333333333 
0.004310344827586207 0.978448275862069 0.01293103448275862 0.004310344827586207 
0.005319148936170213 0.16489361702127658 0.824468085106383 0.005319148936170213 
0.25 0.25 0.25 0.25 
0.9882478632478633 0.009615384615384616 0.0010683760683760685 0.0010683760683760685 
0.02961847389558233 0.9663654618473896 0.0035140562248995983 5.02008032128514E-4 
0.0014705882352941176 0.19852941176470587 0.7691176470588236 0.030882352941176472 
0.0011792452830188679 0.003537735849056604 0.08136792452830188 0.9139150943396226 
</TABLE>
</DEFINITION>
<DEFINITION>
<FOR>X1120</FOR>
	<GIVEN>LABEL</GIVEN>
	<GIVEN>X1119</GIVEN>
<TABLE>
0.5833333333333334 0.25 0.08333333333333333 0.08333333333333333 
0.0038461538461538464 0.8884615384615384 0.10384615384615385 0.0038461538461538464 
0.00625 0.04375 0.94375 0.00625 
0.25 0.25 0.25 0.25 
0.9158215010141988 0.08012170385395538 0.0030425963488843813 0.0010141987829614604 
0.05936293436293436 0.900096525096525 0.04005791505791506 4.8262548262548264E-4 
0.0016666666666666668 0.095 0.7816666666666666 0.12166666666666667 
0.0012531328320802004 0.006265664160401002 0.06641604010025062 0.9260651629072681 
</TABLE>
</DEFINITION>
<DEFINITION>
<FOR>X1121</FOR>
	<GIVEN>LABEL</GIVEN>
	<GIVEN>X1168</GIVEN>
<TABLE>
0.125 0.625 0.125 0.125 
0.004464285714285714 0.9330357142857143 0.05803571428571429 0.004464285714285714 
0.005 0.055 0.935 0.005 
0.25 0.25 0.25 0.25 
0.8987473903966597 0.09916492693110647 0.0010438413361169101 0.0010438413361169101 
0.07836198179979778 0.8680485338725986 0.05308392315470172 5.055611729019212E-4 
0.007062146892655367 0.18785310734463276 0.7669491525423728 0.038135593220338986 
0.0012315270935960591 0.020935960591133004 0.17118226600985223 0.8066502463054187 
</TABLE>
</DEFINITION>
<DEFINITION>
<FOR>X1134</FOR>
	<GIVEN>LABEL</GIVEN>
	<GIVEN>X792</GIVEN>
<TABLE>
0.5 0.3 0.1 0.1 
0.016666666666666666 0.95 0.03 0.0033333333333333335 
0.008620689655172414 0.23275862068965517 0.75 0.008620689655172414 
0.1 0.3 0.5 0.1 
0.25 0.25 0.25 0.25 
0.8615879828326181 0.13626609442060086 0.001072961373390558 0.001072961373390558 
0.09192085737840065 0.8973619126133553 0.008656224237427864 0.002061005770816158 
0.006493506493506494 0.44805194805194803 0.3961038961038961 0.14935064935064934 
0.010869565217391304 0.25 0.358695652173913 0.3804347826086957 
0.0035046728971962616 0.11799065420560748 0.11098130841121495 0.7675233644859814 
</TABLE>
</DEFINITION>
<DEFINITION>
<FOR>X1167</FOR>
	<GIVEN>LABEL</GIVEN>
<TABLE>
0.02122641509433962 0.5400943396226415 0.4363207547169811 0.0023584905660377358 
0.20994599459945995 0.44756975697569756 0.15234023402340233 0.19014401440144013 
</TABLE>
</DEFINITION>
<DEFINITION>
<FOR>X1168</FOR>
	<GIVEN>LABEL</GIVEN>
	<GIVEN>X1120</GIVEN>
<TABLE>
0.5 0.3 0.1 0.1 
0.004132231404958678 0.9049586776859504 0.08677685950413223 0.004132231404958678 
0.005555555555555556 0.005555555555555556 0.9833333333333333 0.005555555555555556 
0.25 0.25 0.25 0.25 
0.9017509727626459 0.0963035019455253 9.727626459143969E-4 9.727626459143969E-4 
0.014456630109670987 0.9177467597208375 0.06630109670987039 0.0014955134596211367 
0.001644736842105263 0.05756578947368421 0.8569078947368421 0.08388157894736842 
0.0012285012285012285 0.0036855036855036856 0.06511056511056511 0.9299754299754299 
</TABLE>
</DEFINITION>
<DEFINITION>
<FOR>X1171</FOR>
	<GIVEN>LABEL</GIVEN>
	<GIVEN>X1365</GIVEN>
<TABLE>
0.14285714285714285 0.7142857142857143 0.14285714285714285 
0.07317073170731707 0.9024390243902439 0.024390243902439025 
0.28608923884514437 0.7112860892388452 0.0026246719160104987 
0.3333333333333333 0.3333333333333333 0.3333333333333333 
0.9685169842584921 0.030654515327257662 8.285004142502071E-4 
0.7847439916405433 0.2142110762800418 0.0010449320794148381 
0.22340919647004182 0.7111007895959127 0.06549001393404552 
0.1259259259259259 0.48148148148148145 0.3925925925925926 
</TABLE>
</DEFINITION>
<DEFINITION>
<FOR>X1182</FOR>
	<GIVEN>LABEL</GIVEN>
	<GIVEN>X1134</GIVEN>
<TABLE>
0.5833333333333334 0.25 0.08333333333333333 0.08333333333333333 
0.009433962264150943 0.9842767295597484 0.0031446540880503146 0.0031446540880503146 
0.00980392156862745 0.06862745098039216 0.9117647058823529 0.00980392156862745 
0.25 0.25 0.25 0.25 
0.8961165048543689 0.10194174757281553 9.70873786407767E-4 9.70873786407767E-4 
0.003605769230769231 0.9907852564102564 0.005208333333333333 4.0064102564102563E-4 
0.004761904761904762 0.16666666666666666 0.680952380952381 0.14761904761904762 
0.001388888888888889 0.006944444444444444 0.018055555555555554 0.9736111111111111 
</TABLE>
</DEFINITION>
<DEFINITION>
<FOR>X1215</FOR>
	<GIVEN>LABEL</GIVEN>
	<GIVEN>X1167</GIVEN>
<TABLE>
0.75 0.08333333333333333 0.08333333333333333 0.08333333333333333 
0.004310344827586207 0.9698275862068966 0.021551724137931036 0.004310344827586207 
0.005319148936170213 0.026595744680851064 0.9627659574468085 0.005319148936170213 
0.25 0.25 0.25 0.25 
0.9497863247863247 0.04807692307692308 0.0010683760683760685 0.0010683760683760685 
0.0015060240963855422 0.9794176706827309 0.01857429718875502 5.02008032128514E-4 
0.0014705882352941176 0.04264705882352941 0.8720588235294118 0.0838235294117647 
0.0011792452830188679 0.0011792452830188679 0.01061320754716981 0.9870283018867925 
</TABLE>
</DEFINITION>
<DEFINITION>
<FOR>X1216</FOR>
	<GIVEN>LABEL</GIVEN>
	<GIVEN>X1168</GIVEN>
<TABLE>
0.375 0.375 0.125 0.125 
0.004464285714285714 0.9598214285714286 0.03125 0.004464285714285714 
0.005 0.055 0.935 0.005 
0.25 0.25 0.25 0.25 
0.7400835073068893 0.2578288100208768 0.0010438413361169101 0.0010438413361169101 
0.0025278058645096056 0.9570273003033367 0.038928210313447925 0.0015166835187057635 
0.0014124293785310734 0.046610169491525424 0.8601694915254238 0.09180790960451977 
0.0012315270935960591 0.0012315270935960591 0.02586206896551724 0.9716748768472906 
</TABLE>
</DEFINITION>
<DEFINITION>
<FOR>X1217</FOR>
	<GIVEN>LABEL</GIVEN>
	<GIVEN>X1168</GIVEN>
<TABLE>
0.375 0.375 0.125 0.125 
0.16517857142857142 0.8258928571428571 0.004464285714285714 0.004464285714285714 
0.015 0.425 0.555 0.005 
0.25 0.25 0.25 0.25 
0.907098121085595 0.09081419624217119 0.0010438413361169101 0.0010438413361169101 
0.14408493427704752 0.8488372093023255 0.005561172901921132 0.0015166835187057635 
0.0211864406779661 0.6567796610169492 0.2443502824858757 0.07768361581920905 
0.0012315270935960591 0.07758620689655173 0.1145320197044335 0.8066502463054187 
</TABLE>
</DEFINITION>
<DEFINITION>
<FOR>X1218</FOR>
	<GIVEN>LABEL</GIVEN>
	<GIVEN>X1217</GIVEN>
<TABLE>
0.9534883720930233 0.023255813953488372 0.023255813953488372 
0.9267399267399268 0.0695970695970696 0.003663003663003663 
0.2743362831858407 0.7168141592920354 0.008849557522123894 
0.3333333333333333 0.3333333333333333 0.3333333333333333 
0.998289136013687 8.55431993156544E-4 8.55431993156544E-4 
0.96860008722198 0.027474923680767552 0.0039249890972525075 
0.4584837545126354 0.45126353790613716 0.09025270758122744 
0.10238429172510519 0.1697054698457223 0.7279102384291725 
</TABLE>
</DEFINITION>
<DEFINITION>
<FOR>X1219</FOR>
	<GIVEN>LABEL</GIVEN>
	<GIVEN>X1218</GIVEN>
<TABLE>
0.9969135802469136 0.0030864197530864196 
0.99 0.01 
0.5 0.5 
0.9991634132738427 8.365867261572784E-4 
0.9577922077922078 0.04220779220779221 
0.4583333333333333 0.5416666666666666 
</TABLE>
</DEFINITION>
<DEFINITION>
<FOR>X1263</FOR>
	<GIVEN>LABEL</GIVEN>
	<GIVEN>X1215</GIVEN>
<TABLE>
0.5833333333333334 0.25 0.08333333333333333 0.08333333333333333 
0.004310344827586207 0.9612068965517241 0.03017241379310345 0.004310344827586207 
0.005319148936170213 0.0797872340425532 0.9095744680851063 0.005319148936170213 
0.25 0.25 0.25 0.25 
0.8870246085011185 0.11073825503355705 0.0011185682326621924 0.0011185682326621924 
0.0014807502467917078 0.9787759131293189 0.0192497532082922 4.935834155972359E-4 
0.0015625 0.0578125 0.9046875 0.0359375 
0.0011160714285714285 0.0011160714285714285 0.041294642857142856 0.9564732142857143 
</TABLE>
</DEFINITION>
<DEFINITION>
<FOR>X1265</FOR>
	<GIVEN>LABEL</GIVEN>
	<GIVEN>X1216</GIVEN>
<TABLE>
0.14285714285714285 0.42857142857142855 0.14285714285714285 0.14285714285714285 0.14285714285714285 
0.06493506493506493 0.922077922077922 0.004329004329004329 0.004329004329004329 0.004329004329004329 
0.005076142131979695 0.49238578680203043 0.4619289340101523 0.03553299492385787 0.005076142131979695 
0.2 0.2 0.2 0.2 0.2 
0.0041841004184100415 0.9916317991631799 0.001394700139470014 0.001394700139470014 0.001394700139470014 
4.597701149425287E-4 0.9926436781609196 0.004137931034482759 0.0022988505747126436 4.597701149425287E-4 
0.004231311706629055 0.5684062059238364 0.21015514809590974 0.14809590973201692 0.0691114245416079 
0.0011641443538998836 0.017462165308498253 0.017462165308498253 0.05238649592549476 0.9115250291036089 
</TABLE>
</DEFINITION>
<DEFINITION>
<FOR>X1266</FOR>
	<GIVEN>LABEL</GIVEN>
	<GIVEN>X1265</GIVEN>
<TABLE>
0.6470588235294118 0.29411764705882354 0.058823529411764705 
0.06070287539936102 0.9361022364217252 0.003194888178913738 
0.010752688172043012 0.978494623655914 0.010752688172043012 
0.1111111111111111 0.7777777777777778 0.1111111111111111 
0.3333333333333333 0.3333333333333333 0.3333333333333333 
0.42857142857142855 0.42857142857142855 0.14285714285714285 
0.003346516580468512 0.9945238819592334 0.0021296014602981443 
0.005780346820809248 0.930635838150289 0.06358381502890173 
0.0064516129032258064 0.7806451612903226 0.2129032258064516 
0.0012004801920768306 0.09483793517406963 0.9039615846338536 
</TABLE>
</DEFINITION>
<DEFINITION>
<FOR>X1268</FOR>
	<GIVEN>LABEL</GIVEN>
	<GIVEN>X1316</GIVEN>
<TABLE>
0.9881516587677726 0.011848341232227487 
0.5 0.5 
0.9735490498202363 0.02645095017976374 
0.18363636363636363 0.8163636363636364 
</TABLE>
</DEFINITION>
<DEFINITION>
<FOR>X1269</FOR>
	<GIVEN>LABEL</GIVEN>
	<GIVEN>X1317</GIVEN>
<TABLE>
0.32142857142857145 0.6785714285714286 
0.03282828282828283 0.9671717171717171 
0.7520449897750511 0.24795501022494887 
0.02532154340836013 0.9746784565916399 
</TABLE>
</DEFINITION>
<DEFINITION>
<FOR>X1312</FOR>
	<GIVEN>LABEL</GIVEN>
	<GIVEN>X1263</GIVEN>
<TABLE>
0.1 0.7 0.1 0.1 
0.07024793388429752 0.8884297520661157 0.0371900826446281 0.004132231404958678 
0.005555555555555556 0.3055555555555556 0.6833333333333333 0.005555555555555556 
0.25 0.25 0.25 0.25 
0.008771929824561403 0.9887218045112782 0.0012531328320802004 0.0012531328320802004 
0.0014150943396226414 0.9787735849056604 0.019339622641509433 4.716981132075472E-4 
0.001524390243902439 0.3155487804878049 0.5929878048780488 0.0899390243902439 
0.0011337868480725624 0.01927437641723356 0.09863945578231292 0.8809523809523809 
</TABLE>
</DEFINITION>
<DEFINITION>
<FOR>X1313</FOR>
	<GIVEN>LABEL</GIVEN>
	<GIVEN>X1314</GIVEN>
<TABLE>
0.075 0.425 0.475 0.025 
0.05909090909090909 0.1318181818181818 0.8045454545454546 0.004545454545454545 
0.005813953488372093 0.005813953488372093 0.9825581395348837 0.005813953488372093 
0.25 0.25 0.25 0.25 
0.08333333333333333 0.75 0.08333333333333333 0.08333333333333333 
9.615384615384616E-4 0.09326923076923077 0.9048076923076923 9.615384615384616E-4 
4.1631973355537054E-4 4.1631973355537054E-4 0.9729392173189009 0.026228143213988343 
9.98003992015968E-4 9.98003992015968E-4 0.054890219560878244 0.9431137724550899 
</TABLE>
</DEFINITION>
<DEFINITION>
<FOR>X1314</FOR>
	<GIVEN>LABEL</GIVEN>
	<GIVEN>X1610</GIVEN>
<TABLE>
0.08333333333333333 0.75 0.08333333333333333 0.08333333333333333 
0.10064935064935066 0.5487012987012987 0.3474025974025974 0.003246753246753247 
0.0625 0.36607142857142855 0.5625 0.008928571428571428 
0.25 0.25 0.25 0.25 
0.01076555023923445 0.9533492822966507 0.034688995215311005 0.0011961722488038277 
3.980891719745223E-4 0.09593949044585988 0.8793789808917197 0.02428343949044586 
0.003816793893129771 0.003816793893129771 0.5 0.49236641221374045 
0.001182033096926714 0.001182033096926714 0.03900709219858156 0.958628841607565 
</TABLE>
</DEFINITION>
<DEFINITION>
<FOR>X1315</FOR>
	<GIVEN>LABEL</GIVEN>
	<GIVEN>X1314</GIVEN>
<TABLE>
0.925 0.025 0.025 0.025 
0.85 0.09545454545454546 0.05 0.004545454545454545 
0.27325581395348836 0.3430232558139535 0.37790697674418605 0.005813953488372093 
0.25 0.25 0.25 0.25 
0.75 0.08333333333333333 0.08333333333333333 0.08333333333333333 
0.9432692307692307 0.052884615384615384 0.0028846153846153848 9.615384615384616E-4 
0.05120732722731058 0.2885095753538718 0.6582014987510408 0.0020815986677768525 
0.0029940119760479044 0.00499001996007984 0.20459081836327345 0.7874251497005988 
</TABLE>
</DEFINITION>
<DEFINITION>
<FOR>X1316</FOR>
	<GIVEN>LABEL</GIVEN>
	<GIVEN>X1562</GIVEN>
<TABLE>
0.9666666666666667 0.03333333333333333 
0.9974619289340102 0.0025380710659898475 
0.5 0.5 
0.9990253411306043 9.746588693957114E-4 
0.9872169466764061 0.012783053323593864 
0.24486803519061584 0.7551319648093842 
</TABLE>
</DEFINITION>
<DEFINITION>
<FOR>X1317</FOR>
	<GIVEN>LABEL</GIVEN>
	<GIVEN>X1365</GIVEN>
<TABLE>
0.5 0.5 
0.425 0.575 
0.02368421052631579 0.9763157894736842 
0.5 0.5 
0.9908789386401327 0.00912106135986733 
0.6830543933054394 0.3169456066945607 
0.05065055762081784 0.9493494423791822 
0.007462686567164179 0.9925373134328358 
</TABLE>
</DEFINITION>
<DEFINITION>
<FOR>X1361</FOR>
	<GIVEN>LABEL</GIVEN>
	<GIVEN>X1313</GIVEN>
<TABLE>
0.5294117647058824 0.4117647058823529 0.058823529411764705 
0.6595744680851063 0.3191489361702128 0.02127659574468085 
0.0958904109589041 0.9013698630136986 0.0027397260273972603 
0.3333333333333333 0.3333333333333333 0.3333333333333333 
0.3333333333333333 0.3333333333333333 0.3333333333333333 
0.7570093457943925 0.2336448598130841 0.009345794392523364 
0.0111011101110111 0.9855985598559855 0.0033003300330033004 
9.910802775024777E-4 0.1694747274529237 0.8295341922695738 
</TABLE>
</DEFINITION>
<DEFINITION>
<FOR>X1364</FOR>
	<GIVEN>LABEL</GIVEN>
	<GIVEN>X1315</GIVEN>
<TABLE>
0.0625 0.45955882352941174 0.4742647058823529 0.003676470588235294 
0.036585365853658534 0.6707317073170732 0.2804878048780488 0.012195121951219513 
0.038461538461538464 0.24358974358974358 0.7051282051282052 0.01282051282051282 
0.25 0.25 0.25 0.25 
0.692652329749104 0.2948028673835125 0.011648745519713262 8.960573476702509E-4 
0.08355437665782493 0.616710875331565 0.2984084880636605 0.001326259946949602 
0.008379888268156424 0.09106145251396648 0.8988826815642458 0.0016759776536312849 
0.001256281407035176 0.011306532663316583 0.3957286432160804 0.5917085427135679 
</TABLE>
</DEFINITION>
<DEFINITION>
<FOR>X1365</FOR>
	<GIVEN>LABEL</GIVEN>
	<GIVEN>X1364</GIVEN>
<TABLE>
0.20833333333333334 0.5416666666666666 0.20833333333333334 0.041666666666666664 
0.005 0.135 0.855 0.005 
0.004807692307692308 0.004807692307692308 0.9855769230769231 0.004807692307692308 
0.25 0.25 0.25 0.25 
0.9096244131455399 0.07863849765258216 0.01056338028169014 0.0011737089201877935 
0.31573498964803315 0.5455486542443064 0.13561076604554864 0.003105590062111801 
0.05596669750231267 0.16234967622571692 0.7719703977798335 0.00971322849213691 
0.014705882352941176 0.0273109243697479 0.7247899159663865 0.23319327731092437 
</TABLE>
</DEFINITION>
<DEFINITION>
<FOR>X1460</FOR>
	<GIVEN>LABEL</GIVEN>
	<GIVEN>X744</GIVEN>
<TABLE>
1.0 
1.0 
1.0 
1.0 
1.0 
1.0 
1.0 
1.0 
</TABLE>
</DEFINITION>
<DEFINITION>
<FOR>X1461</FOR>
	<GIVEN>LABEL</GIVEN>
	<GIVEN>X1171</GIVEN>
<TABLE>
0.5625 0.4375 
0.11217948717948718 0.8878205128205128 
0.5 0.5 
0.6974337748344371 0.3025662251655629 
0.0593681917211329 0.940631808278867 
0.005154639175257732 0.9948453608247423 
</TABLE>
</DEFINITION>
<DEFINITION>
<FOR>X1506</FOR>
	<GIVEN>LABEL</GIVEN>
	<GIVEN>X1218</GIVEN>
<TABLE>
0.9969135802469136 0.0030864197530864196 
0.99 0.01 
0.5 0.5 
0.9952593418851088 0.004740658114891244 
0.9253246753246753 0.07467532467532467 
0.552536231884058 0.447463768115942 
</TABLE>
</DEFINITION>
<DEFINITION>
<FOR>X1507</FOR>
	<GIVEN>LABEL</GIVEN>
	<GIVEN>X1506</GIVEN>
<TABLE>
0.9976303317535545 0.002369668246445498 
0.5 0.5 
0.9906204906204906 0.00937950937950938 
0.17132867132867133 0.8286713286713286 
</TABLE>
</DEFINITION>
<DEFINITION>
<FOR>X1508</FOR>
	<GIVEN>LABEL</GIVEN>
	<GIVEN>X1507</GIVEN>
<TABLE>
0.9976303317535545 0.002369668246445498 
0.5 0.5 
0.9853646833013435 0.01463531669865643 
0.19927536231884058 0.8007246376811594 
</TABLE>
</DEFINITION>
<DEFINITION>
<FOR>X1561</FOR>
	<GIVEN>LABEL</GIVEN>
	<GIVEN>X1610</GIVEN>
<TABLE>
0.09090909090909091 0.8181818181818182 0.09090909090909091 
0.016286644951140065 0.9804560260586319 0.003257328990228013 
0.009009009009009009 0.9819819819819819 0.009009009009009009 
0.3333333333333333 0.3333333333333333 0.3333333333333333 
0.9233532934131736 0.07544910179640718 0.0011976047904191617 
0.02190362405416169 0.9769016328156113 0.0011947431302270011 
0.0038314176245210726 0.9310344827586207 0.06513409961685823 
0.001183431952662722 0.07928994082840236 0.919526627218935 
</TABLE>
</DEFINITION>
<DEFINITION>
<FOR>X1562</FOR>
	<GIVEN>LABEL</GIVEN>
	<GIVEN>X1561</GIVEN>
<TABLE>
0.42857142857142855 0.42857142857142855 0.14285714285714285 
0.06443914081145585 0.9331742243436754 0.002386634844868735 
0.3333333333333333 0.3333333333333333 0.3333333333333333 
0.9709794437726723 0.02781136638452237 0.0012091898428053204 
0.07893805309734513 0.9185840707964602 0.00247787610619469 
0.0012547051442910915 0.15181932245922208 0.8469259723964868 
</TABLE>
</DEFINITION>
<DEFINITION>
<FOR>X1610</FOR>
	<GIVEN>LABEL</GIVEN>
	<GIVEN>X792</GIVEN>
<TABLE>
0.1 0.7 0.1 0.1 
0.03 0.91 0.056666666666666664 0.0033333333333333335 
0.008620689655172414 0.21551724137931033 0.7672413793103449 0.008620689655172414 
0.1 0.3 0.5 0.1 
0.25 0.25 0.25 0.25 
0.822961373390558 0.17489270386266095 0.001072961373390558 0.001072961373390558 
0.02679307502061006 0.9295136026380874 0.036685902720527616 0.007007419620774938 
0.006493506493506494 0.2662337662337662 0.538961038961039 0.18831168831168832 
0.010869565217391304 0.09782608695652174 0.33695652173913043 0.5543478260869565 
0.0035046728971962616 0.052570093457943924 0.0689252336448598 0.875 
</TABLE>
</DEFINITION>
<DEFINITION>
<FOR>X1666</FOR>
	<GIVEN>LABEL</GIVEN>
	<GIVEN>X1713</GIVEN>
<TABLE>
0.5 0.5 
0.015789473684210527 0.9842105263157894 
0.004347826086956522 0.9956521739130435 
0.9526315789473684 0.04736842105263158 
0.017169179229480736 0.9828308207705193 
6.720430107526882E-4 0.9993279569892473 
</TABLE>
</DEFINITION>
<DEFINITION>
<FOR>X1667</FOR>
	<GIVEN>LABEL</GIVEN>
	<GIVEN>X1713</GIVEN>
<TABLE>
0.5 0.5 
0.03684210526315789 0.9631578947368421 
0.004347826086956522 0.9956521739130435 
0.7982456140350878 0.20175438596491227 
0.06407035175879397 0.9359296482412061 
6.720430107526882E-4 0.9993279569892473 
</TABLE>
</DEFINITION>
<DEFINITION>
<FOR>X1694</FOR>
	<GIVEN>LABEL</GIVEN>
	<GIVEN>X1762</GIVEN>
<TABLE>
0.47368421052631576 0.47368421052631576 0.05263157894736842 
0.012285012285012284 0.9459459459459459 0.04176904176904177 
0.3333333333333333 0.3333333333333333 0.3333333333333333 
0.6846254927726675 0.3061760840998686 0.009198423127463863 
0.04764621968616262 0.8407988587731812 0.1115549215406562 
0.00546448087431694 0.22404371584699453 0.7704918032786885 
</TABLE>
</DEFINITION>
<DEFINITION>
<FOR>X1695</FOR>
	<GIVEN>LABEL</GIVEN>
	<GIVEN>X1744</GIVEN>
<TABLE>
0.6428571428571429 0.35714285714285715 
0.0024390243902439024 0.9975609756097561 
0.870919881305638 0.129080118694362 
0.008222811671087533 0.9917771883289125 
</TABLE>
</DEFINITION>
<DEFINITION>
<FOR>X1713</FOR>
	<GIVEN>LABEL</GIVEN>
	<GIVEN>X2138</GIVEN>
<TABLE>
0.0847457627118644 0.8983050847457628 0.01694915254237288 
0.037037037037037035 0.7037037037037037 0.25925925925925924 
0.015873015873015872 0.49206349206349204 0.49206349206349204 
0.0037735849056603774 0.3132075471698113 0.6830188679245283 
0.047619047619047616 0.3333333333333333 0.6190476190476191 
0.8248847926267281 0.16129032258064516 0.013824884792626729 
0.2338884866039102 0.6944243301955105 0.07168718320057929 
0.030902348578491966 0.6266996291718171 0.34239802224969096 
0.03164091243561442 0.5158204562178073 0.45253863134657835 
0.0043541364296081275 0.274310595065312 0.7213352685050798 
</TABLE>
</DEFINITION>
<DEFINITION>
<FOR>X1714</FOR>
	<GIVEN>LABEL</GIVEN>
	<GIVEN>X1667</GIVEN>
<TABLE>
0.5 0.5 
0.007246376811594203 0.9927536231884058 
0.8700657894736842 0.1299342105263158 
0.0044316996871741395 0.9955683003128258 
</TABLE>
</DEFINITION>
<DEFINITION>
<FOR>X1715</FOR>
	<GIVEN>LABEL</GIVEN>
	<GIVEN>X1667</GIVEN>
<TABLE>
0.9 0.1 
0.021739130434782608 0.9782608695652174 
0.912828947368421 0.08717105263157894 
0.052398331595411886 0.9476016684045881 
</TABLE>
</DEFINITION>
<DEFINITION>
<FOR>X1742</FOR>
	<GIVEN>LABEL</GIVEN>
	<GIVEN>X1743</GIVEN>
<TABLE>
0.7 0.3 
0.012077294685990338 0.9879227053140096 
0.8672131147540983 0.13278688524590163 
0.033646322378716745 0.9663536776212832 
</TABLE>
</DEFINITION>
<DEFINITION>
<FOR>X1743</FOR>
	<GIVEN>LABEL</GIVEN>
	<GIVEN>X1694</GIVEN>
<TABLE>
0.6428571428571429 0.35714285714285715 
0.0025380710659898475 0.9974619289340102 
0.05555555555555555 0.9444444444444444 
0.8677325581395349 0.13226744186046513 
0.004037267080745342 0.9959627329192546 
0.0018587360594795538 0.9981412639405205 
</TABLE>
</DEFINITION>
<DEFINITION>
<FOR>X1744</FOR>
	<GIVEN>LABEL</GIVEN>
	<GIVEN>X1694</GIVEN>
<TABLE>
0.7857142857142857 0.21428571428571427 
0.007614213197969543 0.9923857868020305 
0.05555555555555555 0.9444444444444444 
0.8386627906976745 0.1613372093023256 
0.03012422360248447 0.9698757763975155 
0.0018587360594795538 0.9981412639405205 
</TABLE>
</DEFINITION>
<DEFINITION>
<FOR>X1760</FOR>
	<GIVEN>LABEL</GIVEN>
	<GIVEN>X1713</GIVEN>
<TABLE>
0.125 0.625 0.125 0.125 
0.005208333333333333 0.953125 0.036458333333333336 0.005208333333333333 
0.004310344827586207 0.11637931034482758 0.6767241379310345 0.2025862068965517 
0.5297202797202797 0.46678321678321677 0.0017482517482517483 0.0017482517482517483 
0.0029288702928870294 0.9878661087866109 0.008786610878661089 4.1841004184100416E-4 
6.711409395973154E-4 0.24899328859060402 0.3711409395973154 0.37919463087248323 
</TABLE>
</DEFINITION>
<DEFINITION>
<FOR>X1761</FOR>
	<GIVEN>LABEL</GIVEN>
	<GIVEN>X1714</GIVEN>
<TABLE>
0.375 0.625 
0.007211538461538462 0.9927884615384616 
0.8003663003663004 0.19963369963369965 
0.0017957927142124167 0.9982042072857876 
</TABLE>
</DEFINITION>
<DEFINITION>
<FOR>X1762</FOR>
	<GIVEN>LABEL</GIVEN>
	<GIVEN>X1715</GIVEN>
<TABLE>
0.8947368421052632 0.05263157894736842 0.05263157894736842 
0.002457002457002457 0.995085995085995 0.002457002457002457 
0.9445178335535006 0.05416116248348745 0.001321003963011889 
0.012198427758200054 0.9387367850365953 0.049064787205204664 
</TABLE>
</DEFINITION>
<DEFINITION>
<FOR>X2095</FOR>
	<GIVEN>LABEL</GIVEN>
	<GIVEN>X2140</GIVEN>
<TABLE>
0.5 0.5 
0.859375 0.140625 
0.41304347826086957 0.5869565217391305 
0.06506849315068493 0.934931506849315 
0.038461538461538464 0.9615384615384616 
0.9758064516129032 0.024193548387096774 
0.9689265536723164 0.031073446327683617 
0.805327868852459 0.19467213114754098 
0.1534090909090909 0.8465909090909091 
0.008741258741258742 0.9912587412587412 
</TABLE>
</DEFINITION>
<DEFINITION>
<FOR>X2096</FOR>
	<GIVEN>LABEL</GIVEN>
	<GIVEN>X2095</GIVEN>
<TABLE>
0.967391304347826 0.03260869565217391 
0.20180722891566266 0.7981927710843374 
0.9922760041194645 0.007723995880535531 
0.32174260591526777 0.6782573940847322 
</TABLE>
</DEFINITION>
<DEFINITION>
<FOR>X2138</FOR>
	<GIVEN>LABEL</GIVEN>
	<GIVEN>X1315</GIVEN>
<TABLE>
0.18681318681318682 0.07692307692307693 0.20146520146520147 0.5164835164835165 0.018315018315018316 
0.08433734939759036 0.060240963855421686 0.08433734939759036 0.7590361445783133 0.012048192771084338 
0.012658227848101266 0.012658227848101266 0.012658227848101266 0.7721518987341772 0.189873417721519 
0.2 0.2 0.2 0.2 0.2 
0.1656222023276634 0.6239928379588182 0.11727842435094002 0.08504923903312445 0.008057296329453895 
0.030463576158940398 0.42251655629139073 0.24503311258278146 0.24503311258278146 0.05695364238410596 
0.003908431044109436 0.16917922948073702 0.24288107202680068 0.457286432160804 0.12674483528754885 
0.0037641154328732747 0.07904642409033877 0.0740276035131744 0.32747804265997493 0.5156838143036386 
</TABLE>
</DEFINITION>
<DEFINITION>
<FOR>X2139</FOR>
	<GIVEN>LABEL</GIVEN>
	<GIVEN>X2138</GIVEN>
<TABLE>
0.11475409836065574 0.7704918032786885 0.04918032786885246 0.04918032786885246 0.01639344262295082 
0.034482758620689655 0.1724137931034483 0.7241379310344828 0.034482758620689655 0.034482758620689655 
0.015384615384615385 0.015384615384615385 0.6923076923076923 0.26153846153846155 0.015384615384615385 
0.003745318352059925 0.003745318352059925 0.026217228464419477 0.9026217228464419 0.06367041198501873 
0.043478260869565216 0.043478260869565216 0.043478260869565216 0.6521739130434783 0.21739130434782608 
0.634703196347032 0.1963470319634703 0.1598173515981735 0.0045662100456621 0.0045662100456621 
0.0036153289949385392 0.046999276934201015 0.9334779464931309 0.015184381778741865 7.230657989877079E-4 
0.0012330456226880395 0.0012330456226880395 0.6769420468557337 0.31689272503082616 0.0036991368680641184 
7.347538574577516E-4 7.347538574577516E-4 0.07567964731814843 0.8486407053637032 0.07421013960323292 
0.001447178002894356 0.001447178002894356 0.024602026049204053 0.1808972503617945 0.7916063675832128 
</TABLE>
</DEFINITION>
<DEFINITION>
<FOR>X2140</FOR>
	<GIVEN>LABEL</GIVEN>
	<GIVEN>X2139</GIVEN>
<TABLE>
0.09090909090909091 0.6363636363636364 0.09090909090909091 0.09090909090909091 0.09090909090909091 
0.01818181818181818 0.9272727272727272 0.01818181818181818 0.01818181818181818 0.01818181818181818 
0.012987012987012988 0.09090909090909091 0.5844155844155844 0.2987012987012987 0.012987012987012988 
0.0036101083032490976 0.0036101083032490976 0.0036101083032490976 0.9566787003610109 0.032490974729241874 
0.04 0.04 0.04 0.2 0.68 
0.782312925170068 0.1836734693877551 0.02040816326530612 0.006802721088435374 0.006802721088435374 
0.06306306306306306 0.8378378378378378 0.08108108108108109 0.009009009009009009 0.009009009009009009 
0.0015037593984962407 0.11478696741854637 0.6862155388471178 0.19598997493734335 0.0015037593984962407 
6.414368184733803E-4 0.004490057729313663 0.05195638229634381 0.8948043617703656 0.04810776138550353 
0.0015313935681470138 0.0015313935681470138 0.007656967840735069 0.23124042879019907 0.7580398162327718 
</TABLE>
</DEFINITION>
<DEFINITION>
<FOR>X2165</FOR>
	<GIVEN>LABEL</GIVEN>
	<GIVEN>X2213</GIVEN>
<TABLE>
0.7857142857142857 0.07142857142857142 0.07142857142857142 0.07142857142857142 
0.4342105263157895 0.5394736842105263 0.013157894736842105 0.013157894736842105 
0.033783783783783786 0.8175675675675675 0.14189189189189189 0.006756756756756757 
0.005208333333333333 0.09895833333333333 0.890625 0.005208333333333333 
0.1 0.1 0.3 0.5 
0.9912280701754386 0.007177033492822967 7.974481658692185E-4 7.974481658692185E-4 
0.7055335968379447 0.29183135704874835 0.001976284584980237 6.587615283267457E-4 
0.018599562363238512 0.8982494529540481 0.08205689277899343 0.0010940919037199124 
0.0019305019305019305 0.025096525096525095 0.9478764478764479 0.025096525096525095 
0.00390625 0.00390625 0.06640625 0.92578125 
</TABLE>
</DEFINITION>
<DEFINITION>
<FOR>X2213</FOR>
	<GIVEN>LABEL</GIVEN>
	<GIVEN>X2264</GIVEN>
<TABLE>
0.3103448275862069 0.5172413793103449 0.10344827586206896 0.034482758620689655 0.034482758620689655 
0.0410958904109589 0.6164383561643836 0.3150684931506849 0.0136986301369863 0.0136986301369863 
0.007633587786259542 0.09923664122137404 0.7251908396946565 0.16030534351145037 0.007633587786259542 
0.004975124378109453 0.014925373134328358 0.13432835820895522 0.8208955223880597 0.024875621890547265 
0.09090909090909091 0.09090909090909091 0.09090909090909091 0.45454545454545453 0.2727272727272727 
0.7003134796238244 0.2664576802507837 0.02445141065830721 0.008150470219435737 6.269592476489029E-4 
0.0781099324975892 0.772420443587271 0.13211186113789777 0.01446480231436837 0.0028929604628736743 
0.045853658536585365 0.24682926829268292 0.5902439024390244 0.11219512195121951 0.004878048780487805 
0.016042780748663103 0.06951871657754011 0.22281639928698752 0.6292335115864528 0.062388591800356503 
0.004048582995951417 0.004048582995951417 0.03643724696356275 0.0931174089068826 0.8623481781376519 
</TABLE>
</DEFINITION>
<DEFINITION>
<FOR>X2214</FOR>
	<GIVEN>LABEL</GIVEN>
	<GIVEN>X2213</GIVEN>
<TABLE>
0.7857142857142857 0.07142857142857142 0.07142857142857142 0.07142857142857142 
0.6710526315789473 0.27631578947368424 0.039473684210526314 0.013157894736842105 
0.033783783783783786 0.8040540540540541 0.1554054054054054 0.006756756756756757 
0.005208333333333333 0.078125 0.9010416666666666 0.015625 
0.1 0.1 0.3 0.5 
0.9912280701754386 0.007177033492822967 7.974481658692185E-4 7.974481658692185E-4 
0.7542819499341239 0.24440052700922266 6.587615283267457E-4 6.587615283267457E-4 
0.04923413566739606 0.8785557986870897 0.0711159737417943 0.0010940919037199124 
0.005791505791505791 0.09073359073359073 0.8861003861003861 0.017374517374517374 
0.00390625 0.00390625 0.08203125 0.91015625 
</TABLE>
</DEFINITION>
<DEFINITION>
<FOR>X2215</FOR>
	<GIVEN>LABEL</GIVEN>
	<GIVEN>X2263</GIVEN>
<TABLE>
0.9615384615384616 0.038461538461538464 
0.796875 0.203125 
0.03273809523809524 0.9672619047619048 
0.9958382877526754 0.004161712247324614 
0.9055666003976143 0.09443339960238568 
0.042662116040955635 0.9573378839590444 
</TABLE>
</DEFINITION>
<DEFINITION>
<FOR>X2260</FOR>
	<GIVEN>LABEL</GIVEN>
	<GIVEN>X2213</GIVEN>
<TABLE>
0.9166666666666666 0.08333333333333333 
0.6621621621621622 0.33783783783783783 
0.00684931506849315 0.9931506849315068 
0.005263157894736842 0.9947368421052631 
0.125 0.875 
0.9912140575079872 0.00878594249201278 
0.8489445910290238 0.15105540897097625 
0.10197368421052631 0.8980263157894737 
0.001937984496124031 0.998062015503876 
0.003937007874015748 0.9960629921259843 
</TABLE>
</DEFINITION>
<DEFINITION>
<FOR>X2261</FOR>
	<GIVEN>LABEL</GIVEN>
	<GIVEN>X2262</GIVEN>
<TABLE>
0.7205882352941176 0.25 0.014705882352941176 0.014705882352941176 
0.006944444444444444 0.9791666666666666 0.006944444444444444 0.006944444444444444 
0.004761904761904762 0.6428571428571429 0.32857142857142857 0.023809523809523808 
0.07142857142857142 0.07142857142857142 0.35714285714285715 0.5 
0.9276 0.0716 4.0E-4 4.0E-4 
0.07142857142857142 0.9251290877796902 0.0025817555938037868 8.605851979345956E-4 
0.0018450184501845018 0.8099630996309963 0.15682656826568267 0.03136531365313653 
0.003968253968253968 0.011904761904761904 0.03571428571428571 0.9484126984126984 
</TABLE>
</DEFINITION>
<DEFINITION>
<FOR>X2262</FOR>
	<GIVEN>LABEL</GIVEN>
	<GIVEN>X2214</GIVEN>
<TABLE>
0.8382352941176471 0.1323529411764706 0.014705882352941176 0.014705882352941176 
0.057692307692307696 0.8269230769230769 0.10897435897435898 0.00641025641025641 
0.0049504950495049506 0.024752475247524754 0.9257425742574258 0.04455445544554455 
0.1 0.1 0.5 0.3 
0.9815270935960592 0.017651888341543513 4.1050903119868636E-4 4.1050903119868636E-4 
0.08699186991869919 0.8674796747967479 0.043089430894308944 0.0024390243902439024 
0.0018315018315018315 0.09340659340659341 0.8736263736263736 0.031135531135531136 
0.004098360655737705 0.004098360655737705 0.045081967213114756 0.9467213114754098 
</TABLE>
</DEFINITION>
<DEFINITION>
<FOR>X2263</FOR>
	<GIVEN>LABEL</GIVEN>
	<GIVEN>X2264</GIVEN>
<TABLE>
0.9259259259259259 0.037037037037037035 0.037037037037037035 
0.014084507042253521 0.8591549295774648 0.1267605633802817 
0.007751937984496124 0.023255813953488372 0.9689922480620154 
0.005025125628140704 0.005025125628140704 0.9899497487437185 
0.1111111111111111 0.1111111111111111 0.7777777777777778 
0.9560577526679221 0.04080351537978657 0.003138731952291274 
0.14009661835748793 0.7739130434782608 0.08599033816425121 
0.01466275659824047 0.13391984359726294 0.8514173998044966 
0.0017889087656529517 0.008944543828264758 0.9892665474060823 
0.004081632653061225 0.004081632653061225 0.9918367346938776 
</TABLE>
</DEFINITION>
<DEFINITION>
<FOR>X2264</FOR>
	<GIVEN>LABEL</GIVEN>
	<GIVEN>X2140</GIVEN>
<TABLE>
0.2 0.2 0.2 0.2 0.2 
0.04477611940298507 0.31343283582089554 0.19402985074626866 0.40298507462686567 0.04477611940298507 
0.2653061224489796 0.22448979591836735 0.10204081632653061 0.3877551020408163 0.02040816326530612 
0.030508474576271188 0.12542372881355932 0.36271186440677966 0.4711864406779661 0.010169491525423728 
0.10344827586206896 0.10344827586206896 0.1724137931034483 0.5172413793103449 0.10344827586206896 
0.952755905511811 0.023622047244094488 0.007874015748031496 0.007874015748031496 0.007874015748031496 
0.8151260504201681 0.08683473389355742 0.0700280112044818 0.008403361344537815 0.0196078431372549 
0.5255623721881391 0.2951601908657123 0.10974778459441036 0.02794819359236537 0.04158145875937287 
0.18927282104177412 0.2408457968024755 0.3512119649303765 0.1707065497679216 0.0479628674574523 
0.0782608695652174 0.1791304347826087 0.27304347826086955 0.3217391304347826 0.14782608695652175 
</TABLE>
</DEFINITION>
<DEFINITION>
<FOR>LABEL</FOR>
<TABLE>
0.08658988070752777 0.9134101192924723 
</TABLE>
</DEFINITION>
</NETWORK>
</BIF>
